digraph Tree {
node [shape=box] ;
0 [label="X[8] <= 1.5\ngini = 0.767\nsamples = 11104612\nvalue = [3318544, 5199882, 1983, 5144107, 28434, 1814150, 2062049]"] ;
1 [label="gini = 0.0\nsamples = 1189190\nvalue = [1882346, 0, 0, 0, 0, 0, 0]"] ;
0 -> 1 [labeldistance=2.5, labelangle=45, headlabel="True"] ;
2 [label="X[1] <= 0.5\ngini = 0.744\nsamples = 9915422\nvalue = [1436198, 5199882, 1983, 5144107, 28434, 1814150, 2062049]"] ;
0 -> 2 [labeldistance=2.5, labelangle=-45, headlabel="False"] ;
3 [label="X[10] <= 231.5\ngini = 0.742\nsamples = 9869236\nvalue = [1365567, 5199882, 1961, 5143995, 27638, 1812680, 2062025]"] ;
2 -> 3 ;
4 [label="X[5] <= 0.5\ngini = 0.744\nsamples = 8141032\nvalue = [1007857, 4089335, 1664, 4347482, 22359, 1606894, 1803329]"] ;
3 -> 4 ;
5 [label="X[8] <= 2.5\ngini = 0.747\nsamples = 1146699\nvalue = [117638, 343675, 742, 692788, 3579, 279850, 373791]"] ;
4 -> 5 ;
6 [label="X[9] <= 2.5\ngini = 0.714\nsamples = 1066581\nvalue = [0, 343675, 0, 692788, 0, 275286, 373791]"] ;
5 -> 6 ;
7 [label="X[9] <= 0.5\ngini = 0.704\nsamples = 598718\nvalue = [0, 186870, 0, 398764, 0, 233622, 126841]"] ;
6 -> 7 ;
8 [label="X[6] <= 13.5\ngini = 0.603\nsamples = 62902\nvalue = [0, 13006, 0, 39813, 0, 0, 46555]"] ;
7 -> 8 ;
9 [label="gini = 0.546\nsamples = 38671\nvalue = [0, 4666, 0, 21855, 0, 0, 34678]"] ;
8 -> 9 ;
10 [label="gini = 0.634\nsamples = 24231\nvalue = [0, 8340, 0, 17958, 0, 0, 11877]"] ;
8 -> 10 ;
11 [label="X[0] <= 1.5\ngini = 0.693\nsamples = 535816\nvalue = [0, 173864, 0, 358951, 0, 233622, 80286]"] ;
7 -> 11 ;
12 [label="gini = 0.688\nsamples = 514879\nvalue = [0, 149724, 0, 351506, 0, 232639, 79807]"] ;
11 -> 12 ;
13 [label="gini = 0.415\nsamples = 20937\nvalue = [0, 24140, 0, 7445, 0, 983, 479]"] ;
11 -> 13 ;
14 [label="X[4] <= 6.5\ngini = 0.682\nsamples = 467863\nvalue = [0, 156805, 0, 294024, 0, 41664, 246950]"] ;
6 -> 14 ;
15 [label="X[6] <= 33.5\ngini = 0.704\nsamples = 263252\nvalue = [0, 92112, 0, 165251, 0, 41635, 117055]"] ;
14 -> 15 ;
16 [label="gini = 0.702\nsamples = 176881\nvalue = [0, 50716, 0, 110821, 0, 32066, 85853]"] ;
15 -> 16 ;
17 [label="gini = 0.692\nsamples = 86371\nvalue = [0, 41396, 0, 54430, 0, 9569, 31202]"] ;
15 -> 17 ;
18 [label="X[2] <= 130.5\ngini = 0.64\nsamples = 204611\nvalue = [0, 64693, 0, 128773, 0, 29, 129895]"] ;
14 -> 18 ;
19 [label="gini = 0.643\nsamples = 132587\nvalue = [0, 44449, 0, 88347, 0, 16, 76773]"] ;
18 -> 19 ;
20 [label="gini = 0.624\nsamples = 72024\nvalue = [0, 20244, 0, 40426, 0, 13, 53122]"] ;
18 -> 20 ;
21 [label="X[7] <= 85.5\ngini = 0.133\nsamples = 80118\nvalue = [117638, 0, 742, 0, 3579, 4564, 0]"] ;
5 -> 21 ;
22 [label="X[7] <= 41.5\ngini = 0.33\nsamples = 9445\nvalue = [12165, 0, 612, 0, 647, 1611, 0]"] ;
21 -> 22 ;
23 [label="X[7] <= 0.5\ngini = 0.104\nsamples = 6173\nvalue = [9288, 0, 10, 0, 220, 302, 0]"] ;
22 -> 23 ;
24 [label="gini = 0.369\nsamples = 562\nvalue = [710, 0, 5, 0, 132, 66, 0]"] ;
23 -> 24 ;
25 [label="gini = 0.072\nsamples = 5611\nvalue = [8578, 0, 5, 0, 88, 236, 0]"] ;
23 -> 25 ;
26 [label="X[0] <= 0.5\ngini = 0.613\nsamples = 3272\nvalue = [2877, 0, 602, 0, 427, 1309, 0]"] ;
22 -> 26 ;
27 [label="gini = 0.641\nsamples = 2960\nvalue = [2400, 0, 602, 0, 418, 1293, 0]"] ;
26 -> 27 ;
28 [label="gini = 0.096\nsamples = 312\nvalue = [477, 0, 0, 0, 9, 16, 0]"] ;
26 -> 28 ;
29 [label="X[2] <= 131.5\ngini = 0.104\nsamples = 70673\nvalue = [105473, 0, 130, 0, 2932, 2953, 0]"] ;
21 -> 29 ;
30 [label="X[0] <= 0.5\ngini = 0.096\nsamples = 58191\nvalue = [87353, 0, 81, 0, 2200, 2317, 0]"] ;
29 -> 30 ;
31 [label="gini = 0.113\nsamples = 46618\nvalue = [69285, 0, 79, 0, 2115, 2168, 0]"] ;
30 -> 31 ;
32 [label="gini = 0.026\nsamples = 11573\nvalue = [18068, 0, 2, 0, 85, 149, 0]"] ;
30 -> 32 ;
33 [label="X[8] <= 4.5\ngini = 0.137\nsamples = 12482\nvalue = [18120, 0, 49, 0, 732, 636, 0]"] ;
29 -> 33 ;
34 [label="gini = 0.399\nsamples = 3772\nvalue = [4419, 0, 49, 0, 732, 636, 0]"] ;
33 -> 34 ;
35 [label="gini = 0.0\nsamples = 8710\nvalue = [13701, 0, 0, 0, 0, 0, 0]"] ;
33 -> 35 ;
36 [label="X[7] <= 172.5\ngini = 0.739\nsamples = 6994333\nvalue = [890219, 3745660, 922, 3654694, 18780, 1327044, 1429538]"] ;
4 -> 36 ;
37 [label="X[4] <= 2.5\ngini = 0.745\nsamples = 3129169\nvalue = [484452, 1772691, 841, 1452704, 9262, 585990, 643959]"] ;
36 -> 37 ;
38 [label="X[8] <= 2.5\ngini = 0.671\nsamples = 546106\nvalue = [55014, 424586, 107, 221143, 977, 72067, 89465]"] ;
37 -> 38 ;
39 [label="X[0] <= 0.5\ngini = 0.627\nsamples = 509545\nvalue = [0, 424586, 0, 221143, 0, 70338, 89465]"] ;
38 -> 39 ;
40 [label="gini = 0.739\nsamples = 194568\nvalue = [0, 74172, 0, 102065, 0, 58263, 73054]"] ;
39 -> 40 ;
41 [label="gini = 0.446\nsamples = 314977\nvalue = [0, 350414, 0, 119078, 0, 12075, 16411]"] ;
39 -> 41 ;
42 [label="X[9] <= 2.5\ngini = 0.094\nsamples = 36561\nvalue = [55014, 0, 107, 0, 977, 1729, 0]"] ;
38 -> 42 ;
43 [label="gini = 0.093\nsamples = 22717\nvalue = [34186, 0, 8, 0, 977, 741, 0]"] ;
42 -> 43 ;
44 [label="gini = 0.095\nsamples = 13844\nvalue = [20828, 0, 99, 0, 0, 988, 0]"] ;
42 -> 44 ;
45 [label="X[8] <= 2.5\ngini = 0.755\nsamples = 2583063\nvalue = [429438, 1348105, 734, 1231561, 8285, 513923, 554494]"] ;
37 -> 45 ;
46 [label="X[0] <= 0.5\ngini = 0.706\nsamples = 2299398\nvalue = [0, 1348105, 0, 1231561, 0, 503161, 554494]"] ;
45 -> 46 ;
47 [label="gini = 0.74\nsamples = 1148004\nvalue = [0, 361479, 0, 604013, 0, 397577, 452334]"] ;
46 -> 47 ;
48 [label="gini = 0.582\nsamples = 1151394\nvalue = [0, 986626, 0, 627548, 0, 105584, 102160]"] ;
46 -> 48 ;
49 [label="X[8] <= 4.5\ngini = 0.085\nsamples = 283665\nvalue = [429438, 0, 734, 0, 8285, 10762, 0]"] ;
45 -> 49 ;
50 [label="gini = 0.222\nsamples = 102480\nvalue = [142827, 0, 734, 0, 8285, 10762, 0]"] ;
49 -> 50 ;
51 [label="gini = 0.0\nsamples = 181185\nvalue = [286611, 0, 0, 0, 0, 0, 0]"] ;
49 -> 51 ;
52 [label="X[3] <= 63.5\ngini = 0.731\nsamples = 3865164\nvalue = [405767, 1972969, 81, 2201990, 9518, 741054, 785579]"] ;
36 -> 52 ;
53 [label="X[5] <= 1.5\ngini = 0.723\nsamples = 1110383\nvalue = [119504, 643193, 2, 585533, 2146, 186704, 219413]"] ;
52 -> 53 ;
54 [label="X[2] <= 124.5\ngini = 0.724\nsamples = 482433\nvalue = [45670, 270968, 1, 251830, 1098, 56398, 137669]"] ;
53 -> 54 ;
55 [label="gini = 0.729\nsamples = 314985\nvalue = [31907, 157107, 1, 178289, 464, 38830, 91871]"] ;
54 -> 55 ;
56 [label="gini = 0.702\nsamples = 167448\nvalue = [13763, 113861, 0, 73541, 634, 17568, 45798]"] ;
54 -> 56 ;
57 [label="X[0] <= 0.5\ngini = 0.717\nsamples = 627950\nvalue = [73834, 372225, 1, 333703, 1048, 130306, 81744]"] ;
53 -> 57 ;
58 [label="gini = 0.77\nsamples = 272319\nvalue = [37331, 94134, 1, 137939, 1020, 96519, 63759]"] ;
57 -> 58 ;
59 [label="gini = 0.625\nsamples = 355631\nvalue = [36503, 278091, 0, 195764, 28, 33787, 17985]"] ;
57 -> 59 ;
60 [label="X[5] <= 1.5\ngini = 0.732\nsamples = 2754781\nvalue = [286263, 1329776, 79, 1616457, 7372, 554350, 566166]"] ;
52 -> 60 ;
61 [label="X[8] <= 2.5\ngini = 0.732\nsamples = 1215719\nvalue = [115283, 560696, 37, 717312, 3396, 185122, 342479]"] ;
60 -> 61 ;
62 [label="gini = 0.698\nsamples = 1138348\nvalue = [0, 560696, 0, 717312, 0, 181588, 342479]"] ;
61 -> 62 ;
63 [label="gini = 0.109\nsamples = 77371\nvalue = [115283, 0, 37, 0, 3396, 3534, 0]"] ;
61 -> 63 ;
64 [label="X[8] <= 2.5\ngini = 0.728\nsamples = 1539062\nvalue = [170980, 769080, 42, 899145, 3976, 369228, 223687]"] ;
60 -> 64 ;
65 [label="gini = 0.689\nsamples = 1427136\nvalue = [0, 769080, 0, 899145, 0, 367096, 223687]"] ;
64 -> 65 ;
66 [label="gini = 0.068\nsamples = 111926\nvalue = [170980, 0, 42, 0, 3976, 2132, 0]"] ;
64 -> 66 ;
67 [label="X[5] <= 0.5\ngini = 0.719\nsamples = 1728204\nvalue = [357710, 1110547, 297, 796513, 5279, 205786, 258696]"] ;
3 -> 67 ;
68 [label="X[7] <= 182.5\ngini = 0.757\nsamples = 145537\nvalue = [20898, 48847, 58, 84652, 633, 31794, 43455]"] ;
67 -> 68 ;
69 [label="X[0] <= 0.5\ngini = 0.765\nsamples = 83635\nvalue = [14963, 25922, 55, 47661, 386, 19037, 24382]"] ;
68 -> 69 ;
70 [label="X[4] <= 8.5\ngini = 0.778\nsamples = 54119\nvalue = [11987, 11036, 55, 27551, 363, 15731, 19025]"] ;
69 -> 70 ;
71 [label="X[7] <= 26.5\ngini = 0.774\nsamples = 27343\nvalue = [6931, 5780, 29, 13039, 110, 5468, 12078]"] ;
70 -> 71 ;
72 [label="gini = 0.739\nsamples = 10587\nvalue = [1146, 2587, 0, 6307, 49, 2043, 4684]"] ;
71 -> 72 ;
73 [label="gini = 0.781\nsamples = 16756\nvalue = [5785, 3193, 29, 6732, 61, 3425, 7394]"] ;
71 -> 73 ;
74 [label="X[6] <= 3.5\ngini = 0.767\nsamples = 26776\nvalue = [5056, 5256, 26, 14512, 253, 10263, 6947]"] ;
70 -> 74 ;
75 [label="gini = 0.769\nsamples = 15589\nvalue = [2936, 3094, 4, 8403, 91, 5293, 4820]"] ;
74 -> 75 ;
76 [label="gini = 0.757\nsamples = 11187\nvalue = [2120, 2162, 22, 6109, 162, 4970, 2127]"] ;
74 -> 76 ;
77 [label="X[2] <= 124.5\ngini = 0.69\nsamples = 29516\nvalue = [2976, 14886, 0, 20110, 23, 3306, 5357]"] ;
69 -> 77 ;
78 [label="X[4] <= 8.5\ngini = 0.674\nsamples = 7569\nvalue = [544, 2674, 0, 5871, 2, 1082, 1717]"] ;
77 -> 78 ;
79 [label="gini = 0.674\nsamples = 3901\nvalue = [311, 1460, 0, 2968, 2, 313, 1091]"] ;
78 -> 79 ;
80 [label="gini = 0.669\nsamples = 3668\nvalue = [233, 1214, 0, 2903, 0, 769, 626]"] ;
78 -> 80 ;
81 [label="X[0] <= 1.5\ngini = 0.689\nsamples = 21947\nvalue = [2432, 12212, 0, 14239, 21, 2224, 3640]"] ;
77 -> 81 ;
82 [label="gini = 0.686\nsamples = 19038\nvalue = [1673, 9663, 0, 13148, 15, 2151, 3511]"] ;
81 -> 82 ;
83 [label="gini = 0.61\nsamples = 2909\nvalue = [759, 2549, 0, 1091, 6, 73, 129]"] ;
81 -> 83 ;
84 [label="X[9] <= 2.5\ngini = 0.744\nsamples = 61902\nvalue = [5935, 22925, 3, 36991, 247, 12757, 19073]"] ;
68 -> 84 ;
85 [label="X[7] <= 238.5\ngini = 0.728\nsamples = 25335\nvalue = [1692, 9697, 1, 15271, 246, 9838, 3398]"] ;
84 -> 85 ;
86 [label="X[9] <= 1.5\ngini = 0.745\nsamples = 13742\nvalue = [1162, 5728, 1, 7157, 206, 5571, 1887]"] ;
85 -> 86 ;
87 [label="gini = 0.717\nsamples = 4707\nvalue = [478, 1876, 1, 2280, 145, 2553, 63]"] ;
86 -> 87 ;
88 [label="gini = 0.749\nsamples = 9035\nvalue = [684, 3852, 0, 4877, 61, 3018, 1824]"] ;
86 -> 88 ;
89 [label="X[4] <= 7.5\ngini = 0.699\nsamples = 11593\nvalue = [530, 3969, 0, 8114, 40, 4267, 1511]"] ;
85 -> 89 ;
90 [label="gini = 0.711\nsamples = 3493\nvalue = [162, 1249, 0, 2371, 7, 619, 1133]"] ;
89 -> 90 ;
91 [label="gini = 0.675\nsamples = 8100\nvalue = [368, 2720, 0, 5743, 33, 3648, 378]"] ;
89 -> 91 ;
92 [label="X[10] <= 235.5\ngini = 0.725\nsamples = 36567\nvalue = [4243, 13228, 2, 21720, 1, 2919, 15675]"] ;
84 -> 92 ;
93 [label="X[7] <= 225.5\ngini = 0.638\nsamples = 3944\nvalue = [372, 380, 0, 3036, 0, 334, 2138]"] ;
92 -> 93 ;
94 [label="gini = 0.685\nsamples = 1277\nvalue = [139, 133, 0, 847, 0, 199, 704]"] ;
93 -> 94 ;
95 [label="gini = 0.611\nsamples = 2667\nvalue = [233, 247, 0, 2189, 0, 135, 1434]"] ;
93 -> 95 ;
96 [label="X[8] <= 2.5\ngini = 0.729\nsamples = 32623\nvalue = [3871, 12848, 2, 18684, 1, 2585, 13537]"] ;
92 -> 96 ;
97 [label="gini = 0.69\nsamples = 30172\nvalue = [0, 12848, 0, 18684, 0, 2577, 13537]"] ;
96 -> 97 ;
98 [label="gini = 0.006\nsamples = 2451\nvalue = [3871, 0, 2, 0, 1, 8, 0]"] ;
96 -> 98 ;
99 [label="X[0] <= 0.5\ngini = 0.709\nsamples = 1582667\nvalue = [336812, 1061700, 239, 711861, 4646, 173992, 215241]"] ;
67 -> 99 ;
100 [label="X[8] <= 2.5\ngini = 0.787\nsamples = 682708\nvalue = [218602, 242316, 238, 304551, 3736, 134153, 176687]"] ;
99 -> 100 ;
101 [label="X[9] <= 2.5\ngini = 0.726\nsamples = 540616\nvalue = [0, 242316, 0, 304551, 0, 131309, 176687]"] ;
100 -> 101 ;
102 [label="X[2] <= 138.5\ngini = 0.721\nsamples = 389515\nvalue = [0, 184397, 0, 222104, 0, 119646, 89614]"] ;
101 -> 102 ;
103 [label="gini = 0.72\nsamples = 386209\nvalue = [0, 183844, 0, 221752, 0, 116398, 88423]"] ;
102 -> 103 ;
104 [label="gini = 0.566\nsamples = 3306\nvalue = [0, 553, 0, 352, 0, 3248, 1191]"] ;
102 -> 104 ;
105 [label="X[4] <= 6.5\ngini = 0.687\nsamples = 151101\nvalue = [0, 57919, 0, 82447, 0, 11663, 87073]"] ;
101 -> 105 ;
106 [label="gini = 0.711\nsamples = 88719\nvalue = [0, 38950, 0, 44794, 0, 11636, 45347]"] ;
105 -> 106 ;
107 [label="gini = 0.636\nsamples = 62382\nvalue = [0, 18969, 0, 37653, 0, 27, 41726]"] ;
105 -> 107 ;
108 [label="X[3] <= 41.5\ngini = 0.059\nsamples = 142092\nvalue = [218602, 0, 238, 0, 3736, 2844, 0]"] ;
100 -> 108 ;
109 [label="X[2] <= 137.5\ngini = 0.09\nsamples = 64785\nvalue = [97997, 0, 207, 0, 2817, 1776, 0]"] ;
108 -> 109 ;
110 [label="gini = 0.05\nsamples = 53110\nvalue = [82089, 0, 207, 0, 940, 983, 0]"] ;
109 -> 110 ;
111 [label="gini = 0.255\nsamples = 11675\nvalue = [15908, 0, 0, 0, 1877, 793, 0]"] ;
109 -> 111 ;
112 [label="X[7] <= 1.5\ngini = 0.033\nsamples = 77307\nvalue = [120605, 0, 31, 0, 919, 1068, 0]"] ;
108 -> 112 ;
113 [label="gini = 0.472\nsamples = 745\nvalue = [804, 0, 0, 0, 258, 110, 0]"] ;
112 -> 113 ;
114 [label="gini = 0.027\nsamples = 76562\nvalue = [119801, 0, 31, 0, 661, 958, 0]"] ;
112 -> 114 ;
115 [label="X[3] <= 41.5\ngini = 0.579\nsamples = 899959\nvalue = [118210, 819384, 1, 407310, 910, 39839, 38554]"] ;
99 -> 115 ;
116 [label="X[6] <= 24.0\ngini = 0.611\nsamples = 406796\nvalue = [51863, 341000, 1, 202764, 885, 24335, 23032]"] ;
115 -> 116 ;
117 [label="X[2] <= 128.5\ngini = 0.592\nsamples = 235063\nvalue = [28454, 208237, 1, 109970, 36, 13076, 12522]"] ;
116 -> 117 ;
118 [label="gini = 0.588\nsamples = 204587\nvalue = [24401, 183355, 1, 93280, 36, 11697, 11058]"] ;
117 -> 118 ;
119 [label="gini = 0.609\nsamples = 30476\nvalue = [4053, 24882, 0, 16690, 0, 1379, 1464]"] ;
117 -> 119 ;
120 [label="X[0] <= 2.5\ngini = 0.634\nsamples = 171733\nvalue = [23409, 132763, 0, 92794, 849, 11259, 10510]"] ;
116 -> 120 ;
121 [label="gini = 0.626\nsamples = 161909\nvalue = [20244, 129218, 0, 84918, 840, 10761, 10126]"] ;
120 -> 121 ;
122 [label="gini = 0.645\nsamples = 9824\nvalue = [3165, 3545, 0, 7876, 9, 498, 384]"] ;
120 -> 122 ;
123 [label="X[2] <= 129.5\ngini = 0.547\nsamples = 493163\nvalue = [66347, 478384, 0, 204546, 25, 15504, 15522]"] ;
115 -> 123 ;
124 [label="X[0] <= 1.5\ngini = 0.558\nsamples = 458082\nvalue = [64330, 434963, 0, 195983, 23, 14778, 14588]"] ;
123 -> 124 ;
125 [label="gini = 0.522\nsamples = 377189\nvalue = [44115, 384071, 0, 142692, 13, 13154, 12795]"] ;
124 -> 125 ;
126 [label="gini = 0.642\nsamples = 80893\nvalue = [20215, 50892, 0, 53291, 10, 1624, 1793]"] ;
124 -> 126 ;
127 [label="X[8] <= 2.5\ngini = 0.366\nsamples = 35081\nvalue = [2017, 43421, 0, 8563, 2, 726, 934]"] ;
123 -> 127 ;
128 [label="gini = 0.319\nsamples = 33790\nvalue = [0, 43421, 0, 8563, 0, 720, 934]"] ;
127 -> 128 ;
129 [label="gini = 0.008\nsamples = 1291\nvalue = [2017, 0, 0, 0, 2, 6, 0]"] ;
127 -> 129 ;
130 [label="X[8] <= 2.5\ngini = 0.065\nsamples = 46186\nvalue = [70631, 0, 22, 112, 796, 1470, 24]"] ;
2 -> 130 ;
131 [label="X[9] <= 2.5\ngini = 0.372\nsamples = 95\nvalue = [0, 0, 0, 112, 0, 9, 24]"] ;
130 -> 131 ;
132 [label="X[6] <= 7.5\ngini = 0.607\nsamples = 15\nvalue = [0, 0, 0, 13, 0, 9, 4]"] ;
131 -> 132 ;
133 [label="X[10] <= 205.5\ngini = 0.375\nsamples = 7\nvalue = [0, 0, 0, 0, 0, 9, 3]"] ;
132 -> 133 ;
134 [label="gini = 0.0\nsamples = 4\nvalue = [0, 0, 0, 0, 0, 8, 0]"] ;
133 -> 134 ;
135 [label="X[10] <= 207.0\ngini = 0.375\nsamples = 3\nvalue = [0, 0, 0, 0, 0, 1, 3]"] ;
133 -> 135 ;
136 [label="gini = 0.0\nsamples = 2\nvalue = [0, 0, 0, 0, 0, 0, 3]"] ;
135 -> 136 ;
137 [label="gini = 0.0\nsamples = 1\nvalue = [0, 0, 0, 0, 0, 1, 0]"] ;
135 -> 137 ;
138 [label="X[6] <= 19.5\ngini = 0.133\nsamples = 8\nvalue = [0, 0, 0, 13, 0, 0, 1]"] ;
132 -> 138 ;
139 [label="X[2] <= 134.0\ngini = 0.5\nsamples = 2\nvalue = [0, 0, 0, 1, 0, 0, 1]"] ;
138 -> 139 ;
140 [label="gini = 0.0\nsamples = 1\nvalue = [0, 0, 0, 0, 0, 0, 1]"] ;
139 -> 140 ;
141 [label="gini = 0.0\nsamples = 1\nvalue = [0, 0, 0, 1, 0, 0, 0]"] ;
139 -> 141 ;
142 [label="gini = 0.0\nsamples = 6\nvalue = [0, 0, 0, 12, 0, 0, 0]"] ;
138 -> 142 ;
143 [label="X[0] <= 0.5\ngini = 0.28\nsamples = 80\nvalue = [0, 0, 0, 99, 0, 0, 20]"] ;
131 -> 143 ;
144 [label="X[6] <= 20.0\ngini = 0.437\nsamples = 37\nvalue = [0, 0, 0, 40, 0, 0, 19]"] ;
143 -> 144 ;
145 [label="gini = 0.0\nsamples = 12\nvalue = [0, 0, 0, 0, 0, 0, 19]"] ;
144 -> 145 ;
146 [label="gini = 0.0\nsamples = 25\nvalue = [0, 0, 0, 40, 0, 0, 0]"] ;
144 -> 146 ;
147 [label="X[6] <= 24.5\ngini = 0.033\nsamples = 43\nvalue = [0, 0, 0, 59, 0, 0, 1]"] ;
143 -> 147 ;
148 [label="X[6] <= 3.5\ngini = 0.5\nsamples = 2\nvalue = [0, 0, 0, 1, 0, 0, 1]"] ;
147 -> 148 ;
149 [label="gini = 0.0\nsamples = 1\nvalue = [0, 0, 0, 1, 0, 0, 0]"] ;
148 -> 149 ;
150 [label="gini = 0.0\nsamples = 1\nvalue = [0, 0, 0, 0, 0, 0, 1]"] ;
148 -> 150 ;
151 [label="gini = 0.0\nsamples = 41\nvalue = [0, 0, 0, 58, 0, 0, 0]"] ;
147 -> 151 ;
152 [label="X[6] <= 4.5\ngini = 0.061\nsamples = 46091\nvalue = [70631, 0, 22, 0, 796, 1461, 0]"] ;
130 -> 152 ;
153 [label="X[2] <= 117.5\ngini = 0.035\nsamples = 9149\nvalue = [14213, 0, 2, 0, 101, 157, 0]"] ;
152 -> 153 ;
154 [label="X[4] <= 4.5\ngini = 0.418\nsamples = 21\nvalue = [26, 0, 0, 0, 0, 11, 0]"] ;
153 -> 154 ;
155 [label="gini = 0.0\nsamples = 3\nvalue = [6, 0, 0, 0, 0, 0, 0]"] ;
154 -> 155 ;
156 [label="X[4] <= 8.5\ngini = 0.458\nsamples = 18\nvalue = [20, 0, 0, 0, 0, 11, 0]"] ;
154 -> 156 ;
157 [label="X[7] <= 180.5\ngini = 0.278\nsamples = 3\nvalue = [1, 0, 0, 0, 0, 5, 0]"] ;
156 -> 157 ;
158 [label="gini = 0.0\nsamples = 2\nvalue = [0, 0, 0, 0, 0, 5, 0]"] ;
157 -> 158 ;
159 [label="gini = 0.0\nsamples = 1\nvalue = [1, 0, 0, 0, 0, 0, 0]"] ;
157 -> 159 ;
160 [label="X[1] <= 24.0\ngini = 0.365\nsamples = 15\nvalue = [19, 0, 0, 0, 0, 6, 0]"] ;
156 -> 160 ;
161 [label="gini = 0.172\nsamples = 14\nvalue = [19, 0, 0, 0, 0, 2, 0]"] ;
160 -> 161 ;
162 [label="gini = 0.0\nsamples = 1\nvalue = [0, 0, 0, 0, 0, 4, 0]"] ;
160 -> 162 ;
163 [label="X[10] <= 15.5\ngini = 0.034\nsamples = 9128\nvalue = [14187, 0, 2, 0, 101, 146, 0]"] ;
153 -> 163 ;
164 [label="gini = 0.0\nsamples = 1\nvalue = [0, 0, 0, 0, 0, 1, 0]"] ;
163 -> 164 ;
165 [label="X[3] <= 67.5\ngini = 0.034\nsamples = 9127\nvalue = [14187, 0, 2, 0, 101, 145, 0]"] ;
163 -> 165 ;
166 [label="X[2] <= 132.5\ngini = 0.032\nsamples = 8957\nvalue = [13937, 0, 2, 0, 100, 128, 0]"] ;
165 -> 166 ;
167 [label="gini = 0.032\nsamples = 8952\nvalue = [13933, 0, 2, 0, 100, 126, 0]"] ;
166 -> 167 ;
168 [label="gini = 0.444\nsamples = 5\nvalue = [4, 0, 0, 0, 0, 2, 0]"] ;
166 -> 168 ;
169 [label="X[2] <= 126.5\ngini = 0.126\nsamples = 170\nvalue = [250, 0, 0, 0, 1, 17, 0]"] ;
165 -> 169 ;
170 [label="gini = 0.164\nsamples = 116\nvalue = [172, 0, 0, 0, 0, 17, 0]"] ;
169 -> 170 ;
171 [label="gini = 0.025\nsamples = 54\nvalue = [78, 0, 0, 0, 1, 0, 0]"] ;
169 -> 171 ;
172 [label="X[3] <= 70.5\ngini = 0.067\nsamples = 36942\nvalue = [56418, 0, 20, 0, 695, 1304, 0]"] ;
152 -> 172 ;
173 [label="X[2] <= 120.5\ngini = 0.058\nsamples = 27556\nvalue = [42270, 0, 18, 0, 417, 848, 0]"] ;
172 -> 173 ;
174 [label="X[5] <= 0.5\ngini = 0.086\nsamples = 3183\nvalue = [4805, 0, 0, 0, 58, 167, 0]"] ;
173 -> 174 ;
175 [label="X[10] <= 83.5\ngini = 0.129\nsamples = 750\nvalue = [1109, 0, 0, 0, 19, 62, 0]"] ;
174 -> 175 ;
176 [label="gini = 0.265\nsamples = 61\nvalue = [91, 0, 0, 0, 0, 17, 0]"] ;
175 -> 176 ;
177 [label="gini = 0.113\nsamples = 689\nvalue = [1018, 0, 0, 0, 19, 45, 0]"] ;
175 -> 177 ;
178 [label="X[10] <= 84.5\ngini = 0.073\nsamples = 2433\nvalue = [3696, 0, 0, 0, 39, 105, 0]"] ;
174 -> 178 ;
179 [label="gini = 0.131\nsamples = 307\nvalue = [453, 0, 0, 0, 4, 30, 0]"] ;
178 -> 179 ;
180 [label="gini = 0.064\nsamples = 2126\nvalue = [3243, 0, 0, 0, 35, 75, 0]"] ;
178 -> 180 ;
181 [label="X[3] <= 40.5\ngini = 0.054\nsamples = 24373\nvalue = [37465, 0, 18, 0, 359, 681, 0]"] ;
173 -> 181 ;
182 [label="X[9] <= 2.5\ngini = 0.18\nsamples = 426\nvalue = [598, 0, 0, 0, 5, 61, 0]"] ;
181 -> 182 ;
183 [label="gini = 0.08\nsamples = 108\nvalue = [163, 0, 0, 0, 5, 2, 0]"] ;
182 -> 183 ;
184 [label="gini = 0.21\nsamples = 318\nvalue = [435, 0, 0, 0, 0, 59, 0]"] ;
182 -> 184 ;
185 [label="X[5] <= 1.5\ngini = 0.051\nsamples = 23947\nvalue = [36867, 0, 18, 0, 354, 620, 0]"] ;
181 -> 185 ;
186 [label="gini = 0.046\nsamples = 15390\nvalue = [23706, 0, 17, 0, 130, 423, 0]"] ;
185 -> 186 ;
187 [label="gini = 0.061\nsamples = 8557\nvalue = [13161, 0, 1, 0, 224, 197, 0]"] ;
185 -> 187 ;
188 [label="X[0] <= 30.5\ngini = 0.095\nsamples = 9386\nvalue = [14148, 0, 2, 0, 278, 456, 0]"] ;
172 -> 188 ;
189 [label="X[4] <= 3.5\ngini = 0.095\nsamples = 9382\nvalue = [14145, 0, 2, 0, 278, 451, 0]"] ;
188 -> 189 ;
190 [label="X[1] <= 3.5\ngini = 0.145\nsamples = 1974\nvalue = [2937, 0, 0, 0, 51, 196, 0]"] ;
189 -> 190 ;
191 [label="gini = 0.222\nsamples = 1054\nvalue = [1464, 0, 0, 0, 39, 168, 0]"] ;
190 -> 191 ;
192 [label="gini = 0.052\nsamples = 920\nvalue = [1473, 0, 0, 0, 12, 28, 0]"] ;
190 -> 192 ;
193 [label="X[5] <= 1.5\ngini = 0.08\nsamples = 7408\nvalue = [11208, 0, 2, 0, 227, 255, 0]"] ;
189 -> 193 ;
194 [label="gini = 0.075\nsamples = 4756\nvalue = [7192, 0, 2, 0, 82, 204, 0]"] ;
193 -> 194 ;
195 [label="gini = 0.09\nsamples = 2652\nvalue = [4016, 0, 0, 0, 145, 51, 0]"] ;
193 -> 195 ;
196 [label="X[0] <= 35.5\ngini = 0.469\nsamples = 4\nvalue = [3, 0, 0, 0, 0, 5, 0]"] ;
188 -> 196 ;
197 [label="gini = 0.0\nsamples = 1\nvalue = [0, 0, 0, 0, 0, 4, 0]"] ;
196 -> 197 ;
198 [label="X[9] <= 1.0\ngini = 0.375\nsamples = 3\nvalue = [3, 0, 0, 0, 0, 1, 0]"] ;
196 -> 198 ;
199 [label="gini = 0.0\nsamples = 1\nvalue = [0, 0, 0, 0, 0, 1, 0]"] ;
198 -> 199 ;
200 [label="gini = 0.0\nsamples = 2\nvalue = [3, 0, 0, 0, 0, 0, 0]"] ;
198 -> 200 ;
}