digraph Tree {
node [shape=box] ;
0 [label="X[8] <= 1.5\ngini = 0.767\nsamples = 11104620\nvalue = [3316759, 5198004, 2090, 5145777, 28544, 1815826, 2062149]"] ;
1 [label="gini = 0.0\nsamples = 1189094\nvalue = [1881876, 0, 0, 0, 0, 0, 0]"] ;
0 -> 1 [labeldistance=2.5, labelangle=45, headlabel="True"] ;
2 [label="X[3] <= 63.5\ngini = 0.744\nsamples = 9915526\nvalue = [1434883, 5198004, 2090, 5145777, 28544, 1815826, 2062149]"] ;
0 -> 2 [labeldistance=2.5, labelangle=-45, headlabel="False"] ;
3 [label="X[9] <= 2.5\ngini = 0.733\nsamples = 4279969\nvalue = [693111, 2537231, 716, 2054702, 10280, 655986, 818783]"] ;
2 -> 3 ;
4 [label="X[8] <= 2.5\ngini = 0.724\nsamples = 2667651\nvalue = [406206, 1604223, 145, 1325826, 9701, 584659, 289649]"] ;
3 -> 4 ;
5 [label="X[3] <= 57.5\ngini = 0.671\nsamples = 2401061\nvalue = [0, 1604223, 0, 1325826, 0, 579358, 289649]"] ;
4 -> 5 ;
6 [label="X[0] <= 0.5\ngini = 0.666\nsamples = 1659763\nvalue = [0, 1152586, 0, 886305, 0, 389093, 198302]"] ;
5 -> 6 ;
7 [label="X[10] <= 232.5\ngini = 0.728\nsamples = 762934\nvalue = [0, 303740, 0, 421279, 0, 311752, 170923]"] ;
6 -> 7 ;
8 [label="X[7] <= 61.5\ngini = 0.725\nsamples = 352546\nvalue = [0, 113530, 0, 186562, 0, 177742, 80608]"] ;
7 -> 8 ;
9 [label="gini = 0.728\nsamples = 108992\nvalue = [0, 27716, 0, 60026, 0, 50744, 34199]"] ;
8 -> 9 ;
10 [label="gini = 0.72\nsamples = 243554\nvalue = [0, 85814, 0, 126536, 0, 126998, 46409]"] ;
8 -> 10 ;
11 [label="X[9] <= 0.5\ngini = 0.722\nsamples = 410388\nvalue = [0, 190210, 0, 234717, 0, 134010, 90315]"] ;
7 -> 11 ;
12 [label="gini = 0.648\nsamples = 92739\nvalue = [0, 59030, 0, 55044, 0, 0, 32924]"] ;
11 -> 12 ;
13 [label="gini = 0.72\nsamples = 317649\nvalue = [0, 131180, 0, 179673, 0, 134010, 57391]"] ;
11 -> 13 ;
14 [label="X[5] <= 0.5\ngini = 0.531\nsamples = 896829\nvalue = [0, 848846, 0, 465026, 0, 77341, 27379]"] ;
6 -> 14 ;
15 [label="X[0] <= 1.5\ngini = 0.655\nsamples = 41677\nvalue = [0, 24015, 0, 28323, 0, 10384, 3108]"] ;
14 -> 15 ;
16 [label="gini = 0.653\nsamples = 35534\nvalue = [0, 16808, 0, 26547, 0, 9958, 2846]"] ;
15 -> 16 ;
17 [label="gini = 0.408\nsamples = 6143\nvalue = [0, 7207, 0, 1776, 0, 426, 262]"] ;
15 -> 17 ;
18 [label="X[10] <= 216.5\ngini = 0.521\nsamples = 855152\nvalue = [0, 824831, 0, 436703, 0, 66957, 24271]"] ;
14 -> 18 ;
19 [label="gini = 0.468\nsamples = 139614\nvalue = [0, 151401, 0, 54076, 0, 11390, 4202]"] ;
18 -> 19 ;
20 [label="gini = 0.529\nsamples = 715538\nvalue = [0, 673430, 0, 382627, 0, 55567, 20069]"] ;
18 -> 20 ;
21 [label="X[3] <= 60.5\ngini = 0.679\nsamples = 741298\nvalue = [0, 451637, 0, 439521, 0, 190265, 91347]"] ;
5 -> 21 ;
22 [label="X[6] <= 21.5\ngini = 0.683\nsamples = 558956\nvalue = [0, 326554, 0, 338879, 0, 143354, 75211]"] ;
21 -> 22 ;
23 [label="X[10] <= 173.5\ngini = 0.655\nsamples = 88172\nvalue = [0, 58348, 0, 53192, 0, 6942, 21228]"] ;
22 -> 23 ;
24 [label="gini = 0.624\nsamples = 27925\nvalue = [0, 23302, 0, 11891, 0, 6699, 2332]"] ;
23 -> 24 ;
25 [label="gini = 0.639\nsamples = 60247\nvalue = [0, 35046, 0, 41301, 0, 243, 18896]"] ;
23 -> 25 ;
26 [label="X[0] <= 0.5\ngini = 0.684\nsamples = 470784\nvalue = [0, 268206, 0, 285687, 0, 136412, 53983]"] ;
22 -> 26 ;
27 [label="gini = 0.712\nsamples = 220974\nvalue = [0, 76146, 0, 131988, 0, 101687, 39425]"] ;
26 -> 27 ;
28 [label="gini = 0.603\nsamples = 249810\nvalue = [0, 192060, 0, 153699, 0, 34725, 14558]"] ;
26 -> 28 ;
29 [label="X[2] <= 127.5\ngini = 0.661\nsamples = 182342\nvalue = [0, 125083, 0, 100642, 0, 46911, 16136]"] ;
21 -> 29 ;
30 [label="X[5] <= 1.5\ngini = 0.686\nsamples = 69432\nvalue = [0, 40465, 0, 39940, 0, 22858, 6705]"] ;
29 -> 30 ;
31 [label="gini = 0.703\nsamples = 34736\nvalue = [0, 18128, 0, 20267, 0, 11544, 5003]"] ;
30 -> 31 ;
32 [label="gini = 0.664\nsamples = 34696\nvalue = [0, 22337, 0, 19673, 0, 11314, 1702]"] ;
30 -> 32 ;
33 [label="X[4] <= 4.5\ngini = 0.64\nsamples = 112910\nvalue = [0, 84618, 0, 60702, 0, 24053, 9431]"] ;
29 -> 33 ;
34 [label="gini = 0.559\nsamples = 32557\nvalue = [0, 31272, 0, 12740, 0, 5862, 1786]"] ;
33 -> 34 ;
35 [label="gini = 0.658\nsamples = 80353\nvalue = [0, 53346, 0, 47962, 0, 18191, 7645]"] ;
33 -> 35 ;
36 [label="X[8] <= 4.5\ngini = 0.07\nsamples = 266590\nvalue = [406206, 0, 145, 0, 9701, 5301, 0]"] ;
4 -> 36 ;
37 [label="X[8] <= 3.5\ngini = 0.329\nsamples = 49646\nvalue = [63426, 0, 145, 0, 9701, 5301, 0]"] ;
36 -> 37 ;
38 [label="X[7] <= 181.5\ngini = 0.159\nsamples = 43783\nvalue = [63426, 0, 0, 0, 4231, 1700, 0]"] ;
37 -> 38 ;
39 [label="X[3] <= 41.5\ngini = 0.111\nsamples = 37805\nvalue = [56457, 0, 0, 0, 2326, 1158, 0]"] ;
38 -> 39 ;
40 [label="gini = 0.237\nsamples = 8743\nvalue = [12058, 0, 0, 0, 1251, 582, 0]"] ;
39 -> 40 ;
41 [label="gini = 0.07\nsamples = 29062\nvalue = [44399, 0, 0, 0, 1075, 576, 0]"] ;
39 -> 41 ;
42 [label="X[2] <= 137.5\ngini = 0.408\nsamples = 5978\nvalue = [6969, 0, 0, 0, 1905, 542, 0]"] ;
38 -> 42 ;
43 [label="gini = 0.103\nsamples = 4086\nvalue = [6074, 0, 0, 0, 210, 135, 0]"] ;
42 -> 43 ;
44 [label="gini = 0.573\nsamples = 1892\nvalue = [895, 0, 0, 0, 1695, 407, 0]"] ;
42 -> 44 ;
45 [label="X[9] <= 0.5\ngini = 0.495\nsamples = 5863\nvalue = [0, 0, 145, 0, 5470, 3601, 0]"] ;
37 -> 45 ;
46 [label="X[7] <= 167.5\ngini = 0.052\nsamples = 684\nvalue = [0, 0, 29, 0, 0, 1046, 0]"] ;
45 -> 46 ;
47 [label="gini = 0.039\nsamples = 483\nvalue = [0, 0, 15, 0, 0, 746, 0]"] ;
46 -> 47 ;
48 [label="gini = 0.085\nsamples = 201\nvalue = [0, 0, 14, 0, 0, 300, 0]"] ;
46 -> 48 ;
49 [label="X[3] <= 44.5\ngini = 0.45\nsamples = 5179\nvalue = [0, 0, 116, 0, 5470, 2555, 0]"] ;
45 -> 49 ;
50 [label="gini = 0.487\nsamples = 2232\nvalue = [0, 0, 74, 0, 2197, 1281, 0]"] ;
49 -> 50 ;
51 [label="gini = 0.414\nsamples = 2947\nvalue = [0, 0, 42, 0, 3273, 1274, 0]"] ;
49 -> 51 ;
52 [label="gini = 0.0\nsamples = 216944\nvalue = [342780, 0, 0, 0, 0, 0, 0]"] ;
36 -> 52 ;
53 [label="X[1] <= 0.5\ngini = 0.728\nsamples = 1612318\nvalue = [286905, 933008, 571, 728876, 579, 71327, 529134]"] ;
3 -> 53 ;
54 [label="X[8] <= 2.5\ngini = 0.726\nsamples = 1603413\nvalue = [273354, 933008, 567, 728774, 558, 70956, 529119]"] ;
53 -> 54 ;
55 [label="X[2] <= 124.5\ngini = 0.669\nsamples = 1427740\nvalue = [0, 933008, 0, 728774, 0, 67546, 529119]"] ;
54 -> 55 ;
56 [label="X[0] <= 0.5\ngini = 0.677\nsamples = 703485\nvalue = [0, 406708, 0, 400015, 0, 35019, 270670]"] ;
55 -> 56 ;
57 [label="X[3] <= 48.5\ngini = 0.67\nsamples = 319732\nvalue = [0, 93110, 0, 180440, 0, 26406, 205947]"] ;
56 -> 57 ;
58 [label="gini = 0.635\nsamples = 139478\nvalue = [0, 25330, 0, 90667, 0, 10973, 93937]"] ;
57 -> 58 ;
59 [label="gini = 0.687\nsamples = 180254\nvalue = [0, 67780, 0, 89773, 0, 15433, 112010]"] ;
57 -> 59 ;
60 [label="X[0] <= 2.5\ngini = 0.59\nsamples = 383753\nvalue = [0, 313598, 0, 219575, 0, 8613, 64723]"] ;
56 -> 60 ;
61 [label="gini = 0.589\nsamples = 365529\nvalue = [0, 302822, 0, 203496, 0, 8431, 62957]"] ;
60 -> 61 ;
62 [label="gini = 0.545\nsamples = 18224\nvalue = [0, 10776, 0, 16079, 0, 182, 1766]"] ;
60 -> 62 ;
63 [label="X[0] <= 0.5\ngini = 0.655\nsamples = 724255\nvalue = [0, 526300, 0, 328759, 0, 32527, 258449]"] ;
55 -> 63 ;
64 [label="X[5] <= 1.5\ngini = 0.68\nsamples = 313876\nvalue = [0, 126092, 0, 135157, 0, 25463, 209995]"] ;
63 -> 64 ;
65 [label="gini = 0.654\nsamples = 205210\nvalue = [0, 83086, 0, 88148, 0, 5909, 147483]"] ;
64 -> 65 ;
66 [label="gini = 0.718\nsamples = 108666\nvalue = [0, 43006, 0, 47009, 0, 19554, 62512]"] ;
64 -> 66 ;
67 [label="X[2] <= 134.5\ngini = 0.526\nsamples = 410379\nvalue = [0, 400208, 0, 193602, 0, 7064, 48454]"] ;
63 -> 67 ;
68 [label="gini = 0.515\nsamples = 300413\nvalue = [0, 299755, 0, 135264, 0, 4820, 35220]"] ;
67 -> 68 ;
69 [label="gini = 0.55\nsamples = 109966\nvalue = [0, 100453, 0, 58338, 0, 2244, 13234]"] ;
67 -> 69 ;
70 [label="X[8] <= 4.5\ngini = 0.032\nsamples = 175673\nvalue = [273354, 0, 567, 0, 558, 3410, 0]"] ;
54 -> 70 ;
71 [label="X[8] <= 3.5\ngini = 0.158\nsamples = 33828\nvalue = [48827, 0, 567, 0, 558, 3410, 0]"] ;
70 -> 71 ;
72 [label="X[7] <= 79.5\ngini = 0.101\nsamples = 32661\nvalue = [48827, 0, 0, 0, 372, 2360, 0]"] ;
71 -> 72 ;
73 [label="gini = 0.055\nsamples = 11568\nvalue = [17702, 0, 0, 0, 86, 428, 0]"] ;
72 -> 73 ;
74 [label="gini = 0.125\nsamples = 21093\nvalue = [31125, 0, 0, 0, 286, 1932, 0]"] ;
72 -> 74 ;
75 [label="X[3] <= 60.5\ngini = 0.551\nsamples = 1167\nvalue = [0, 0, 567, 0, 186, 1050, 0]"] ;
71 -> 75 ;
76 [label="gini = 0.55\nsamples = 1065\nvalue = [0, 0, 537, 0, 157, 950, 0]"] ;
75 -> 76 ;
77 [label="gini = 0.536\nsamples = 102\nvalue = [0, 0, 30, 0, 29, 100, 0]"] ;
75 -> 77 ;
78 [label="gini = 0.0\nsamples = 141845\nvalue = [224527, 0, 0, 0, 0, 0, 0]"] ;
70 -> 78 ;
79 [label="X[2] <= 136.5\ngini = 0.071\nsamples = 8905\nvalue = [13551, 0, 4, 102, 21, 371, 15]"] ;
53 -> 79 ;
80 [label="X[8] <= 2.5\ngini = 0.062\nsamples = 7990\nvalue = [12186, 0, 0, 3, 21, 362, 15]"] ;
79 -> 80 ;
81 [label="X[7] <= 122.5\ngini = 0.278\nsamples = 11\nvalue = [0, 0, 0, 3, 0, 0, 15]"] ;
80 -> 81 ;
82 [label="gini = 0.0\nsamples = 2\nvalue = [0, 0, 0, 2, 0, 0, 0]"] ;
81 -> 82 ;
83 [label="X[6] <= 3.5\ngini = 0.117\nsamples = 9\nvalue = [0, 0, 0, 1, 0, 0, 15]"] ;
81 -> 83 ;
84 [label="gini = 0.0\nsamples = 1\nvalue = [0, 0, 0, 1, 0, 0, 0]"] ;
83 -> 84 ;
85 [label="gini = 0.0\nsamples = 8\nvalue = [0, 0, 0, 0, 0, 0, 15]"] ;
83 -> 85 ;
86 [label="X[3] <= 40.5\ngini = 0.059\nsamples = 7979\nvalue = [12186, 0, 0, 0, 21, 362, 0]"] ;
80 -> 86 ;
87 [label="X[3] <= 39.5\ngini = 0.227\nsamples = 356\nvalue = [501, 0, 0, 0, 0, 75, 0]"] ;
86 -> 87 ;
88 [label="gini = 0.408\nsamples = 4\nvalue = [5, 0, 0, 0, 0, 2, 0]"] ;
87 -> 88 ;
89 [label="gini = 0.224\nsamples = 352\nvalue = [496, 0, 0, 0, 0, 73, 0]"] ;
87 -> 89 ;
90 [label="X[6] <= 30.5\ngini = 0.05\nsamples = 7623\nvalue = [11685, 0, 0, 0, 21, 287, 0]"] ;
86 -> 90 ;
91 [label="gini = 0.029\nsamples = 5666\nvalue = [8771, 0, 0, 0, 16, 114, 0]"] ;
90 -> 91 ;
92 [label="gini = 0.109\nsamples = 1957\nvalue = [2914, 0, 0, 0, 5, 173, 0]"] ;
90 -> 92 ;
93 [label="X[8] <= 2.5\ngini = 0.141\nsamples = 915\nvalue = [1365, 0, 4, 99, 0, 9, 0]"] ;
79 -> 93 ;
94 [label="gini = 0.0\nsamples = 65\nvalue = [0, 0, 0, 99, 0, 0, 0]"] ;
93 -> 94 ;
95 [label="X[10] <= 250.5\ngini = 0.019\nsamples = 850\nvalue = [1365, 0, 4, 0, 0, 9, 0]"] ;
93 -> 95 ;
96 [label="X[7] <= 109.5\ngini = 0.038\nsamples = 358\nvalue = [560, 0, 4, 0, 0, 7, 0]"] ;
95 -> 96 ;
97 [label="gini = 0.01\nsamples = 263\nvalue = [414, 0, 0, 0, 0, 2, 0]"] ;
96 -> 97 ;
98 [label="gini = 0.111\nsamples = 95\nvalue = [146, 0, 4, 0, 0, 5, 0]"] ;
96 -> 98 ;
99 [label="X[3] <= 43.5\ngini = 0.005\nsamples = 492\nvalue = [805, 0, 0, 0, 0, 2, 0]"] ;
95 -> 99 ;
100 [label="gini = 0.0\nsamples = 325\nvalue = [524, 0, 0, 0, 0, 0, 0]"] ;
99 -> 100 ;
101 [label="gini = 0.014\nsamples = 167\nvalue = [281, 0, 0, 0, 0, 2, 0]"] ;
99 -> 101 ;
102 [label="X[1] <= 0.5\ngini = 0.747\nsamples = 5635557\nvalue = [741772, 2660773, 1374, 3091075, 18264, 1159840, 1243366]"] ;
2 -> 102 ;
103 [label="X[8] <= 2.5\ngini = 0.746\nsamples = 5609683\nvalue = [702544, 2660773, 1350, 3091072, 17739, 1158839, 1243366]"] ;
102 -> 103 ;
104 [label="X[9] <= 2.5\ngini = 0.706\nsamples = 5141676\nvalue = [0, 2660773, 0, 3091072, 0, 1139351, 1243366]"] ;
103 -> 104 ;
105 [label="X[0] <= 0.5\ngini = 0.701\nsamples = 3525456\nvalue = [0, 1746825, 0, 2194162, 0, 1038176, 598233]"] ;
104 -> 105 ;
106 [label="X[2] <= 130.5\ngini = 0.712\nsamples = 2030636\nvalue = [0, 560342, 0, 1301349, 0, 832178, 518379]"] ;
105 -> 106 ;
107 [label="X[7] <= 111.5\ngini = 0.7\nsamples = 1240536\nvalue = [0, 381413, 0, 852925, 0, 461743, 266130]"] ;
106 -> 107 ;
108 [label="gini = 0.718\nsamples = 126089\nvalue = [0, 31505, 0, 58684, 0, 74757, 34240]"] ;
107 -> 108 ;
109 [label="gini = 0.692\nsamples = 1114447\nvalue = [0, 349908, 0, 794241, 0, 386986, 231890]"] ;
107 -> 109 ;
110 [label="X[2] <= 131.5\ngini = 0.722\nsamples = 790100\nvalue = [0, 178929, 0, 448424, 0, 370435, 252249]"] ;
106 -> 110 ;
111 [label="gini = 0.725\nsamples = 384414\nvalue = [0, 75824, 0, 193710, 0, 194078, 145085]"] ;
110 -> 111 ;
112 [label="gini = 0.713\nsamples = 405686\nvalue = [0, 103105, 0, 254714, 0, 176357, 107164]"] ;
110 -> 112 ;
113 [label="X[5] <= 0.5\ngini = 0.597\nsamples = 1494820\nvalue = [0, 1186483, 0, 892813, 0, 205998, 79854]"] ;
105 -> 113 ;
114 [label="X[0] <= 1.5\ngini = 0.64\nsamples = 127385\nvalue = [0, 58177, 0, 100815, 0, 30004, 12472]"] ;
113 -> 114 ;
115 [label="gini = 0.632\nsamples = 113404\nvalue = [0, 42949, 0, 94753, 0, 29425, 12265]"] ;
114 -> 115 ;
116 [label="gini = 0.448\nsamples = 13981\nvalue = [0, 15228, 0, 6062, 0, 579, 207]"] ;
114 -> 116 ;
117 [label="X[3] <= 75.5\ngini = 0.586\nsamples = 1367435\nvalue = [0, 1128306, 0, 791998, 0, 175994, 67382]"] ;
113 -> 117 ;
118 [label="gini = 0.593\nsamples = 1189524\nvalue = [0, 952927, 0, 711570, 0, 157810, 60377]"] ;
117 -> 118 ;
119 [label="gini = 0.524\nsamples = 177911\nvalue = [0, 175379, 0, 80428, 0, 18184, 7005]"] ;
117 -> 119 ;
120 [label="X[5] <= 0.5\ngini = 0.684\nsamples = 1616220\nvalue = [0, 913948, 0, 896910, 0, 101175, 645133]"] ;
104 -> 120 ;
121 [label="X[4] <= 6.5\ngini = 0.676\nsamples = 312599\nvalue = [0, 91298, 0, 201371, 0, 29892, 171875]"] ;
120 -> 121 ;
122 [label="X[0] <= 0.5\ngini = 0.699\nsamples = 179645\nvalue = [0, 57116, 0, 117142, 0, 29865, 79860]"] ;
121 -> 122 ;
123 [label="gini = 0.702\nsamples = 111449\nvalue = [0, 26228, 0, 64338, 0, 23459, 62006]"] ;
122 -> 123 ;
124 [label="gini = 0.648\nsamples = 68196\nvalue = [0, 30888, 0, 52804, 0, 6406, 17854]"] ;
122 -> 124 ;
125 [label="X[2] <= 130.5\ngini = 0.622\nsamples = 132954\nvalue = [0, 34182, 0, 84229, 0, 27, 92015]"] ;
121 -> 125 ;
126 [label="gini = 0.635\nsamples = 73821\nvalue = [0, 22449, 0, 50856, 0, 4, 43463]"] ;
125 -> 126 ;
127 [label="gini = 0.589\nsamples = 59133\nvalue = [0, 11733, 0, 33373, 0, 23, 48552]"] ;
125 -> 127 ;
128 [label="X[5] <= 1.5\ngini = 0.673\nsamples = 1303621\nvalue = [0, 822650, 0, 695539, 0, 71283, 473258]"] ;
120 -> 128 ;
129 [label="X[6] <= 32.5\ngini = 0.654\nsamples = 700901\nvalue = [0, 462926, 0, 362071, 0, 0, 283734]"] ;
128 -> 129 ;
130 [label="gini = 0.663\nsamples = 501158\nvalue = [0, 300698, 0, 262994, 0, 0, 228728]"] ;
129 -> 130 ;
131 [label="gini = 0.609\nsamples = 199743\nvalue = [0, 162228, 0, 99077, 0, 0, 55006]"] ;
129 -> 131 ;
132 [label="X[4] <= 6.5\ngini = 0.691\nsamples = 602720\nvalue = [0, 359724, 0, 333468, 0, 71283, 189524]"] ;
128 -> 132 ;
133 [label="gini = 0.708\nsamples = 350226\nvalue = [0, 192632, 0, 197244, 0, 71194, 93142]"] ;
132 -> 133 ;
134 [label="gini = 0.651\nsamples = 252494\nvalue = [0, 167092, 0, 136224, 0, 89, 96382]"] ;
132 -> 134 ;
135 [label="X[6] <= 42.0\ngini = 0.1\nsamples = 468007\nvalue = [702544, 0, 1350, 0, 17739, 19488, 0]"] ;
103 -> 135 ;
136 [label="X[8] <= 4.5\ngini = 0.092\nsamples = 431138\nvalue = [650338, 0, 1261, 0, 14490, 16629, 0]"] ;
135 -> 136 ;
137 [label="X[7] <= 211.5\ngini = 0.306\nsamples = 116360\nvalue = [152197, 0, 1261, 0, 14490, 16629, 0]"] ;
136 -> 137 ;
138 [label="X[7] <= 53.5\ngini = 0.237\nsamples = 100720\nvalue = [138846, 0, 1198, 0, 8126, 11673, 0]"] ;
137 -> 138 ;
139 [label="gini = 0.343\nsamples = 23882\nvalue = [30361, 0, 727, 0, 2528, 4382, 0]"] ;
138 -> 139 ;
140 [label="gini = 0.202\nsamples = 76838\nvalue = [108485, 0, 471, 0, 5598, 7291, 0]"] ;
138 -> 140 ;
141 [label="X[8] <= 3.5\ngini = 0.602\nsamples = 15640\nvalue = [13351, 0, 63, 0, 6364, 4956, 0]"] ;
137 -> 141 ;
142 [label="gini = 0.085\nsamples = 8841\nvalue = [13351, 0, 0, 0, 195, 418, 0]"] ;
141 -> 142 ;
143 [label="gini = 0.494\nsamples = 6799\nvalue = [0, 0, 63, 0, 6169, 4538, 0]"] ;
141 -> 143 ;
144 [label="gini = 0.0\nsamples = 314778\nvalue = [498141, 0, 0, 0, 0, 0, 0]"] ;
136 -> 144 ;
145 [label="X[8] <= 4.5\ngini = 0.195\nsamples = 36869\nvalue = [52206, 0, 89, 0, 3249, 2859, 0]"] ;
135 -> 145 ;
146 [label="X[0] <= 1.5\ngini = 0.46\nsamples = 13337\nvalue = [14835, 0, 89, 0, 3249, 2859, 0]"] ;
145 -> 146 ;
147 [label="X[8] <= 3.5\ngini = 0.309\nsamples = 10517\nvalue = [13647, 0, 89, 0, 1318, 1546, 0]"] ;
146 -> 147 ;
148 [label="gini = 0.228\nsamples = 9908\nvalue = [13647, 0, 0, 0, 737, 1229, 0]"] ;
147 -> 148 ;
149 [label="gini = 0.542\nsamples = 609\nvalue = [0, 0, 89, 0, 581, 317, 0]"] ;
147 -> 149 ;
150 [label="X[10] <= 60.5\ngini = 0.651\nsamples = 2820\nvalue = [1188, 0, 0, 0, 1931, 1313, 0]"] ;
146 -> 150 ;
151 [label="gini = 0.607\nsamples = 2388\nvalue = [601, 0, 0, 0, 1890, 1256, 0]"] ;
150 -> 151 ;
152 [label="gini = 0.255\nsamples = 432\nvalue = [587, 0, 0, 0, 41, 57, 0]"] ;
150 -> 152 ;
153 [label="gini = 0.0\nsamples = 23532\nvalue = [37371, 0, 0, 0, 0, 0, 0]"] ;
145 -> 153 ;
154 [label="X[9] <= 0.5\ngini = 0.074\nsamples = 25874\nvalue = [39228, 0, 24, 3, 525, 1001, 0]"] ;
102 -> 154 ;
155 [label="X[7] <= 116.5\ngini = 0.153\nsamples = 988\nvalue = [1446, 0, 0, 0, 4, 127, 0]"] ;
154 -> 155 ;
156 [label="X[2] <= 119.5\ngini = 0.068\nsamples = 610\nvalue = [936, 0, 0, 0, 0, 34, 0]"] ;
155 -> 156 ;
157 [label="X[1] <= 2.5\ngini = 0.278\nsamples = 37\nvalue = [45, 0, 0, 0, 0, 9, 0]"] ;
156 -> 157 ;
158 [label="X[2] <= 118.5\ngini = 0.457\nsamples = 15\nvalue = [11, 0, 0, 0, 0, 6, 0]"] ;
157 -> 158 ;
159 [label="gini = 0.391\nsamples = 13\nvalue = [11, 0, 0, 0, 0, 4, 0]"] ;
158 -> 159 ;
160 [label="gini = 0.0\nsamples = 2\nvalue = [0, 0, 0, 0, 0, 2, 0]"] ;
158 -> 160 ;
161 [label="X[1] <= 32.0\ngini = 0.149\nsamples = 22\nvalue = [34, 0, 0, 0, 0, 3, 0]"] ;
157 -> 161 ;
162 [label="gini = 0.255\nsamples = 12\nvalue = [17, 0, 0, 0, 0, 3, 0]"] ;
161 -> 162 ;
163 [label="gini = 0.0\nsamples = 10\nvalue = [17, 0, 0, 0, 0, 0, 0]"] ;
161 -> 163 ;
164 [label="X[10] <= 47.0\ngini = 0.053\nsamples = 573\nvalue = [891, 0, 0, 0, 0, 25, 0]"] ;
156 -> 164 ;
165 [label="X[4] <= 11.5\ngini = 0.026\nsamples = 269\nvalue = [447, 0, 0, 0, 0, 6, 0]"] ;
164 -> 165 ;
166 [label="gini = 0.019\nsamples = 250\nvalue = [417, 0, 0, 0, 0, 4, 0]"] ;
165 -> 166 ;
167 [label="gini = 0.117\nsamples = 19\nvalue = [30, 0, 0, 0, 0, 2, 0]"] ;
165 -> 167 ;
168 [label="X[3] <= 71.5\ngini = 0.079\nsamples = 304\nvalue = [444, 0, 0, 0, 0, 19, 0]"] ;
164 -> 168 ;
169 [label="gini = 0.037\nsamples = 243\nvalue = [367, 0, 0, 0, 0, 7, 0]"] ;
168 -> 169 ;
170 [label="gini = 0.233\nsamples = 61\nvalue = [77, 0, 0, 0, 0, 12, 0]"] ;
168 -> 170 ;
171 [label="X[3] <= 70.5\ngini = 0.271\nsamples = 378\nvalue = [510, 0, 0, 0, 4, 93, 0]"] ;
155 -> 171 ;
172 [label="X[5] <= 1.5\ngini = 0.181\nsamples = 247\nvalue = [349, 0, 0, 0, 1, 38, 0]"] ;
171 -> 172 ;
173 [label="X[2] <= 130.5\ngini = 0.116\nsamples = 157\nvalue = [243, 0, 0, 0, 0, 16, 0]"] ;
172 -> 173 ;
174 [label="gini = 0.202\nsamples = 49\nvalue = [70, 0, 0, 0, 0, 9, 0]"] ;
173 -> 174 ;
175 [label="gini = 0.075\nsamples = 108\nvalue = [173, 0, 0, 0, 0, 7, 0]"] ;
173 -> 175 ;
176 [label="X[2] <= 124.5\ngini = 0.296\nsamples = 90\nvalue = [106, 0, 0, 0, 1, 22, 0]"] ;
172 -> 176 ;
177 [label="gini = 0.34\nsamples = 50\nvalue = [54, 0, 0, 0, 0, 15, 0]"] ;
176 -> 177 ;
178 [label="gini = 0.235\nsamples = 40\nvalue = [52, 0, 0, 0, 1, 7, 0]"] ;
176 -> 178 ;
179 [label="X[7] <= 126.0\ngini = 0.396\nsamples = 131\nvalue = [161, 0, 0, 0, 3, 55, 0]"] ;
171 -> 179 ;
180 [label="X[1] <= 1.5\ngini = 0.406\nsamples = 34\nvalue = [19, 0, 0, 0, 0, 48, 0]"] ;
179 -> 180 ;
181 [label="gini = 0.15\nsamples = 24\nvalue = [4, 0, 0, 0, 0, 45, 0]"] ;
180 -> 181 ;
182 [label="gini = 0.278\nsamples = 10\nvalue = [15, 0, 0, 0, 0, 3, 0]"] ;
180 -> 182 ;
183 [label="X[6] <= 31.5\ngini = 0.125\nsamples = 97\nvalue = [142, 0, 0, 0, 3, 7, 0]"] ;
179 -> 183 ;
184 [label="gini = 0.092\nsamples = 92\nvalue = [138, 0, 0, 0, 0, 7, 0]"] ;
183 -> 184 ;
185 [label="gini = 0.49\nsamples = 5\nvalue = [4, 0, 0, 0, 3, 0, 0]"] ;
183 -> 185 ;
186 [label="X[4] <= 3.5\ngini = 0.071\nsamples = 24886\nvalue = [37782, 0, 24, 3, 521, 874, 0]"] ;
154 -> 186 ;
187 [label="X[7] <= 96.5\ngini = 0.109\nsamples = 4676\nvalue = [7023, 0, 0, 3, 101, 323, 0]"] ;
186 -> 187 ;
188 [label="X[7] <= 94.5\ngini = 0.193\nsamples = 951\nvalue = [1343, 0, 0, 0, 17, 144, 0]"] ;
187 -> 188 ;
189 [label="X[6] <= 5.5\ngini = 0.083\nsamples = 837\nvalue = [1252, 0, 0, 0, 17, 39, 0]"] ;
188 -> 189 ;
190 [label="gini = 0.194\nsamples = 37\nvalue = [49, 0, 0, 0, 6, 0, 0]"] ;
189 -> 190 ;
191 [label="gini = 0.077\nsamples = 800\nvalue = [1203, 0, 0, 0, 11, 39, 0]"] ;
189 -> 191 ;
192 [label="X[5] <= 1.5\ngini = 0.497\nsamples = 114\nvalue = [91, 0, 0, 0, 0, 105, 0]"] ;
188 -> 192 ;
193 [label="gini = 0.45\nsamples = 92\nvalue = [54, 0, 0, 0, 0, 104, 0]"] ;
192 -> 193 ;
194 [label="gini = 0.051\nsamples = 22\nvalue = [37, 0, 0, 0, 0, 1, 0]"] ;
192 -> 194 ;
195 [label="X[8] <= 2.5\ngini = 0.086\nsamples = 3725\nvalue = [5680, 0, 0, 3, 84, 179, 0]"] ;
187 -> 195 ;
196 [label="gini = 0.0\nsamples = 1\nvalue = [0, 0, 0, 3, 0, 0, 0]"] ;
195 -> 196 ;
197 [label="X[7] <= 180.5\ngini = 0.085\nsamples = 3724\nvalue = [5680, 0, 0, 0, 84, 179, 0]"] ;
195 -> 197 ;
198 [label="gini = 0.081\nsamples = 3566\nvalue = [5454, 0, 0, 0, 79, 159, 0]"] ;
197 -> 198 ;
199 [label="gini = 0.183\nsamples = 158\nvalue = [226, 0, 0, 0, 5, 20, 0]"] ;
197 -> 199 ;
200 [label="X[3] <= 70.5\ngini = 0.061\nsamples = 20210\nvalue = [30759, 0, 24, 0, 420, 551, 0]"] ;
186 -> 200 ;
201 [label="X[10] <= 171.0\ngini = 0.052\nsamples = 13298\nvalue = [20392, 0, 19, 0, 185, 352, 0]"] ;
200 -> 201 ;
202 [label="X[8] <= 3.5\ngini = 0.05\nsamples = 13134\nvalue = [20152, 0, 19, 0, 170, 342, 0]"] ;
201 -> 202 ;
203 [label="gini = 0.049\nsamples = 13024\nvalue = [20002, 0, 0, 0, 170, 341, 0]"] ;
202 -> 203 ;
204 [label="gini = 0.209\nsamples = 110\nvalue = [150, 0, 19, 0, 0, 1, 0]"] ;
202 -> 204 ;
205 [label="X[4] <= 11.5\ngini = 0.175\nsamples = 164\nvalue = [240, 0, 0, 0, 15, 10, 0]"] ;
201 -> 205 ;
206 [label="gini = 0.051\nsamples = 138\nvalue = [225, 0, 0, 0, 1, 5, 0]"] ;
205 -> 206 ;
207 [label="gini = 0.614\nsamples = 26\nvalue = [15, 0, 0, 0, 14, 5, 0]"] ;
205 -> 207 ;
208 [label="X[3] <= 73.5\ngini = 0.079\nsamples = 6912\nvalue = [10367, 0, 5, 0, 235, 199, 0]"] ;
200 -> 208 ;
209 [label="X[2] <= 127.5\ngini = 0.101\nsamples = 3611\nvalue = [5296, 0, 5, 0, 166, 122, 0]"] ;
208 -> 209 ;
210 [label="gini = 0.061\nsamples = 1367\nvalue = [2062, 0, 5, 0, 16, 46, 0]"] ;
209 -> 210 ;
211 [label="gini = 0.124\nsamples = 2244\nvalue = [3234, 0, 0, 0, 150, 76, 0]"] ;
209 -> 211 ;
212 [label="X[5] <= 1.5\ngini = 0.055\nsamples = 3301\nvalue = [5071, 0, 0, 0, 69, 77, 0]"] ;
208 -> 212 ;
213 [label="gini = 0.045\nsamples = 2020\nvalue = [3145, 0, 0, 0, 25, 48, 0]"] ;
212 -> 213 ;
214 [label="gini = 0.071\nsamples = 1281\nvalue = [1926, 0, 0, 0, 44, 29, 0]"] ;
212 -> 214 ;
}