digraph Tree {
node [shape=box] ;
0 [label="X[8] <= 1.5\ngini = 0.767\nsamples = 11106521\nvalue = [3318045, 5196522, 2032, 5148447, 28675, 1814404, 2061024]"] ;
1 [label="gini = 0.0\nsamples = 1188642\nvalue = [1879924, 0, 0, 0, 0, 0, 0]"] ;
0 -> 1 [labeldistance=2.5, labelangle=45, headlabel="True"] ;
2 [label="X[0] <= 0.5\ngini = 0.744\nsamples = 9917879\nvalue = [1438121, 5196522, 2032, 5148447, 28675, 1814404, 2061024]"] ;
0 -> 2 [labeldistance=2.5, labelangle=-45, headlabel="False"] ;
3 [label="X[8] <= 2.5\ngini = 0.777\nsamples = 5171946\nvalue = [934364, 1446930, 1999, 2669751, 23689, 1440627, 1665600]"] ;
2 -> 3 ;
4 [label="X[9] <= 2.5\ngini = 0.73\nsamples = 4549795\nvalue = [0, 1446930, 0, 2669751, 0, 1416396, 1665600]"] ;
3 -> 4 ;
5 [label="X[4] <= 6.5\ngini = 0.719\nsamples = 3149971\nvalue = [0, 998568, 0, 1938316, 0, 1287645, 759036]"] ;
4 -> 5 ;
6 [label="X[10] <= 29.5\ngini = 0.725\nsamples = 1234573\nvalue = [0, 376111, 0, 755254, 0, 421302, 400183]"] ;
5 -> 6 ;
7 [label="X[6] <= 17.5\ngini = 0.722\nsamples = 180840\nvalue = [0, 32099, 0, 96346, 0, 81356, 76194]"] ;
6 -> 7 ;
8 [label="X[4] <= 3.5\ngini = 0.714\nsamples = 67880\nvalue = [0, 16631, 0, 43519, 0, 21129, 26117]"] ;
7 -> 8 ;
9 [label="gini = 0.709\nsamples = 34123\nvalue = [0, 9604, 0, 20797, 0, 7091, 16543]"] ;
8 -> 9 ;
10 [label="gini = 0.7\nsamples = 33757\nvalue = [0, 7027, 0, 22722, 0, 14038, 9574]"] ;
8 -> 10 ;
11 [label="X[10] <= 24.5\ngini = 0.713\nsamples = 112960\nvalue = [0, 15468, 0, 52827, 0, 60227, 50077]"] ;
7 -> 11 ;
12 [label="gini = 0.709\nsamples = 32061\nvalue = [0, 9416, 0, 21541, 0, 10695, 9062]"] ;
11 -> 12 ;
13 [label="gini = 0.685\nsamples = 80899\nvalue = [0, 6052, 0, 31286, 0, 49532, 41015]"] ;
11 -> 13 ;
14 [label="X[10] <= 89.5\ngini = 0.722\nsamples = 1053733\nvalue = [0, 344012, 0, 658908, 0, 339946, 323989]"] ;
6 -> 14 ;
15 [label="X[2] <= 119.5\ngini = 0.7\nsamples = 458664\nvalue = [0, 139370, 0, 321558, 0, 135489, 129347]"] ;
14 -> 15 ;
16 [label="gini = 0.663\nsamples = 171879\nvalue = [0, 42196, 0, 137224, 0, 44993, 47400]"] ;
15 -> 16 ;
17 [label="gini = 0.717\nsamples = 286785\nvalue = [0, 97174, 0, 184334, 0, 90496, 81947]"] ;
15 -> 17 ;
18 [label="X[4] <= 3.5\ngini = 0.734\nsamples = 595069\nvalue = [0, 204642, 0, 337350, 0, 204457, 194642]"] ;
14 -> 18 ;
19 [label="gini = 0.716\nsamples = 303191\nvalue = [0, 111426, 0, 171550, 0, 143724, 52153]"] ;
18 -> 19 ;
20 [label="gini = 0.718\nsamples = 291878\nvalue = [0, 93216, 0, 165800, 0, 60733, 142489]"] ;
18 -> 20 ;
21 [label="X[4] <= 11.5\ngini = 0.71\nsamples = 1915398\nvalue = [0, 622457, 0, 1183062, 0, 866343, 358853]"] ;
5 -> 21 ;
22 [label="X[10] <= 29.5\ngini = 0.704\nsamples = 1618407\nvalue = [0, 524449, 0, 998480, 0, 776594, 260692]"] ;
21 -> 22 ;
23 [label="X[2] <= 131.5\ngini = 0.713\nsamples = 250046\nvalue = [0, 51210, 0, 136493, 0, 136521, 71496]"] ;
22 -> 23 ;
24 [label="gini = 0.707\nsamples = 167019\nvalue = [0, 26915, 0, 80848, 0, 100330, 56305]"] ;
23 -> 24 ;
25 [label="gini = 0.697\nsamples = 83027\nvalue = [0, 24295, 0, 55645, 0, 36191, 15191]"] ;
23 -> 25 ;
26 [label="X[9] <= 0.5\ngini = 0.699\nsamples = 1368361\nvalue = [0, 473239, 0, 861987, 0, 640073, 189196]"] ;
22 -> 26 ;
27 [label="gini = 0.654\nsamples = 317652\nvalue = [0, 145491, 0, 214125, 0, 0, 142555]"] ;
26 -> 27 ;
28 [label="gini = 0.66\nsamples = 1050709\nvalue = [0, 327748, 0, 647862, 0, 640073, 46641]"] ;
26 -> 28 ;
29 [label="X[2] <= 133.5\ngini = 0.723\nsamples = 296991\nvalue = [0, 98008, 0, 184582, 0, 89749, 98161]"] ;
21 -> 29 ;
30 [label="X[7] <= 214.5\ngini = 0.721\nsamples = 277003\nvalue = [0, 86305, 0, 174399, 0, 83593, 94386]"] ;
29 -> 30 ;
31 [label="gini = 0.733\nsamples = 162513\nvalue = [0, 52669, 0, 93198, 0, 52063, 59250]"] ;
30 -> 31 ;
32 [label="gini = 0.698\nsamples = 114490\nvalue = [0, 33636, 0, 81201, 0, 31530, 35136]"] ;
30 -> 32 ;
33 [label="X[5] <= 1.5\ngini = 0.711\nsamples = 19988\nvalue = [0, 11703, 0, 10183, 0, 6156, 3775]"] ;
29 -> 33 ;
34 [label="gini = 0.697\nsamples = 11246\nvalue = [0, 6817, 0, 5844, 0, 1534, 3591]"] ;
33 -> 34 ;
35 [label="gini = 0.674\nsamples = 8742\nvalue = [0, 4886, 0, 4339, 0, 4622, 184]"] ;
33 -> 35 ;
36 [label="X[10] <= 29.5\ngini = 0.679\nsamples = 1399824\nvalue = [0, 448362, 0, 731435, 0, 128751, 906564]"] ;
4 -> 36 ;
37 [label="X[4] <= 6.5\ngini = 0.622\nsamples = 171305\nvalue = [0, 27000, 0, 79839, 0, 22248, 142298]"] ;
36 -> 37 ;
38 [label="X[4] <= 4.5\ngini = 0.711\nsamples = 73142\nvalue = [0, 14262, 0, 35789, 0, 22205, 43866]"] ;
37 -> 38 ;
39 [label="X[5] <= 0.5\ngini = 0.585\nsamples = 37130\nvalue = [0, 8681, 0, 17988, 0, 0, 32293]"] ;
38 -> 39 ;
40 [label="gini = 0.399\nsamples = 8510\nvalue = [0, 561, 0, 2887, 0, 0, 10031]"] ;
39 -> 40 ;
41 [label="gini = 0.618\nsamples = 28620\nvalue = [0, 8120, 0, 15101, 0, 0, 22262]"] ;
39 -> 41 ;
42 [label="X[10] <= 24.5\ngini = 0.702\nsamples = 36012\nvalue = [0, 5581, 0, 17801, 0, 22205, 11573]"] ;
38 -> 42 ;
43 [label="gini = 0.722\nsamples = 18203\nvalue = [0, 4520, 0, 10598, 0, 8485, 5341]"] ;
42 -> 43 ;
44 [label="gini = 0.648\nsamples = 17809\nvalue = [0, 1061, 0, 7203, 0, 13720, 6232]"] ;
42 -> 44 ;
45 [label="X[6] <= 30.5\ngini = 0.511\nsamples = 98163\nvalue = [0, 12738, 0, 44050, 0, 43, 98432]"] ;
37 -> 45 ;
46 [label="X[6] <= 11.0\ngini = 0.599\nsamples = 42052\nvalue = [0, 8695, 0, 25248, 0, 7, 32479]"] ;
45 -> 46 ;
47 [label="gini = 0.646\nsamples = 4777\nvalue = [0, 1716, 0, 3245, 0, 3, 2573]"] ;
46 -> 47 ;
48 [label="gini = 0.588\nsamples = 37275\nvalue = [0, 6979, 0, 22003, 0, 4, 29906]"] ;
46 -> 48 ;
49 [label="X[6] <= 34.5\ngini = 0.402\nsamples = 56111\nvalue = [0, 4043, 0, 18802, 0, 36, 65953]"] ;
45 -> 49 ;
50 [label="gini = 0.374\nsamples = 53259\nvalue = [0, 2683, 0, 17190, 0, 36, 64408]"] ;
49 -> 50 ;
51 [label="gini = 0.665\nsamples = 2852\nvalue = [0, 1360, 0, 1612, 0, 0, 1545]"] ;
49 -> 51 ;
52 [label="X[6] <= 12.5\ngini = 0.683\nsamples = 1228519\nvalue = [0, 421362, 0, 651596, 0, 106503, 764266]"] ;
36 -> 52 ;
53 [label="X[4] <= 4.5\ngini = 0.668\nsamples = 548132\nvalue = [0, 148543, 0, 306230, 0, 49494, 362128]"] ;
52 -> 53 ;
54 [label="X[10] <= 235.5\ngini = 0.631\nsamples = 227387\nvalue = [0, 76857, 0, 109980, 0, 0, 171785]"] ;
53 -> 54 ;
55 [label="gini = 0.616\nsamples = 187541\nvalue = [0, 56300, 0, 89919, 0, 0, 149595]"] ;
54 -> 55 ;
56 [label="gini = 0.666\nsamples = 39846\nvalue = [0, 20557, 0, 20061, 0, 0, 22190]"] ;
54 -> 56 ;
57 [label="X[5] <= 1.5\ngini = 0.681\nsamples = 320745\nvalue = [0, 71686, 0, 196250, 0, 49494, 190343]"] ;
53 -> 57 ;
58 [label="gini = 0.641\nsamples = 187090\nvalue = [0, 36435, 0, 117686, 0, 15165, 126956]"] ;
57 -> 58 ;
59 [label="gini = 0.718\nsamples = 133655\nvalue = [0, 35251, 0, 78564, 0, 34329, 63387]"] ;
57 -> 59 ;
60 [label="X[4] <= 4.5\ngini = 0.691\nsamples = 680387\nvalue = [0, 272819, 0, 345366, 0, 57009, 402138]"] ;
52 -> 60 ;
61 [label="X[6] <= 47.5\ngini = 0.646\nsamples = 311604\nvalue = [0, 144299, 0, 127090, 0, 0, 221887]"] ;
60 -> 61 ;
62 [label="gini = 0.648\nsamples = 303783\nvalue = [0, 142141, 0, 126225, 0, 0, 212451]"] ;
61 -> 62 ;
63 [label="gini = 0.392\nsamples = 7821\nvalue = [0, 2158, 0, 865, 0, 0, 9436]"] ;
61 -> 63 ;
64 [label="X[5] <= 1.5\ngini = 0.707\nsamples = 368783\nvalue = [0, 128520, 0, 218276, 0, 57009, 180251]"] ;
60 -> 64 ;
65 [label="gini = 0.673\nsamples = 195152\nvalue = [0, 61711, 0, 121510, 0, 14316, 111251]"] ;
64 -> 65 ;
66 [label="gini = 0.731\nsamples = 173631\nvalue = [0, 66809, 0, 96766, 0, 42693, 69000]"] ;
64 -> 66 ;
67 [label="X[2] <= 131.5\ngini = 0.098\nsamples = 622151\nvalue = [934364, 0, 1999, 0, 23689, 24231, 0]"] ;
3 -> 67 ;
68 [label="X[3] <= 47.5\ngini = 0.081\nsamples = 514270\nvalue = [779773, 0, 1505, 0, 15845, 16704, 0]"] ;
67 -> 68 ;
69 [label="X[8] <= 4.5\ngini = 0.039\nsamples = 160908\nvalue = [249632, 0, 275, 0, 2292, 2445, 0]"] ;
68 -> 69 ;
70 [label="X[8] <= 3.5\ngini = 0.271\nsamples = 20959\nvalue = [27940, 0, 275, 0, 2292, 2445, 0]"] ;
69 -> 70 ;
71 [label="X[4] <= 9.5\ngini = 0.075\nsamples = 18433\nvalue = [27940, 0, 0, 0, 519, 608, 0]"] ;
70 -> 71 ;
72 [label="gini = 0.086\nsamples = 12107\nvalue = [18227, 0, 0, 0, 438, 408, 0]"] ;
71 -> 72 ;
73 [label="gini = 0.055\nsamples = 6326\nvalue = [9713, 0, 0, 0, 81, 200, 0]"] ;
71 -> 73 ;
74 [label="X[5] <= 2.5\ngini = 0.563\nsamples = 2526\nvalue = [0, 0, 275, 0, 1773, 1837, 0]"] ;
70 -> 74 ;
75 [label="gini = 0.556\nsamples = 2491\nvalue = [0, 0, 237, 0, 1773, 1825, 0]"] ;
74 -> 75 ;
76 [label="gini = 0.365\nsamples = 35\nvalue = [0, 0, 38, 0, 0, 12, 0]"] ;
74 -> 76 ;
77 [label="gini = 0.0\nsamples = 139949\nvalue = [221692, 0, 0, 0, 0, 0, 0]"] ;
69 -> 77 ;
78 [label="X[5] <= 1.5\ngini = 0.1\nsamples = 353362\nvalue = [530141, 0, 1230, 0, 13553, 14259, 0]"] ;
68 -> 78 ;
79 [label="X[8] <= 4.5\ngini = 0.113\nsamples = 194059\nvalue = [289002, 0, 960, 0, 7114, 10088, 0]"] ;
78 -> 79 ;
80 [label="X[1] <= 0.5\ngini = 0.278\nsamples = 73048\nvalue = [97312, 0, 960, 0, 7114, 10088, 0]"] ;
79 -> 80 ;
81 [label="gini = 0.334\nsamples = 56384\nvalue = [71808, 0, 945, 0, 6886, 9554, 0]"] ;
80 -> 81 ;
82 [label="gini = 0.058\nsamples = 16664\nvalue = [25504, 0, 15, 0, 228, 534, 0]"] ;
80 -> 82 ;
83 [label="gini = 0.0\nsamples = 121011\nvalue = [191690, 0, 0, 0, 0, 0, 0]"] ;
79 -> 83 ;
84 [label="X[7] <= 217.5\ngini = 0.084\nsamples = 159303\nvalue = [241139, 0, 270, 0, 6439, 4171, 0]"] ;
78 -> 84 ;
85 [label="X[10] <= 11.5\ngini = 0.069\nsamples = 123481\nvalue = [188342, 0, 254, 0, 3756, 2960, 0]"] ;
84 -> 85 ;
86 [label="gini = 0.521\nsamples = 22\nvalue = [19, 0, 1, 0, 15, 0, 0]"] ;
85 -> 86 ;
87 [label="gini = 0.069\nsamples = 123459\nvalue = [188323, 0, 253, 0, 3741, 2960, 0]"] ;
85 -> 87 ;
88 [label="X[10] <= 85.5\ngini = 0.13\nsamples = 35822\nvalue = [52797, 0, 16, 0, 2683, 1211, 0]"] ;
84 -> 88 ;
89 [label="gini = 0.097\nsamples = 22596\nvalue = [33979, 0, 5, 0, 1109, 692, 0]"] ;
88 -> 89 ;
90 [label="gini = 0.185\nsamples = 13226\nvalue = [18818, 0, 11, 0, 1574, 519, 0]"] ;
88 -> 90 ;
91 [label="X[8] <= 4.5\ngini = 0.173\nsamples = 107881\nvalue = [154591, 0, 494, 0, 7844, 7527, 0]"] ;
67 -> 91 ;
92 [label="X[1] <= 0.5\ngini = 0.359\nsamples = 47218\nvalue = [58801, 0, 494, 0, 7844, 7527, 0]"] ;
91 -> 92 ;
93 [label="X[7] <= 181.5\ngini = 0.41\nsamples = 38602\nvalue = [45707, 0, 491, 0, 7737, 7119, 0]"] ;
92 -> 93 ;
94 [label="X[8] <= 3.5\ngini = 0.325\nsamples = 30930\nvalue = [39676, 0, 477, 0, 3711, 5019, 0]"] ;
93 -> 94 ;
95 [label="gini = 0.227\nsamples = 28697\nvalue = [39676, 0, 0, 0, 2371, 3311, 0]"] ;
94 -> 95 ;
96 [label="gini = 0.602\nsamples = 2233\nvalue = [0, 0, 477, 0, 1340, 1708, 0]"] ;
94 -> 96 ;
97 [label="X[8] <= 3.5\ngini = 0.615\nsamples = 7672\nvalue = [6031, 0, 14, 0, 4026, 2100, 0]"] ;
93 -> 97 ;
98 [label="gini = 0.383\nsamples = 4971\nvalue = [6031, 0, 0, 0, 1403, 471, 0]"] ;
97 -> 98 ;
99 [label="gini = 0.476\nsamples = 2701\nvalue = [0, 0, 14, 0, 2623, 1629, 0]"] ;
97 -> 99 ;
100 [label="X[3] <= 75.5\ngini = 0.074\nsamples = 8616\nvalue = [13094, 0, 3, 0, 107, 408, 0]"] ;
92 -> 100 ;
101 [label="X[10] <= 115.5\ngini = 0.06\nsamples = 6914\nvalue = [10546, 0, 3, 0, 85, 244, 0]"] ;
100 -> 101 ;
102 [label="gini = 0.007\nsamples = 688\nvalue = [1089, 0, 0, 0, 2, 2, 0]"] ;
101 -> 102 ;
103 [label="gini = 0.065\nsamples = 6226\nvalue = [9457, 0, 3, 0, 83, 242, 0]"] ;
101 -> 103 ;
104 [label="X[7] <= 96.5\ngini = 0.128\nsamples = 1702\nvalue = [2548, 0, 0, 0, 22, 164, 0]"] ;
100 -> 104 ;
105 [label="gini = 0.218\nsamples = 706\nvalue = [984, 0, 0, 0, 17, 120, 0]"] ;
104 -> 105 ;
106 [label="gini = 0.059\nsamples = 996\nvalue = [1564, 0, 0, 0, 5, 44, 0]"] ;
104 -> 106 ;
107 [label="gini = 0.0\nsamples = 60663\nvalue = [95790, 0, 0, 0, 0, 0, 0]"] ;
91 -> 107 ;
108 [label="X[8] <= 2.5\ngini = 0.632\nsamples = 4745933\nvalue = [503757, 3749592, 33, 2478696, 4986, 373777, 395424]"] ;
2 -> 108 ;
109 [label="X[5] <= 0.5\ngini = 0.581\nsamples = 4421510\nvalue = [0, 3749592, 0, 2478696, 0, 368923, 395424]"] ;
108 -> 109 ;
110 [label="X[0] <= 1.5\ngini = 0.657\nsamples = 410783\nvalue = [0, 203894, 0, 304113, 0, 55609, 85597]"] ;
109 -> 110 ;
111 [label="X[9] <= 2.5\ngini = 0.651\nsamples = 360519\nvalue = [0, 148238, 0, 285684, 0, 54108, 81582]"] ;
110 -> 111 ;
112 [label="X[4] <= 7.5\ngini = 0.639\nsamples = 171190\nvalue = [0, 69106, 0, 138638, 0, 44427, 17612]"] ;
111 -> 112 ;
113 [label="X[4] <= 2.5\ngini = 0.642\nsamples = 53407\nvalue = [0, 25342, 0, 41780, 0, 7276, 9761]"] ;
112 -> 113 ;
114 [label="gini = 0.617\nsamples = 27703\nvalue = [0, 15354, 0, 21137, 0, 7043, 213]"] ;
113 -> 114 ;
115 [label="gini = 0.622\nsamples = 25704\nvalue = [0, 9988, 0, 20643, 0, 233, 9548]"] ;
113 -> 115 ;
116 [label="X[4] <= 11.5\ngini = 0.63\nsamples = 117783\nvalue = [0, 43764, 0, 96858, 0, 37151, 7851]"] ;
112 -> 116 ;
117 [label="gini = 0.617\nsamples = 99647\nvalue = [0, 35590, 0, 83057, 0, 36047, 2509]"] ;
116 -> 117 ;
118 [label="gini = 0.645\nsamples = 18136\nvalue = [0, 8174, 0, 13801, 0, 1104, 5342]"] ;
116 -> 118 ;
119 [label="X[7] <= 102.5\ngini = 0.643\nsamples = 189329\nvalue = [0, 79132, 0, 147046, 0, 9681, 63970]"] ;
111 -> 119 ;
120 [label="X[2] <= 124.5\ngini = 0.653\nsamples = 24460\nvalue = [0, 13718, 0, 16654, 0, 920, 7559]"] ;
119 -> 120 ;
121 [label="gini = 0.645\nsamples = 7965\nvalue = [0, 2392, 0, 6058, 0, 446, 3723]"] ;
120 -> 121 ;
122 [label="gini = 0.629\nsamples = 16495\nvalue = [0, 11326, 0, 10596, 0, 474, 3836]"] ;
120 -> 122 ;
123 [label="X[10] <= 39.5\ngini = 0.64\nsamples = 164869\nvalue = [0, 65414, 0, 130392, 0, 8761, 56411]"] ;
119 -> 123 ;
124 [label="gini = 0.632\nsamples = 20026\nvalue = [0, 3321, 0, 14673, 0, 1880, 11829]"] ;
123 -> 124 ;
125 [label="gini = 0.633\nsamples = 144843\nvalue = [0, 62093, 0, 115719, 0, 6881, 44582]"] ;
123 -> 125 ;
126 [label="X[3] <= 72.5\ngini = 0.455\nsamples = 50264\nvalue = [0, 55656, 0, 18429, 0, 1501, 4015]"] ;
110 -> 126 ;
127 [label="X[9] <= 2.5\ngini = 0.428\nsamples = 40965\nvalue = [0, 47155, 0, 12933, 0, 1178, 3549]"] ;
126 -> 127 ;
128 [label="X[4] <= 3.0\ngini = 0.389\nsamples = 17974\nvalue = [0, 21458, 0, 5602, 0, 805, 524]"] ;
127 -> 128 ;
129 [label="gini = 0.274\nsamples = 5886\nvalue = [0, 7785, 0, 1450, 0, 53, 4]"] ;
128 -> 129 ;
130 [label="gini = 0.438\nsamples = 12088\nvalue = [0, 13673, 0, 4152, 0, 752, 520]"] ;
128 -> 130 ;
131 [label="X[2] <= 119.5\ngini = 0.455\nsamples = 22991\nvalue = [0, 25697, 0, 7331, 0, 373, 3025]"] ;
127 -> 131 ;
132 [label="gini = 0.661\nsamples = 1852\nvalue = [0, 1178, 0, 417, 0, 191, 1162]"] ;
131 -> 132 ;
133 [label="gini = 0.418\nsamples = 21139\nvalue = [0, 24519, 0, 6914, 0, 182, 1863]"] ;
131 -> 133 ;
134 [label="X[4] <= 2.5\ngini = 0.53\nsamples = 9299\nvalue = [0, 8501, 0, 5496, 0, 323, 466]"] ;
126 -> 134 ;
135 [label="X[6] <= 34.0\ngini = 0.449\nsamples = 4811\nvalue = [0, 5239, 0, 2328, 0, 22, 137]"] ;
134 -> 135 ;
136 [label="gini = 0.408\nsamples = 1725\nvalue = [0, 2030, 0, 681, 0, 10, 64]"] ;
135 -> 136 ;
137 [label="gini = 0.467\nsamples = 3086\nvalue = [0, 3209, 0, 1647, 0, 12, 73]"] ;
135 -> 137 ;
138 [label="X[4] <= 10.5\ngini = 0.581\nsamples = 4488\nvalue = [0, 3262, 0, 3168, 0, 301, 329]"] ;
134 -> 138 ;
139 [label="gini = 0.573\nsamples = 2286\nvalue = [0, 1224, 0, 1987, 0, 130, 257]"] ;
138 -> 139 ;
140 [label="gini = 0.534\nsamples = 2202\nvalue = [0, 2038, 0, 1181, 0, 171, 72]"] ;
138 -> 140 ;
141 [label="X[4] <= 2.5\ngini = 0.565\nsamples = 4010727\nvalue = [0, 3545698, 0, 2174583, 0, 313314, 309827]"] ;
109 -> 141 ;
142 [label="X[2] <= 124.5\ngini = 0.488\nsamples = 671676\nvalue = [0, 698192, 0, 294997, 0, 28998, 39788]"] ;
141 -> 142 ;
143 [label="X[2] <= 120.5\ngini = 0.566\nsamples = 205008\nvalue = [0, 177464, 0, 116485, 0, 11595, 18346]"] ;
142 -> 143 ;
144 [label="X[0] <= 1.5\ngini = 0.602\nsamples = 66275\nvalue = [0, 50960, 0, 41301, 0, 4556, 8168]"] ;
143 -> 144 ;
145 [label="gini = 0.607\nsamples = 59536\nvalue = [0, 44974, 0, 37359, 0, 4393, 7589]"] ;
144 -> 145 ;
146 [label="gini = 0.546\nsamples = 6739\nvalue = [0, 5986, 0, 3942, 0, 163, 579]"] ;
144 -> 146 ;
147 [label="X[3] <= 67.5\ngini = 0.545\nsamples = 138733\nvalue = [0, 126504, 0, 75184, 0, 7039, 10178]"] ;
143 -> 147 ;
148 [label="gini = 0.537\nsamples = 117693\nvalue = [0, 109379, 0, 62587, 0, 5455, 8305]"] ;
147 -> 148 ;
149 [label="gini = 0.584\nsamples = 21040\nvalue = [0, 17125, 0, 12597, 0, 1584, 1873]"] ;
147 -> 149 ;
150 [label="X[6] <= 45.5\ngini = 0.442\nsamples = 466668\nvalue = [0, 520728, 0, 178512, 0, 17403, 21442]"] ;
142 -> 150 ;
151 [label="X[0] <= 1.5\ngini = 0.447\nsamples = 452224\nvalue = [0, 501316, 0, 175667, 0, 17112, 21104]"] ;
150 -> 151 ;
152 [label="gini = 0.493\nsamples = 327164\nvalue = [0, 337797, 0, 145074, 0, 15938, 18509]"] ;
151 -> 152 ;
153 [label="gini = 0.293\nsamples = 125060\nvalue = [0, 163519, 0, 30593, 0, 1174, 2595]"] ;
151 -> 153 ;
154 [label="X[10] <= 137.5\ngini = 0.265\nsamples = 14444\nvalue = [0, 19412, 0, 2845, 0, 291, 338]"] ;
150 -> 154 ;
155 [label="gini = 0.415\nsamples = 5379\nvalue = [0, 6241, 0, 1826, 0, 212, 232]"] ;
154 -> 155 ;
156 [label="gini = 0.155\nsamples = 9065\nvalue = [0, 13171, 0, 1019, 0, 79, 106]"] ;
154 -> 156 ;
157 [label="X[0] <= 2.5\ngini = 0.577\nsamples = 3339051\nvalue = [0, 2847506, 0, 1879586, 0, 284316, 270039]"] ;
141 -> 157 ;
158 [label="X[3] <= 57.5\ngini = 0.576\nsamples = 3210988\nvalue = [0, 2765273, 0, 1775589, 0, 276762, 260915]"] ;
157 -> 158 ;
159 [label="X[10] <= 230.5\ngini = 0.525\nsamples = 1062759\nvalue = [0, 1028288, 0, 526587, 0, 63127, 62827]"] ;
158 -> 159 ;
160 [label="gini = 0.563\nsamples = 370662\nvalue = [0, 331985, 0, 195179, 0, 28192, 30652]"] ;
159 -> 160 ;
161 [label="gini = 0.502\nsamples = 692097\nvalue = [0, 696303, 0, 331408, 0, 34935, 32175]"] ;
159 -> 161 ;
162 [label="X[5] <= 1.5\ngini = 0.596\nsamples = 2148229\nvalue = [0, 1736985, 0, 1249002, 0, 213635, 198088]"] ;
158 -> 162 ;
163 [label="gini = 0.61\nsamples = 763981\nvalue = [0, 584421, 0, 460749, 0, 48853, 114625]"] ;
162 -> 163 ;
164 [label="gini = 0.586\nsamples = 1384248\nvalue = [0, 1152564, 0, 788253, 0, 164782, 83463]"] ;
162 -> 164 ;
165 [label="X[3] <= 45.5\ngini = 0.57\nsamples = 128063\nvalue = [0, 82233, 0, 103997, 0, 7554, 9124]"] ;
157 -> 165 ;
166 [label="X[10] <= 232.5\ngini = 0.466\nsamples = 42216\nvalue = [0, 16550, 0, 45907, 0, 2428, 2031]"] ;
165 -> 166 ;
167 [label="gini = 0.392\nsamples = 12265\nvalue = [0, 2497, 0, 14918, 0, 1248, 832]"] ;
166 -> 167 ;
168 [label="gini = 0.484\nsamples = 29951\nvalue = [0, 14053, 0, 30989, 0, 1180, 1199]"] ;
166 -> 168 ;
169 [label="X[7] <= 110.5\ngini = 0.58\nsamples = 85847\nvalue = [0, 65683, 0, 58090, 0, 5126, 7093]"] ;
165 -> 169 ;
170 [label="gini = 0.318\nsamples = 14862\nvalue = [0, 19183, 0, 3048, 0, 415, 910]"] ;
169 -> 170 ;
171 [label="gini = 0.585\nsamples = 70985\nvalue = [0, 46500, 0, 55042, 0, 4711, 6183]"] ;
169 -> 171 ;
172 [label="X[3] <= 72.5\ngini = 0.038\nsamples = 324423\nvalue = [503757, 0, 33, 0, 4986, 4854, 0]"] ;
108 -> 172 ;
173 [label="X[6] <= 43.5\ngini = 0.021\nsamples = 236465\nvalue = [370711, 0, 16, 0, 1868, 2014, 0]"] ;
172 -> 173 ;
174 [label="X[7] <= 170.5\ngini = 0.014\nsamples = 220332\nvalue = [346460, 0, 15, 0, 1016, 1369, 0]"] ;
173 -> 174 ;
175 [label="X[7] <= 41.5\ngini = 0.022\nsamples = 113737\nvalue = [177846, 0, 11, 0, 800, 1221, 0]"] ;
174 -> 175 ;
176 [label="X[8] <= 4.5\ngini = 0.01\nsamples = 38342\nvalue = [60332, 0, 0, 0, 108, 187, 0]"] ;
175 -> 176 ;
177 [label="gini = 0.07\nsamples = 5135\nvalue = [7880, 0, 0, 0, 108, 187, 0]"] ;
176 -> 177 ;
178 [label="gini = 0.0\nsamples = 33207\nvalue = [52452, 0, 0, 0, 0, 0, 0]"] ;
176 -> 178 ;
179 [label="X[1] <= 0.5\ngini = 0.029\nsamples = 75395\nvalue = [117514, 0, 11, 0, 692, 1034, 0]"] ;
175 -> 179 ;
180 [label="gini = 0.026\nsamples = 69055\nvalue = [107782, 0, 11, 0, 544, 896, 0]"] ;
179 -> 180 ;
181 [label="gini = 0.056\nsamples = 6340\nvalue = [9732, 0, 0, 0, 148, 138, 0]"] ;
179 -> 181 ;
182 [label="X[10] <= 249.5\ngini = 0.004\nsamples = 106595\nvalue = [168614, 0, 4, 0, 216, 148, 0]"] ;
174 -> 182 ;
183 [label="X[8] <= 4.5\ngini = 0.003\nsamples = 105543\nvalue = [166990, 0, 4, 0, 126, 137, 0]"] ;
182 -> 183 ;
184 [label="gini = 0.118\nsamples = 2750\nvalue = [4043, 0, 4, 0, 126, 137, 0]"] ;
183 -> 184 ;
185 [label="gini = 0.0\nsamples = 102793\nvalue = [162947, 0, 0, 0, 0, 0, 0]"] ;
183 -> 185 ;
186 [label="X[8] <= 4.5\ngini = 0.111\nsamples = 1052\nvalue = [1624, 0, 0, 0, 90, 11, 0]"] ;
182 -> 186 ;
187 [label="gini = 0.554\nsamples = 105\nvalue = [84, 0, 0, 0, 90, 11, 0]"] ;
186 -> 187 ;
188 [label="gini = 0.0\nsamples = 947\nvalue = [1540, 0, 0, 0, 0, 0, 0]"] ;
186 -> 188 ;
189 [label="X[2] <= 137.5\ngini = 0.111\nsamples = 16133\nvalue = [24251, 0, 1, 0, 852, 645, 0]"] ;
173 -> 189 ;
190 [label="X[8] <= 4.0\ngini = 0.054\nsamples = 8583\nvalue = [13361, 0, 0, 0, 136, 241, 0]"] ;
189 -> 190 ;
191 [label="X[9] <= 2.5\ngini = 0.172\nsamples = 2535\nvalue = [3691, 0, 0, 0, 136, 241, 0]"] ;
190 -> 191 ;
192 [label="gini = 0.107\nsamples = 1150\nvalue = [1729, 0, 0, 0, 86, 17, 0]"] ;
191 -> 192 ;
193 [label="gini = 0.22\nsamples = 1385\nvalue = [1962, 0, 0, 0, 50, 224, 0]"] ;
191 -> 193 ;
194 [label="gini = 0.0\nsamples = 6048\nvalue = [9670, 0, 0, 0, 0, 0, 0]"] ;
190 -> 194 ;
195 [label="X[8] <= 4.5\ngini = 0.173\nsamples = 7550\nvalue = [10890, 0, 1, 0, 716, 404, 0]"] ;
189 -> 195 ;
196 [label="X[0] <= 1.5\ngini = 0.587\nsamples = 1574\nvalue = [1382, 0, 1, 0, 716, 404, 0]"] ;
195 -> 196 ;
197 [label="gini = 0.638\nsamples = 1228\nvalue = [861, 0, 1, 0, 705, 394, 0]"] ;
196 -> 197 ;
198 [label="gini = 0.075\nsamples = 346\nvalue = [521, 0, 0, 0, 11, 10, 0]"] ;
196 -> 198 ;
199 [label="gini = 0.0\nsamples = 5976\nvalue = [9508, 0, 0, 0, 0, 0, 0]"] ;
195 -> 199 ;
200 [label="X[10] <= 59.5\ngini = 0.083\nsamples = 87958\nvalue = [133046, 0, 17, 0, 3118, 2840, 0]"] ;
172 -> 200 ;
201 [label="X[8] <= 4.5\ngini = 0.041\nsamples = 83863\nvalue = [129795, 0, 17, 0, 1246, 1469, 0]"] ;
200 -> 201 ;
202 [label="X[8] <= 3.5\ngini = 0.163\nsamples = 19839\nvalue = [28539, 0, 17, 0, 1246, 1469, 0]"] ;
201 -> 202 ;
203 [label="X[10] <= 6.5\ngini = 0.162\nsamples = 19820\nvalue = [28539, 0, 0, 0, 1238, 1463, 0]"] ;
202 -> 203 ;
204 [label="gini = 0.629\nsamples = 1451\nvalue = [1104, 0, 0, 0, 580, 558, 0]"] ;
203 -> 204 ;
205 [label="gini = 0.103\nsamples = 18369\nvalue = [27435, 0, 0, 0, 658, 905, 0]"] ;
203 -> 205 ;
206 [label="X[10] <= 16.5\ngini = 0.595\nsamples = 19\nvalue = [0, 0, 17, 0, 8, 6, 0]"] ;
202 -> 206 ;
207 [label="gini = 0.43\nsamples = 14\nvalue = [0, 0, 16, 0, 2, 4, 0]"] ;
206 -> 207 ;
208 [label="gini = 0.494\nsamples = 5\nvalue = [0, 0, 1, 0, 6, 2, 0]"] ;
206 -> 208 ;
209 [label="gini = 0.0\nsamples = 64024\nvalue = [101256, 0, 0, 0, 0, 0, 0]"] ;
201 -> 209 ;
210 [label="X[0] <= 1.5\ngini = 0.622\nsamples = 4095\nvalue = [3251, 0, 0, 0, 1872, 1371, 0]"] ;
200 -> 210 ;
211 [label="X[4] <= 11.5\ngini = 0.257\nsamples = 1420\nvalue = [1902, 0, 0, 0, 143, 178, 0]"] ;
210 -> 211 ;
212 [label="X[2] <= 126.5\ngini = 0.245\nsamples = 1352\nvalue = [1821, 0, 0, 0, 140, 148, 0]"] ;
211 -> 212 ;
213 [label="gini = 0.042\nsamples = 63\nvalue = [92, 0, 0, 0, 0, 2, 0]"] ;
212 -> 213 ;
214 [label="gini = 0.254\nsamples = 1289\nvalue = [1729, 0, 0, 0, 140, 146, 0]"] ;
212 -> 214 ;
215 [label="X[7] <= 111.5\ngini = 0.425\nsamples = 68\nvalue = [81, 0, 0, 0, 3, 30, 0]"] ;
211 -> 215 ;
216 [label="gini = 0.287\nsamples = 11\nvalue = [4, 0, 0, 0, 0, 19, 0]"] ;
215 -> 216 ;
217 [label="gini = 0.268\nsamples = 57\nvalue = [77, 0, 0, 0, 3, 11, 0]"] ;
215 -> 217 ;
218 [label="X[8] <= 4.0\ngini = 0.658\nsamples = 2675\nvalue = [1349, 0, 0, 0, 1729, 1193, 0]"] ;
210 -> 218 ;
219 [label="X[4] <= 7.5\ngini = 0.573\nsamples = 2037\nvalue = [331, 0, 0, 0, 1729, 1193, 0]"] ;
218 -> 219 ;
220 [label="gini = 0.575\nsamples = 1079\nvalue = [152, 0, 0, 0, 740, 828, 0]"] ;
219 -> 220 ;
221 [label="gini = 0.513\nsamples = 958\nvalue = [179, 0, 0, 0, 989, 365, 0]"] ;
219 -> 221 ;
222 [label="gini = 0.0\nsamples = 638\nvalue = [1018, 0, 0, 0, 0, 0, 0]"] ;
218 -> 222 ;
}