digraph Tree {
node [shape=box] ;
0 [label="X[8] <= 1.5\ngini = 0.767\nsamples = 11105030\nvalue = [3316247, 5199124, 2088, 5147022, 28611, 1814676, 2061381]"] ;
1 [label="gini = 0.0\nsamples = 1188550\nvalue = [1880474, 0, 0, 0, 0, 0, 0]"] ;
0 -> 1 [labeldistance=2.5, labelangle=45, headlabel="True"] ;
2 [label="X[8] <= 2.5\ngini = 0.744\nsamples = 9916480\nvalue = [1435773, 5199124, 2088, 5147022, 28611, 1814676, 2061381]"] ;
0 -> 2 [labeldistance=2.5, labelangle=-45, headlabel="False"] ;
3 [label="X[9] <= 2.5\ngini = 0.697\nsamples = 8970754\nvalue = [0, 5199124, 0, 5147022, 0, 1785204, 2061381]"] ;
2 -> 3 ;
4 [label="X[5] <= 0.5\ngini = 0.692\nsamples = 5925547\nvalue = [0, 3351625, 0, 3520821, 0, 1616079, 886121]"] ;
3 -> 4 ;
5 [label="X[0] <= 1.5\ngini = 0.704\nsamples = 656586\nvalue = [0, 208465, 0, 437394, 0, 258573, 134781]"] ;
4 -> 5 ;
6 [label="X[0] <= 0.5\ngini = 0.7\nsamples = 633461\nvalue = [0, 182261, 0, 428933, 0, 257380, 134164]"] ;
5 -> 6 ;
7 [label="X[10] <= 29.5\ngini = 0.71\nsamples = 462199\nvalue = [0, 112870, 0, 289559, 0, 212682, 116692]"] ;
6 -> 7 ;
8 [label="X[9] <= 0.5\ngini = 0.704\nsamples = 76998\nvalue = [0, 7974, 0, 37347, 0, 38812, 37758]"] ;
7 -> 8 ;
9 [label="gini = 0.482\nsamples = 22071\nvalue = [0, 1767, 0, 10315, 0, 0, 22943]"] ;
8 -> 9 ;
10 [label="gini = 0.669\nsamples = 54927\nvalue = [0, 6207, 0, 27032, 0, 38812, 14815]"] ;
8 -> 10 ;
11 [label="X[10] <= 214.5\ngini = 0.701\nsamples = 385201\nvalue = [0, 104896, 0, 252212, 0, 173870, 78934]"] ;
7 -> 11 ;
12 [label="gini = 0.703\nsamples = 318590\nvalue = [0, 92499, 0, 212843, 0, 131187, 67896]"] ;
11 -> 12 ;
13 [label="gini = 0.672\nsamples = 66611\nvalue = [0, 12397, 0, 39369, 0, 42683, 11038]"] ;
11 -> 13 ;
14 [label="X[3] <= 74.5\ngini = 0.638\nsamples = 171262\nvalue = [0, 69391, 0, 139374, 0, 44698, 17472]"] ;
6 -> 14 ;
15 [label="X[7] <= 212.5\ngini = 0.63\nsamples = 150586\nvalue = [0, 63584, 0, 124101, 0, 36536, 14016]"] ;
14 -> 15 ;
16 [label="gini = 0.635\nsamples = 97224\nvalue = [0, 44824, 0, 77524, 0, 23130, 8230]"] ;
15 -> 16 ;
17 [label="gini = 0.617\nsamples = 53362\nvalue = [0, 18760, 0, 46577, 0, 13406, 5786]"] ;
15 -> 17 ;
18 [label="X[3] <= 75.5\ngini = 0.677\nsamples = 20676\nvalue = [0, 5807, 0, 15273, 0, 8162, 3456]"] ;
14 -> 18 ;
19 [label="gini = 0.684\nsamples = 11062\nvalue = [0, 2570, 0, 7808, 0, 4956, 2152]"] ;
18 -> 19 ;
20 [label="gini = 0.662\nsamples = 9614\nvalue = [0, 3237, 0, 7465, 0, 3206, 1304]"] ;
18 -> 20 ;
21 [label="X[4] <= 3.0\ngini = 0.429\nsamples = 23125\nvalue = [0, 26204, 0, 8461, 0, 1193, 617]"] ;
5 -> 21 ;
22 [label="X[3] <= 69.5\ngini = 0.324\nsamples = 8301\nvalue = [0, 10384, 0, 2523, 0, 87, 8]"] ;
21 -> 22 ;
23 [label="X[2] <= 120.5\ngini = 0.23\nsamples = 3545\nvalue = [0, 4828, 0, 664, 0, 56, 5]"] ;
22 -> 23 ;
24 [label="gini = 0.555\nsamples = 92\nvalue = [0, 68, 0, 72, 0, 9, 0]"] ;
23 -> 24 ;
25 [label="gini = 0.212\nsamples = 3453\nvalue = [0, 4760, 0, 592, 0, 47, 5]"] ;
23 -> 25 ;
26 [label="X[10] <= 7.5\ngini = 0.381\nsamples = 4756\nvalue = [0, 5556, 0, 1859, 0, 31, 3]"] ;
22 -> 26 ;
27 [label="gini = 0.504\nsamples = 123\nvalue = [0, 98, 0, 105, 0, 0, 1]"] ;
26 -> 27 ;
28 [label="gini = 0.374\nsamples = 4633\nvalue = [0, 5458, 0, 1754, 0, 31, 2]"] ;
26 -> 28 ;
29 [label="X[2] <= 131.5\ngini = 0.479\nsamples = 14824\nvalue = [0, 15820, 0, 5938, 0, 1106, 609]"] ;
21 -> 29 ;
30 [label="X[3] <= 72.5\ngini = 0.514\nsamples = 10035\nvalue = [0, 10165, 0, 4349, 0, 918, 493]"] ;
29 -> 30 ;
31 [label="gini = 0.477\nsamples = 8607\nvalue = [0, 9303, 0, 3227, 0, 714, 422]"] ;
30 -> 31 ;
32 [label="gini = 0.599\nsamples = 1428\nvalue = [0, 862, 0, 1122, 0, 204, 71]"] ;
30 -> 32 ;
33 [label="X[10] <= 6.5\ngini = 0.394\nsamples = 4789\nvalue = [0, 5655, 0, 1589, 0, 188, 116]"] ;
29 -> 33 ;
34 [label="gini = 0.563\nsamples = 166\nvalue = [0, 75, 0, 152, 0, 23, 9]"] ;
33 -> 34 ;
35 [label="gini = 0.374\nsamples = 4623\nvalue = [0, 5580, 0, 1437, 0, 165, 107]"] ;
33 -> 35 ;
36 [label="X[9] <= 0.5\ngini = 0.686\nsamples = 5268961\nvalue = [0, 3143160, 0, 3083427, 0, 1357506, 751340]"] ;
4 -> 36 ;
37 [label="X[5] <= 1.5\ngini = 0.655\nsamples = 539764\nvalue = [0, 296203, 0, 344310, 0, 0, 213796]"] ;
36 -> 37 ;
38 [label="X[0] <= 0.5\ngini = 0.66\nsamples = 301866\nvalue = [0, 145777, 0, 191254, 0, 0, 140500]"] ;
37 -> 38 ;
39 [label="X[10] <= 29.5\ngini = 0.651\nsamples = 242172\nvalue = [0, 91486, 0, 157903, 0, 0, 133593]"] ;
38 -> 39 ;
40 [label="gini = 0.643\nsamples = 72135\nvalue = [0, 24049, 0, 41595, 0, 0, 48222]"] ;
39 -> 40 ;
41 [label="gini = 0.65\nsamples = 170037\nvalue = [0, 67437, 0, 116308, 0, 0, 85371]"] ;
39 -> 41 ;
42 [label="X[6] <= 6.5\ngini = 0.541\nsamples = 59694\nvalue = [0, 54291, 0, 33351, 0, 0, 6907]"] ;
38 -> 42 ;
43 [label="gini = 0.579\nsamples = 8683\nvalue = [0, 6655, 0, 5825, 0, 0, 1287]"] ;
42 -> 43 ;
44 [label="gini = 0.531\nsamples = 51011\nvalue = [0, 47636, 0, 27526, 0, 0, 5620]"] ;
42 -> 44 ;
45 [label="X[1] <= 0.5\ngini = 0.638\nsamples = 237898\nvalue = [0, 150426, 0, 153056, 0, 0, 73296]"] ;
37 -> 45 ;
46 [label="X[3] <= 64.5\ngini = 0.638\nsamples = 237897\nvalue = [0, 150426, 0, 153055, 0, 0, 73296]"] ;
45 -> 46 ;
47 [label="gini = 0.618\nsamples = 153749\nvalue = [0, 112209, 0, 92037, 0, 0, 38877]"] ;
46 -> 47 ;
48 [label="gini = 0.643\nsamples = 84148\nvalue = [0, 38217, 0, 61018, 0, 0, 34419]"] ;
46 -> 48 ;
49 [label="gini = 0.0\nsamples = 1\nvalue = [0, 0, 0, 1, 0, 0, 0]"] ;
45 -> 49 ;
50 [label="X[0] <= 0.5\ngini = 0.683\nsamples = 4729197\nvalue = [0, 2846957, 0, 2739117, 0, 1357506, 537544]"] ;
36 -> 50 ;
51 [label="X[7] <= 208.5\ngini = 0.711\nsamples = 2267831\nvalue = [0, 702860, 0, 1370794, 0, 1073081, 439856]"] ;
50 -> 51 ;
52 [label="X[3] <= 74.5\ngini = 0.719\nsamples = 1332481\nvalue = [0, 419493, 0, 740211, 0, 670026, 277832]"] ;
51 -> 52 ;
53 [label="gini = 0.719\nsamples = 1125695\nvalue = [0, 382004, 0, 633800, 0, 542625, 221765]"] ;
52 -> 53 ;
54 [label="gini = 0.7\nsamples = 206786\nvalue = [0, 37489, 0, 106411, 0, 127401, 56067]"] ;
52 -> 54 ;
55 [label="X[4] <= 7.5\ngini = 0.695\nsamples = 935350\nvalue = [0, 283367, 0, 630583, 0, 403055, 162024]"] ;
51 -> 55 ;
56 [label="gini = 0.707\nsamples = 515983\nvalue = [0, 153499, 0, 349325, 0, 170891, 141988]"] ;
55 -> 56 ;
57 [label="gini = 0.658\nsamples = 419367\nvalue = [0, 129868, 0, 281258, 0, 232164, 20036]"] ;
55 -> 57 ;
58 [label="X[10] <= 230.5\ngini = 0.567\nsamples = 2461366\nvalue = [0, 2144097, 0, 1368323, 0, 284425, 97688]"] ;
50 -> 58 ;
59 [label="X[10] <= 229.5\ngini = 0.582\nsamples = 1931162\nvalue = [0, 1618997, 0, 1102750, 0, 248091, 86199]"] ;
58 -> 59 ;
60 [label="gini = 0.579\nsamples = 1845875\nvalue = [0, 1566431, 0, 1037690, 0, 234431, 82509]"] ;
59 -> 60 ;
61 [label="gini = 0.605\nsamples = 85287\nvalue = [0, 52566, 0, 65060, 0, 13660, 3690]"] ;
59 -> 61 ;
62 [label="X[6] <= 23.5\ngini = 0.505\nsamples = 530204\nvalue = [0, 525100, 0, 265573, 0, 36334, 11489]"] ;
58 -> 62 ;
63 [label="gini = 0.493\nsamples = 417169\nvalue = [0, 422629, 0, 202910, 0, 26112, 7892]"] ;
62 -> 63 ;
64 [label="gini = 0.546\nsamples = 113035\nvalue = [0, 102471, 0, 62663, 0, 10222, 3597]"] ;
62 -> 64 ;
65 [label="X[4] <= 4.5\ngini = 0.678\nsamples = 3045207\nvalue = [0, 1847499, 0, 1626201, 0, 169125, 1175260]"] ;
3 -> 65 ;
66 [label="X[5] <= 0.5\ngini = 0.654\nsamples = 1185606\nvalue = [0, 792366, 0, 562180, 0, 0, 520420]"] ;
65 -> 66 ;
67 [label="X[0] <= 1.5\ngini = 0.656\nsamples = 187395\nvalue = [0, 74916, 0, 115951, 0, 0, 105593]"] ;
66 -> 67 ;
68 [label="X[7] <= 213.5\ngini = 0.645\nsamples = 173477\nvalue = [0, 58965, 0, 110986, 0, 0, 104489]"] ;
67 -> 68 ;
69 [label="X[10] <= 29.5\ngini = 0.65\nsamples = 108496\nvalue = [0, 39296, 0, 65917, 0, 0, 66635]"] ;
68 -> 69 ;
70 [label="gini = 0.491\nsamples = 8538\nvalue = [0, 1004, 0, 3667, 0, 0, 8925]"] ;
69 -> 70 ;
71 [label="gini = 0.654\nsamples = 99958\nvalue = [0, 38292, 0, 62250, 0, 0, 57710]"] ;
69 -> 71 ;
72 [label="X[10] <= 29.5\ngini = 0.634\nsamples = 64981\nvalue = [0, 19669, 0, 45069, 0, 0, 37854]"] ;
68 -> 72 ;
73 [label="gini = 0.548\nsamples = 3646\nvalue = [0, 543, 0, 1861, 0, 0, 3347]"] ;
72 -> 73 ;
74 [label="gini = 0.635\nsamples = 61335\nvalue = [0, 19126, 0, 43208, 0, 0, 34507]"] ;
72 -> 74 ;
75 [label="X[7] <= 211.5\ngini = 0.422\nsamples = 13918\nvalue = [0, 15951, 0, 4965, 0, 0, 1104]"] ;
67 -> 75 ;
76 [label="X[10] <= 92.5\ngini = 0.406\nsamples = 11397\nvalue = [0, 13283, 0, 3853, 0, 0, 850]"] ;
75 -> 76 ;
77 [label="gini = 0.459\nsamples = 5528\nvalue = [0, 5831, 0, 2681, 0, 0, 220]"] ;
76 -> 77 ;
78 [label="gini = 0.331\nsamples = 5869\nvalue = [0, 7452, 0, 1172, 0, 0, 630]"] ;
76 -> 78 ;
79 [label="X[2] <= 130.5\ngini = 0.483\nsamples = 2521\nvalue = [0, 2668, 0, 1112, 0, 0, 254]"] ;
75 -> 79 ;
80 [label="gini = 0.558\nsamples = 1176\nvalue = [0, 1042, 0, 687, 0, 0, 164]"] ;
79 -> 80 ;
81 [label="gini = 0.382\nsamples = 1345\nvalue = [0, 1626, 0, 425, 0, 0, 90]"] ;
79 -> 81 ;
82 [label="X[0] <= 0.5\ngini = 0.644\nsamples = 998211\nvalue = [0, 717450, 0, 446229, 0, 0, 414827]"] ;
66 -> 82 ;
83 [label="X[6] <= 47.5\ngini = 0.639\nsamples = 466472\nvalue = [0, 198921, 0, 193198, 0, 0, 344941]"] ;
82 -> 83 ;
84 [label="X[4] <= 2.5\ngini = 0.641\nsamples = 458751\nvalue = [0, 196798, 0, 192391, 0, 0, 335683]"] ;
83 -> 84 ;
85 [label="gini = 0.655\nsamples = 150956\nvalue = [0, 64055, 0, 75790, 0, 0, 99296]"] ;
84 -> 85 ;
86 [label="gini = 0.631\nsamples = 307795\nvalue = [0, 132743, 0, 116601, 0, 0, 236387]"] ;
84 -> 86 ;
87 [label="X[3] <= 49.5\ngini = 0.388\nsamples = 7721\nvalue = [0, 2123, 0, 807, 0, 0, 9258]"] ;
83 -> 87 ;
88 [label="gini = 0.6\nsamples = 750\nvalue = [0, 559, 0, 150, 0, 0, 456]"] ;
87 -> 88 ;
89 [label="gini = 0.339\nsamples = 6971\nvalue = [0, 1564, 0, 657, 0, 0, 8802]"] ;
87 -> 89 ;
90 [label="X[5] <= 1.5\ngini = 0.523\nsamples = 531739\nvalue = [0, 518529, 0, 253031, 0, 0, 69886]"] ;
82 -> 90 ;
91 [label="X[7] <= 179.5\ngini = 0.511\nsamples = 442607\nvalue = [0, 442727, 0, 202059, 0, 0, 55612]"] ;
90 -> 91 ;
92 [label="gini = 0.472\nsamples = 258337\nvalue = [0, 277051, 0, 104050, 0, 0, 28055]"] ;
91 -> 92 ;
93 [label="gini = 0.554\nsamples = 184270\nvalue = [0, 165676, 0, 98009, 0, 0, 27557]"] ;
91 -> 93 ;
94 [label="X[2] <= 133.5\ngini = 0.57\nsamples = 89132\nvalue = [0, 75802, 0, 50972, 0, 0, 14274]"] ;
90 -> 94 ;
95 [label="gini = 0.577\nsamples = 81039\nvalue = [0, 67377, 0, 47354, 0, 0, 13550]"] ;
94 -> 95 ;
96 [label="gini = 0.481\nsamples = 8093\nvalue = [0, 8425, 0, 3618, 0, 0, 724]"] ;
94 -> 96 ;
97 [label="X[0] <= 0.5\ngini = 0.688\nsamples = 1859601\nvalue = [0, 1055133, 0, 1064021, 0, 169125, 654840]"] ;
65 -> 97 ;
98 [label="X[5] <= 1.5\ngini = 0.693\nsamples = 823891\nvalue = [0, 218098, 0, 476099, 0, 129213, 480779]"] ;
97 -> 98 ;
99 [label="X[2] <= 130.5\ngini = 0.651\nsamples = 459941\nvalue = [0, 106079, 0, 271453, 0, 36728, 313566]"] ;
98 -> 99 ;
100 [label="X[4] <= 6.5\ngini = 0.658\nsamples = 306732\nvalue = [0, 78206, 0, 193217, 0, 22365, 192189]"] ;
99 -> 100 ;
101 [label="gini = 0.722\nsamples = 49949\nvalue = [0, 13552, 0, 29411, 0, 22343, 13573]"] ;
100 -> 101 ;
102 [label="gini = 0.62\nsamples = 256783\nvalue = [0, 64654, 0, 163806, 0, 22, 178616]"] ;
100 -> 102 ;
103 [label="X[3] <= 74.5\ngini = 0.627\nsamples = 153209\nvalue = [0, 27873, 0, 78236, 0, 14363, 121377]"] ;
99 -> 103 ;
104 [label="gini = 0.672\nsamples = 72372\nvalue = [0, 19476, 0, 43245, 0, 6962, 44628]"] ;
103 -> 104 ;
105 [label="gini = 0.555\nsamples = 80837\nvalue = [0, 8397, 0, 34991, 0, 7401, 76749]"] ;
103 -> 105 ;
106 [label="X[5] <= 2.5\ngini = 0.726\nsamples = 363950\nvalue = [0, 112019, 0, 204646, 0, 92485, 167213]"] ;
98 -> 106 ;
107 [label="X[4] <= 6.5\ngini = 0.735\nsamples = 288295\nvalue = [0, 91912, 0, 160067, 0, 92485, 112031]"] ;
106 -> 107 ;
108 [label="gini = 0.732\nsamples = 202773\nvalue = [0, 67016, 0, 108518, 0, 92380, 53402]"] ;
107 -> 108 ;
109 [label="gini = 0.633\nsamples = 85522\nvalue = [0, 24896, 0, 51549, 0, 105, 58629]"] ;
107 -> 109 ;
110 [label="X[3] <= 74.5\ngini = 0.622\nsamples = 75655\nvalue = [0, 20107, 0, 44579, 0, 0, 55182]"] ;
106 -> 110 ;
111 [label="gini = 0.634\nsamples = 59341\nvalue = [0, 17450, 0, 36729, 0, 0, 39674]"] ;
110 -> 111 ;
112 [label="gini = 0.543\nsamples = 16314\nvalue = [0, 2657, 0, 7850, 0, 0, 15508]"] ;
110 -> 112 ;
113 [label="X[3] <= 58.5\ngini = 0.599\nsamples = 1035710\nvalue = [0, 837035, 0, 587922, 0, 39912, 174061]"] ;
97 -> 113 ;
114 [label="X[5] <= 0.5\ngini = 0.568\nsamples = 377857\nvalue = [0, 334631, 0, 199276, 0, 10883, 53214]"] ;
113 -> 114 ;
115 [label="X[3] <= 49.5\ngini = 0.649\nsamples = 49427\nvalue = [0, 28494, 0, 34105, 0, 2743, 12934]"] ;
114 -> 115 ;
116 [label="gini = 0.645\nsamples = 30694\nvalue = [0, 13775, 0, 23660, 0, 1874, 9358]"] ;
115 -> 116 ;
117 [label="gini = 0.613\nsamples = 18733\nvalue = [0, 14719, 0, 10445, 0, 869, 3576]"] ;
115 -> 117 ;
118 [label="X[0] <= 2.5\ngini = 0.546\nsamples = 328430\nvalue = [0, 306137, 0, 165171, 0, 8140, 40280]"] ;
114 -> 118 ;
119 [label="gini = 0.542\nsamples = 309889\nvalue = [0, 292622, 0, 150952, 0, 7852, 38890]"] ;
118 -> 119 ;
120 [label="gini = 0.553\nsamples = 18541\nvalue = [0, 13515, 0, 14219, 0, 288, 1390]"] ;
118 -> 120 ;
121 [label="X[7] <= 100.5\ngini = 0.613\nsamples = 657853\nvalue = [0, 502404, 0, 388646, 0, 29029, 120847]"] ;
113 -> 121 ;
122 [label="X[4] <= 10.5\ngini = 0.59\nsamples = 66428\nvalue = [0, 57915, 0, 32150, 0, 3037, 12121]"] ;
121 -> 122 ;
123 [label="gini = 0.659\nsamples = 36491\nvalue = [0, 22036, 0, 23720, 0, 3037, 9037]"] ;
122 -> 123 ;
124 [label="gini = 0.391\nsamples = 29937\nvalue = [0, 35879, 0, 8430, 0, 0, 3084]"] ;
122 -> 124 ;
125 [label="X[2] <= 119.5\ngini = 0.615\nsamples = 591425\nvalue = [0, 444489, 0, 356496, 0, 25992, 108726]"] ;
121 -> 125 ;
126 [label="gini = 0.669\nsamples = 46461\nvalue = [0, 28229, 0, 27283, 0, 2683, 14882]"] ;
125 -> 126 ;
127 [label="gini = 0.609\nsamples = 544964\nvalue = [0, 416260, 0, 329213, 0, 23309, 93844]"] ;
125 -> 127 ;
128 [label="X[9] <= 2.5\ngini = 0.078\nsamples = 945726\nvalue = [1435773, 0, 2088, 0, 28611, 29472, 0]"] ;
2 -> 128 ;
129 [label="X[7] <= 222.5\ngini = 0.096\nsamples = 557178\nvalue = [838135, 0, 514, 0, 26544, 16834, 0]"] ;
128 -> 129 ;
130 [label="X[8] <= 4.5\ngini = 0.081\nsamples = 448359\nvalue = [680523, 0, 466, 0, 17633, 11570, 0]"] ;
129 -> 130 ;
131 [label="X[8] <= 3.5\ngini = 0.263\nsamples = 126811\nvalue = [171129, 0, 466, 0, 17633, 11570, 0]"] ;
130 -> 131 ;
132 [label="X[2] <= 137.5\ngini = 0.155\nsamples = 117830\nvalue = [171129, 0, 0, 0, 10251, 5203, 0]"] ;
131 -> 132 ;
133 [label="X[0] <= 1.5\ngini = 0.132\nsamples = 113281\nvalue = [166869, 0, 0, 0, 8026, 4510, 0]"] ;
132 -> 133 ;
134 [label="gini = 0.117\nsamples = 99731\nvalue = [148210, 0, 0, 0, 5917, 3784, 0]"] ;
133 -> 134 ;
135 [label="gini = 0.236\nsamples = 13550\nvalue = [18659, 0, 0, 0, 2109, 726, 0]"] ;
133 -> 135 ;
136 [label="X[7] <= 170.5\ngini = 0.542\nsamples = 4549\nvalue = [4260, 0, 0, 0, 2225, 693, 0]"] ;
132 -> 136 ;
137 [label="gini = 0.418\nsamples = 2854\nvalue = [3280, 0, 0, 0, 762, 404, 0]"] ;
136 -> 137 ;
138 [label="gini = 0.573\nsamples = 1695\nvalue = [980, 0, 0, 0, 1463, 289, 0]"] ;
136 -> 138 ;
139 [label="X[4] <= 11.5\ngini = 0.529\nsamples = 8981\nvalue = [0, 0, 466, 0, 7382, 6367, 0]"] ;
131 -> 139 ;
140 [label="X[6] <= 1.5\ngini = 0.517\nsamples = 8199\nvalue = [0, 0, 343, 0, 7169, 5485, 0]"] ;
139 -> 140 ;
141 [label="gini = 0.434\nsamples = 797\nvalue = [0, 0, 16, 0, 378, 884, 0]"] ;
140 -> 141 ;
142 [label="gini = 0.509\nsamples = 7402\nvalue = [0, 0, 327, 0, 6791, 4601, 0]"] ;
140 -> 142 ;
143 [label="X[3] <= 55.5\ngini = 0.435\nsamples = 782\nvalue = [0, 0, 123, 0, 213, 882, 0]"] ;
139 -> 143 ;
144 [label="gini = 0.469\nsamples = 207\nvalue = [0, 0, 5, 0, 109, 206, 0]"] ;
143 -> 144 ;
145 [label="gini = 0.403\nsamples = 575\nvalue = [0, 0, 118, 0, 104, 676, 0]"] ;
143 -> 145 ;
146 [label="gini = 0.0\nsamples = 321548\nvalue = [509394, 0, 0, 0, 0, 0, 0]"] ;
130 -> 146 ;
147 [label="X[5] <= 1.5\ngini = 0.155\nsamples = 108819\nvalue = [157612, 0, 48, 0, 8911, 5264, 0]"] ;
129 -> 147 ;
148 [label="X[8] <= 4.5\ngini = 0.236\nsamples = 41767\nvalue = [57614, 0, 31, 0, 4970, 3659, 0]"] ;
147 -> 148 ;
149 [label="X[6] <= 19.5\ngini = 0.663\nsamples = 8439\nvalue = [4615, 0, 31, 0, 4970, 3659, 0]"] ;
148 -> 149 ;
150 [label="X[9] <= 0.5\ngini = 0.667\nsamples = 4332\nvalue = [2356, 0, 30, 0, 1978, 2413, 0]"] ;
149 -> 150 ;
151 [label="gini = 0.509\nsamples = 1337\nvalue = [1135, 0, 28, 0, 0, 941, 0]"] ;
150 -> 151 ;
152 [label="gini = 0.653\nsamples = 2995\nvalue = [1221, 0, 2, 0, 1978, 1472, 0]"] ;
150 -> 152 ;
153 [label="X[10] <= 64.5\ngini = 0.63\nsamples = 4107\nvalue = [2259, 0, 1, 0, 2992, 1246, 0]"] ;
149 -> 153 ;
154 [label="gini = 0.597\nsamples = 1589\nvalue = [1252, 0, 0, 0, 942, 329, 0]"] ;
153 -> 154 ;
155 [label="gini = 0.617\nsamples = 2518\nvalue = [1007, 0, 1, 0, 2050, 917, 0]"] ;
153 -> 155 ;
156 [label="gini = 0.0\nsamples = 33328\nvalue = [52999, 0, 0, 0, 0, 0, 0]"] ;
148 -> 156 ;
157 [label="X[0] <= 0.5\ngini = 0.101\nsamples = 67052\nvalue = [99998, 0, 17, 0, 3941, 1605, 0]"] ;
147 -> 157 ;
158 [label="X[7] <= 224.5\ngini = 0.148\nsamples = 41804\nvalue = [60563, 0, 17, 0, 3590, 1561, 0]"] ;
157 -> 158 ;
159 [label="X[6] <= 4.5\ngini = 0.44\nsamples = 3570\nvalue = [4026, 0, 5, 0, 1231, 389, 0]"] ;
158 -> 159 ;
160 [label="gini = 0.081\nsamples = 1243\nvalue = [1873, 0, 4, 0, 50, 28, 0]"] ;
159 -> 160 ;
161 [label="gini = 0.549\nsamples = 2327\nvalue = [2153, 0, 1, 0, 1181, 361, 0]"] ;
159 -> 161 ;
162 [label="X[6] <= 6.5\ngini = 0.113\nsamples = 38234\nvalue = [56537, 0, 12, 0, 2359, 1172, 0]"] ;
158 -> 162 ;
163 [label="gini = 0.05\nsamples = 20371\nvalue = [31144, 0, 6, 0, 367, 443, 0]"] ;
162 -> 163 ;
164 [label="gini = 0.179\nsamples = 17863\nvalue = [25393, 0, 6, 0, 1992, 729, 0]"] ;
162 -> 164 ;
165 [label="X[6] <= 42.5\ngini = 0.02\nsamples = 25248\nvalue = [39435, 0, 0, 0, 351, 44, 0]"] ;
157 -> 165 ;
166 [label="X[10] <= 249.5\ngini = 0.004\nsamples = 23776\nvalue = [37420, 0, 0, 0, 59, 11, 0]"] ;
165 -> 166 ;
167 [label="gini = 0.002\nsamples = 23348\nvalue = [36786, 0, 0, 0, 30, 11, 0]"] ;
166 -> 167 ;
168 [label="gini = 0.084\nsamples = 428\nvalue = [634, 0, 0, 0, 29, 0, 0]"] ;
166 -> 168 ;
169 [label="X[10] <= 60.5\ngini = 0.243\nsamples = 1472\nvalue = [2015, 0, 0, 0, 292, 33, 0]"] ;
165 -> 169 ;
170 [label="gini = 0.424\nsamples = 494\nvalue = [572, 0, 0, 0, 214, 19, 0]"] ;
169 -> 170 ;
171 [label="gini = 0.114\nsamples = 978\nvalue = [1443, 0, 0, 0, 78, 14, 0]"] ;
169 -> 171 ;
172 [label="X[7] <= 85.5\ngini = 0.052\nsamples = 388548\nvalue = [597638, 0, 1574, 0, 2067, 12638, 0]"] ;
128 -> 172 ;
173 [label="X[3] <= 76.5\ngini = 0.124\nsamples = 71122\nvalue = [105108, 0, 1311, 0, 868, 5181, 0]"] ;
172 -> 173 ;
174 [label="X[8] <= 4.5\ngini = 0.104\nsamples = 68624\nvalue = [102678, 0, 1265, 0, 679, 3926, 0]"] ;
173 -> 174 ;
175 [label="X[10] <= 218.5\ngini = 0.225\nsamples = 29861\nvalue = [41528, 0, 1265, 0, 679, 3926, 0]"] ;
174 -> 175 ;
176 [label="X[5] <= 0.5\ngini = 0.254\nsamples = 20656\nvalue = [28124, 0, 1006, 0, 518, 3130, 0]"] ;
175 -> 176 ;
177 [label="gini = 0.476\nsamples = 3683\nvalue = [4075, 0, 530, 0, 181, 1093, 0]"] ;
176 -> 177 ;
178 [label="gini = 0.194\nsamples = 16973\nvalue = [24049, 0, 476, 0, 337, 2037, 0]"] ;
176 -> 178 ;
179 [label="X[1] <= 0.5\ngini = 0.156\nsamples = 9205\nvalue = [13404, 0, 259, 0, 161, 796, 0]"] ;
175 -> 179 ;
180 [label="gini = 0.172\nsamples = 8196\nvalue = [11796, 0, 259, 0, 152, 790, 0]"] ;
179 -> 180 ;
181 [label="gini = 0.018\nsamples = 1009\nvalue = [1608, 0, 0, 0, 9, 6, 0]"] ;
179 -> 181 ;
182 [label="gini = 0.0\nsamples = 38763\nvalue = [61150, 0, 0, 0, 0, 0, 0]"] ;
174 -> 182 ;
183 [label="X[7] <= 20.5\ngini = 0.511\nsamples = 2498\nvalue = [2430, 0, 46, 0, 189, 1255, 0]"] ;
173 -> 183 ;
184 [label="X[8] <= 4.5\ngini = 0.257\nsamples = 682\nvalue = [913, 0, 3, 0, 15, 141, 0]"] ;
183 -> 184 ;
185 [label="X[2] <= 132.5\ngini = 0.328\nsamples = 517\nvalue = [638, 0, 3, 0, 15, 141, 0]"] ;
184 -> 185 ;
186 [label="gini = 0.367\nsamples = 440\nvalue = [525, 0, 3, 0, 15, 140, 0]"] ;
185 -> 186 ;
187 [label="gini = 0.017\nsamples = 77\nvalue = [113, 0, 0, 0, 0, 1, 0]"] ;
185 -> 187 ;
188 [label="gini = 0.0\nsamples = 165\nvalue = [275, 0, 0, 0, 0, 0, 0]"] ;
184 -> 188 ;
189 [label="X[8] <= 4.5\ngini = 0.559\nsamples = 1816\nvalue = [1517, 0, 43, 0, 174, 1114, 0]"] ;
183 -> 189 ;
190 [label="X[10] <= 6.5\ngini = 0.578\nsamples = 1586\nvalue = [1164, 0, 43, 0, 174, 1114, 0]"] ;
189 -> 190 ;
191 [label="gini = 0.581\nsamples = 1510\nvalue = [1052, 0, 43, 0, 174, 1112, 0]"] ;
190 -> 191 ;
192 [label="gini = 0.034\nsamples = 76\nvalue = [112, 0, 0, 0, 0, 2, 0]"] ;
190 -> 192 ;
193 [label="gini = 0.0\nsamples = 230\nvalue = [353, 0, 0, 0, 0, 0, 0]"] ;
189 -> 193 ;
194 [label="X[8] <= 4.5\ngini = 0.035\nsamples = 317426\nvalue = [492530, 0, 263, 0, 1199, 7457, 0]"] ;
172 -> 194 ;
195 [label="X[8] <= 3.5\ngini = 0.147\nsamples = 71799\nvalue = [104486, 0, 263, 0, 1199, 7457, 0]"] ;
194 -> 195 ;
196 [label="X[4] <= 4.5\ngini = 0.142\nsamples = 71585\nvalue = [104486, 0, 0, 0, 1175, 7413, 0]"] ;
195 -> 196 ;
197 [label="X[6] <= 42.5\ngini = 0.157\nsamples = 22908\nvalue = [33083, 0, 0, 0, 34, 3074, 0]"] ;
196 -> 197 ;
198 [label="gini = 0.123\nsamples = 20393\nvalue = [30059, 0, 0, 0, 33, 2090, 0]"] ;
197 -> 198 ;
199 [label="gini = 0.371\nsamples = 2515\nvalue = [3024, 0, 0, 0, 1, 984, 0]"] ;
197 -> 199 ;
200 [label="X[3] <= 72.5\ngini = 0.134\nsamples = 48677\nvalue = [71403, 0, 0, 0, 1141, 4339, 0]"] ;
196 -> 200 ;
201 [label="gini = 0.111\nsamples = 35537\nvalue = [52736, 0, 0, 0, 649, 2625, 0]"] ;
200 -> 201 ;
202 [label="gini = 0.193\nsamples = 13140\nvalue = [18667, 0, 0, 0, 492, 1714, 0]"] ;
200 -> 202 ;
203 [label="X[10] <= 215.5\ngini = 0.346\nsamples = 214\nvalue = [0, 0, 263, 0, 24, 44, 0]"] ;
195 -> 203 ;
204 [label="X[6] <= 12.0\ngini = 0.245\nsamples = 196\nvalue = [0, 0, 259, 0, 24, 17, 0]"] ;
203 -> 204 ;
205 [label="gini = 0.501\nsamples = 61\nvalue = [0, 0, 62, 0, 21, 11, 0]"] ;
204 -> 205 ;
206 [label="gini = 0.084\nsamples = 135\nvalue = [0, 0, 197, 0, 3, 6, 0]"] ;
204 -> 206 ;
207 [label="X[7] <= 118.5\ngini = 0.225\nsamples = 18\nvalue = [0, 0, 4, 0, 0, 27, 0]"] ;
203 -> 207 ;
208 [label="gini = 0.444\nsamples = 3\nvalue = [0, 0, 4, 0, 0, 2, 0]"] ;
207 -> 208 ;
209 [label="gini = 0.0\nsamples = 15\nvalue = [0, 0, 0, 0, 0, 25, 0]"] ;
207 -> 209 ;
210 [label="gini = 0.0\nsamples = 245627\nvalue = [388044, 0, 0, 0, 0, 0, 0]"] ;
194 -> 210 ;
}