digraph Tree {
node [shape=box] ;
0 [label="X[9] <= 2.5\ngini = 0.767\nsamples = 11107405\nvalue = [3316550, 5200383, 2024, 5144727, 28757, 1816777, 2059931]"] ;
1 [label="X[9] <= 0.5\ngini = 0.763\nsamples = 7302900\nvalue = [2130892, 3352404, 475, 3519784, 26620, 1635541, 887470]"] ;
0 -> 1 [labeldistance=2.5, labelangle=45, headlabel="True"] ;
2 [label="X[3] <= 63.5\ngini = 0.747\nsamples = 826805\nvalue = [348277, 309437, 76, 385140, 12, 4081, 261431]"] ;
1 -> 2 ;
3 [label="X[0] <= 0.5\ngini = 0.733\nsamples = 345365\nvalue = [174448, 150769, 25, 145094, 4, 1297, 74716]"] ;
2 -> 3 ;
4 [label="X[8] <= 1.5\ngini = 0.729\nsamples = 275868\nvalue = [159749, 95343, 25, 109784, 4, 1276, 70184]"] ;
3 -> 4 ;
5 [label="gini = 0.0\nsamples = 57371\nvalue = [91021, 0, 0, 0, 0, 0, 0]"] ;
4 -> 5 ;
6 [label="X[4] <= 9.5\ngini = 0.742\nsamples = 218497\nvalue = [68728, 95343, 25, 109784, 4, 1276, 70184]"] ;
4 -> 6 ;
7 [label="X[5] <= 1.5\ngini = 0.724\nsamples = 119089\nvalue = [33253, 64186, 6, 60170, 0, 246, 30179]"] ;
6 -> 7 ;
8 [label="X[3] <= 49.0\ngini = 0.723\nsamples = 36801\nvalue = [7240, 15582, 0, 21028, 0, 114, 14284]"] ;
7 -> 8 ;
9 [label="gini = 0.674\nsamples = 11708\nvalue = [1875, 2320, 0, 6550, 0, 42, 7755]"] ;
8 -> 9 ;
10 [label="gini = 0.71\nsamples = 25093\nvalue = [5365, 13262, 0, 14478, 0, 72, 6529]"] ;
8 -> 10 ;
11 [label="X[10] <= 230.5\ngini = 0.714\nsamples = 82288\nvalue = [26013, 48604, 6, 39142, 0, 132, 15895]"] ;
7 -> 11 ;
12 [label="gini = 0.724\nsamples = 15134\nvalue = [4190, 6552, 6, 8840, 0, 16, 4206]"] ;
11 -> 12 ;
13 [label="gini = 0.706\nsamples = 67154\nvalue = [21823, 42052, 0, 30302, 0, 116, 11689]"] ;
11 -> 13 ;
14 [label="X[5] <= 1.5\ngini = 0.746\nsamples = 99408\nvalue = [35475, 31157, 19, 49614, 4, 1030, 40005]"] ;
6 -> 14 ;
15 [label="X[6] <= 2.0\ngini = 0.719\nsamples = 40248\nvalue = [9092, 10783, 12, 23065, 4, 553, 20126]"] ;
14 -> 15 ;
16 [label="gini = 0.65\nsamples = 13637\nvalue = [2510, 1557, 5, 7381, 0, 133, 9959]"] ;
15 -> 16 ;
17 [label="gini = 0.73\nsamples = 26611\nvalue = [6582, 9226, 7, 15684, 4, 420, 10167]"] ;
15 -> 17 ;
18 [label="X[10] <= 230.5\ngini = 0.748\nsamples = 59160\nvalue = [26383, 20374, 7, 26549, 0, 477, 19879]"] ;
14 -> 18 ;
19 [label="gini = 0.734\nsamples = 12387\nvalue = [4150, 2938, 0, 6230, 0, 154, 6077]"] ;
18 -> 19 ;
20 [label="gini = 0.745\nsamples = 46773\nvalue = [22233, 17436, 7, 20319, 0, 323, 13802]"] ;
18 -> 20 ;
21 [label="X[1] <= 0.5\ngini = 0.623\nsamples = 69497\nvalue = [14699, 55426, 0, 35310, 0, 21, 4532]"] ;
3 -> 21 ;
22 [label="X[5] <= 1.5\ngini = 0.623\nsamples = 69426\nvalue = [14590, 55426, 0, 35310, 0, 20, 4532]"] ;
21 -> 22 ;
23 [label="X[3] <= 43.5\ngini = 0.61\nsamples = 17548\nvalue = [2054, 13871, 0, 10043, 0, 7, 1780]"] ;
22 -> 23 ;
24 [label="X[8] <= 2.5\ngini = 0.585\nsamples = 3933\nvalue = [540, 3506, 0, 1826, 0, 3, 343]"] ;
23 -> 24 ;
25 [label="gini = 0.514\nsamples = 3598\nvalue = [16, 3506, 0, 1826, 0, 0, 343]"] ;
24 -> 25 ;
26 [label="gini = 0.011\nsamples = 335\nvalue = [524, 0, 0, 0, 0, 3, 0]"] ;
24 -> 26 ;
27 [label="X[5] <= 0.5\ngini = 0.613\nsamples = 13615\nvalue = [1514, 10365, 0, 8217, 0, 4, 1437]"] ;
23 -> 27 ;
28 [label="gini = 0.608\nsamples = 804\nvalue = [68, 478, 0, 631, 0, 0, 103]"] ;
27 -> 28 ;
29 [label="gini = 0.612\nsamples = 12811\nvalue = [1446, 9887, 0, 7586, 0, 4, 1334]"] ;
27 -> 29 ;
30 [label="X[6] <= 2.5\ngini = 0.625\nsamples = 51878\nvalue = [12536, 41555, 0, 25267, 0, 13, 2752]"] ;
22 -> 30 ;
31 [label="X[8] <= 2.5\ngini = 0.627\nsamples = 46448\nvalue = [11493, 36827, 0, 22831, 0, 4, 2387]"] ;
30 -> 31 ;
32 [label="gini = 0.512\nsamples = 39162\nvalue = [51, 36827, 0, 22831, 0, 0, 2387]"] ;
31 -> 32 ;
33 [label="gini = 0.001\nsamples = 7286\nvalue = [11442, 0, 0, 0, 0, 4, 0]"] ;
31 -> 33 ;
34 [label="X[0] <= 1.5\ngini = 0.599\nsamples = 5430\nvalue = [1043, 4728, 0, 2436, 0, 9, 365]"] ;
30 -> 34 ;
35 [label="gini = 0.569\nsamples = 4534\nvalue = [654, 4207, 0, 2044, 0, 1, 298]"] ;
34 -> 35 ;
36 [label="gini = 0.694\nsamples = 896\nvalue = [389, 521, 0, 392, 0, 8, 67]"] ;
34 -> 36 ;
37 [label="X[6] <= 19.0\ngini = 0.018\nsamples = 71\nvalue = [109, 0, 0, 0, 0, 1, 0]"] ;
21 -> 37 ;
38 [label="gini = 0.0\nsamples = 51\nvalue = [80, 0, 0, 0, 0, 0, 0]"] ;
37 -> 38 ;
39 [label="X[0] <= 1.5\ngini = 0.064\nsamples = 20\nvalue = [29, 0, 0, 0, 0, 1, 0]"] ;
37 -> 39 ;
40 [label="X[2] <= 137.0\ngini = 0.278\nsamples = 6\nvalue = [5, 0, 0, 0, 0, 1, 0]"] ;
39 -> 40 ;
41 [label="gini = 0.444\nsamples = 3\nvalue = [2, 0, 0, 0, 0, 1, 0]"] ;
40 -> 41 ;
42 [label="gini = 0.0\nsamples = 3\nvalue = [3, 0, 0, 0, 0, 0, 0]"] ;
40 -> 42 ;
43 [label="gini = 0.0\nsamples = 14\nvalue = [24, 0, 0, 0, 0, 0, 0]"] ;
39 -> 43 ;
44 [label="X[7] <= 180.5\ngini = 0.745\nsamples = 481440\nvalue = [173829, 158668, 51, 240046, 8, 2784, 186715]"] ;
2 -> 44 ;
45 [label="X[0] <= 0.5\ngini = 0.747\nsamples = 225555\nvalue = [104950, 72502, 23, 96715, 6, 1337, 81447]"] ;
44 -> 45 ;
46 [label="X[4] <= 9.5\ngini = 0.733\nsamples = 188707\nvalue = [98890, 41410, 23, 79538, 5, 1276, 77655]"] ;
45 -> 46 ;
47 [label="X[8] <= 1.5\ngini = 0.745\nsamples = 91349\nvalue = [41036, 26402, 1, 41479, 0, 555, 35078]"] ;
46 -> 47 ;
48 [label="gini = 0.0\nsamples = 14695\nvalue = [23179, 0, 0, 0, 0, 0, 0]"] ;
47 -> 48 ;
49 [label="X[3] <= 74.5\ngini = 0.731\nsamples = 76654\nvalue = [17857, 26402, 1, 41479, 0, 555, 35078]"] ;
47 -> 49 ;
50 [label="gini = 0.728\nsamples = 49319\nvalue = [11228, 18217, 1, 28258, 0, 390, 20045]"] ;
49 -> 50 ;
51 [label="gini = 0.726\nsamples = 27335\nvalue = [6629, 8185, 0, 13221, 0, 165, 15033]"] ;
49 -> 51 ;
52 [label="X[10] <= 29.5\ngini = 0.713\nsamples = 97358\nvalue = [57854, 15008, 22, 38059, 5, 721, 42577]"] ;
46 -> 52 ;
53 [label="X[3] <= 75.5\ngini = 0.697\nsamples = 28745\nvalue = [13383, 3386, 14, 10542, 0, 166, 18066]"] ;
52 -> 53 ;
54 [label="gini = 0.671\nsamples = 19757\nvalue = [8201, 1877, 6, 6799, 0, 98, 14378]"] ;
53 -> 54 ;
55 [label="gini = 0.718\nsamples = 8988\nvalue = [5182, 1509, 8, 3743, 0, 68, 3688]"] ;
53 -> 55 ;
56 [label="X[10] <= 154.5\ngini = 0.706\nsamples = 68613\nvalue = [44471, 11622, 8, 27517, 5, 555, 24511]"] ;
52 -> 56 ;
57 [label="gini = 0.699\nsamples = 64201\nvalue = [43291, 10950, 8, 25672, 1, 478, 21237]"] ;
56 -> 57 ;
58 [label="gini = 0.679\nsamples = 4412\nvalue = [1180, 672, 0, 1845, 4, 77, 3274]"] ;
56 -> 58 ;
59 [label="X[1] <= 0.5\ngini = 0.612\nsamples = 36848\nvalue = [6060, 31092, 0, 17177, 1, 61, 3792]"] ;
45 -> 59 ;
60 [label="X[5] <= 0.5\ngini = 0.611\nsamples = 36751\nvalue = [5912, 31092, 0, 17177, 0, 55, 3792]"] ;
59 -> 60 ;
61 [label="X[10] <= 30.5\ngini = 0.673\nsamples = 2796\nvalue = [368, 1651, 0, 1778, 0, 13, 615]"] ;
60 -> 61 ;
62 [label="gini = 0.706\nsamples = 883\nvalue = [192, 222, 0, 547, 0, 2, 418]"] ;
61 -> 62 ;
63 [label="gini = 0.609\nsamples = 1913\nvalue = [176, 1429, 0, 1231, 0, 11, 197]"] ;
61 -> 63 ;
64 [label="X[4] <= 11.5\ngini = 0.602\nsamples = 33955\nvalue = [5544, 29441, 0, 15399, 0, 42, 3177]"] ;
60 -> 64 ;
65 [label="gini = 0.645\nsamples = 19155\nvalue = [3457, 14285, 0, 10125, 0, 32, 2295]"] ;
64 -> 65 ;
66 [label="gini = 0.521\nsamples = 14800\nvalue = [2087, 15156, 0, 5274, 0, 10, 882]"] ;
64 -> 66 ;
67 [label="X[3] <= 73.5\ngini = 0.087\nsamples = 97\nvalue = [148, 0, 0, 0, 1, 6, 0]"] ;
59 -> 67 ;
68 [label="X[4] <= 9.5\ngini = 0.016\nsamples = 75\nvalue = [122, 0, 0, 0, 1, 0, 0]"] ;
67 -> 68 ;
69 [label="gini = 0.046\nsamples = 25\nvalue = [41, 0, 0, 0, 1, 0, 0]"] ;
68 -> 69 ;
70 [label="gini = 0.0\nsamples = 50\nvalue = [81, 0, 0, 0, 0, 0, 0]"] ;
68 -> 70 ;
71 [label="X[6] <= 14.5\ngini = 0.305\nsamples = 22\nvalue = [26, 0, 0, 0, 0, 6, 0]"] ;
67 -> 71 ;
72 [label="gini = 0.0\nsamples = 15\nvalue = [20, 0, 0, 0, 0, 0, 0]"] ;
71 -> 72 ;
73 [label="gini = 0.5\nsamples = 7\nvalue = [6, 0, 0, 0, 0, 6, 0]"] ;
71 -> 73 ;
74 [label="X[10] <= 29.5\ngini = 0.733\nsamples = 255885\nvalue = [68879, 86166, 28, 143331, 2, 1447, 105268]"] ;
44 -> 74 ;
75 [label="X[8] <= 2.5\ngini = 0.72\nsamples = 72401\nvalue = [14534, 23486, 7, 35415, 0, 497, 40717]"] ;
74 -> 75 ;
76 [label="X[8] <= 1.5\ngini = 0.68\nsamples = 66025\nvalue = [4815, 23486, 0, 35415, 0, 0, 40717]"] ;
75 -> 76 ;
77 [label="gini = 0.0\nsamples = 3086\nvalue = [4815, 0, 0, 0, 0, 0, 0]"] ;
76 -> 77 ;
78 [label="X[6] <= 12.5\ngini = 0.651\nsamples = 62939\nvalue = [0, 23486, 0, 35415, 0, 0, 40717]"] ;
76 -> 78 ;
79 [label="gini = 0.66\nsamples = 33389\nvalue = [0, 17667, 0, 20707, 0, 0, 14620]"] ;
78 -> 79 ;
80 [label="gini = 0.572\nsamples = 29550\nvalue = [0, 5819, 0, 14708, 0, 0, 26097]"] ;
78 -> 80 ;
81 [label="X[8] <= 4.5\ngini = 0.094\nsamples = 6376\nvalue = [9719, 0, 7, 0, 0, 497, 0]"] ;
75 -> 81 ;
82 [label="X[10] <= 11.0\ngini = 0.506\nsamples = 643\nvalue = [545, 0, 7, 0, 0, 497, 0]"] ;
81 -> 82 ;
83 [label="gini = 0.359\nsamples = 149\nvalue = [56, 0, 1, 0, 0, 188, 0]"] ;
82 -> 83 ;
84 [label="gini = 0.482\nsamples = 494\nvalue = [489, 0, 6, 0, 0, 309, 0]"] ;
82 -> 84 ;
85 [label="gini = 0.0\nsamples = 5733\nvalue = [9174, 0, 0, 0, 0, 0, 0]"] ;
81 -> 85 ;
86 [label="X[10] <= 154.5\ngini = 0.731\nsamples = 183484\nvalue = [54345, 62680, 21, 107916, 2, 950, 64551]"] ;
74 -> 86 ;
87 [label="X[10] <= 30.5\ngini = 0.731\nsamples = 172016\nvalue = [52154, 60171, 21, 101369, 2, 875, 57836]"] ;
86 -> 87 ;
88 [label="X[3] <= 75.5\ngini = 0.655\nsamples = 6174\nvalue = [1158, 3445, 0, 4377, 0, 13, 783]"] ;
87 -> 88 ;
89 [label="gini = 0.638\nsamples = 3137\nvalue = [558, 2103, 0, 2028, 0, 0, 276]"] ;
88 -> 89 ;
90 [label="gini = 0.657\nsamples = 3037\nvalue = [600, 1342, 0, 2349, 0, 13, 507]"] ;
88 -> 90 ;
91 [label="X[6] <= 1.5\ngini = 0.732\nsamples = 165842\nvalue = [50996, 56726, 21, 96992, 2, 862, 57053]"] ;
87 -> 91 ;
92 [label="gini = 0.486\nsamples = 4280\nvalue = [861, 88, 0, 1120, 0, 51, 4624]"] ;
91 -> 92 ;
93 [label="gini = 0.73\nsamples = 161562\nvalue = [50135, 56638, 21, 95872, 2, 811, 52429]"] ;
91 -> 93 ;
94 [label="X[10] <= 155.5\ngini = 0.696\nsamples = 11468\nvalue = [2191, 2509, 0, 6547, 0, 75, 6715]"] ;
86 -> 94 ;
95 [label="X[2] <= 131.5\ngini = 0.67\nsamples = 9096\nvalue = [1429, 1639, 0, 5402, 0, 36, 5826]"] ;
94 -> 95 ;
96 [label="gini = 0.523\nsamples = 92\nvalue = [4, 24, 0, 90, 0, 0, 20]"] ;
95 -> 96 ;
97 [label="gini = 0.67\nsamples = 9004\nvalue = [1425, 1615, 0, 5312, 0, 36, 5806]"] ;
95 -> 97 ;
98 [label="X[5] <= 1.5\ngini = 0.749\nsamples = 2372\nvalue = [762, 870, 0, 1145, 0, 39, 889]"] ;
94 -> 98 ;
99 [label="gini = 0.747\nsamples = 1195\nvalue = [352, 393, 0, 605, 0, 30, 507]"] ;
98 -> 99 ;
100 [label="gini = 0.748\nsamples = 1177\nvalue = [410, 477, 0, 540, 0, 9, 382]"] ;
98 -> 100 ;
101 [label="X[0] <= 0.5\ngini = 0.759\nsamples = 6476095\nvalue = [1782615, 3042967, 399, 3134644, 26608, 1631460, 626039]"] ;
1 -> 101 ;
102 [label="X[1] <= 0.5\ngini = 0.774\nsamples = 3666230\nvalue = [1536782, 804991, 382, 1625289, 22232, 1299079, 511005]"] ;
101 -> 102 ;
103 [label="X[2] <= 119.5\ngini = 0.774\nsamples = 3648772\nvalue = [1509981, 804991, 378, 1625279, 21723, 1298753, 511003]"] ;
102 -> 103 ;
104 [label="X[8] <= 1.5\ngini = 0.74\nsamples = 427896\nvalue = [99317, 92077, 21, 275907, 1685, 145527, 63513]"] ;
103 -> 104 ;
105 [label="gini = 0.0\nsamples = 43627\nvalue = [69059, 0, 0, 0, 0, 0, 0]"] ;
104 -> 105 ;
106 [label="X[3] <= 70.5\ngini = 0.701\nsamples = 384269\nvalue = [30258, 92077, 21, 275907, 1685, 145527, 63513]"] ;
104 -> 106 ;
107 [label="X[3] <= 59.5\ngini = 0.711\nsamples = 212273\nvalue = [17010, 72882, 11, 146702, 1216, 68746, 29739]"] ;
106 -> 107 ;
108 [label="gini = 0.752\nsamples = 36873\nvalue = [3811, 14824, 2, 16537, 241, 17607, 5438]"] ;
107 -> 108 ;
109 [label="gini = 0.693\nsamples = 175400\nvalue = [13199, 58058, 9, 130165, 975, 51139, 24301]"] ;
107 -> 109 ;
110 [label="X[8] <= 2.5\ngini = 0.674\nsamples = 171996\nvalue = [13248, 19195, 10, 129205, 469, 76781, 33774]"] ;
106 -> 110 ;
111 [label="gini = 0.64\nsamples = 163256\nvalue = [0, 19195, 0, 129205, 0, 76444, 33774]"] ;
110 -> 111 ;
112 [label="gini = 0.111\nsamples = 8740\nvalue = [13248, 0, 10, 0, 469, 337, 0]"] ;
110 -> 112 ;
113 [label="X[7] <= 198.5\ngini = 0.775\nsamples = 3220876\nvalue = [1410664, 712914, 357, 1349372, 20038, 1153226, 447490]"] ;
103 -> 113 ;
114 [label="X[4] <= 7.5\ngini = 0.765\nsamples = 1887747\nvalue = [993185, 386962, 350, 667750, 10503, 668424, 258691]"] ;
113 -> 114 ;
115 [label="X[4] <= 3.5\ngini = 0.774\nsamples = 1007094\nvalue = [532094, 209367, 78, 353384, 4670, 264202, 229102]"] ;
114 -> 115 ;
116 [label="gini = 0.771\nsamples = 458208\nvalue = [234543, 109110, 23, 166094, 2203, 145036, 67499]"] ;
115 -> 116 ;
117 [label="gini = 0.769\nsamples = 548886\nvalue = [297551, 100257, 55, 187290, 2467, 119166, 161603]"] ;
115 -> 117 ;
118 [label="X[10] <= 29.5\ngini = 0.739\nsamples = 880653\nvalue = [461091, 177595, 272, 314366, 5833, 404222, 29589]"] ;
114 -> 118 ;
119 [label="gini = 0.709\nsamples = 117111\nvalue = [40015, 14438, 113, 43703, 1265, 78625, 6695]"] ;
118 -> 119 ;
120 [label="gini = 0.737\nsamples = 763542\nvalue = [421076, 163157, 159, 270663, 4568, 325597, 22894]"] ;
118 -> 120 ;
121 [label="X[3] <= 63.5\ngini = 0.771\nsamples = 1333129\nvalue = [417479, 325952, 7, 681622, 9535, 484802, 188799]"] ;
113 -> 121 ;
122 [label="X[7] <= 230.5\ngini = 0.776\nsamples = 484905\nvalue = [203080, 129973, 0, 211923, 3320, 160071, 58994]"] ;
121 -> 122 ;
123 [label="gini = 0.769\nsamples = 199062\nvalue = [104596, 53607, 0, 69535, 1366, 60237, 25788]"] ;
122 -> 123 ;
124 [label="gini = 0.771\nsamples = 285843\nvalue = [98484, 76366, 0, 142388, 1954, 99834, 33206]"] ;
122 -> 124 ;
125 [label="X[4] <= 7.5\ngini = 0.762\nsamples = 848224\nvalue = [214399, 195979, 7, 469699, 6215, 324731, 129805]"] ;
121 -> 125 ;
126 [label="gini = 0.775\nsamples = 439461\nvalue = [113252, 100037, 5, 237968, 3209, 128055, 111495]"] ;
125 -> 126 ;
127 [label="gini = 0.732\nsamples = 408763\nvalue = [101147, 95942, 2, 231731, 3006, 196676, 18310]"] ;
125 -> 127 ;
128 [label="X[10] <= 59.5\ngini = 0.06\nsamples = 17458\nvalue = [26801, 0, 4, 10, 509, 326, 2]"] ;
102 -> 128 ;
129 [label="X[3] <= 73.5\ngini = 0.121\nsamples = 2938\nvalue = [4351, 0, 0, 0, 200, 95, 0]"] ;
128 -> 129 ;
130 [label="X[4] <= 2.5\ngini = 0.191\nsamples = 1309\nvalue = [1849, 0, 0, 0, 155, 60, 0]"] ;
129 -> 130 ;
131 [label="X[3] <= 71.5\ngini = 0.409\nsamples = 126\nvalue = [148, 0, 0, 0, 27, 23, 0]"] ;
130 -> 131 ;
132 [label="gini = 0.608\nsamples = 23\nvalue = [16, 0, 0, 0, 5, 16, 0]"] ;
131 -> 132 ;
133 [label="gini = 0.307\nsamples = 103\nvalue = [132, 0, 0, 0, 22, 7, 0]"] ;
131 -> 133 ;
134 [label="X[4] <= 10.5\ngini = 0.164\nsamples = 1183\nvalue = [1701, 0, 0, 0, 128, 37, 0]"] ;
130 -> 134 ;
135 [label="gini = 0.189\nsamples = 881\nvalue = [1222, 0, 0, 0, 121, 21, 0]"] ;
134 -> 135 ;
136 [label="gini = 0.088\nsamples = 302\nvalue = [479, 0, 0, 0, 7, 16, 0]"] ;
134 -> 136 ;
137 [label="X[6] <= 5.5\ngini = 0.061\nsamples = 1629\nvalue = [2502, 0, 0, 0, 45, 35, 0]"] ;
129 -> 137 ;
138 [label="X[9] <= 1.5\ngini = 0.202\nsamples = 84\nvalue = [121, 0, 0, 0, 7, 8, 0]"] ;
137 -> 138 ;
139 [label="gini = 0.335\nsamples = 36\nvalue = [49, 0, 0, 0, 7, 5, 0]"] ;
138 -> 139 ;
140 [label="gini = 0.077\nsamples = 48\nvalue = [72, 0, 0, 0, 0, 3, 0]"] ;
138 -> 140 ;
141 [label="X[4] <= 1.5\ngini = 0.052\nsamples = 1545\nvalue = [2381, 0, 0, 0, 38, 27, 0]"] ;
137 -> 141 ;
142 [label="gini = 0.16\nsamples = 52\nvalue = [83, 0, 0, 0, 8, 0, 0]"] ;
141 -> 142 ;
143 [label="gini = 0.048\nsamples = 1493\nvalue = [2298, 0, 0, 0, 30, 27, 0]"] ;
141 -> 143 ;
144 [label="X[7] <= 177.5\ngini = 0.047\nsamples = 14520\nvalue = [22450, 0, 4, 10, 309, 231, 2]"] ;
128 -> 144 ;
145 [label="X[3] <= 62.5\ngini = 0.046\nsamples = 13878\nvalue = [21511, 0, 4, 10, 292, 202, 2]"] ;
144 -> 145 ;
146 [label="X[4] <= 4.5\ngini = 0.036\nsamples = 7982\nvalue = [12441, 0, 0, 10, 156, 61, 2]"] ;
145 -> 146 ;
147 [label="gini = 0.05\nsamples = 1989\nvalue = [3068, 0, 0, 5, 56, 20, 0]"] ;
146 -> 147 ;
148 [label="gini = 0.031\nsamples = 5993\nvalue = [9373, 0, 0, 5, 100, 41, 2]"] ;
146 -> 148 ;
149 [label="X[4] <= 2.5\ngini = 0.059\nsamples = 5896\nvalue = [9070, 0, 4, 0, 136, 141, 0]"] ;
145 -> 149 ;
150 [label="gini = 0.008\nsamples = 462\nvalue = [743, 0, 0, 0, 0, 3, 0]"] ;
149 -> 150 ;
151 [label="gini = 0.063\nsamples = 5434\nvalue = [8327, 0, 4, 0, 136, 138, 0]"] ;
149 -> 151 ;
152 [label="X[1] <= 247.5\ngini = 0.09\nsamples = 642\nvalue = [939, 0, 0, 0, 17, 29, 0]"] ;
144 -> 152 ;
153 [label="X[8] <= 2.5\ngini = 0.088\nsamples = 641\nvalue = [939, 0, 0, 0, 17, 28, 0]"] ;
152 -> 153 ;
154 [label="gini = 0.5\nsamples = 2\nvalue = [3, 0, 0, 0, 0, 3, 0]"] ;
153 -> 154 ;
155 [label="gini = 0.083\nsamples = 639\nvalue = [936, 0, 0, 0, 17, 25, 0]"] ;
153 -> 155 ;
156 [label="gini = 0.0\nsamples = 1\nvalue = [0, 0, 0, 0, 0, 1, 0]"] ;
152 -> 156 ;
157 [label="X[5] <= 0.5\ngini = 0.622\nsamples = 2809865\nvalue = [245833, 2237976, 17, 1509355, 4376, 332381, 115034]"] ;
101 -> 157 ;
158 [label="X[4] <= 2.5\ngini = 0.668\nsamples = 194868\nvalue = [9581, 92452, 4, 143108, 161, 46010, 16748]"] ;
157 -> 158 ;
159 [label="X[0] <= 1.5\ngini = 0.62\nsamples = 36673\nvalue = [1089, 25949, 0, 23543, 38, 7307, 201]"] ;
158 -> 159 ;
160 [label="X[7] <= 126.5\ngini = 0.634\nsamples = 28097\nvalue = [785, 15489, 0, 20880, 22, 7226, 198]"] ;
159 -> 160 ;
161 [label="X[8] <= 2.5\ngini = 0.62\nsamples = 7511\nvalue = [208, 5324, 0, 4802, 1, 1541, 33]"] ;
160 -> 161 ;
162 [label="gini = 0.608\nsamples = 7395\nvalue = [19, 5324, 0, 4802, 0, 1541, 33]"] ;
161 -> 162 ;
163 [label="gini = 0.01\nsamples = 116\nvalue = [189, 0, 0, 0, 1, 0, 0]"] ;
161 -> 163 ;
164 [label="X[10] <= 76.5\ngini = 0.631\nsamples = 20586\nvalue = [577, 10165, 0, 16078, 21, 5685, 165]"] ;
160 -> 164 ;
165 [label="gini = 0.634\nsamples = 9047\nvalue = [279, 5311, 0, 6566, 3, 2150, 109]"] ;
164 -> 165 ;
166 [label="gini = 0.621\nsamples = 11539\nvalue = [298, 4854, 0, 9512, 18, 3535, 56]"] ;
164 -> 166 ;
167 [label="X[10] <= 97.5\ngini = 0.363\nsamples = 8576\nvalue = [304, 10460, 0, 2663, 16, 81, 3]"] ;
159 -> 167 ;
168 [label="X[8] <= 2.5\ngini = 0.415\nsamples = 4906\nvalue = [149, 5582, 0, 1954, 11, 38, 0]"] ;
167 -> 168 ;
169 [label="gini = 0.391\nsamples = 4818\nvalue = [5, 5582, 0, 1954, 0, 38, 0]"] ;
168 -> 169 ;
170 [label="gini = 0.132\nsamples = 88\nvalue = [144, 0, 0, 0, 11, 0, 0]"] ;
168 -> 170 ;
171 [label="X[10] <= 195.5\ngini = 0.275\nsamples = 3670\nvalue = [155, 4878, 0, 709, 5, 43, 3]"] ;
167 -> 171 ;
172 [label="gini = 0.221\nsamples = 2499\nvalue = [56, 3439, 0, 405, 5, 16, 3]"] ;
171 -> 172 ;
173 [label="gini = 0.378\nsamples = 1171\nvalue = [99, 1439, 0, 304, 0, 27, 0]"] ;
171 -> 173 ;
174 [label="X[8] <= 2.5\ngini = 0.671\nsamples = 158195\nvalue = [8492, 66503, 4, 119565, 123, 38703, 16547]"] ;
158 -> 174 ;
175 [label="X[0] <= 1.5\ngini = 0.65\nsamples = 153098\nvalue = [632, 66503, 0, 119565, 0, 38649, 16547]"] ;
174 -> 175 ;
176 [label="X[8] <= 1.5\ngini = 0.641\nsamples = 138476\nvalue = [459, 50957, 0, 113706, 0, 37598, 15986]"] ;
175 -> 176 ;
177 [label="gini = 0.0\nsamples = 299\nvalue = [459, 0, 0, 0, 0, 0, 0]"] ;
176 -> 177 ;
178 [label="gini = 0.639\nsamples = 138177\nvalue = [0, 50957, 0, 113706, 0, 37598, 15986]"] ;
176 -> 178 ;
179 [label="X[4] <= 11.5\ngini = 0.484\nsamples = 14622\nvalue = [173, 15546, 0, 5859, 0, 1051, 561]"] ;
175 -> 179 ;
180 [label="gini = 0.516\nsamples = 11010\nvalue = [144, 11130, 0, 4777, 0, 1036, 394]"] ;
179 -> 180 ;
181 [label="gini = 0.365\nsamples = 3612\nvalue = [29, 4416, 0, 1082, 0, 15, 167]"] ;
179 -> 181 ;
182 [label="X[10] <= 250.5\ngini = 0.044\nsamples = 5097\nvalue = [7860, 0, 4, 0, 123, 54, 0]"] ;
174 -> 182 ;
183 [label="X[0] <= 3.5\ngini = 0.038\nsamples = 4946\nvalue = [7660, 0, 4, 0, 101, 45, 0]"] ;
182 -> 183 ;
184 [label="gini = 0.025\nsamples = 4389\nvalue = [6853, 0, 4, 0, 53, 31, 0]"] ;
183 -> 184 ;
185 [label="gini = 0.134\nsamples = 557\nvalue = [807, 0, 0, 0, 48, 14, 0]"] ;
183 -> 185 ;
186 [label="X[7] <= 164.5\ngini = 0.24\nsamples = 151\nvalue = [200, 0, 0, 0, 22, 9, 0]"] ;
182 -> 186 ;
187 [label="gini = 0.069\nsamples = 89\nvalue = [137, 0, 0, 0, 2, 3, 0]"] ;
186 -> 187 ;
188 [label="gini = 0.444\nsamples = 62\nvalue = [63, 0, 0, 0, 20, 6, 0]"] ;
186 -> 188 ;
189 [label="X[1] <= 0.5\ngini = 0.613\nsamples = 2614997\nvalue = [236252, 2145524, 13, 1366247, 4215, 286371, 98286]"] ;
157 -> 189 ;
190 [label="X[0] <= 3.5\ngini = 0.612\nsamples = 2610971\nvalue = [230128, 2145524, 13, 1366239, 4087, 286293, 98286]"] ;
189 -> 190 ;
191 [label="X[8] <= 2.5\ngini = 0.609\nsamples = 2571062\nvalue = [213471, 2129454, 13, 1339474, 3738, 283716, 97736]"] ;
190 -> 191 ;
192 [label="X[2] <= 120.5\ngini = 0.571\nsamples = 2445500\nvalue = [19819, 2129454, 0, 1339474, 0, 282377, 97736]"] ;
191 -> 192 ;
193 [label="gini = 0.611\nsamples = 281725\nvalue = [1738, 207122, 0, 180312, 0, 41048, 15620]"] ;
192 -> 193 ;
194 [label="gini = 0.564\nsamples = 2163775\nvalue = [18081, 1922332, 0, 1159162, 0, 241329, 82116]"] ;
192 -> 194 ;
195 [label="X[2] <= 137.5\ngini = 0.05\nsamples = 125562\nvalue = [193652, 0, 13, 0, 3738, 1339, 0]"] ;
191 -> 195 ;
196 [label="gini = 0.042\nsamples = 121755\nvalue = [188620, 0, 13, 0, 2973, 1091, 0]"] ;
195 -> 196 ;
197 [label="gini = 0.289\nsamples = 3807\nvalue = [5032, 0, 0, 0, 765, 248, 0]"] ;
195 -> 197 ;
198 [label="X[6] <= 12.5\ngini = 0.682\nsamples = 39909\nvalue = [16657, 16070, 0, 26765, 349, 2577, 550]"] ;
190 -> 198 ;
199 [label="X[10] <= 225.5\ngini = 0.603\nsamples = 18309\nvalue = [5806, 4876, 0, 16487, 49, 1375, 304]"] ;
198 -> 199 ;
200 [label="gini = 0.667\nsamples = 8804\nvalue = [3689, 3113, 0, 6376, 48, 544, 121]"] ;
199 -> 200 ;
201 [label="gini = 0.509\nsamples = 9505\nvalue = [2117, 1763, 0, 10111, 1, 831, 183]"] ;
199 -> 201 ;
202 [label="X[8] <= 2.5\ngini = 0.698\nsamples = 21600\nvalue = [10851, 11194, 0, 10278, 300, 1202, 246]"] ;
198 -> 202 ;
203 [label="gini = 0.608\nsamples = 15573\nvalue = [1713, 11194, 0, 10278, 0, 1071, 246]"] ;
202 -> 203 ;
204 [label="gini = 0.087\nsamples = 6027\nvalue = [9138, 0, 0, 0, 300, 131, 0]"] ;
202 -> 204 ;
205 [label="X[10] <= 59.5\ngini = 0.066\nsamples = 4026\nvalue = [6124, 0, 0, 8, 128, 78, 0]"] ;
189 -> 205 ;
206 [label="X[4] <= 1.5\ngini = 0.123\nsamples = 634\nvalue = [958, 0, 0, 0, 36, 30, 0]"] ;
205 -> 206 ;
207 [label="X[10] <= 53.0\ngini = 0.421\nsamples = 26\nvalue = [31, 0, 0, 0, 5, 6, 0]"] ;
206 -> 207 ;
208 [label="gini = 0.0\nsamples = 16\nvalue = [27, 0, 0, 0, 0, 0, 0]"] ;
207 -> 208 ;
209 [label="gini = 0.658\nsamples = 10\nvalue = [4, 0, 0, 0, 5, 6, 0]"] ;
207 -> 209 ;
210 [label="X[7] <= 165.5\ngini = 0.107\nsamples = 608\nvalue = [927, 0, 0, 0, 31, 24, 0]"] ;
206 -> 210 ;
211 [label="gini = 0.126\nsamples = 503\nvalue = [757, 0, 0, 0, 31, 23, 0]"] ;
210 -> 211 ;
212 [label="gini = 0.012\nsamples = 105\nvalue = [170, 0, 0, 0, 0, 1, 0]"] ;
210 -> 212 ;
213 [label="X[3] <= 64.5\ngini = 0.055\nsamples = 3392\nvalue = [5166, 0, 0, 8, 92, 48, 0]"] ;
205 -> 213 ;
214 [label="X[8] <= 2.5\ngini = 0.042\nsamples = 1962\nvalue = [2982, 0, 0, 8, 44, 13, 0]"] ;
213 -> 214 ;
215 [label="gini = 0.397\nsamples = 8\nvalue = [3, 0, 0, 8, 0, 0, 0]"] ;
214 -> 215 ;
216 [label="gini = 0.037\nsamples = 1954\nvalue = [2979, 0, 0, 0, 44, 13, 0]"] ;
214 -> 216 ;
217 [label="X[10] <= 122.5\ngini = 0.071\nsamples = 1430\nvalue = [2184, 0, 0, 0, 48, 35, 0]"] ;
213 -> 217 ;
218 [label="gini = 0.053\nsamples = 1017\nvalue = [1580, 0, 0, 0, 27, 17, 0]"] ;
217 -> 218 ;
219 [label="gini = 0.116\nsamples = 413\nvalue = [604, 0, 0, 0, 21, 18, 0]"] ;
217 -> 219 ;
220 [label="X[5] <= 0.5\ngini = 0.755\nsamples = 3804505\nvalue = [1185658, 1847979, 1549, 1624943, 2137, 181236, 1172461]"] ;
0 -> 220 [labeldistance=2.5, labelangle=-45, headlabel="False"] ;
221 [label="X[8] <= 1.5\ngini = 0.756\nsamples = 667439\nvalue = [196218, 183985, 716, 342283, 554, 50012, 282172]"] ;
220 -> 221 ;
222 [label="gini = 0.0\nsamples = 63634\nvalue = [100693, 0, 0, 0, 0, 0, 0]"] ;
221 -> 222 ;
223 [label="X[0] <= 0.5\ngini = 0.735\nsamples = 603805\nvalue = [95525, 183985, 716, 342283, 554, 50012, 282172]"] ;
221 -> 223 ;
224 [label="X[1] <= 0.5\ngini = 0.732\nsamples = 372776\nvalue = [72296, 76079, 713, 186250, 499, 39455, 215029]"] ;
223 -> 224 ;
225 [label="X[8] <= 2.5\ngini = 0.727\nsamples = 366737\nvalue = [62966, 76079, 698, 186241, 471, 39231, 215024]"] ;
224 -> 225 ;
226 [label="X[6] <= 35.5\ngini = 0.667\nsamples = 324855\nvalue = [0, 76079, 0, 186241, 0, 36821, 215024]"] ;
225 -> 226 ;
227 [label="X[2] <= 130.5\ngini = 0.657\nsamples = 243216\nvalue = [0, 49301, 0, 136413, 0, 29131, 170238]"] ;
226 -> 227 ;
228 [label="gini = 0.664\nsamples = 161384\nvalue = [0, 38065, 0, 96924, 0, 16379, 104013]"] ;
227 -> 228 ;
229 [label="gini = 0.629\nsamples = 81832\nvalue = [0, 11236, 0, 39489, 0, 12752, 66225]"] ;
227 -> 229 ;
230 [label="X[3] <= 71.5\ngini = 0.684\nsamples = 81639\nvalue = [0, 26778, 0, 49828, 0, 7690, 44786]"] ;
226 -> 230 ;
231 [label="gini = 0.684\nsamples = 62030\nvalue = [0, 19535, 0, 36212, 0, 6136, 36216]"] ;
230 -> 231 ;
232 [label="gini = 0.673\nsamples = 19609\nvalue = [0, 7243, 0, 13616, 0, 1554, 8570]"] ;
230 -> 232 ;
233 [label="X[10] <= 102.5\ngini = 0.103\nsamples = 41882\nvalue = [62966, 0, 698, 0, 471, 2410, 0]"] ;
225 -> 233 ;
234 [label="X[7] <= 64.5\ngini = 0.073\nsamples = 19254\nvalue = [29248, 0, 173, 0, 165, 796, 0]"] ;
233 -> 234 ;
235 [label="gini = 0.404\nsamples = 1649\nvalue = [1986, 0, 138, 0, 95, 418, 0]"] ;
234 -> 235 ;
236 [label="gini = 0.034\nsamples = 17605\nvalue = [27262, 0, 35, 0, 70, 378, 0]"] ;
234 -> 236 ;
237 [label="X[3] <= 63.5\ngini = 0.128\nsamples = 22628\nvalue = [33718, 0, 525, 0, 306, 1614, 0]"] ;
233 -> 237 ;
238 [label="gini = 0.089\nsamples = 17414\nvalue = [26565, 0, 292, 0, 136, 857, 0]"] ;
237 -> 238 ;
239 [label="gini = 0.25\nsamples = 5214\nvalue = [7153, 0, 233, 0, 170, 757, 0]"] ;
237 -> 239 ;
240 [label="X[8] <= 2.5\ngini = 0.057\nsamples = 6039\nvalue = [9330, 0, 15, 9, 28, 224, 5]"] ;
224 -> 240 ;
241 [label="X[10] <= 229.0\ngini = 0.459\nsamples = 10\nvalue = [0, 0, 0, 9, 0, 0, 5]"] ;
240 -> 241 ;
242 [label="X[7] <= 216.0\ngini = 0.278\nsamples = 4\nvalue = [0, 0, 0, 1, 0, 0, 5]"] ;
241 -> 242 ;
243 [label="gini = 0.0\nsamples = 3\nvalue = [0, 0, 0, 0, 0, 0, 5]"] ;
242 -> 243 ;
244 [label="gini = 0.0\nsamples = 1\nvalue = [0, 0, 0, 1, 0, 0, 0]"] ;
242 -> 244 ;
245 [label="gini = 0.0\nsamples = 6\nvalue = [0, 0, 0, 8, 0, 0, 0]"] ;
241 -> 245 ;
246 [label="X[3] <= 76.5\ngini = 0.054\nsamples = 6029\nvalue = [9330, 0, 15, 0, 28, 224, 0]"] ;
240 -> 246 ;
247 [label="X[6] <= 34.5\ngini = 0.047\nsamples = 5736\nvalue = [8912, 0, 15, 0, 28, 176, 0]"] ;
246 -> 247 ;
248 [label="gini = 0.037\nsamples = 4214\nvalue = [6579, 0, 11, 0, 17, 98, 0]"] ;
247 -> 248 ;
249 [label="gini = 0.074\nsamples = 1522\nvalue = [2333, 0, 4, 0, 11, 78, 0]"] ;
247 -> 249 ;
250 [label="X[7] <= 96.5\ngini = 0.185\nsamples = 293\nvalue = [418, 0, 0, 0, 0, 48, 0]"] ;
246 -> 250 ;
251 [label="gini = 0.498\nsamples = 57\nvalue = [52, 0, 0, 0, 0, 46, 0]"] ;
250 -> 251 ;
252 [label="gini = 0.011\nsamples = 236\nvalue = [366, 0, 0, 0, 0, 2, 0]"] ;
250 -> 252 ;
253 [label="X[0] <= 1.5\ngini = 0.691\nsamples = 231029\nvalue = [23229, 107906, 3, 156033, 55, 10557, 67143]"] ;
223 -> 253 ;
254 [label="X[3] <= 74.5\ngini = 0.68\nsamples = 200234\nvalue = [17720, 78803, 3, 145955, 37, 10028, 63744]"] ;
253 -> 254 ;
255 [label="X[8] <= 2.5\ngini = 0.674\nsamples = 181136\nvalue = [15071, 75801, 2, 133578, 34, 8264, 53505]"] ;
254 -> 255 ;
256 [label="X[6] <= 9.5\ngini = 0.639\nsamples = 171489\nvalue = [0, 75801, 0, 133578, 0, 8116, 53505]"] ;
255 -> 256 ;
257 [label="gini = 0.631\nsamples = 63852\nvalue = [0, 24739, 0, 51639, 0, 2912, 21538]"] ;
256 -> 257 ;
258 [label="gini = 0.642\nsamples = 107637\nvalue = [0, 51062, 0, 81939, 0, 5204, 31967]"] ;
256 -> 258 ;
259 [label="X[6] <= 45.5\ngini = 0.024\nsamples = 9647\nvalue = [15071, 0, 2, 0, 34, 148, 0]"] ;
255 -> 259 ;
260 [label="gini = 0.02\nsamples = 9503\nvalue = [14890, 0, 2, 0, 32, 121, 0]"] ;
259 -> 260 ;
261 [label="gini = 0.24\nsamples = 144\nvalue = [181, 0, 0, 0, 2, 27, 0]"] ;
259 -> 261 ;
262 [label="X[8] <= 2.5\ngini = 0.693\nsamples = 19098\nvalue = [2649, 3002, 1, 12377, 3, 1764, 10239]"] ;
254 -> 262 ;
263 [label="X[3] <= 75.5\ngini = 0.639\nsamples = 17405\nvalue = [0, 3002, 0, 12377, 0, 1736, 10239]"] ;
262 -> 263 ;
264 [label="gini = 0.63\nsamples = 9266\nvalue = [0, 1231, 0, 6164, 0, 1020, 6160]"] ;
263 -> 264 ;
265 [label="gini = 0.639\nsamples = 8139\nvalue = [0, 1771, 0, 6213, 0, 716, 4079]"] ;
263 -> 265 ;
266 [label="X[7] <= 159.5\ngini = 0.024\nsamples = 1693\nvalue = [2649, 0, 1, 0, 3, 28, 0]"] ;
262 -> 266 ;
267 [label="gini = 0.054\nsamples = 727\nvalue = [1095, 0, 1, 0, 3, 27, 0]"] ;
266 -> 267 ;
268 [label="gini = 0.001\nsamples = 966\nvalue = [1554, 0, 0, 0, 0, 1, 0]"] ;
266 -> 268 ;
269 [label="X[8] <= 2.5\ngini = 0.581\nsamples = 30795\nvalue = [5509, 29103, 0, 10078, 18, 529, 3399]"] ;
253 -> 269 ;
270 [label="X[2] <= 119.5\ngini = 0.481\nsamples = 27293\nvalue = [0, 29103, 0, 10078, 0, 445, 3399]"] ;
269 -> 270 ;
271 [label="X[3] <= 63.5\ngini = 0.66\nsamples = 1842\nvalue = [0, 1161, 0, 386, 0, 208, 1166]"] ;
270 -> 271 ;
272 [label="gini = 0.272\nsamples = 628\nvalue = [0, 855, 0, 82, 0, 6, 67]"] ;
271 -> 272 ;
273 [label="gini = 0.607\nsamples = 1214\nvalue = [0, 306, 0, 304, 0, 202, 1099]"] ;
271 -> 273 ;
274 [label="X[7] <= 100.5\ngini = 0.453\nsamples = 25451\nvalue = [0, 27942, 0, 9692, 0, 237, 2233]"] ;
270 -> 274 ;
275 [label="gini = 0.381\nsamples = 6968\nvalue = [0, 8321, 0, 2248, 0, 17, 377]"] ;
274 -> 275 ;
276 [label="gini = 0.477\nsamples = 18483\nvalue = [0, 19621, 0, 7444, 0, 220, 1856]"] ;
274 -> 276 ;
277 [label="X[8] <= 4.0\ngini = 0.036\nsamples = 3502\nvalue = [5509, 0, 0, 0, 18, 84, 0]"] ;
269 -> 277 ;
278 [label="X[10] <= 73.5\ngini = 0.079\nsamples = 1544\nvalue = [2399, 0, 0, 0, 18, 84, 0]"] ;
277 -> 278 ;
279 [label="gini = 0.147\nsamples = 383\nvalue = [576, 0, 0, 0, 10, 39, 0]"] ;
278 -> 279 ;
280 [label="gini = 0.055\nsamples = 1161\nvalue = [1823, 0, 0, 0, 8, 45, 0]"] ;
278 -> 280 ;
281 [label="gini = 0.0\nsamples = 1958\nvalue = [3110, 0, 0, 0, 0, 0, 0]"] ;
277 -> 281 ;
282 [label="X[1] <= 0.5\ngini = 0.748\nsamples = 3137066\nvalue = [989440, 1663994, 833, 1282660, 1583, 131224, 890289]"] ;
220 -> 282 ;
283 [label="X[4] <= 4.5\ngini = 0.747\nsamples = 3121628\nvalue = [965696, 1663994, 833, 1282578, 1494, 130514, 890280]"] ;
282 -> 283 ;
284 [label="X[8] <= 1.5\ngini = 0.722\nsamples = 1180774\nvalue = [284144, 718614, 254, 446671, 1, 3214, 414424]"] ;
283 -> 284 ;
285 [label="gini = 0.0\nsamples = 100215\nvalue = [158357, 0, 0, 0, 0, 0, 0]"] ;
284 -> 285 ;
286 [label="X[2] <= 129.5\ngini = 0.691\nsamples = 1080559\nvalue = [125787, 718614, 254, 446671, 1, 3214, 414424]"] ;
284 -> 286 ;
287 [label="X[8] <= 2.5\ngini = 0.705\nsamples = 658440\nvalue = [83016, 392486, 151, 290262, 0, 1691, 274594]"] ;
286 -> 287 ;
288 [label="X[2] <= 122.5\ngini = 0.658\nsamples = 604652\nvalue = [0, 392486, 0, 290262, 0, 0, 274594]"] ;
287 -> 288 ;
289 [label="gini = 0.666\nsamples = 178906\nvalue = [0, 96562, 0, 89302, 0, 0, 96910]"] ;
288 -> 289 ;
290 [label="gini = 0.649\nsamples = 425746\nvalue = [0, 295924, 0, 200960, 0, 0, 177684]"] ;
288 -> 290 ;
291 [label="X[2] <= 126.5\ngini = 0.043\nsamples = 53788\nvalue = [83016, 0, 151, 0, 0, 1691, 0]"] ;
287 -> 291 ;
292 [label="gini = 0.029\nsamples = 38621\nvalue = [60164, 0, 79, 0, 0, 806, 0]"] ;
291 -> 292 ;
293 [label="gini = 0.077\nsamples = 15167\nvalue = [22852, 0, 72, 0, 0, 885, 0]"] ;
291 -> 293 ;
294 [label="X[4] <= 2.5\ngini = 0.658\nsamples = 422119\nvalue = [42771, 326128, 103, 156409, 1, 1523, 139830]"] ;
286 -> 294 ;
295 [label="X[10] <= 29.5\ngini = 0.578\nsamples = 216021\nvalue = [15203, 202761, 43, 75907, 0, 620, 47244]"] ;
294 -> 295 ;
296 [label="gini = 0.657\nsamples = 40776\nvalue = [3871, 30689, 0, 18206, 0, 172, 11412]"] ;
295 -> 296 ;
297 [label="gini = 0.554\nsamples = 175245\nvalue = [11332, 172072, 43, 57701, 0, 448, 35832]"] ;
295 -> 297 ;
298 [label="X[0] <= 0.5\ngini = 0.706\nsamples = 206098\nvalue = [27568, 123367, 60, 80502, 1, 903, 92586]"] ;
294 -> 298 ;
299 [label="gini = 0.674\nsamples = 110626\nvalue = [13362, 43359, 60, 36068, 1, 637, 81047]"] ;
298 -> 299 ;
300 [label="gini = 0.615\nsamples = 95472\nvalue = [14206, 80008, 0, 44434, 0, 266, 11539]"] ;
298 -> 300 ;
301 [label="X[7] <= 181.5\ngini = 0.756\nsamples = 1940854\nvalue = [681552, 945380, 579, 835907, 1493, 127300, 475856]"] ;
283 -> 301 ;
302 [label="X[2] <= 128.5\ngini = 0.754\nsamples = 971296\nvalue = [412175, 466138, 549, 374801, 1378, 61027, 219622]"] ;
301 -> 302 ;
303 [label="X[10] <= 76.5\ngini = 0.753\nsamples = 513974\nvalue = [244872, 225002, 299, 197121, 614, 30551, 114631]"] ;
302 -> 303 ;
304 [label="X[8] <= 1.5\ngini = 0.694\nsamples = 58001\nvalue = [41797, 21558, 1, 17282, 237, 3362, 7666]"] ;
303 -> 304 ;
305 [label="gini = 0.0\nsamples = 18572\nvalue = [29358, 0, 0, 0, 0, 0, 0]"] ;
304 -> 305 ;
306 [label="gini = 0.747\nsamples = 39429\nvalue = [12439, 21558, 1, 17282, 237, 3362, 7666]"] ;
304 -> 306 ;
307 [label="X[8] <= 1.5\ngini = 0.756\nsamples = 455973\nvalue = [203075, 203444, 298, 179839, 377, 27189, 106965]"] ;
303 -> 307 ;
308 [label="gini = 0.0\nsamples = 68851\nvalue = [108889, 0, 0, 0, 0, 0, 0]"] ;
307 -> 308 ;
309 [label="gini = 0.747\nsamples = 387122\nvalue = [94186, 203444, 298, 179839, 377, 27189, 106965]"] ;
307 -> 309 ;
310 [label="X[3] <= 74.5\ngini = 0.752\nsamples = 457322\nvalue = [167303, 241136, 250, 177680, 764, 30476, 104991]"] ;
302 -> 310 ;
311 [label="X[5] <= 2.5\ngini = 0.74\nsamples = 319700\nvalue = [120241, 181233, 207, 121828, 498, 19445, 61459]"] ;
310 -> 311 ;
312 [label="gini = 0.748\nsamples = 267721\nvalue = [100348, 142556, 179, 107216, 493, 19209, 52640]"] ;
311 -> 312 ;
313 [label="gini = 0.677\nsamples = 51979\nvalue = [19893, 38677, 28, 14612, 5, 236, 8819]"] ;
311 -> 313 ;
314 [label="X[0] <= 0.5\ngini = 0.769\nsamples = 137622\nvalue = [47062, 59903, 43, 55852, 266, 11031, 43532]"] ;
310 -> 314 ;
315 [label="gini = 0.741\nsamples = 64150\nvalue = [32930, 7405, 43, 20887, 192, 7842, 32149]"] ;
314 -> 315 ;
316 [label="gini = 0.68\nsamples = 73472\nvalue = [14132, 52498, 0, 34965, 74, 3189, 11383]"] ;
314 -> 316 ;
317 [label="X[4] <= 6.5\ngini = 0.751\nsamples = 969558\nvalue = [269377, 479242, 30, 461106, 115, 66273, 256234]"] ;
301 -> 317 ;
318 [label="X[10] <= 230.5\ngini = 0.759\nsamples = 294649\nvalue = [75251, 139165, 3, 146204, 115, 65700, 39224]"] ;
317 -> 318 ;
319 [label="X[0] <= 0.5\ngini = 0.761\nsamples = 249736\nvalue = [61186, 113525, 3, 125863, 110, 58121, 35683]"] ;
318 -> 319 ;
320 [label="gini = 0.786\nsamples = 125831\nvalue = [36351, 31921, 2, 58263, 60, 44205, 28188]"] ;
319 -> 320 ;
321 [label="gini = 0.684\nsamples = 123905\nvalue = [24835, 81604, 1, 67600, 50, 13916, 7495]"] ;
319 -> 321 ;
322 [label="X[3] <= 42.5\ngini = 0.736\nsamples = 44913\nvalue = [14065, 25640, 0, 20341, 5, 7579, 3541]"] ;
318 -> 322 ;
323 [label="gini = 0.749\nsamples = 25659\nvalue = [7321, 13165, 0, 12371, 5, 5452, 2325]"] ;
322 -> 323 ;
324 [label="gini = 0.71\nsamples = 19254\nvalue = [6744, 12475, 0, 7970, 0, 2127, 1216]"] ;
322 -> 324 ;
325 [label="X[8] <= 2.5\ngini = 0.737\nsamples = 674909\nvalue = [194126, 340077, 27, 314902, 0, 573, 217010]"] ;
317 -> 325 ;
326 [label="X[7] <= 201.5\ngini = 0.708\nsamples = 608278\nvalue = [89665, 340077, 0, 314902, 0, 0, 217010]"] ;
325 -> 326 ;
327 [label="gini = 0.72\nsamples = 99671\nvalue = [20161, 55951, 0, 47307, 0, 0, 34081]"] ;
326 -> 327 ;
328 [label="gini = 0.705\nsamples = 508607\nvalue = [69504, 284126, 0, 267595, 0, 0, 182929]"] ;
326 -> 328 ;
329 [label="X[0] <= 0.5\ngini = 0.011\nsamples = 66631\nvalue = [104461, 0, 27, 0, 0, 573, 0]"] ;
325 -> 329 ;
330 [label="gini = 0.017\nsamples = 30116\nvalue = [47169, 0, 22, 0, 0, 374, 0]"] ;
329 -> 330 ;
331 [label="gini = 0.007\nsamples = 36515\nvalue = [57292, 0, 5, 0, 0, 199, 0]"] ;
329 -> 331 ;
332 [label="X[6] <= 44.5\ngini = 0.07\nsamples = 15438\nvalue = [23744, 0, 0, 82, 89, 710, 9]"] ;
282 -> 332 ;
333 [label="X[10] <= 4.5\ngini = 0.065\nsamples = 14494\nvalue = [22369, 0, 0, 2, 82, 680, 9]"] ;
332 -> 333 ;
334 [label="X[3] <= 76.5\ngini = 0.479\nsamples = 57\nvalue = [56, 0, 0, 0, 0, 37, 0]"] ;
333 -> 334 ;
335 [label="gini = 0.0\nsamples = 20\nvalue = [27, 0, 0, 0, 0, 0, 0]"] ;
334 -> 335 ;
336 [label="X[7] <= 95.5\ngini = 0.493\nsamples = 37\nvalue = [29, 0, 0, 0, 0, 37, 0]"] ;
334 -> 336 ;
337 [label="gini = 0.0\nsamples = 11\nvalue = [19, 0, 0, 0, 0, 0, 0]"] ;
336 -> 337 ;
338 [label="X[4] <= 6.0\ngini = 0.335\nsamples = 26\nvalue = [10, 0, 0, 0, 0, 37, 0]"] ;
336 -> 338 ;
339 [label="gini = 0.0\nsamples = 21\nvalue = [0, 0, 0, 0, 0, 37, 0]"] ;
338 -> 339 ;
340 [label="gini = 0.0\nsamples = 5\nvalue = [10, 0, 0, 0, 0, 0, 0]"] ;
338 -> 340 ;
341 [label="X[3] <= 40.5\ngini = 0.062\nsamples = 14437\nvalue = [22313, 0, 0, 2, 82, 643, 9]"] ;
333 -> 341 ;
342 [label="X[8] <= 2.5\ngini = 0.199\nsamples = 219\nvalue = [310, 0, 0, 1, 0, 38, 0]"] ;
341 -> 342 ;
343 [label="gini = 0.0\nsamples = 1\nvalue = [0, 0, 0, 1, 0, 0, 0]"] ;
342 -> 343 ;
344 [label="X[1] <= 5.5\ngini = 0.195\nsamples = 218\nvalue = [310, 0, 0, 0, 0, 38, 0]"] ;
342 -> 344 ;
345 [label="gini = 0.215\nsamples = 193\nvalue = [272, 0, 0, 0, 0, 38, 0]"] ;
344 -> 345 ;
346 [label="gini = 0.0\nsamples = 25\nvalue = [38, 0, 0, 0, 0, 0, 0]"] ;
344 -> 346 ;
347 [label="X[4] <= 3.5\ngini = 0.06\nsamples = 14218\nvalue = [22003, 0, 0, 1, 82, 605, 9]"] ;
341 -> 347 ;
348 [label="X[8] <= 2.5\ngini = 0.093\nsamples = 2926\nvalue = [4373, 0, 0, 0, 13, 209, 3]"] ;
347 -> 348 ;
349 [label="gini = 0.0\nsamples = 1\nvalue = [0, 0, 0, 0, 0, 0, 3]"] ;
348 -> 349 ;
350 [label="gini = 0.092\nsamples = 2925\nvalue = [4373, 0, 0, 0, 13, 209, 0]"] ;
348 -> 350 ;
351 [label="X[4] <= 11.5\ngini = 0.051\nsamples = 11292\nvalue = [17630, 0, 0, 1, 69, 396, 6]"] ;
347 -> 351 ;
352 [label="gini = 0.046\nsamples = 10534\nvalue = [16464, 0, 0, 1, 69, 323, 6]"] ;
351 -> 352 ;
353 [label="gini = 0.111\nsamples = 758\nvalue = [1166, 0, 0, 0, 0, 73, 0]"] ;
351 -> 353 ;
354 [label="X[0] <= 0.5\ngini = 0.147\nsamples = 944\nvalue = [1375, 0, 0, 80, 7, 30, 0]"] ;
332 -> 354 ;
355 [label="X[3] <= 43.5\ngini = 0.093\nsamples = 748\nvalue = [1122, 0, 0, 35, 6, 16, 0]"] ;
354 -> 355 ;
356 [label="X[4] <= 7.5\ngini = 0.111\nsamples = 419\nvalue = [610, 0, 0, 35, 2, 1, 0]"] ;
355 -> 356 ;
357 [label="X[7] <= 137.0\ngini = 0.073\nsamples = 236\nvalue = [360, 0, 0, 11, 2, 1, 0]"] ;
356 -> 357 ;
358 [label="gini = 0.029\nsamples = 216\nvalue = [340, 0, 0, 2, 2, 1, 0]"] ;
357 -> 358 ;
359 [label="gini = 0.428\nsamples = 20\nvalue = [20, 0, 0, 9, 0, 0, 0]"] ;
357 -> 359 ;
360 [label="X[3] <= 42.5\ngini = 0.16\nsamples = 183\nvalue = [250, 0, 0, 24, 0, 0, 0]"] ;
356 -> 360 ;
361 [label="gini = 0.137\nsamples = 180\nvalue = [250, 0, 0, 20, 0, 0, 0]"] ;
360 -> 361 ;
362 [label="gini = 0.0\nsamples = 3\nvalue = [0, 0, 0, 4, 0, 0, 0]"] ;
360 -> 362 ;
363 [label="X[3] <= 62.5\ngini = 0.069\nsamples = 329\nvalue = [512, 0, 0, 0, 4, 15, 0]"] ;
355 -> 363 ;
364 [label="X[7] <= 82.0\ngini = 0.056\nsamples = 106\nvalue = [170, 0, 0, 0, 0, 5, 0]"] ;
363 -> 364 ;
365 [label="gini = 0.0\nsamples = 64\nvalue = [105, 0, 0, 0, 0, 0, 0]"] ;
364 -> 365 ;
366 [label="gini = 0.133\nsamples = 42\nvalue = [65, 0, 0, 0, 0, 5, 0]"] ;
364 -> 366 ;
367 [label="X[1] <= 2.5\ngini = 0.076\nsamples = 223\nvalue = [342, 0, 0, 0, 4, 10, 0]"] ;
363 -> 367 ;
368 [label="gini = 0.143\nsamples = 98\nvalue = [146, 0, 0, 0, 4, 8, 0]"] ;
367 -> 368 ;
369 [label="gini = 0.02\nsamples = 125\nvalue = [196, 0, 0, 0, 0, 2, 0]"] ;
367 -> 369 ;
370 [label="X[8] <= 2.5\ngini = 0.324\nsamples = 196\nvalue = [253, 0, 0, 45, 1, 14, 0]"] ;
354 -> 370 ;
371 [label="gini = 0.0\nsamples = 29\nvalue = [0, 0, 0, 45, 0, 0, 0]"] ;
370 -> 371 ;
372 [label="X[7] <= 109.5\ngini = 0.106\nsamples = 167\nvalue = [253, 0, 0, 0, 1, 14, 0]"] ;
370 -> 372 ;
373 [label="gini = 0.0\nsamples = 96\nvalue = [154, 0, 0, 0, 0, 0, 0]"] ;
372 -> 373 ;
374 [label="X[3] <= 58.0\ngini = 0.231\nsamples = 71\nvalue = [99, 0, 0, 0, 1, 14, 0]"] ;
372 -> 374 ;
375 [label="gini = 0.413\nsamples = 30\nvalue = [34, 0, 0, 0, 0, 14, 0]"] ;
374 -> 375 ;
376 [label="gini = 0.03\nsamples = 41\nvalue = [65, 0, 0, 0, 1, 0, 0]"] ;
374 -> 376 ;
}