digraph Tree {
node [shape=box] ;
0 [label="X[0] <= 0.5\ngini = 0.767\nsamples = 11103502\nvalue = [3318488, 5197946, 2058, 5143638, 29047, 1814622, 2063350]"] ;
1 [label="X[9] <= 2.5\ngini = 0.783\nsamples = 6332555\nvalue = [2773377, 1448459, 2025, 2666617, 23896, 1439913, 1667810]"] ;
0 -> 1 [labeldistance=2.5, labelangle=45, headlabel="True"] ;
2 [label="X[7] <= 198.5\ngini = 0.779\nsamples = 4347734\nvalue = [1860220, 999738, 466, 1936362, 22327, 1301289, 760740]"] ;
1 -> 2 ;
3 [label="X[1] <= 0.5\ngini = 0.771\nsamples = 2535226\nvalue = [1312363, 548879, 425, 960369, 11772, 742011, 436487]"] ;
2 -> 3 ;
4 [label="X[8] <= 1.5\ngini = 0.772\nsamples = 2516637\nvalue = [1283754, 548879, 420, 960366, 11299, 741557, 436475]"] ;
3 -> 4 ;
5 [label="gini = 0.0\nsamples = 563051\nvalue = [890505, 0, 0, 0, 0, 0, 0]"] ;
4 -> 5 ;
6 [label="X[3] <= 74.5\ngini = 0.778\nsamples = 1953586\nvalue = [393249, 548879, 420, 960366, 11299, 741557, 436475]"] ;
4 -> 6 ;
7 [label="X[8] <= 2.5\ngini = 0.777\nsamples = 1649528\nvalue = [332825, 498965, 232, 825714, 9068, 606648, 338143]"] ;
6 -> 7 ;
8 [label="X[2] <= 117.5\ngini = 0.726\nsamples = 1429570\nvalue = [0, 498965, 0, 825714, 0, 600151, 338143]"] ;
7 -> 8 ;
9 [label="gini = 0.678\nsamples = 109348\nvalue = [0, 21757, 0, 81168, 0, 43401, 27260]"] ;
8 -> 9 ;
10 [label="gini = 0.728\nsamples = 1320222\nvalue = [0, 477208, 0, 744546, 0, 556750, 310883]"] ;
8 -> 10 ;
11 [label="X[7] <= 1.5\ngini = 0.088\nsamples = 219958\nvalue = [332825, 0, 232, 0, 9068, 6497, 0]"] ;
7 -> 11 ;
12 [label="gini = 0.457\nsamples = 3603\nvalue = [4089, 0, 7, 0, 1008, 685, 0]"] ;
11 -> 12 ;
13 [label="gini = 0.08\nsamples = 216355\nvalue = [328736, 0, 225, 0, 8060, 5812, 0]"] ;
11 -> 13 ;
14 [label="X[6] <= 16.5\ngini = 0.774\nsamples = 304058\nvalue = [60424, 49914, 188, 134652, 2231, 134909, 98332]"] ;
6 -> 14 ;
15 [label="X[8] <= 2.5\ngini = 0.752\nsamples = 91041\nvalue = [22297, 20164, 152, 41292, 501, 10136, 48966]"] ;
14 -> 15 ;
16 [label="gini = 0.68\nsamples = 76001\nvalue = [0, 20164, 0, 41292, 0, 9522, 48966]"] ;
15 -> 16 ;
17 [label="gini = 0.103\nsamples = 15040\nvalue = [22297, 0, 152, 0, 501, 614, 0]"] ;
15 -> 17 ;
18 [label="X[8] <= 2.5\ngini = 0.744\nsamples = 213017\nvalue = [38127, 29750, 36, 93360, 1730, 124773, 49366]"] ;
14 -> 18 ;
19 [label="gini = 0.688\nsamples = 187317\nvalue = [0, 29750, 0, 93360, 0, 123908, 49366]"] ;
18 -> 19 ;
20 [label="gini = 0.123\nsamples = 25700\nvalue = [38127, 0, 36, 0, 1730, 865, 0]"] ;
18 -> 20 ;
21 [label="X[3] <= 70.5\ngini = 0.063\nsamples = 18589\nvalue = [28609, 0, 5, 3, 473, 454, 12]"] ;
3 -> 21 ;
22 [label="X[2] <= 121.5\ngini = 0.049\nsamples = 14774\nvalue = [22848, 0, 1, 3, 269, 297, 12]"] ;
21 -> 22 ;
23 [label="X[3] <= 63.5\ngini = 0.1\nsamples = 1511\nvalue = [2317, 0, 0, 0, 51, 76, 0]"] ;
22 -> 23 ;
24 [label="X[4] <= 2.5\ngini = 0.059\nsamples = 688\nvalue = [1083, 0, 0, 0, 17, 17, 0]"] ;
23 -> 24 ;
25 [label="gini = 0.207\nsamples = 90\nvalue = [116, 0, 0, 0, 12, 3, 0]"] ;
24 -> 25 ;
26 [label="gini = 0.038\nsamples = 598\nvalue = [967, 0, 0, 0, 5, 14, 0]"] ;
24 -> 26 ;
27 [label="X[4] <= 7.5\ngini = 0.133\nsamples = 823\nvalue = [1234, 0, 0, 0, 34, 59, 0]"] ;
23 -> 27 ;
28 [label="gini = 0.043\nsamples = 411\nvalue = [678, 0, 0, 0, 6, 9, 0]"] ;
27 -> 28 ;
29 [label="gini = 0.223\nsamples = 412\nvalue = [556, 0, 0, 0, 28, 50, 0]"] ;
27 -> 29 ;
30 [label="X[8] <= 2.5\ngini = 0.043\nsamples = 13263\nvalue = [20531, 0, 1, 3, 218, 221, 12]"] ;
22 -> 30 ;
31 [label="X[8] <= 1.5\ngini = 0.694\nsamples = 18\nvalue = [12, 0, 0, 3, 0, 6, 12]"] ;
30 -> 31 ;
32 [label="gini = 0.0\nsamples = 6\nvalue = [12, 0, 0, 0, 0, 0, 0]"] ;
31 -> 32 ;
33 [label="gini = 0.571\nsamples = 12\nvalue = [0, 0, 0, 3, 0, 6, 12]"] ;
31 -> 33 ;
34 [label="X[2] <= 131.5\ngini = 0.041\nsamples = 13245\nvalue = [20519, 0, 1, 0, 218, 215, 0]"] ;
30 -> 34 ;
35 [label="gini = 0.038\nsamples = 10162\nvalue = [15774, 0, 1, 0, 169, 136, 0]"] ;
34 -> 35 ;
36 [label="gini = 0.051\nsamples = 3083\nvalue = [4745, 0, 0, 0, 49, 79, 0]"] ;
34 -> 36 ;
37 [label="X[3] <= 73.5\ngini = 0.114\nsamples = 3815\nvalue = [5761, 0, 4, 0, 204, 157, 0]"] ;
21 -> 37 ;
38 [label="X[4] <= 1.5\ngini = 0.154\nsamples = 1947\nvalue = [2878, 0, 4, 0, 163, 90, 0]"] ;
37 -> 38 ;
39 [label="X[10] <= 65.5\ngini = 0.305\nsamples = 71\nvalue = [95, 0, 0, 0, 22, 0, 0]"] ;
38 -> 39 ;
40 [label="gini = 0.359\nsamples = 60\nvalue = [72, 0, 0, 0, 22, 0, 0]"] ;
39 -> 40 ;
41 [label="gini = 0.0\nsamples = 11\nvalue = [23, 0, 0, 0, 0, 0, 0]"] ;
39 -> 41 ;
42 [label="X[4] <= 2.5\ngini = 0.147\nsamples = 1876\nvalue = [2783, 0, 4, 0, 141, 90, 0]"] ;
38 -> 42 ;
43 [label="gini = 0.269\nsamples = 94\nvalue = [138, 0, 0, 0, 7, 18, 0]"] ;
42 -> 43 ;
44 [label="gini = 0.139\nsamples = 1782\nvalue = [2645, 0, 4, 0, 134, 72, 0]"] ;
42 -> 44 ;
45 [label="X[5] <= 1.5\ngini = 0.07\nsamples = 1868\nvalue = [2883, 0, 0, 0, 41, 67, 0]"] ;
37 -> 45 ;
46 [label="X[10] <= 52.5\ngini = 0.074\nsamples = 1305\nvalue = [2001, 0, 0, 0, 15, 65, 0]"] ;
45 -> 46 ;
47 [label="gini = 0.073\nsamples = 1285\nvalue = [1974, 0, 0, 0, 15, 62, 0]"] ;
46 -> 47 ;
48 [label="gini = 0.18\nsamples = 20\nvalue = [27, 0, 0, 0, 0, 3, 0]"] ;
46 -> 48 ;
49 [label="X[6] <= 29.5\ngini = 0.06\nsamples = 563\nvalue = [882, 0, 0, 0, 26, 2, 0]"] ;
45 -> 49 ;
50 [label="gini = 0.036\nsamples = 435\nvalue = [696, 0, 0, 0, 11, 2, 0]"] ;
49 -> 50 ;
51 [label="gini = 0.138\nsamples = 128\nvalue = [186, 0, 0, 0, 15, 0, 0]"] ;
49 -> 51 ;
52 [label="X[3] <= 63.5\ngini = 0.772\nsamples = 1812508\nvalue = [547857, 450859, 41, 975993, 10555, 559278, 324253]"] ;
2 -> 52 ;
53 [label="X[8] <= 1.5\ngini = 0.777\nsamples = 578027\nvalue = [252320, 164336, 6, 249268, 3502, 167974, 78335]"] ;
52 -> 53 ;
54 [label="gini = 0.0\nsamples = 111499\nvalue = [176954, 0, 0, 0, 0, 0, 0]"] ;
53 -> 54 ;
55 [label="X[8] <= 2.5\ngini = 0.763\nsamples = 466528\nvalue = [75366, 164336, 6, 249268, 3502, 167974, 78335]"] ;
53 -> 55 ;
56 [label="X[9] <= 0.5\ngini = 0.716\nsamples = 415720\nvalue = [0, 164336, 0, 249268, 0, 166372, 78335]"] ;
55 -> 56 ;
57 [label="X[10] <= 231.5\ngini = 0.652\nsamples = 45008\nvalue = [0, 26096, 0, 28374, 0, 0, 16719]"] ;
56 -> 57 ;
58 [label="gini = 0.644\nsamples = 25902\nvalue = [0, 14053, 0, 17815, 0, 0, 9117]"] ;
57 -> 58 ;
59 [label="gini = 0.655\nsamples = 19106\nvalue = [0, 12043, 0, 10559, 0, 0, 7602]"] ;
57 -> 59 ;
60 [label="X[4] <= 6.5\ngini = 0.712\nsamples = 370712\nvalue = [0, 138240, 0, 220894, 0, 166372, 61616]"] ;
56 -> 60 ;
61 [label="gini = 0.726\nsamples = 154387\nvalue = [0, 56592, 0, 93319, 0, 46931, 47128]"] ;
60 -> 61 ;
62 [label="gini = 0.682\nsamples = 216325\nvalue = [0, 81648, 0, 127575, 0, 119441, 14488]"] ;
60 -> 62 ;
63 [label="X[6] <= 25.5\ngini = 0.121\nsamples = 50808\nvalue = [75366, 0, 6, 0, 3502, 1602, 0]"] ;
55 -> 63 ;
64 [label="X[3] <= 47.5\ngini = 0.073\nsamples = 41622\nvalue = [63365, 0, 4, 0, 1508, 978, 0]"] ;
63 -> 64 ;
65 [label="gini = 0.031\nsamples = 31999\nvalue = [49858, 0, 2, 0, 407, 388, 0]"] ;
64 -> 65 ;
66 [label="gini = 0.204\nsamples = 9623\nvalue = [13507, 0, 2, 0, 1101, 590, 0]"] ;
64 -> 66 ;
67 [label="X[2] <= 137.5\ngini = 0.306\nsamples = 9186\nvalue = [12001, 0, 2, 0, 1994, 624, 0]"] ;
63 -> 67 ;
68 [label="gini = 0.241\nsamples = 6703\nvalue = [9256, 0, 2, 0, 1057, 387, 0]"] ;
67 -> 68 ;
69 [label="gini = 0.449\nsamples = 2483\nvalue = [2745, 0, 0, 0, 937, 237, 0]"] ;
67 -> 69 ;
70 [label="X[10] <= 29.5\ngini = 0.761\nsamples = 1234481\nvalue = [295537, 286523, 35, 726725, 7053, 391304, 245918]"] ;
52 -> 70 ;
71 [label="X[10] <= 24.5\ngini = 0.767\nsamples = 254476\nvalue = [46460, 45199, 13, 130479, 1118, 103857, 75666]"] ;
70 -> 71 ;
72 [label="X[10] <= 19.5\ngini = 0.749\nsamples = 145219\nvalue = [26801, 35905, 9, 91024, 758, 45098, 30161]"] ;
71 -> 72 ;
73 [label="X[9] <= 0.5\ngini = 0.757\nsamples = 117952\nvalue = [21739, 27646, 9, 70296, 648, 39406, 26814]"] ;
72 -> 73 ;
74 [label="gini = 0.722\nsamples = 22540\nvalue = [4004, 8153, 7, 12009, 0, 206, 11295]"] ;
73 -> 74 ;
75 [label="gini = 0.742\nsamples = 95412\nvalue = [17735, 19493, 2, 58287, 648, 39200, 15519]"] ;
73 -> 75 ;
76 [label="X[6] <= 14.5\ngini = 0.696\nsamples = 27267\nvalue = [5062, 8259, 0, 20728, 110, 5692, 3347]"] ;
72 -> 76 ;
77 [label="gini = 0.674\nsamples = 5708\nvalue = [997, 2414, 0, 4284, 0, 9, 1427]"] ;
76 -> 77 ;
78 [label="gini = 0.692\nsamples = 21559\nvalue = [4065, 5845, 0, 16444, 110, 5683, 1920]"] ;
76 -> 78 ;
79 [label="X[4] <= 11.5\ngini = 0.748\nsamples = 109257\nvalue = [19659, 9294, 4, 39455, 360, 58759, 45505]"] ;
71 -> 79 ;
80 [label="X[4] <= 7.5\ngini = 0.746\nsamples = 96493\nvalue = [17445, 8347, 4, 35090, 341, 53789, 37629]"] ;
79 -> 80 ;
81 [label="gini = 0.749\nsamples = 48975\nvalue = [9156, 3803, 0, 17455, 185, 24440, 22453]"] ;
80 -> 81 ;
82 [label="gini = 0.736\nsamples = 47518\nvalue = [8289, 4544, 4, 17635, 156, 29349, 15176]"] ;
80 -> 82 ;
83 [label="X[5] <= 1.5\ngini = 0.732\nsamples = 12764\nvalue = [2214, 947, 0, 4365, 19, 4970, 7876]"] ;
79 -> 83 ;
84 [label="gini = 0.667\nsamples = 9633\nvalue = [1724, 737, 0, 3231, 15, 1850, 7876]"] ;
83 -> 84 ;
85 [label="gini = 0.54\nsamples = 3131\nvalue = [490, 210, 0, 1134, 4, 3120, 0]"] ;
83 -> 85 ;
86 [label="X[2] <= 119.5\ngini = 0.756\nsamples = 980005\nvalue = [249077, 241324, 22, 596246, 5935, 287447, 170252]"] ;
70 -> 86 ;
87 [label="X[9] <= 0.5\ngini = 0.705\nsamples = 236093\nvalue = [37158, 48749, 5, 176090, 948, 65774, 44480]"] ;
86 -> 87 ;
88 [label="X[8] <= 2.5\ngini = 0.689\nsamples = 35461\nvalue = [8412, 8074, 5, 25332, 0, 144, 14004]"] ;
87 -> 88 ;
89 [label="gini = 0.649\nsamples = 32432\nvalue = [3737, 8074, 0, 25332, 0, 0, 14004]"] ;
88 -> 89 ;
90 [label="gini = 0.06\nsamples = 3029\nvalue = [4675, 0, 5, 0, 0, 144, 0]"] ;
88 -> 90 ;
91 [label="X[6] <= 6.5\ngini = 0.697\nsamples = 200632\nvalue = [28746, 40675, 0, 150758, 948, 65630, 30476]"] ;
87 -> 91 ;
92 [label="gini = 0.709\nsamples = 48547\nvalue = [9695, 10380, 0, 35597, 248, 6426, 14578]"] ;
91 -> 92 ;
93 [label="gini = 0.683\nsamples = 152085\nvalue = [19051, 30295, 0, 115161, 700, 59204, 15898]"] ;
91 -> 93 ;
94 [label="X[6] <= 5.5\ngini = 0.767\nsamples = 743912\nvalue = [211919, 192575, 17, 420156, 4987, 221673, 125772]"] ;
86 -> 94 ;
95 [label="X[8] <= 1.5\ngini = 0.768\nsamples = 72366\nvalue = [20054, 21029, 10, 37557, 168, 9108, 26495]"] ;
94 -> 95 ;
96 [label="gini = 0.0\nsamples = 7190\nvalue = [11383, 0, 0, 0, 0, 0, 0]"] ;
95 -> 96 ;
97 [label="gini = 0.744\nsamples = 65176\nvalue = [8671, 21029, 10, 37557, 168, 9108, 26495]"] ;
95 -> 97 ;
98 [label="X[8] <= 1.5\ngini = 0.763\nsamples = 671546\nvalue = [191865, 171546, 7, 382599, 4819, 212565, 99277]"] ;
94 -> 98 ;
99 [label="gini = 0.0\nsamples = 90102\nvalue = [142559, 0, 0, 0, 0, 0, 0]"] ;
98 -> 99 ;
100 [label="gini = 0.724\nsamples = 581444\nvalue = [49306, 171546, 7, 382599, 4819, 212565, 99277]"] ;
98 -> 100 ;
101 [label="X[8] <= 1.5\ngini = 0.756\nsamples = 1984821\nvalue = [913157, 448721, 1559, 730255, 1569, 138624, 907070]"] ;
1 -> 101 ;
102 [label="gini = 0.0\nsamples = 360262\nvalue = [570036, 0, 0, 0, 0, 0, 0]"] ;
101 -> 102 ;
103 [label="X[8] <= 2.5\ngini = 0.744\nsamples = 1624559\nvalue = [343121, 448721, 1559, 730255, 1569, 138624, 907070]"] ;
101 -> 103 ;
104 [label="X[10] <= 29.5\ngini = 0.679\nsamples = 1400112\nvalue = [0, 448721, 0, 730255, 0, 129136, 907070]"] ;
103 -> 104 ;
105 [label="X[10] <= 24.5\ngini = 0.62\nsamples = 171420\nvalue = [0, 26863, 0, 79299, 0, 21918, 142875]"] ;
104 -> 105 ;
106 [label="X[5] <= 1.5\ngini = 0.671\nsamples = 82672\nvalue = [0, 21706, 0, 47900, 0, 8370, 52653]"] ;
105 -> 106 ;
107 [label="X[10] <= 6.5\ngini = 0.638\nsamples = 50329\nvalue = [0, 12093, 0, 29401, 0, 2298, 35606]"] ;
106 -> 107 ;
108 [label="gini = 0.589\nsamples = 20021\nvalue = [0, 2720, 0, 10550, 0, 1236, 16869]"] ;
107 -> 108 ;
109 [label="gini = 0.655\nsamples = 30308\nvalue = [0, 9373, 0, 18851, 0, 1062, 18737]"] ;
107 -> 109 ;
110 [label="X[5] <= 2.5\ngini = 0.71\nsamples = 32343\nvalue = [0, 9613, 0, 18499, 0, 6072, 17047]"] ;
106 -> 110 ;
111 [label="gini = 0.723\nsamples = 25494\nvalue = [0, 7757, 0, 14270, 0, 6072, 12318]"] ;
110 -> 111 ;
112 [label="gini = 0.626\nsamples = 6849\nvalue = [0, 1856, 0, 4229, 0, 0, 4729]"] ;
110 -> 112 ;
113 [label="X[2] <= 131.5\ngini = 0.526\nsamples = 88748\nvalue = [0, 5157, 0, 31399, 0, 13548, 90222]"] ;
105 -> 113 ;
114 [label="X[7] <= 138.5\ngini = 0.526\nsamples = 88744\nvalue = [0, 5156, 0, 31399, 0, 13548, 90216]"] ;
113 -> 114 ;
115 [label="gini = 0.579\nsamples = 15063\nvalue = [0, 1267, 0, 6869, 0, 2053, 13625]"] ;
114 -> 115 ;
116 [label="gini = 0.513\nsamples = 73681\nvalue = [0, 3889, 0, 24530, 0, 11495, 76591]"] ;
114 -> 116 ;
117 [label="X[4] <= 6.5\ngini = 0.245\nsamples = 4\nvalue = [0, 1, 0, 0, 0, 0, 6]"] ;
113 -> 117 ;
118 [label="gini = 0.0\nsamples = 3\nvalue = [0, 0, 0, 0, 0, 0, 6]"] ;
117 -> 118 ;
119 [label="gini = 0.0\nsamples = 1\nvalue = [0, 1, 0, 0, 0, 0, 0]"] ;
117 -> 119 ;
120 [label="X[4] <= 4.5\ngini = 0.683\nsamples = 1228692\nvalue = [0, 421858, 0, 650956, 0, 107218, 764195]"] ;
104 -> 120 ;
121 [label="X[5] <= 0.5\ngini = 0.642\nsamples = 538744\nvalue = [0, 221464, 0, 237533, 0, 0, 393760]"] ;
120 -> 121 ;
122 [label="X[2] <= 116.5\ngini = 0.632\nsamples = 100788\nvalue = [0, 29867, 0, 58809, 0, 0, 70828]"] ;
121 -> 122 ;
123 [label="gini = 0.539\nsamples = 6424\nvalue = [0, 580, 0, 3984, 0, 0, 5620]"] ;
122 -> 123 ;
124 [label="gini = 0.636\nsamples = 94364\nvalue = [0, 29287, 0, 54825, 0, 0, 65208]"] ;
122 -> 124 ;
125 [label="X[7] <= 207.5\ngini = 0.64\nsamples = 437956\nvalue = [0, 191597, 0, 178724, 0, 0, 322932]"] ;
121 -> 125 ;
126 [label="gini = 0.634\nsamples = 285492\nvalue = [0, 128729, 0, 107155, 0, 0, 216136]"] ;
125 -> 126 ;
127 [label="gini = 0.648\nsamples = 152464\nvalue = [0, 62868, 0, 71569, 0, 0, 106796]"] ;
125 -> 127 ;
128 [label="X[4] <= 6.5\ngini = 0.698\nsamples = 689948\nvalue = [0, 200394, 0, 413423, 0, 107218, 370435]"] ;
120 -> 128 ;
129 [label="X[6] <= 12.5\ngini = 0.731\nsamples = 240750\nvalue = [0, 78635, 0, 131876, 0, 107110, 63764]"] ;
128 -> 129 ;
130 [label="gini = 0.724\nsamples = 101801\nvalue = [0, 26248, 0, 56387, 0, 49736, 28794]"] ;
129 -> 130 ;
131 [label="gini = 0.733\nsamples = 138949\nvalue = [0, 52387, 0, 75489, 0, 57374, 34970]"] ;
129 -> 131 ;
132 [label="X[6] <= 12.5\ngini = 0.627\nsamples = 449198\nvalue = [0, 121759, 0, 281547, 0, 108, 306671]"] ;
128 -> 132 ;
133 [label="gini = 0.604\nsamples = 218790\nvalue = [0, 45659, 0, 138951, 0, 58, 161237]"] ;
132 -> 133 ;
134 [label="gini = 0.644\nsamples = 230408\nvalue = [0, 76100, 0, 142596, 0, 50, 145434]"] ;
132 -> 134 ;
135 [label="X[6] <= 45.5\ngini = 0.069\nsamples = 224447\nvalue = [343121, 0, 1559, 0, 1569, 9488, 0]"] ;
103 -> 135 ;
136 [label="X[10] <= 6.5\ngini = 0.066\nsamples = 221326\nvalue = [338960, 0, 1496, 0, 1473, 8962, 0]"] ;
135 -> 136 ;
137 [label="X[7] <= 98.5\ngini = 0.269\nsamples = 5584\nvalue = [7413, 0, 45, 0, 159, 1164, 0]"] ;
136 -> 137 ;
138 [label="X[4] <= 6.5\ngini = 0.539\nsamples = 1889\nvalue = [1684, 0, 45, 0, 148, 1067, 0]"] ;
137 -> 138 ;
139 [label="gini = 0.549\nsamples = 914\nvalue = [857, 0, 21, 0, 148, 398, 0]"] ;
138 -> 139 ;
140 [label="gini = 0.51\nsamples = 975\nvalue = [827, 0, 24, 0, 0, 669, 0]"] ;
138 -> 140 ;
141 [label="X[5] <= 1.5\ngini = 0.036\nsamples = 3695\nvalue = [5729, 0, 0, 0, 11, 97, 0]"] ;
137 -> 141 ;
142 [label="gini = 0.042\nsamples = 2531\nvalue = [3917, 0, 0, 0, 5, 80, 0]"] ;
141 -> 142 ;
143 [label="gini = 0.025\nsamples = 1164\nvalue = [1812, 0, 0, 0, 6, 17, 0]"] ;
141 -> 143 ;
144 [label="X[6] <= 3.5\ngini = 0.06\nsamples = 215742\nvalue = [331547, 0, 1451, 0, 1314, 7798, 0]"] ;
136 -> 144 ;
145 [label="X[8] <= 4.5\ngini = 0.032\nsamples = 53325\nvalue = [83094, 0, 314, 0, 131, 914, 0]"] ;
144 -> 145 ;
146 [label="gini = 0.135\nsamples = 11970\nvalue = [17697, 0, 314, 0, 131, 914, 0]"] ;
145 -> 146 ;
147 [label="gini = 0.0\nsamples = 41355\nvalue = [65397, 0, 0, 0, 0, 0, 0]"] ;
145 -> 147 ;
148 [label="X[7] <= 85.5\ngini = 0.069\nsamples = 162417\nvalue = [248453, 0, 1137, 0, 1183, 6884, 0]"] ;
144 -> 148 ;
149 [label="gini = 0.183\nsamples = 25238\nvalue = [35960, 0, 886, 0, 451, 2613, 0]"] ;
148 -> 149 ;
150 [label="gini = 0.047\nsamples = 137179\nvalue = [212493, 0, 251, 0, 732, 4271, 0]"] ;
148 -> 150 ;
151 [label="X[8] <= 4.5\ngini = 0.25\nsamples = 3121\nvalue = [4161, 0, 63, 0, 96, 526, 0]"] ;
135 -> 151 ;
152 [label="X[4] <= 4.5\ngini = 0.362\nsamples = 1988\nvalue = [2424, 0, 63, 0, 96, 526, 0]"] ;
151 -> 152 ;
153 [label="X[4] <= 3.5\ngini = 0.423\nsamples = 785\nvalue = [856, 0, 18, 0, 0, 338, 0]"] ;
152 -> 153 ;
154 [label="gini = 0.403\nsamples = 521\nvalue = [581, 0, 16, 0, 0, 197, 0]"] ;
153 -> 154 ;
155 [label="gini = 0.453\nsamples = 264\nvalue = [275, 0, 2, 0, 0, 141, 0]"] ;
153 -> 155 ;
156 [label="X[4] <= 6.5\ngini = 0.304\nsamples = 1203\nvalue = [1568, 0, 45, 0, 96, 188, 0]"] ;
152 -> 156 ;
157 [label="gini = 0.36\nsamples = 508\nvalue = [618, 0, 17, 0, 96, 54, 0]"] ;
156 -> 157 ;
158 [label="gini = 0.255\nsamples = 695\nvalue = [950, 0, 28, 0, 0, 134, 0]"] ;
156 -> 158 ;
159 [label="gini = 0.0\nsamples = 1133\nvalue = [1737, 0, 0, 0, 0, 0, 0]"] ;
151 -> 159 ;
160 [label="X[5] <= 0.5\ngini = 0.635\nsamples = 4770947\nvalue = [545111, 3749487, 33, 2477021, 5151, 374709, 395540]"] ;
0 -> 160 [labeldistance=2.5, labelangle=-45, headlabel="False"] ;
161 [label="X[0] <= 1.5\ngini = 0.689\nsamples = 432436\nvalue = [34507, 204120, 7, 303356, 217, 56218, 84985]"] ;
160 -> 161 ;
162 [label="X[10] <= 39.5\ngini = 0.68\nsamples = 376454\nvalue = [25817, 148585, 7, 284772, 115, 54547, 81035]"] ;
161 -> 162 ;
163 [label="X[9] <= 2.5\ngini = 0.719\nsamples = 49962\nvalue = [5121, 11091, 3, 34484, 16, 11656, 16322]"] ;
162 -> 163 ;
164 [label="X[4] <= 7.5\ngini = 0.703\nsamples = 26552\nvalue = [1952, 7350, 2, 18745, 10, 9689, 4042]"] ;
163 -> 164 ;
165 [label="X[4] <= 3.0\ngini = 0.691\nsamples = 8530\nvalue = [475, 3115, 0, 6290, 1, 1584, 1988]"] ;
164 -> 165 ;
166 [label="X[8] <= 2.5\ngini = 0.657\nsamples = 5036\nvalue = [278, 2325, 0, 3709, 1, 1522, 94]"] ;
165 -> 166 ;
167 [label="gini = 0.635\nsamples = 4878\nvalue = [21, 2325, 0, 3709, 0, 1520, 94]"] ;
166 -> 167 ;
168 [label="gini = 0.023\nsamples = 158\nvalue = [257, 0, 0, 0, 1, 2, 0]"] ;
166 -> 168 ;
169 [label="X[10] <= 29.5\ngini = 0.642\nsamples = 3494\nvalue = [197, 790, 0, 2581, 0, 62, 1894]"] ;
165 -> 169 ;
170 [label="gini = 0.641\nsamples = 2587\nvalue = [132, 560, 0, 1820, 0, 44, 1524]"] ;
169 -> 170 ;
171 [label="gini = 0.629\nsamples = 907\nvalue = [65, 230, 0, 761, 0, 18, 370]"] ;
169 -> 171 ;
172 [label="X[10] <= 24.5\ngini = 0.695\nsamples = 18022\nvalue = [1477, 4235, 2, 12455, 9, 8105, 2054]"] ;
164 -> 172 ;
173 [label="X[4] <= 11.5\ngini = 0.678\nsamples = 10595\nvalue = [849, 2952, 2, 7857, 9, 4136, 823]"] ;
172 -> 173 ;
174 [label="gini = 0.663\nsamples = 9107\nvalue = [747, 2305, 2, 6829, 9, 4022, 385]"] ;
173 -> 174 ;
175 [label="gini = 0.688\nsamples = 1488\nvalue = [102, 647, 0, 1028, 0, 114, 438]"] ;
173 -> 175 ;
176 [label="X[9] <= 0.5\ngini = 0.705\nsamples = 7427\nvalue = [628, 1283, 0, 4598, 0, 3969, 1231]"] ;
172 -> 176 ;
177 [label="gini = 0.688\nsamples = 1020\nvalue = [183, 216, 0, 610, 0, 2, 580]"] ;
176 -> 177 ;
178 [label="gini = 0.674\nsamples = 6407\nvalue = [445, 1067, 0, 3988, 0, 3967, 651]"] ;
176 -> 178 ;
179 [label="X[4] <= 6.5\ngini = 0.687\nsamples = 23410\nvalue = [3169, 3741, 1, 15739, 6, 1967, 12280]"] ;
163 -> 179 ;
180 [label="X[6] <= 40.5\ngini = 0.717\nsamples = 10447\nvalue = [1354, 2014, 1, 7168, 6, 1940, 4042]"] ;
179 -> 180 ;
181 [label="X[4] <= 4.5\ngini = 0.716\nsamples = 10017\nvalue = [1345, 1761, 1, 6852, 6, 1879, 3988]"] ;
180 -> 181 ;
182 [label="gini = 0.668\nsamples = 5432\nvalue = [590, 1317, 1, 3680, 0, 19, 2966]"] ;
181 -> 182 ;
183 [label="gini = 0.709\nsamples = 4585\nvalue = [755, 444, 0, 3172, 6, 1860, 1022]"] ;
181 -> 183 ;
184 [label="X[2] <= 133.5\ngini = 0.645\nsamples = 430\nvalue = [9, 253, 0, 316, 0, 61, 54]"] ;
180 -> 184 ;
185 [label="gini = 0.586\nsamples = 124\nvalue = [1, 89, 0, 74, 0, 6, 11]"] ;
184 -> 185 ;
186 [label="gini = 0.655\nsamples = 306\nvalue = [8, 164, 0, 242, 0, 55, 43]"] ;
184 -> 186 ;
187 [label="X[8] <= 2.5\ngini = 0.645\nsamples = 12963\nvalue = [1815, 1727, 0, 8571, 0, 27, 8238]"] ;
179 -> 187 ;
188 [label="X[7] <= 191.5\ngini = 0.582\nsamples = 11818\nvalue = [54, 1727, 0, 8571, 0, 0, 8238]"] ;
187 -> 188 ;
189 [label="gini = 0.59\nsamples = 6417\nvalue = [34, 1121, 0, 5000, 0, 0, 3981]"] ;
188 -> 189 ;
190 [label="gini = 0.563\nsamples = 5401\nvalue = [20, 606, 0, 3571, 0, 0, 4257]"] ;
188 -> 190 ;
191 [label="X[7] <= 163.5\ngini = 0.03\nsamples = 1145\nvalue = [1761, 0, 0, 0, 0, 27, 0]"] ;
187 -> 191 ;
192 [label="gini = 0.067\nsamples = 489\nvalue = [756, 0, 0, 0, 0, 27, 0]"] ;
191 -> 192 ;
193 [label="gini = 0.0\nsamples = 656\nvalue = [1005, 0, 0, 0, 0, 0, 0]"] ;
191 -> 193 ;
194 [label="X[3] <= 67.5\ngini = 0.67\nsamples = 326492\nvalue = [20696, 137494, 4, 250288, 99, 42891, 64713]"] ;
162 -> 194 ;
195 [label="X[2] <= 126.5\ngini = 0.686\nsamples = 191763\nvalue = [12771, 88008, 2, 136670, 65, 25492, 40093]"] ;
194 -> 195 ;
196 [label="X[1] <= 0.5\ngini = 0.681\nsamples = 97009\nvalue = [5781, 37820, 0, 72943, 17, 14117, 22594]"] ;
195 -> 196 ;
197 [label="X[8] <= 2.5\ngini = 0.68\nsamples = 96852\nvalue = [5543, 37820, 0, 72943, 13, 14117, 22594]"] ;
196 -> 197 ;
198 [label="gini = 0.658\nsamples = 93395\nvalue = [165, 37820, 0, 72943, 0, 14102, 22594]"] ;
197 -> 198 ;
199 [label="gini = 0.01\nsamples = 3457\nvalue = [5378, 0, 0, 0, 13, 15, 0]"] ;
197 -> 199 ;
200 [label="X[2] <= 123.5\ngini = 0.033\nsamples = 157\nvalue = [238, 0, 0, 0, 4, 0, 0]"] ;
196 -> 200 ;
201 [label="gini = 0.064\nsamples = 78\nvalue = [116, 0, 0, 0, 4, 0, 0]"] ;
200 -> 201 ;
202 [label="gini = 0.0\nsamples = 79\nvalue = [122, 0, 0, 0, 0, 0, 0]"] ;
200 -> 202 ;
203 [label="X[2] <= 131.5\ngini = 0.685\nsamples = 94754\nvalue = [6990, 50188, 2, 63727, 48, 11375, 17499]"] ;
195 -> 203 ;
204 [label="X[4] <= 10.5\ngini = 0.665\nsamples = 51209\nvalue = [3543, 30547, 0, 34125, 11, 4940, 7720]"] ;
203 -> 204 ;
205 [label="gini = 0.665\nsamples = 41672\nvalue = [2934, 23934, 0, 28426, 11, 3989, 6471]"] ;
204 -> 205 ;
206 [label="gini = 0.654\nsamples = 9537\nvalue = [609, 6613, 0, 5699, 0, 951, 1249]"] ;
204 -> 206 ;
207 [label="X[8] <= 2.5\ngini = 0.703\nsamples = 43545\nvalue = [3447, 19641, 2, 29602, 37, 6435, 9779]"] ;
203 -> 207 ;
208 [label="gini = 0.677\nsamples = 41534\nvalue = [387, 19641, 0, 29602, 0, 6369, 9779]"] ;
207 -> 208 ;
209 [label="gini = 0.065\nsamples = 2011\nvalue = [3060, 0, 2, 0, 37, 66, 0]"] ;
207 -> 209 ;
210 [label="X[10] <= 43.5\ngini = 0.64\nsamples = 134729\nvalue = [7925, 49486, 2, 113618, 34, 17399, 24620]"] ;
194 -> 210 ;
211 [label="X[10] <= 40.5\ngini = 0.553\nsamples = 9858\nvalue = [240, 8721, 0, 5739, 2, 430, 517]"] ;
210 -> 211 ;
212 [label="X[7] <= 138.5\ngini = 0.511\nsamples = 2707\nvalue = [64, 2691, 0, 1342, 0, 106, 102]"] ;
211 -> 212 ;
213 [label="gini = 0.435\nsamples = 1571\nvalue = [19, 1736, 0, 662, 0, 24, 31]"] ;
212 -> 213 ;
214 [label="gini = 0.587\nsamples = 1136\nvalue = [45, 955, 0, 680, 0, 82, 71]"] ;
212 -> 214 ;
215 [label="X[3] <= 72.5\ngini = 0.565\nsamples = 7151\nvalue = [176, 6030, 0, 4397, 2, 324, 415]"] ;
211 -> 215 ;
216 [label="gini = 0.556\nsamples = 5766\nvalue = [110, 4920, 0, 3566, 2, 242, 300]"] ;
215 -> 216 ;
217 [label="gini = 0.599\nsamples = 1385\nvalue = [66, 1110, 0, 831, 0, 82, 115]"] ;
215 -> 217 ;
218 [label="X[9] <= 2.5\ngini = 0.635\nsamples = 124871\nvalue = [7685, 40765, 2, 107879, 32, 16969, 24103]"] ;
210 -> 218 ;
219 [label="X[8] <= 2.5\ngini = 0.615\nsamples = 65046\nvalue = [2504, 22775, 0, 57534, 15, 14139, 5830]"] ;
218 -> 219 ;
220 [label="gini = 0.597\nsamples = 63541\nvalue = [132, 22775, 0, 57534, 0, 14134, 5830]"] ;
219 -> 220 ;
221 [label="gini = 0.017\nsamples = 1505\nvalue = [2372, 0, 0, 0, 15, 5, 0]"] ;
219 -> 221 ;
222 [label="X[8] <= 2.5\ngini = 0.64\nsamples = 59825\nvalue = [5181, 17990, 2, 50345, 17, 2830, 18273]"] ;
218 -> 222 ;
223 [label="gini = 0.601\nsamples = 56587\nvalue = [197, 17990, 0, 50345, 0, 2775, 18273]"] ;
222 -> 223 ;
224 [label="gini = 0.029\nsamples = 3238\nvalue = [4984, 0, 2, 0, 17, 55, 0]"] ;
222 -> 224 ;
225 [label="X[4] <= 2.5\ngini = 0.55\nsamples = 55982\nvalue = [8690, 55535, 0, 18584, 102, 1671, 3950]"] ;
161 -> 225 ;
226 [label="X[10] <= 97.5\ngini = 0.404\nsamples = 19776\nvalue = [1059, 23260, 0, 6137, 15, 89, 652]"] ;
225 -> 226 ;
227 [label="X[1] <= 0.5\ngini = 0.452\nsamples = 10307\nvalue = [391, 11197, 0, 4431, 8, 43, 209]"] ;
226 -> 227 ;
228 [label="X[8] <= 2.5\ngini = 0.449\nsamples = 10275\nvalue = [345, 11197, 0, 4431, 8, 38, 209]"] ;
227 -> 228 ;
229 [label="X[10] <= 7.5\ngini = 0.426\nsamples = 10071\nvalue = [24, 11197, 0, 4431, 0, 34, 209]"] ;
228 -> 229 ;
230 [label="gini = 0.535\nsamples = 190\nvalue = [0, 124, 0, 157, 0, 0, 13]"] ;
229 -> 230 ;
231 [label="gini = 0.421\nsamples = 9881\nvalue = [24, 11073, 0, 4274, 0, 34, 196]"] ;
229 -> 231 ;
232 [label="X[0] <= 3.5\ngini = 0.07\nsamples = 204\nvalue = [321, 0, 0, 0, 8, 4, 0]"] ;
228 -> 232 ;
233 [label="gini = 0.022\nsamples = 158\nvalue = [261, 0, 0, 0, 0, 3, 0]"] ;
232 -> 233 ;
234 [label="gini = 0.23\nsamples = 46\nvalue = [60, 0, 0, 0, 8, 1, 0]"] ;
232 -> 234 ;
235 [label="X[4] <= 1.5\ngini = 0.177\nsamples = 32\nvalue = [46, 0, 0, 0, 0, 5, 0]"] ;
227 -> 235 ;
236 [label="gini = 0.0\nsamples = 19\nvalue = [31, 0, 0, 0, 0, 0, 0]"] ;
235 -> 236 ;
237 [label="X[10] <= 81.5\ngini = 0.375\nsamples = 13\nvalue = [15, 0, 0, 0, 0, 5, 0]"] ;
235 -> 237 ;
238 [label="gini = 0.0\nsamples = 7\nvalue = [9, 0, 0, 0, 0, 0, 0]"] ;
237 -> 238 ;
239 [label="gini = 0.496\nsamples = 6\nvalue = [6, 0, 0, 0, 0, 5, 0]"] ;
237 -> 239 ;
240 [label="X[0] <= 3.5\ngini = 0.332\nsamples = 9469\nvalue = [668, 12063, 0, 1706, 7, 46, 443]"] ;
226 -> 240 ;
241 [label="X[1] <= 0.5\ngini = 0.294\nsamples = 9132\nvalue = [299, 11963, 0, 1659, 4, 43, 414]"] ;
240 -> 241 ;
242 [label="X[6] <= 3.5\ngini = 0.29\nsamples = 9113\nvalue = [267, 11963, 0, 1659, 4, 43, 414]"] ;
241 -> 242 ;
243 [label="gini = 0.539\nsamples = 742\nvalue = [54, 701, 0, 326, 0, 11, 52]"] ;
242 -> 243 ;
244 [label="gini = 0.262\nsamples = 8371\nvalue = [213, 11262, 0, 1333, 4, 32, 362]"] ;
242 -> 244 ;
245 [label="gini = 0.0\nsamples = 19\nvalue = [32, 0, 0, 0, 0, 0, 0]"] ;
241 -> 245 ;
246 [label="X[8] <= 2.5\ngini = 0.508\nsamples = 337\nvalue = [369, 100, 0, 47, 3, 3, 29]"] ;
240 -> 246 ;
247 [label="X[10] <= 224.0\ngini = 0.627\nsamples = 117\nvalue = [12, 100, 0, 47, 0, 0, 29]"] ;
246 -> 247 ;
248 [label="gini = 0.545\nsamples = 82\nvalue = [9, 86, 0, 23, 0, 0, 17]"] ;
247 -> 248 ;
249 [label="gini = 0.671\nsamples = 35\nvalue = [3, 14, 0, 24, 0, 0, 12]"] ;
247 -> 249 ;
250 [label="X[6] <= 45.5\ngini = 0.033\nsamples = 220\nvalue = [357, 0, 0, 0, 3, 3, 0]"] ;
246 -> 250 ;
251 [label="gini = 0.028\nsamples = 213\nvalue = [346, 0, 0, 0, 2, 3, 0]"] ;
250 -> 251 ;
252 [label="gini = 0.153\nsamples = 7\nvalue = [11, 0, 0, 0, 1, 0, 0]"] ;
250 -> 252 ;
253 [label="X[0] <= 3.5\ngini = 0.614\nsamples = 36206\nvalue = [7631, 32275, 0, 12447, 87, 1582, 3298]"] ;
225 -> 253 ;
254 [label="X[1] <= 0.5\ngini = 0.584\nsamples = 33714\nvalue = [5220, 31618, 0, 12105, 43, 1456, 2878]"] ;
253 -> 254 ;
255 [label="X[8] <= 2.5\ngini = 0.576\nsamples = 33343\nvalue = [4657, 31618, 0, 12102, 40, 1450, 2878]"] ;
254 -> 255 ;
256 [label="X[3] <= 72.5\ngini = 0.504\nsamples = 30601\nvalue = [292, 31618, 0, 12102, 0, 1404, 2878]"] ;
255 -> 256 ;
257 [label="gini = 0.475\nsamples = 26065\nvalue = [229, 28350, 0, 9002, 0, 1108, 2556]"] ;
256 -> 257 ;
258 [label="gini = 0.588\nsamples = 4536\nvalue = [63, 3268, 0, 3100, 0, 296, 322]"] ;
256 -> 258 ;
259 [label="X[9] <= 1.5\ngini = 0.038\nsamples = 2742\nvalue = [4365, 0, 0, 0, 40, 46, 0]"] ;
255 -> 259 ;
260 [label="gini = 0.079\nsamples = 331\nvalue = [536, 0, 0, 0, 18, 5, 0]"] ;
259 -> 260 ;
261 [label="gini = 0.032\nsamples = 2411\nvalue = [3829, 0, 0, 0, 22, 41, 0]"] ;
259 -> 261 ;
262 [label="X[10] <= 5.0\ngini = 0.041\nsamples = 371\nvalue = [563, 0, 0, 3, 3, 6, 0]"] ;
254 -> 262 ;
263 [label="X[0] <= 2.5\ngini = 0.408\nsamples = 4\nvalue = [5, 0, 0, 0, 0, 2, 0]"] ;
262 -> 263 ;
264 [label="gini = 0.5\nsamples = 3\nvalue = [2, 0, 0, 0, 0, 2, 0]"] ;
263 -> 264 ;
265 [label="gini = 0.0\nsamples = 1\nvalue = [3, 0, 0, 0, 0, 0, 0]"] ;
263 -> 265 ;
266 [label="X[8] <= 2.5\ngini = 0.035\nsamples = 367\nvalue = [558, 0, 0, 3, 3, 4, 0]"] ;
262 -> 266 ;
267 [label="gini = 0.0\nsamples = 2\nvalue = [0, 0, 0, 3, 0, 0, 0]"] ;
266 -> 267 ;
268 [label="gini = 0.025\nsamples = 365\nvalue = [558, 0, 0, 0, 3, 4, 0]"] ;
266 -> 268 ;
269 [label="X[3] <= 58.5\ngini = 0.59\nsamples = 2492\nvalue = [2411, 657, 0, 342, 44, 126, 420]"] ;
253 -> 269 ;
270 [label="X[3] <= 54.5\ngini = 0.569\nsamples = 1037\nvalue = [958, 523, 0, 143, 9, 25, 19]"] ;
269 -> 270 ;
271 [label="X[6] <= 3.5\ngini = 0.412\nsamples = 637\nvalue = [785, 89, 0, 125, 4, 24, 17]"] ;
270 -> 271 ;
272 [label="gini = 0.552\nsamples = 175\nvalue = [188, 30, 0, 60, 2, 9, 10]"] ;
271 -> 272 ;
273 [label="gini = 0.343\nsamples = 462\nvalue = [597, 59, 0, 65, 2, 15, 7]"] ;
271 -> 273 ;
274 [label="X[2] <= 126.5\ngini = 0.454\nsamples = 400\nvalue = [173, 434, 0, 18, 5, 1, 2]"] ;
270 -> 274 ;
275 [label="gini = 0.333\nsamples = 333\nvalue = [86, 419, 0, 14, 3, 0, 2]"] ;
274 -> 275 ;
276 [label="gini = 0.342\nsamples = 67\nvalue = [87, 15, 0, 4, 2, 1, 0]"] ;
274 -> 276 ;
277 [label="X[10] <= 177.5\ngini = 0.566\nsamples = 1455\nvalue = [1453, 134, 0, 199, 35, 101, 401]"] ;
269 -> 277 ;
278 [label="X[8] <= 2.5\ngini = 0.431\nsamples = 1053\nvalue = [1243, 131, 0, 187, 35, 50, 32]"] ;
277 -> 278 ;
279 [label="gini = 0.698\nsamples = 271\nvalue = [59, 131, 0, 187, 0, 27, 32]"] ;
278 -> 279 ;
280 [label="gini = 0.09\nsamples = 782\nvalue = [1184, 0, 0, 0, 35, 23, 0]"] ;
278 -> 280 ;
281 [label="X[8] <= 2.5\ngini = 0.56\nsamples = 402\nvalue = [210, 3, 0, 12, 0, 51, 369]"] ;
277 -> 281 ;
282 [label="gini = 0.276\nsamples = 280\nvalue = [4, 3, 0, 12, 0, 50, 369]"] ;
281 -> 282 ;
283 [label="gini = 0.01\nsamples = 122\nvalue = [206, 0, 0, 0, 0, 1, 0]"] ;
281 -> 283 ;
284 [label="X[4] <= 2.5\ngini = 0.623\nsamples = 4338511\nvalue = [510604, 3545367, 26, 2173665, 4934, 318491, 310555]"] ;
160 -> 284 ;
285 [label="X[7] <= 129.5\ngini = 0.528\nsamples = 700790\nvalue = [45323, 698880, 0, 293958, 641, 29730, 39873]"] ;
284 -> 285 ;
286 [label="X[3] <= 45.5\ngini = 0.465\nsamples = 249805\nvalue = [16534, 275335, 0, 85061, 189, 7273, 10664]"] ;
285 -> 286 ;
287 [label="X[8] <= 2.5\ngini = 0.563\nsamples = 73626\nvalue = [7731, 68799, 0, 33182, 11, 2651, 3936]"] ;
286 -> 287 ;
288 [label="X[0] <= 2.5\ngini = 0.504\nsamples = 68759\nvalue = [99, 68799, 0, 33182, 0, 2601, 3936]"] ;
287 -> 288 ;
289 [label="X[6] <= 15.5\ngini = 0.491\nsamples = 64849\nvalue = [86, 66550, 0, 29888, 0, 2379, 3565]"] ;
288 -> 289 ;
290 [label="gini = 0.523\nsamples = 47249\nvalue = [48, 45214, 0, 24188, 0, 1997, 3000]"] ;
289 -> 290 ;
291 [label="gini = 0.378\nsamples = 17600\nvalue = [38, 21336, 0, 5700, 0, 382, 565]"] ;
289 -> 291 ;
292 [label="X[6] <= 7.0\ngini = 0.574\nsamples = 3910\nvalue = [13, 2249, 0, 3294, 0, 222, 371]"] ;
288 -> 292 ;
293 [label="gini = 0.499\nsamples = 2730\nvalue = [3, 844, 0, 2878, 0, 213, 339]"] ;
292 -> 293 ;
294 [label="gini = 0.387\nsamples = 1180\nvalue = [10, 1405, 0, 416, 0, 9, 32]"] ;
292 -> 294 ;
295 [label="X[7] <= 52.5\ngini = 0.016\nsamples = 4867\nvalue = [7632, 0, 0, 0, 11, 50, 0]"] ;
287 -> 295 ;
296 [label="X[2] <= 135.5\ngini = 0.002\nsamples = 3685\nvalue = [5822, 0, 0, 0, 4, 1, 0]"] ;
295 -> 296 ;
297 [label="gini = 0.0\nsamples = 3192\nvalue = [5062, 0, 0, 0, 0, 0, 0]"] ;
296 -> 297 ;
298 [label="gini = 0.013\nsamples = 493\nvalue = [760, 0, 0, 0, 4, 1, 0]"] ;
296 -> 298 ;
299 [label="X[8] <= 4.0\ngini = 0.058\nsamples = 1182\nvalue = [1810, 0, 0, 0, 7, 49, 0]"] ;
295 -> 299 ;
300 [label="gini = 0.165\nsamples = 392\nvalue = [569, 0, 0, 0, 7, 49, 0]"] ;
299 -> 300 ;
301 [label="gini = 0.0\nsamples = 790\nvalue = [1241, 0, 0, 0, 0, 0, 0]"] ;
299 -> 301 ;
302 [label="X[10] <= 97.5\ngini = 0.415\nsamples = 176179\nvalue = [8803, 206536, 0, 51879, 178, 4622, 6728]"] ;
286 -> 302 ;
303 [label="X[0] <= 1.5\ngini = 0.459\nsamples = 88534\nvalue = [4855, 97905, 0, 31762, 155, 2554, 2993]"] ;
302 -> 303 ;
304 [label="X[8] <= 2.5\ngini = 0.508\nsamples = 61010\nvalue = [2888, 62359, 0, 26245, 56, 2343, 2829]"] ;
303 -> 304 ;
305 [label="gini = 0.483\nsamples = 59395\nvalue = [447, 62359, 0, 26245, 0, 2314, 2829]"] ;
304 -> 305 ;
306 [label="gini = 0.066\nsamples = 1615\nvalue = [2441, 0, 0, 0, 56, 29, 0]"] ;
304 -> 306 ;
307 [label="X[1] <= 0.5\ngini = 0.314\nsamples = 27524\nvalue = [1967, 35546, 0, 5517, 99, 211, 164]"] ;
303 -> 307 ;
308 [label="gini = 0.311\nsamples = 27445\nvalue = [1859, 35546, 0, 5517, 99, 201, 164]"] ;
307 -> 308 ;
309 [label="gini = 0.155\nsamples = 79\nvalue = [108, 0, 0, 0, 0, 10, 0]"] ;
307 -> 309 ;
310 [label="X[7] <= 16.5\ngini = 0.362\nsamples = 87645\nvalue = [3948, 108631, 0, 20117, 23, 2068, 3735]"] ;
302 -> 310 ;
311 [label="X[10] <= 152.5\ngini = 0.494\nsamples = 21386\nvalue = [1154, 22651, 0, 7975, 0, 794, 1302]"] ;
310 -> 311 ;
312 [label="gini = 0.287\nsamples = 5777\nvalue = [335, 7658, 0, 916, 0, 99, 134]"] ;
311 -> 312 ;
313 [label="gini = 0.547\nsamples = 15609\nvalue = [819, 14993, 0, 7059, 0, 695, 1168]"] ;
311 -> 313 ;
314 [label="X[10] <= 178.0\ngini = 0.31\nsamples = 66259\nvalue = [2794, 85980, 0, 12142, 23, 1274, 2433]"] ;
310 -> 314 ;
315 [label="gini = 0.25\nsamples = 42434\nvalue = [1561, 57638, 0, 6473, 22, 577, 729]"] ;
314 -> 315 ;
316 [label="gini = 0.407\nsamples = 23825\nvalue = [1233, 28342, 0, 5669, 1, 697, 1704]"] ;
314 -> 316 ;
317 [label="X[8] <= 2.5\ngini = 0.557\nsamples = 450985\nvalue = [28789, 423545, 0, 208897, 452, 22457, 29209]"] ;
285 -> 317 ;
318 [label="X[3] <= 75.5\ngini = 0.525\nsamples = 434829\nvalue = [3857, 423545, 0, 208897, 0, 22162, 29209]"] ;
317 -> 318 ;
319 [label="X[10] <= 97.5\ngini = 0.532\nsamples = 400842\nvalue = [3473, 384937, 0, 196893, 0, 20841, 27897]"] ;
318 -> 319 ;
320 [label="X[8] <= 1.5\ngini = 0.568\nsamples = 152832\nvalue = [1848, 134267, 0, 83540, 0, 10324, 11753]"] ;
319 -> 320 ;
321 [label="gini = 0.0\nsamples = 1162\nvalue = [1848, 0, 0, 0, 0, 0, 0]"] ;
320 -> 321 ;
322 [label="gini = 0.561\nsamples = 151670\nvalue = [0, 134267, 0, 83540, 0, 10324, 11753]"] ;
320 -> 322 ;
323 [label="X[8] <= 1.5\ngini = 0.506\nsamples = 248010\nvalue = [1625, 250670, 0, 113353, 0, 10517, 16144]"] ;
319 -> 323 ;
324 [label="gini = 0.0\nsamples = 1034\nvalue = [1625, 0, 0, 0, 0, 0, 0]"] ;
323 -> 324 ;
325 [label="gini = 0.502\nsamples = 246976\nvalue = [0, 250670, 0, 113353, 0, 10517, 16144]"] ;
323 -> 325 ;
326 [label="X[3] <= 76.5\ngini = 0.43\nsamples = 33987\nvalue = [384, 38608, 0, 12004, 0, 1321, 1312]"] ;
318 -> 326 ;
327 [label="X[8] <= 1.5\ngini = 0.367\nsamples = 16094\nvalue = [162, 19487, 0, 5152, 0, 240, 298]"] ;
326 -> 327 ;
328 [label="gini = 0.0\nsamples = 109\nvalue = [162, 0, 0, 0, 0, 0, 0]"] ;
327 -> 328 ;
329 [label="gini = 0.359\nsamples = 15985\nvalue = [0, 19487, 0, 5152, 0, 240, 298]"] ;
327 -> 329 ;
330 [label="X[2] <= 132.5\ngini = 0.482\nsamples = 17893\nvalue = [222, 19121, 0, 6852, 0, 1081, 1014]"] ;
326 -> 330 ;
331 [label="gini = 0.536\nsamples = 11581\nvalue = [137, 11209, 0, 5113, 0, 892, 835]"] ;
330 -> 331 ;
332 [label="gini = 0.356\nsamples = 6312\nvalue = [85, 7912, 0, 1739, 0, 189, 179]"] ;
330 -> 332 ;
333 [label="X[6] <= 42.5\ngini = 0.057\nsamples = 16156\nvalue = [24932, 0, 0, 0, 452, 295, 0]"] ;
317 -> 333 ;
334 [label="X[0] <= 3.5\ngini = 0.021\nsamples = 14927\nvalue = [23513, 0, 0, 0, 99, 151, 0]"] ;
333 -> 334 ;
335 [label="X[10] <= 128.5\ngini = 0.017\nsamples = 13740\nvalue = [21694, 0, 0, 0, 77, 111, 0]"] ;
334 -> 335 ;
336 [label="gini = 0.025\nsamples = 7025\nvalue = [10998, 0, 0, 0, 62, 77, 0]"] ;
335 -> 336 ;
337 [label="gini = 0.009\nsamples = 6715\nvalue = [10696, 0, 0, 0, 15, 34, 0]"] ;
335 -> 337 ;
338 [label="X[7] <= 193.5\ngini = 0.064\nsamples = 1187\nvalue = [1819, 0, 0, 0, 22, 40, 0]"] ;
334 -> 338 ;
339 [label="gini = 0.09\nsamples = 810\nvalue = [1226, 0, 0, 0, 20, 40, 0]"] ;
338 -> 339 ;
340 [label="gini = 0.007\nsamples = 377\nvalue = [593, 0, 0, 0, 2, 0, 0]"] ;
338 -> 340 ;
341 [label="X[2] <= 127.5\ngini = 0.412\nsamples = 1229\nvalue = [1419, 0, 0, 0, 353, 144, 0]"] ;
333 -> 341 ;
342 [label="X[0] <= 1.5\ngini = 0.611\nsamples = 396\nvalue = [269, 0, 0, 0, 252, 86, 0]"] ;
341 -> 342 ;
343 [label="gini = 0.284\nsamples = 116\nvalue = [145, 0, 0, 0, 25, 4, 0]"] ;
342 -> 343 ;
344 [label="gini = 0.607\nsamples = 280\nvalue = [124, 0, 0, 0, 227, 82, 0]"] ;
342 -> 344 ;
345 [label="X[8] <= 4.0\ngini = 0.22\nsamples = 833\nvalue = [1150, 0, 0, 0, 101, 58, 0]"] ;
341 -> 345 ;
346 [label="gini = 0.623\nsamples = 186\nvalue = [149, 0, 0, 0, 101, 58, 0]"] ;
345 -> 346 ;
347 [label="gini = 0.0\nsamples = 647\nvalue = [1001, 0, 0, 0, 0, 0, 0]"] ;
345 -> 347 ;
348 [label="X[4] <= 10.5\ngini = 0.637\nsamples = 3637721\nvalue = [465281, 2846487, 26, 1879707, 4293, 288761, 270682]"] ;
284 -> 348 ;
349 [label="X[0] <= 2.5\ngini = 0.646\nsamples = 2807782\nvalue = [373282, 2126723, 23, 1493809, 3661, 236470, 207737]"] ;
348 -> 349 ;
350 [label="X[9] <= 2.5\ngini = 0.639\nsamples = 2684598\nvalue = [323945, 2076966, 22, 1411253, 3219, 230199, 201284]"] ;
349 -> 350 ;
351 [label="X[3] <= 57.5\ngini = 0.626\nsamples = 1718751\nvalue = [157406, 1351461, 14, 931283, 2778, 200177, 76885]"] ;
350 -> 351 ;
352 [label="X[9] <= 1.5\ngini = 0.581\nsamples = 579469\nvalue = [57056, 519770, 1, 278357, 767, 45782, 16237]"] ;
351 -> 352 ;
353 [label="gini = 0.614\nsamples = 262930\nvalue = [42415, 218413, 0, 129982, 472, 21855, 3152]"] ;
352 -> 353 ;
354 [label="gini = 0.548\nsamples = 316539\nvalue = [14641, 301357, 1, 148375, 295, 23927, 13085]"] ;
352 -> 354 ;
355 [label="X[8] <= 2.5\ngini = 0.644\nsamples = 1139282\nvalue = [100350, 831691, 13, 652926, 2011, 154395, 60648]"] ;
351 -> 355 ;
356 [label="gini = 0.608\nsamples = 1080886\nvalue = [10957, 831691, 0, 652926, 0, 153564, 60648]"] ;
355 -> 356 ;
357 [label="gini = 0.06\nsamples = 58396\nvalue = [89393, 0, 13, 0, 2011, 831, 0]"] ;
355 -> 357 ;
358 [label="X[1] <= 0.5\ngini = 0.656\nsamples = 965847\nvalue = [166539, 725505, 8, 479970, 441, 30022, 124399]"] ;
350 -> 358 ;
359 [label="X[6] <= 5.5\ngini = 0.656\nsamples = 964163\nvalue = [164007, 725505, 8, 479941, 417, 29963, 124399]"] ;
358 -> 359 ;
360 [label="gini = 0.62\nsamples = 263261\nvalue = [49973, 221939, 0, 115646, 50, 4828, 23113]"] ;
359 -> 360 ;
361 [label="gini = 0.666\nsamples = 700902\nvalue = [114034, 503566, 8, 364295, 367, 25135, 101286]"] ;
359 -> 361 ;
362 [label="X[6] <= 44.5\ngini = 0.082\nsamples = 1684\nvalue = [2532, 0, 0, 29, 24, 59, 0]"] ;
358 -> 362 ;
363 [label="gini = 0.063\nsamples = 1589\nvalue = [2419, 0, 0, 2, 24, 55, 0]"] ;
362 -> 363 ;
364 [label="gini = 0.348\nsamples = 95\nvalue = [113, 0, 0, 27, 0, 4, 0]"] ;
362 -> 364 ;
365 [label="X[3] <= 45.5\ngini = 0.689\nsamples = 123184\nvalue = [49337, 49757, 1, 82556, 442, 6271, 6453]"] ;
349 -> 365 ;
366 [label="X[2] <= 124.5\ngini = 0.607\nsamples = 41115\nvalue = [12812, 12292, 0, 36574, 37, 1873, 1397]"] ;
365 -> 366 ;
367 [label="X[8] <= 2.5\ngini = 0.577\nsamples = 25691\nvalue = [7357, 6631, 0, 24497, 3, 1301, 890]"] ;
366 -> 367 ;
368 [label="gini = 0.418\nsamples = 21011\nvalue = [10, 6631, 0, 24497, 0, 1299, 890]"] ;
367 -> 368 ;
369 [label="gini = 0.001\nsamples = 4680\nvalue = [7347, 0, 0, 0, 3, 2, 0]"] ;
367 -> 369 ;
370 [label="X[1] <= 0.5\ngini = 0.648\nsamples = 15424\nvalue = [5455, 5661, 0, 12077, 34, 572, 507]"] ;
366 -> 370 ;
371 [label="gini = 0.645\nsamples = 15256\nvalue = [5227, 5661, 0, 12051, 31, 572, 507]"] ;
370 -> 371 ;
372 [label="gini = 0.203\nsamples = 168\nvalue = [228, 0, 0, 26, 3, 0, 0]"] ;
370 -> 372 ;
373 [label="X[8] <= 2.5\ngini = 0.709\nsamples = 82069\nvalue = [36525, 37465, 1, 45982, 405, 4398, 5056]"] ;
365 -> 373 ;
374 [label="X[8] <= 1.5\ngini = 0.619\nsamples = 61301\nvalue = [4387, 37465, 0, 45982, 0, 4012, 5056]"] ;
373 -> 374 ;
375 [label="gini = 0.0\nsamples = 2771\nvalue = [4387, 0, 0, 0, 0, 0, 0]"] ;
374 -> 375 ;
376 [label="gini = 0.584\nsamples = 58530\nvalue = [0, 37465, 0, 45982, 0, 4012, 5056]"] ;
374 -> 376 ;
377 [label="X[6] <= 42.5\ngini = 0.047\nsamples = 20768\nvalue = [32138, 0, 1, 0, 405, 386, 0]"] ;
373 -> 377 ;
378 [label="gini = 0.031\nsamples = 19430\nvalue = [30314, 0, 0, 0, 242, 241, 0]"] ;
377 -> 378 ;
379 [label="gini = 0.258\nsamples = 1338\nvalue = [1824, 0, 1, 0, 163, 145, 0]"] ;
377 -> 379 ;
380 [label="X[9] <= 2.5\ngini = 0.605\nsamples = 829939\nvalue = [91999, 719764, 3, 385898, 632, 52291, 62945]"] ;
348 -> 380 ;
381 [label="X[8] <= 2.5\ngini = 0.601\nsamples = 566372\nvalue = [50387, 483698, 1, 284077, 632, 51861, 25980]"] ;
380 -> 381 ;
382 [label="X[5] <= 1.5\ngini = 0.56\nsamples = 537167\nvalue = [5313, 483698, 0, 284077, 0, 51518, 25980]"] ;
381 -> 382 ;
383 [label="X[0] <= 1.5\ngini = 0.584\nsamples = 162845\nvalue = [1833, 138041, 0, 90110, 0, 5601, 22536]"] ;
382 -> 383 ;
384 [label="gini = 0.596\nsamples = 137931\nvalue = [1282, 112215, 0, 79110, 0, 5413, 20571]"] ;
383 -> 384 ;
385 [label="gini = 0.493\nsamples = 24914\nvalue = [551, 25826, 0, 11000, 0, 188, 1965]"] ;
383 -> 385 ;
386 [label="X[10] <= 17.5\ngini = 0.546\nsamples = 374322\nvalue = [3480, 345657, 0, 193967, 0, 45917, 3444]"] ;
382 -> 386 ;
387 [label="gini = 0.454\nsamples = 23422\nvalue = [381, 26015, 0, 8291, 0, 2411, 0]"] ;
386 -> 387 ;
388 [label="gini = 0.551\nsamples = 350900\nvalue = [3099, 319642, 0, 185676, 0, 43506, 3444]"] ;
386 -> 388 ;
389 [label="X[5] <= 1.5\ngini = 0.042\nsamples = 29205\nvalue = [45074, 0, 1, 0, 632, 343, 0]"] ;
381 -> 389 ;
390 [label="X[6] <= 42.5\ngini = 0.044\nsamples = 9477\nvalue = [14534, 0, 0, 0, 16, 318, 0]"] ;
389 -> 390 ;
391 [label="gini = 0.026\nsamples = 8774\nvalue = [13568, 0, 0, 0, 4, 178, 0]"] ;
390 -> 391 ;
392 [label="gini = 0.238\nsamples = 703\nvalue = [966, 0, 0, 0, 12, 140, 0]"] ;
390 -> 392 ;
393 [label="X[10] <= 73.5\ngini = 0.04\nsamples = 19728\nvalue = [30540, 0, 1, 0, 616, 25, 0]"] ;
389 -> 393 ;
394 [label="gini = 0.122\nsamples = 4404\nvalue = [6596, 0, 1, 0, 460, 0, 0]"] ;
393 -> 394 ;
395 [label="gini = 0.015\nsamples = 15324\nvalue = [23944, 0, 0, 0, 156, 25, 0]"] ;
393 -> 395 ;
396 [label="X[7] <= 119.5\ngini = 0.602\nsamples = 263567\nvalue = [41612, 236066, 2, 101821, 0, 430, 36965]"] ;
380 -> 396 ;
397 [label="X[10] <= 229.5\ngini = 0.53\nsamples = 73796\nvalue = [12117, 75909, 0, 20927, 0, 162, 7555]"] ;
396 -> 397 ;
398 [label="X[8] <= 2.5\ngini = 0.476\nsamples = 52437\nvalue = [7148, 57840, 0, 12815, 0, 132, 4774]"] ;
397 -> 398 ;
399 [label="gini = 0.388\nsamples = 48190\nvalue = [573, 57840, 0, 12815, 0, 0, 4774]"] ;
398 -> 399 ;
400 [label="gini = 0.039\nsamples = 4247\nvalue = [6575, 0, 0, 0, 0, 132, 0]"] ;
398 -> 400 ;
401 [label="X[10] <= 230.5\ngini = 0.632\nsamples = 21359\nvalue = [4969, 18069, 0, 8112, 0, 30, 2781]"] ;
397 -> 401 ;
402 [label="gini = 0.737\nsamples = 2583\nvalue = [694, 1137, 0, 1299, 0, 1, 919]"] ;
401 -> 402 ;
403 [label="gini = 0.603\nsamples = 18776\nvalue = [4275, 16932, 0, 6813, 0, 29, 1862]"] ;
401 -> 403 ;
404 [label="X[8] <= 2.5\ngini = 0.624\nsamples = 189771\nvalue = [29495, 160157, 2, 80894, 0, 268, 29410]"] ;
396 -> 404 ;
405 [label="X[5] <= 2.0\ngini = 0.555\nsamples = 172378\nvalue = [2200, 160157, 0, 80894, 0, 0, 29410]"] ;
404 -> 405 ;
406 [label="gini = 0.573\nsamples = 96982\nvalue = [1142, 85889, 0, 48394, 0, 0, 17941]"] ;
405 -> 406 ;
407 [label="gini = 0.529\nsamples = 75396\nvalue = [1058, 74268, 0, 32500, 0, 0, 11469]"] ;
405 -> 407 ;
408 [label="X[7] <= 177.5\ngini = 0.019\nsamples = 17393\nvalue = [27295, 0, 2, 0, 0, 268, 0]"] ;
404 -> 408 ;
409 [label="gini = 0.045\nsamples = 6177\nvalue = [9568, 0, 1, 0, 0, 222, 0]"] ;
408 -> 409 ;
410 [label="gini = 0.005\nsamples = 11216\nvalue = [17727, 0, 1, 0, 0, 46, 0]"] ;
408 -> 410 ;
}