digraph Tree {
node [shape=box] ;
0 [label="X[5] <= 0.5\ngini = 0.767\nsamples = 11106459\nvalue = [3315093, 5200766, 2137, 5146802, 28848, 1812721, 2062782]"] ;
1 [label="X[10] <= 29.5\ngini = 0.774\nsamples = 1440715\nvalue = [372230, 391851, 870, 778595, 4366, 311699, 417070]"] ;
0 -> 1 [labeldistance=2.5, labelangle=45, headlabel="True"] ;
2 [label="X[1] <= 0.5\ngini = 0.76\nsamples = 181925\nvalue = [36016, 22221, 166, 79334, 645, 56920, 92064]"] ;
1 -> 2 ;
3 [label="X[7] <= 139.5\ngini = 0.759\nsamples = 181069\nvalue = [34733, 22221, 166, 79334, 639, 56825, 92064]"] ;
2 -> 3 ;
4 [label="X[2] <= 132.5\ngini = 0.777\nsamples = 46305\nvalue = [12591, 6806, 115, 22137, 250, 13265, 17679]"] ;
3 -> 4 ;
5 [label="X[3] <= 75.5\ngini = 0.77\nsamples = 40032\nvalue = [11765, 3797, 115, 18344, 247, 12275, 16520]"] ;
4 -> 5 ;
6 [label="X[10] <= 24.5\ngini = 0.771\nsamples = 25360\nvalue = [7893, 2215, 61, 9626, 143, 8456, 11532]"] ;
5 -> 6 ;
7 [label="X[8] <= 2.5\ngini = 0.753\nsamples = 10682\nvalue = [2924, 1828, 0, 6571, 36, 2563, 2951]"] ;
6 -> 7 ;
8 [label="gini = 0.717\nsamples = 9390\nvalue = [1003, 1828, 0, 6571, 0, 2508, 2951]"] ;
7 -> 8 ;
9 [label="gini = 0.087\nsamples = 1292\nvalue = [1921, 0, 0, 0, 36, 55, 0]"] ;
7 -> 9 ;
10 [label="X[9] <= 0.5\ngini = 0.732\nsamples = 14678\nvalue = [4969, 387, 61, 3055, 107, 5893, 8581]"] ;
6 -> 10 ;
11 [label="gini = 0.534\nsamples = 2784\nvalue = [917, 39, 2, 586, 0, 51, 2787]"] ;
10 -> 11 ;
12 [label="gini = 0.741\nsamples = 11894\nvalue = [4052, 348, 59, 2469, 107, 5842, 5794]"] ;
10 -> 12 ;
13 [label="X[6] <= 12.0\ngini = 0.752\nsamples = 14672\nvalue = [3872, 1582, 54, 8718, 104, 3819, 4988]"] ;
5 -> 13 ;
14 [label="X[3] <= 76.5\ngini = 0.746\nsamples = 4417\nvalue = [1635, 576, 15, 2525, 38, 547, 1683]"] ;
13 -> 14 ;
15 [label="gini = 0.778\nsamples = 2238\nvalue = [898, 391, 15, 1093, 32, 490, 610]"] ;
14 -> 15 ;
16 [label="gini = 0.689\nsamples = 2179\nvalue = [737, 185, 0, 1432, 6, 57, 1073]"] ;
14 -> 16 ;
17 [label="X[7] <= 42.5\ngini = 0.746\nsamples = 10255\nvalue = [2237, 1006, 39, 6193, 66, 3272, 3305]"] ;
13 -> 17 ;
18 [label="gini = 0.79\nsamples = 1047\nvalue = [487, 132, 19, 373, 47, 313, 284]"] ;
17 -> 18 ;
19 [label="gini = 0.734\nsamples = 9208\nvalue = [1750, 874, 20, 5820, 19, 2959, 3021]"] ;
17 -> 19 ;
20 [label="X[10] <= 10.5\ngini = 0.724\nsamples = 6273\nvalue = [826, 3009, 0, 3793, 3, 990, 1159]"] ;
4 -> 20 ;
21 [label="X[7] <= 105.5\ngini = 0.728\nsamples = 3560\nvalue = [769, 870, 0, 2461, 3, 659, 846]"] ;
20 -> 21 ;
22 [label="X[3] <= 76.5\ngini = 0.79\nsamples = 816\nvalue = [194, 218, 0, 354, 0, 234, 262]"] ;
21 -> 22 ;
23 [label="gini = 0.755\nsamples = 72\nvalue = [18, 39, 0, 21, 0, 11, 14]"] ;
22 -> 23 ;
24 [label="gini = 0.788\nsamples = 744\nvalue = [176, 179, 0, 333, 0, 223, 248]"] ;
22 -> 24 ;
25 [label="X[7] <= 123.5\ngini = 0.697\nsamples = 2744\nvalue = [575, 652, 0, 2107, 3, 425, 584]"] ;
21 -> 25 ;
26 [label="gini = 0.731\nsamples = 958\nvalue = [225, 264, 0, 644, 2, 141, 226]"] ;
25 -> 26 ;
27 [label="gini = 0.676\nsamples = 1786\nvalue = [350, 388, 0, 1463, 1, 284, 358]"] ;
25 -> 27 ;
28 [label="X[3] <= 77.5\ngini = 0.623\nsamples = 2713\nvalue = [57, 2139, 0, 1332, 0, 331, 313]"] ;
20 -> 28 ;
29 [label="X[10] <= 12.0\ngini = 0.584\nsamples = 2128\nvalue = [44, 1802, 0, 1061, 0, 144, 216]"] ;
28 -> 29 ;
30 [label="gini = 0.319\nsamples = 40\nvalue = [0, 52, 0, 9, 0, 2, 1]"] ;
29 -> 30 ;
31 [label="gini = 0.587\nsamples = 2088\nvalue = [44, 1750, 0, 1052, 0, 142, 215]"] ;
29 -> 31 ;
32 [label="X[9] <= 2.5\ngini = 0.717\nsamples = 585\nvalue = [13, 337, 0, 271, 0, 187, 97]"] ;
28 -> 32 ;
33 [label="gini = 0.709\nsamples = 427\nvalue = [13, 236, 0, 194, 0, 176, 39]"] ;
32 -> 33 ;
34 [label="gini = 0.678\nsamples = 158\nvalue = [0, 101, 0, 77, 0, 11, 58]"] ;
32 -> 34 ;
35 [label="X[2] <= 131.5\ngini = 0.748\nsamples = 134764\nvalue = [22142, 15415, 51, 57197, 389, 43560, 74385]"] ;
3 -> 35 ;
36 [label="X[6] <= 31.0\ngini = 0.726\nsamples = 92445\nvalue = [15650, 6602, 12, 31568, 238, 33365, 58807]"] ;
35 -> 36 ;
37 [label="X[9] <= 0.5\ngini = 0.721\nsamples = 42982\nvalue = [7375, 5904, 10, 23740, 75, 6486, 24484]"] ;
36 -> 37 ;
38 [label="X[6] <= 12.5\ngini = 0.547\nsamples = 15798\nvalue = [2998, 1014, 8, 5125, 0, 123, 15686]"] ;
37 -> 38 ;
39 [label="gini = 0.673\nsamples = 4285\nvalue = [753, 835, 5, 3076, 0, 32, 2137]"] ;
38 -> 39 ;
40 [label="gini = 0.412\nsamples = 11513\nvalue = [2245, 179, 3, 2049, 0, 91, 13549]"] ;
38 -> 40 ;
41 [label="X[10] <= 24.5\ngini = 0.727\nsamples = 27184\nvalue = [4377, 4890, 2, 18615, 75, 6363, 8798]"] ;
37 -> 41 ;
42 [label="gini = 0.719\nsamples = 25673\nvalue = [4096, 4871, 2, 18333, 75, 6340, 6968]"] ;
41 -> 42 ;
43 [label="gini = 0.408\nsamples = 1511\nvalue = [281, 19, 0, 282, 0, 23, 1830]"] ;
41 -> 43 ;
44 [label="X[9] <= 2.5\ngini = 0.668\nsamples = 49463\nvalue = [8275, 698, 2, 7828, 163, 26879, 34323]"] ;
36 -> 44 ;
45 [label="X[8] <= 2.5\ngini = 0.571\nsamples = 22828\nvalue = [2106, 503, 0, 4145, 159, 22085, 7192]"] ;
44 -> 45 ;
46 [label="gini = 0.529\nsamples = 21654\nvalue = [452, 503, 0, 4145, 0, 22050, 7192]"] ;
45 -> 46 ;
47 [label="gini = 0.191\nsamples = 1174\nvalue = [1654, 0, 0, 0, 159, 35, 0]"] ;
45 -> 47 ;
48 [label="X[6] <= 34.5\ngini = 0.54\nsamples = 26635\nvalue = [6169, 195, 2, 3683, 4, 4794, 27131]"] ;
44 -> 48 ;
49 [label="gini = 0.539\nsamples = 26524\nvalue = [6157, 188, 2, 3623, 4, 4786, 27047]"] ;
48 -> 49 ;
50 [label="gini = 0.627\nsamples = 111\nvalue = [12, 7, 0, 60, 0, 8, 84]"] ;
48 -> 50 ;
51 [label="X[8] <= 2.5\ngini = 0.749\nsamples = 42319\nvalue = [6492, 8813, 39, 25629, 151, 10195, 15578]"] ;
35 -> 51 ;
52 [label="X[6] <= 17.5\ngini = 0.724\nsamples = 39722\nvalue = [2698, 8813, 0, 25629, 0, 10035, 15578]"] ;
51 -> 52 ;
53 [label="X[9] <= 2.5\ngini = 0.699\nsamples = 25096\nvalue = [2053, 2893, 0, 16032, 0, 5484, 13110]"] ;
52 -> 53 ;
54 [label="gini = 0.702\nsamples = 14068\nvalue = [1244, 1774, 0, 9928, 0, 4107, 5121]"] ;
53 -> 54 ;
55 [label="gini = 0.653\nsamples = 11028\nvalue = [809, 1119, 0, 6104, 0, 1377, 7989]"] ;
53 -> 55 ;
56 [label="X[0] <= 1.5\ngini = 0.713\nsamples = 14626\nvalue = [645, 5920, 0, 9597, 0, 4551, 2468]"] ;
52 -> 56 ;
57 [label="gini = 0.712\nsamples = 13728\nvalue = [644, 4912, 0, 9226, 0, 4536, 2443]"] ;
56 -> 57 ;
58 [label="gini = 0.427\nsamples = 898\nvalue = [1, 1008, 0, 371, 0, 15, 25]"] ;
56 -> 58 ;
59 [label="X[9] <= 2.5\ngini = 0.159\nsamples = 2597\nvalue = [3794, 0, 39, 0, 151, 160, 0]"] ;
51 -> 59 ;
60 [label="X[8] <= 4.5\ngini = 0.272\nsamples = 1323\nvalue = [1776, 0, 20, 0, 149, 151, 0]"] ;
59 -> 60 ;
61 [label="gini = 0.681\nsamples = 337\nvalue = [212, 0, 20, 0, 149, 151, 0]"] ;
60 -> 61 ;
62 [label="gini = 0.0\nsamples = 986\nvalue = [1564, 0, 0, 0, 0, 0, 0]"] ;
60 -> 62 ;
63 [label="X[8] <= 4.5\ngini = 0.029\nsamples = 1274\nvalue = [2018, 0, 19, 0, 2, 9, 0]"] ;
59 -> 63 ;
64 [label="gini = 0.254\nsamples = 135\nvalue = [181, 0, 19, 0, 2, 9, 0]"] ;
63 -> 64 ;
65 [label="gini = 0.0\nsamples = 1139\nvalue = [1837, 0, 0, 0, 0, 0, 0]"] ;
63 -> 65 ;
66 [label="X[4] <= 3.5\ngini = 0.136\nsamples = 856\nvalue = [1283, 0, 0, 0, 6, 95, 0]"] ;
2 -> 66 ;
67 [label="X[7] <= 96.5\ngini = 0.261\nsamples = 301\nvalue = [406, 0, 0, 0, 0, 74, 0]"] ;
66 -> 67 ;
68 [label="X[7] <= 94.5\ngini = 0.414\nsamples = 56\nvalue = [29, 0, 0, 0, 0, 70, 0]"] ;
67 -> 68 ;
69 [label="gini = 0.0\nsamples = 13\nvalue = [19, 0, 0, 0, 0, 0, 0]"] ;
68 -> 69 ;
70 [label="X[10] <= 4.5\ngini = 0.219\nsamples = 43\nvalue = [10, 0, 0, 0, 0, 70, 0]"] ;
68 -> 70 ;
71 [label="gini = 0.0\nsamples = 17\nvalue = [0, 0, 0, 0, 0, 31, 0]"] ;
70 -> 71 ;
72 [label="X[1] <= 5.0\ngini = 0.325\nsamples = 26\nvalue = [10, 0, 0, 0, 0, 39, 0]"] ;
70 -> 72 ;
73 [label="gini = 0.0\nsamples = 20\nvalue = [0, 0, 0, 0, 0, 39, 0]"] ;
72 -> 73 ;
74 [label="gini = 0.0\nsamples = 6\nvalue = [10, 0, 0, 0, 0, 0, 0]"] ;
72 -> 74 ;
75 [label="X[1] <= 1.5\ngini = 0.021\nsamples = 245\nvalue = [377, 0, 0, 0, 0, 4, 0]"] ;
67 -> 75 ;
76 [label="X[10] <= 6.5\ngini = 0.097\nsamples = 41\nvalue = [56, 0, 0, 0, 0, 3, 0]"] ;
75 -> 76 ;
77 [label="X[10] <= 5.5\ngini = 0.204\nsamples = 17\nvalue = [23, 0, 0, 0, 0, 3, 0]"] ;
76 -> 77 ;
78 [label="gini = 0.0\nsamples = 14\nvalue = [21, 0, 0, 0, 0, 0, 0]"] ;
77 -> 78 ;
79 [label="gini = 0.48\nsamples = 3\nvalue = [2, 0, 0, 0, 0, 3, 0]"] ;
77 -> 79 ;
80 [label="gini = 0.0\nsamples = 24\nvalue = [33, 0, 0, 0, 0, 0, 0]"] ;
76 -> 80 ;
81 [label="X[10] <= 5.5\ngini = 0.006\nsamples = 204\nvalue = [321, 0, 0, 0, 0, 1, 0]"] ;
75 -> 81 ;
82 [label="X[1] <= 2.5\ngini = 0.014\nsamples = 95\nvalue = [146, 0, 0, 0, 0, 1, 0]"] ;
81 -> 82 ;
83 [label="gini = 0.04\nsamples = 32\nvalue = [48, 0, 0, 0, 0, 1, 0]"] ;
82 -> 83 ;
84 [label="gini = 0.0\nsamples = 63\nvalue = [98, 0, 0, 0, 0, 0, 0]"] ;
82 -> 84 ;
85 [label="gini = 0.0\nsamples = 109\nvalue = [175, 0, 0, 0, 0, 0, 0]"] ;
81 -> 85 ;
86 [label="X[0] <= 10.5\ngini = 0.058\nsamples = 555\nvalue = [877, 0, 0, 0, 6, 21, 0]"] ;
66 -> 86 ;
87 [label="X[2] <= 131.5\ngini = 0.056\nsamples = 554\nvalue = [877, 0, 0, 0, 6, 20, 0]"] ;
86 -> 87 ;
88 [label="X[2] <= 130.5\ngini = 0.133\nsamples = 160\nvalue = [251, 0, 0, 0, 6, 13, 0]"] ;
87 -> 88 ;
89 [label="gini = 0.0\nsamples = 22\nvalue = [42, 0, 0, 0, 0, 0, 0]"] ;
88 -> 89 ;
90 [label="X[9] <= 0.5\ngini = 0.156\nsamples = 138\nvalue = [209, 0, 0, 0, 6, 13, 0]"] ;
88 -> 90 ;
91 [label="gini = 0.43\nsamples = 20\nvalue = [22, 0, 0, 0, 0, 10, 0]"] ;
90 -> 91 ;
92 [label="gini = 0.089\nsamples = 118\nvalue = [187, 0, 0, 0, 6, 3, 0]"] ;
90 -> 92 ;
93 [label="X[9] <= 0.5\ngini = 0.022\nsamples = 394\nvalue = [626, 0, 0, 0, 0, 7, 0]"] ;
87 -> 93 ;
94 [label="X[10] <= 6.5\ngini = 0.059\nsamples = 84\nvalue = [128, 0, 0, 0, 0, 4, 0]"] ;
93 -> 94 ;
95 [label="gini = 0.032\nsamples = 78\nvalue = [120, 0, 0, 0, 0, 2, 0]"] ;
94 -> 95 ;
96 [label="gini = 0.32\nsamples = 6\nvalue = [8, 0, 0, 0, 0, 2, 0]"] ;
94 -> 96 ;
97 [label="X[1] <= 1.5\ngini = 0.012\nsamples = 310\nvalue = [498, 0, 0, 0, 0, 3, 0]"] ;
93 -> 97 ;
98 [label="gini = 0.0\nsamples = 132\nvalue = [210, 0, 0, 0, 0, 0, 0]"] ;
97 -> 98 ;
99 [label="gini = 0.02\nsamples = 178\nvalue = [288, 0, 0, 0, 0, 3, 0]"] ;
97 -> 99 ;
100 [label="gini = 0.0\nsamples = 1\nvalue = [0, 0, 0, 0, 0, 1, 0]"] ;
86 -> 100 ;
101 [label="X[9] <= 2.5\ngini = 0.77\nsamples = 1258790\nvalue = [336214, 369630, 704, 699261, 3721, 254779, 325006]"] ;
1 -> 101 ;
102 [label="X[8] <= 1.5\ngini = 0.758\nsamples = 661015\nvalue = [157803, 192112, 96, 384463, 3277, 214269, 93267]"] ;
101 -> 102 ;
103 [label="gini = 0.0\nsamples = 68503\nvalue = [108210, 0, 0, 0, 0, 0, 0]"] ;
102 -> 103 ;
104 [label="X[9] <= 0.5\ngini = 0.725\nsamples = 592512\nvalue = [49593, 192112, 96, 384463, 3277, 214269, 93267]"] ;
102 -> 104 ;
105 [label="X[6] <= 1.5\ngini = 0.696\nsamples = 45223\nvalue = [7509, 11557, 13, 28920, 2, 581, 22878]"] ;
104 -> 105 ;
106 [label="X[8] <= 2.5\ngini = 0.31\nsamples = 2181\nvalue = [392, 1, 0, 159, 0, 66, 2837]"] ;
105 -> 106 ;
107 [label="X[4] <= 9.5\ngini = 0.101\nsamples = 1884\nvalue = [0, 1, 0, 159, 0, 0, 2837]"] ;
106 -> 107 ;
108 [label="gini = 0.076\nsamples = 673\nvalue = [0, 0, 0, 43, 0, 0, 1041]"] ;
107 -> 108 ;
109 [label="gini = 0.115\nsamples = 1211\nvalue = [0, 1, 0, 116, 0, 0, 1796]"] ;
107 -> 109 ;
110 [label="X[8] <= 4.5\ngini = 0.247\nsamples = 297\nvalue = [392, 0, 0, 0, 0, 66, 0]"] ;
106 -> 110 ;
111 [label="gini = 0.108\nsamples = 47\nvalue = [4, 0, 0, 0, 0, 66, 0]"] ;
110 -> 111 ;
112 [label="gini = 0.0\nsamples = 250\nvalue = [388, 0, 0, 0, 0, 0, 0]"] ;
110 -> 112 ;
113 [label="X[3] <= 58.5\ngini = 0.694\nsamples = 43042\nvalue = [7117, 11556, 13, 28761, 2, 515, 20041]"] ;
105 -> 113 ;
114 [label="X[10] <= 251.5\ngini = 0.747\nsamples = 4493\nvalue = [1592, 1832, 2, 2201, 0, 73, 1333]"] ;
113 -> 114 ;
115 [label="gini = 0.747\nsamples = 4244\nvalue = [1575, 1576, 2, 2131, 0, 63, 1307]"] ;
114 -> 115 ;
116 [label="gini = 0.502\nsamples = 249\nvalue = [17, 256, 0, 70, 0, 10, 26]"] ;
114 -> 116 ;
117 [label="X[1] <= 0.5\ngini = 0.682\nsamples = 38549\nvalue = [5525, 9724, 11, 26560, 2, 442, 18708]"] ;
113 -> 117 ;
118 [label="gini = 0.68\nsamples = 38389\nvalue = [5280, 9724, 11, 26560, 0, 433, 18708]"] ;
117 -> 118 ;
119 [label="gini = 0.083\nsamples = 160\nvalue = [245, 0, 0, 0, 2, 9, 0]"] ;
117 -> 119 ;
120 [label="X[8] <= 2.5\ngini = 0.718\nsamples = 547289\nvalue = [42084, 180555, 83, 355543, 3275, 213688, 70389]"] ;
104 -> 120 ;
121 [label="X[3] <= 48.5\ngini = 0.688\nsamples = 517485\nvalue = [0, 180555, 0, 355543, 0, 212124, 70389]"] ;
120 -> 121 ;
122 [label="X[2] <= 124.5\ngini = 0.683\nsamples = 94906\nvalue = [0, 24977, 0, 61110, 0, 51306, 12810]"] ;
121 -> 122 ;
123 [label="gini = 0.631\nsamples = 47096\nvalue = [0, 4863, 0, 30046, 0, 32869, 6828]"] ;
122 -> 123 ;
124 [label="gini = 0.695\nsamples = 47810\nvalue = [0, 20114, 0, 31064, 0, 18437, 5982]"] ;
122 -> 124 ;
125 [label="X[2] <= 116.5\ngini = 0.686\nsamples = 422579\nvalue = [0, 155578, 0, 294433, 0, 160818, 57579]"] ;
121 -> 125 ;
126 [label="gini = 0.624\nsamples = 32395\nvalue = [0, 4295, 0, 25874, 0, 16789, 4334]"] ;
125 -> 126 ;
127 [label="gini = 0.689\nsamples = 390184\nvalue = [0, 151283, 0, 268559, 0, 144029, 53245]"] ;
125 -> 127 ;
128 [label="X[8] <= 4.5\ngini = 0.192\nsamples = 29804\nvalue = [42084, 0, 83, 0, 3275, 1564, 0]"] ;
120 -> 128 ;
129 [label="X[6] <= 44.5\ngini = 0.378\nsamples = 13546\nvalue = [16480, 0, 83, 0, 3275, 1564, 0]"] ;
128 -> 129 ;
130 [label="gini = 0.363\nsamples = 12497\nvalue = [15422, 0, 78, 0, 2824, 1406, 0]"] ;
129 -> 130 ;
131 [label="gini = 0.518\nsamples = 1049\nvalue = [1058, 0, 5, 0, 451, 158, 0]"] ;
129 -> 131 ;
132 [label="gini = 0.0\nsamples = 16258\nvalue = [25604, 0, 0, 0, 0, 0, 0]"] ;
128 -> 132 ;
133 [label="X[7] <= 191.5\ngini = 0.756\nsamples = 597775\nvalue = [178411, 177518, 608, 314798, 444, 40510, 231739]"] ;
101 -> 133 ;
134 [label="X[8] <= 1.5\ngini = 0.762\nsamples = 330152\nvalue = [123870, 100643, 593, 158349, 432, 19716, 117270]"] ;
133 -> 134 ;
135 [label="gini = 0.0\nsamples = 42442\nvalue = [66855, 0, 0, 0, 0, 0, 0]"] ;
134 -> 135 ;
136 [label="X[8] <= 2.5\ngini = 0.745\nsamples = 287710\nvalue = [57015, 100643, 593, 158349, 432, 19716, 117270]"] ;
134 -> 136 ;
137 [label="X[2] <= 124.5\ngini = 0.682\nsamples = 249397\nvalue = [0, 100643, 0, 158349, 0, 17423, 117270]"] ;
136 -> 137 ;
138 [label="X[6] <= 19.5\ngini = 0.667\nsamples = 108334\nvalue = [0, 31735, 0, 71031, 0, 8135, 60213]"] ;
137 -> 138 ;
139 [label="gini = 0.647\nsamples = 75507\nvalue = [0, 16655, 0, 51526, 0, 5782, 45382]"] ;
138 -> 139 ;
140 [label="gini = 0.689\nsamples = 32827\nvalue = [0, 15080, 0, 19505, 0, 2353, 14831]"] ;
138 -> 140 ;
141 [label="X[0] <= 0.5\ngini = 0.683\nsamples = 141063\nvalue = [0, 68908, 0, 87318, 0, 9288, 57057]"] ;
137 -> 141 ;
142 [label="gini = 0.681\nsamples = 66921\nvalue = [0, 19718, 0, 37334, 0, 7101, 41590]"] ;
141 -> 142 ;
143 [label="gini = 0.622\nsamples = 74142\nvalue = [0, 49190, 0, 49984, 0, 2187, 15467]"] ;
141 -> 143 ;
144 [label="X[0] <= 0.5\ngini = 0.105\nsamples = 38313\nvalue = [57015, 0, 593, 0, 432, 2293, 0]"] ;
136 -> 144 ;
145 [label="X[8] <= 4.5\ngini = 0.123\nsamples = 30132\nvalue = [44400, 0, 592, 0, 382, 2082, 0]"] ;
144 -> 145 ;
146 [label="gini = 0.223\nsamples = 15749\nvalue = [21758, 0, 592, 0, 382, 2082, 0]"] ;
145 -> 146 ;
147 [label="gini = 0.0\nsamples = 14383\nvalue = [22642, 0, 0, 0, 0, 0, 0]"] ;
145 -> 147 ;
148 [label="X[10] <= 30.5\ngini = 0.04\nsamples = 8181\nvalue = [12615, 0, 1, 0, 50, 211, 0]"] ;
144 -> 148 ;
149 [label="gini = 0.21\nsamples = 155\nvalue = [197, 0, 0, 0, 4, 22, 0]"] ;
148 -> 149 ;
150 [label="gini = 0.037\nsamples = 8026\nvalue = [12418, 0, 1, 0, 46, 189, 0]"] ;
148 -> 150 ;
151 [label="X[8] <= 1.5\ngini = 0.738\nsamples = 267623\nvalue = [54541, 76875, 15, 156449, 12, 20794, 114469]"] ;
133 -> 151 ;
152 [label="gini = 0.0\nsamples = 18652\nvalue = [29501, 0, 0, 0, 0, 0, 0]"] ;
151 -> 152 ;
153 [label="X[10] <= 123.5\ngini = 0.713\nsamples = 248971\nvalue = [25040, 76875, 15, 156449, 12, 20794, 114469]"] ;
151 -> 153 ;
154 [label="X[2] <= 116.5\ngini = 0.7\nsamples = 120776\nvalue = [12192, 33151, 14, 81373, 10, 9542, 54977]"] ;
153 -> 154 ;
155 [label="X[10] <= 86.0\ngini = 0.636\nsamples = 12357\nvalue = [1108, 630, 0, 7358, 0, 1404, 8955]"] ;
154 -> 155 ;
156 [label="gini = 0.63\nsamples = 11918\nvalue = [1080, 460, 0, 6996, 0, 1401, 8812]"] ;
155 -> 156 ;
157 [label="gini = 0.636\nsamples = 439\nvalue = [28, 170, 0, 362, 0, 3, 143]"] ;
155 -> 157 ;
158 [label="X[0] <= 0.5\ngini = 0.7\nsamples = 108419\nvalue = [11084, 32521, 14, 74015, 10, 8138, 46022]"] ;
154 -> 158 ;
159 [label="gini = 0.714\nsamples = 71575\nvalue = [7861, 19830, 14, 44094, 7, 6343, 35307]"] ;
158 -> 159 ;
160 [label="gini = 0.652\nsamples = 36844\nvalue = [3223, 12691, 0, 29921, 3, 1795, 10715]"] ;
158 -> 160 ;
161 [label="X[4] <= 6.5\ngini = 0.722\nsamples = 128195\nvalue = [12848, 43724, 1, 75076, 2, 11252, 59492]"] ;
153 -> 161 ;
162 [label="X[0] <= 0.5\ngini = 0.738\nsamples = 68273\nvalue = [6037, 23414, 0, 39943, 2, 11199, 27187]"] ;
161 -> 162 ;
163 [label="gini = 0.743\nsamples = 43703\nvalue = [4106, 11405, 0, 23695, 1, 8877, 20986]"] ;
162 -> 163 ;
164 [label="gini = 0.696\nsamples = 24570\nvalue = [1931, 12009, 0, 16248, 1, 2322, 6201]"] ;
162 -> 164 ;
165 [label="X[10] <= 152.5\ngini = 0.694\nsamples = 59922\nvalue = [6811, 20310, 1, 35133, 0, 53, 32305]"] ;
161 -> 165 ;
166 [label="gini = 0.693\nsamples = 4825\nvalue = [483, 2919, 0, 2473, 0, 2, 1825]"] ;
165 -> 166 ;
167 [label="gini = 0.69\nsamples = 55097\nvalue = [6328, 17391, 1, 32660, 0, 51, 30480]"] ;
165 -> 167 ;
168 [label="X[5] <= 1.5\ngini = 0.761\nsamples = 9665744\nvalue = [2942863, 4808915, 1267, 4368207, 24482, 1501022, 1645712]"] ;
0 -> 168 [labeldistance=2.5, labelangle=-45, headlabel="False"] ;
169 [label="X[8] <= 1.5\ngini = 0.763\nsamples = 4183440\nvalue = [1179906, 2039910, 769, 1895394, 8830, 490926, 1001593]"] ;
168 -> 169 ;
170 [label="gini = 0.0\nsamples = 433734\nvalue = [686387, 0, 0, 0, 0, 0, 0]"] ;
169 -> 170 ;
171 [label="X[4] <= 2.5\ngini = 0.737\nsamples = 3749706\nvalue = [493519, 2039910, 769, 1895394, 8830, 490926, 1001593]"] ;
169 -> 171 ;
172 [label="X[2] <= 124.5\ngini = 0.685\nsamples = 925113\nvalue = [82093, 668298, 155, 421987, 2310, 119414, 169319]"] ;
171 -> 172 ;
173 [label="X[9] <= 2.5\ngini = 0.721\nsamples = 318493\nvalue = [29393, 172024, 43, 181061, 445, 49657, 71334]"] ;
172 -> 173 ;
174 [label="X[6] <= 1.5\ngini = 0.711\nsamples = 163118\nvalue = [13562, 79961, 1, 100113, 444, 49361, 14623]"] ;
173 -> 174 ;
175 [label="X[10] <= 211.5\ngini = 0.735\nsamples = 11272\nvalue = [1221, 3594, 0, 6533, 25, 1474, 4997]"] ;
174 -> 175 ;
176 [label="gini = 0.667\nsamples = 4297\nvalue = [219, 2795, 0, 2343, 25, 1404, 0]"] ;
175 -> 176 ;
177 [label="gini = 0.639\nsamples = 6975\nvalue = [1002, 799, 0, 4190, 0, 70, 4997]"] ;
175 -> 177 ;
178 [label="X[8] <= 2.5\ngini = 0.703\nsamples = 151846\nvalue = [12341, 76367, 1, 93580, 419, 47887, 9626]"] ;
174 -> 178 ;
179 [label="gini = 0.672\nsamples = 143662\nvalue = [0, 76367, 0, 93580, 0, 47691, 9626]"] ;
178 -> 179 ;
180 [label="gini = 0.092\nsamples = 8184\nvalue = [12341, 0, 1, 0, 419, 196, 0]"] ;
178 -> 180 ;
181 [label="X[1] <= 0.5\ngini = 0.694\nsamples = 155375\nvalue = [15831, 92063, 42, 80948, 1, 296, 56711]"] ;
173 -> 181 ;
182 [label="X[8] <= 2.5\ngini = 0.693\nsamples = 154863\nvalue = [15072, 92063, 42, 80948, 0, 264, 56711]"] ;
181 -> 182 ;
183 [label="gini = 0.654\nsamples = 145110\nvalue = [0, 92063, 0, 80948, 0, 0, 56711]"] ;
182 -> 183 ;
184 [label="gini = 0.039\nsamples = 9753\nvalue = [15072, 0, 42, 0, 0, 264, 0]"] ;
182 -> 184 ;
185 [label="X[1] <= 1.5\ngini = 0.08\nsamples = 512\nvalue = [759, 0, 0, 0, 1, 32, 0]"] ;
181 -> 185 ;
186 [label="gini = 0.037\nsamples = 202\nvalue = [313, 0, 0, 0, 0, 6, 0]"] ;
185 -> 186 ;
187 [label="gini = 0.108\nsamples = 310\nvalue = [446, 0, 0, 0, 1, 26, 0]"] ;
185 -> 187 ;
188 [label="X[8] <= 2.5\ngini = 0.651\nsamples = 606620\nvalue = [52700, 496274, 112, 240926, 1865, 69757, 97985]"] ;
172 -> 188 ;
189 [label="X[3] <= 72.5\ngini = 0.609\nsamples = 570768\nvalue = [0, 496274, 0, 240926, 0, 67674, 97985]"] ;
188 -> 189 ;
190 [label="X[9] <= 2.5\ngini = 0.585\nsamples = 380146\nvalue = [0, 350174, 0, 147367, 0, 40583, 63057]"] ;
189 -> 190 ;
191 [label="gini = 0.604\nsamples = 156284\nvalue = [0, 134295, 0, 66812, 0, 40583, 5442]"] ;
190 -> 191 ;
192 [label="gini = 0.55\nsamples = 223862\nvalue = [0, 215879, 0, 80555, 0, 0, 57615]"] ;
190 -> 192 ;
193 [label="X[9] <= 1.5\ngini = 0.648\nsamples = 190622\nvalue = [0, 146100, 0, 93559, 0, 27091, 34928]"] ;
189 -> 193 ;
194 [label="gini = 0.666\nsamples = 30567\nvalue = [0, 16685, 0, 16806, 0, 0, 14871]"] ;
193 -> 194 ;
195 [label="gini = 0.629\nsamples = 160055\nvalue = [0, 129415, 0, 76753, 0, 27091, 20057]"] ;
193 -> 195 ;
196 [label="X[4] <= 1.5\ngini = 0.136\nsamples = 35852\nvalue = [52700, 0, 112, 0, 1865, 2083, 0]"] ;
188 -> 196 ;
197 [label="X[8] <= 4.5\ngini = 0.11\nsamples = 17958\nvalue = [26833, 0, 62, 0, 401, 1176, 0]"] ;
196 -> 197 ;
198 [label="gini = 0.268\nsamples = 6794\nvalue = [9102, 0, 62, 0, 401, 1176, 0]"] ;
197 -> 198 ;
199 [label="gini = 0.0\nsamples = 11164\nvalue = [17731, 0, 0, 0, 0, 0, 0]"] ;
197 -> 199 ;
200 [label="X[7] <= 233.5\ngini = 0.16\nsamples = 17894\nvalue = [25867, 0, 50, 0, 1464, 907, 0]"] ;
196 -> 200 ;
201 [label="gini = 0.137\nsamples = 15860\nvalue = [23261, 0, 50, 0, 1019, 752, 0]"] ;
200 -> 201 ;
202 [label="gini = 0.318\nsamples = 2034\nvalue = [2606, 0, 0, 0, 445, 155, 0]"] ;
200 -> 202 ;
203 [label="X[8] <= 2.5\ngini = 0.747\nsamples = 2824593\nvalue = [411426, 1371612, 614, 1473407, 6520, 371512, 832274]"] ;
171 -> 203 ;
204 [label="X[9] <= 2.5\ngini = 0.701\nsamples = 2552464\nvalue = [0, 1371612, 0, 1473407, 0, 360285, 832274]"] ;
203 -> 204 ;
205 [label="X[0] <= 0.5\ngini = 0.708\nsamples = 1603048\nvalue = [0, 780692, 0, 984385, 0, 360285, 411610]"] ;
204 -> 205 ;
206 [label="X[4] <= 10.5\ngini = 0.724\nsamples = 973663\nvalue = [0, 298770, 0, 597797, 0, 296771, 347582]"] ;
205 -> 206 ;
207 [label="gini = 0.725\nsamples = 782179\nvalue = [0, 237161, 0, 478289, 0, 270388, 251859]"] ;
206 -> 207 ;
208 [label="gini = 0.696\nsamples = 191484\nvalue = [0, 61609, 0, 119508, 0, 26383, 95723]"] ;
206 -> 208 ;
209 [label="X[9] <= 1.5\ngini = 0.607\nsamples = 629385\nvalue = [0, 481922, 0, 386588, 0, 63514, 64028]"] ;
205 -> 209 ;
210 [label="gini = 0.603\nsamples = 282463\nvalue = [0, 212826, 0, 178219, 0, 46314, 9343]"] ;
209 -> 210 ;
211 [label="gini = 0.605\nsamples = 346922\nvalue = [0, 269096, 0, 208369, 0, 17200, 54685]"] ;
209 -> 211 ;
212 [label="X[2] <= 122.5\ngini = 0.66\nsamples = 949416\nvalue = [0, 590920, 0, 489022, 0, 0, 420664]"] ;
204 -> 212 ;
213 [label="X[2] <= 116.5\ngini = 0.666\nsamples = 162529\nvalue = [0, 82423, 0, 86226, 0, 0, 88408]"] ;
212 -> 213 ;
214 [label="gini = 0.652\nsamples = 27753\nvalue = [0, 10326, 0, 16131, 0, 0, 17375]"] ;
213 -> 214 ;
215 [label="gini = 0.667\nsamples = 134776\nvalue = [0, 72097, 0, 70095, 0, 0, 71033]"] ;
213 -> 215 ;
216 [label="X[4] <= 5.5\ngini = 0.656\nsamples = 786887\nvalue = [0, 508497, 0, 402796, 0, 0, 332256]"] ;
212 -> 216 ;
217 [label="gini = 0.656\nsamples = 270279\nvalue = [0, 178051, 0, 117360, 0, 0, 132324]"] ;
216 -> 217 ;
218 [label="gini = 0.653\nsamples = 516608\nvalue = [0, 330446, 0, 285436, 0, 0, 199932]"] ;
216 -> 218 ;
219 [label="X[2] <= 137.5\ngini = 0.083\nsamples = 272129\nvalue = [411426, 0, 614, 0, 6520, 11227, 0]"] ;
203 -> 219 ;
220 [label="X[9] <= 2.5\ngini = 0.078\nsamples = 265285\nvalue = [402081, 0, 614, 0, 5595, 10703, 0]"] ;
219 -> 220 ;
221 [label="X[8] <= 4.5\ngini = 0.108\nsamples = 139722\nvalue = [208349, 0, 173, 0, 5586, 6662, 0]"] ;
220 -> 221 ;
222 [label="gini = 0.316\nsamples = 42857\nvalue = [55406, 0, 173, 0, 5586, 6662, 0]"] ;
221 -> 222 ;
223 [label="gini = 0.0\nsamples = 96865\nvalue = [152943, 0, 0, 0, 0, 0, 0]"] ;
221 -> 223 ;
224 [label="X[10] <= 6.5\ngini = 0.044\nsamples = 125563\nvalue = [193732, 0, 441, 0, 9, 4041, 0]"] ;
220 -> 224 ;
225 [label="gini = 0.252\nsamples = 3415\nvalue = [4575, 0, 10, 0, 0, 781, 0]"] ;
224 -> 225 ;
226 [label="gini = 0.038\nsamples = 122148\nvalue = [189157, 0, 431, 0, 9, 3260, 0]"] ;
224 -> 226 ;
227 [label="X[7] <= 170.5\ngini = 0.241\nsamples = 6844\nvalue = [9345, 0, 0, 0, 925, 524, 0]"] ;
219 -> 227 ;
228 [label="X[8] <= 4.5\ngini = 0.156\nsamples = 4170\nvalue = [6064, 0, 0, 0, 264, 287, 0]"] ;
227 -> 228 ;
229 [label="gini = 0.358\nsamples = 1641\nvalue = [2035, 0, 0, 0, 264, 287, 0]"] ;
228 -> 229 ;
230 [label="gini = 0.0\nsamples = 2529\nvalue = [4029, 0, 0, 0, 0, 0, 0]"] ;
228 -> 230 ;
231 [label="X[8] <= 4.5\ngini = 0.355\nsamples = 2674\nvalue = [3281, 0, 0, 0, 661, 237, 0]"] ;
227 -> 231 ;
232 [label="gini = 0.616\nsamples = 853\nvalue = [430, 0, 0, 0, 661, 237, 0]"] ;
231 -> 232 ;
233 [label="gini = 0.0\nsamples = 1821\nvalue = [2851, 0, 0, 0, 0, 0, 0]"] ;
231 -> 233 ;
234 [label="X[8] <= 1.5\ngini = 0.756\nsamples = 5482304\nvalue = [1762957, 2769005, 498, 2472813, 15652, 1010096, 644119]"] ;
168 -> 234 ;
235 [label="gini = 0.0\nsamples = 618809\nvalue = [979441, 0, 0, 0, 0, 0, 0]"] ;
234 -> 235 ;
236 [label="X[9] <= 2.5\ngini = 0.733\nsamples = 4863495\nvalue = [783516, 2769005, 498, 2472813, 15652, 1010096, 644119]"] ;
234 -> 236 ;
237 [label="X[0] <= 0.5\ngini = 0.722\nsamples = 3588655\nvalue = [523149, 2072014, 232, 1876373, 14044, 885059, 307145]"] ;
236 -> 237 ;
238 [label="X[10] <= 230.5\ngini = 0.764\nsamples = 1749949\nvalue = [347802, 530883, 220, 933059, 10609, 684019, 263331]"] ;
237 -> 238 ;
239 [label="X[1] <= 0.5\ngini = 0.751\nsamples = 1378034\nvalue = [214451, 381841, 183, 768702, 8367, 600218, 207292]"] ;
238 -> 239 ;
240 [label="X[7] <= 198.5\ngini = 0.749\nsamples = 1371332\nvalue = [204337, 381841, 181, 768698, 8089, 600067, 207291]"] ;
239 -> 240 ;
241 [label="gini = 0.764\nsamples = 726544\nvalue = [140506, 199713, 175, 359585, 4149, 331244, 114937]"] ;
240 -> 241 ;
242 [label="gini = 0.726\nsamples = 644788\nvalue = [63831, 182128, 6, 409113, 3940, 268823, 92354]"] ;
240 -> 242 ;
243 [label="X[3] <= 68.5\ngini = 0.08\nsamples = 6702\nvalue = [10114, 0, 2, 4, 278, 151, 1]"] ;
239 -> 243 ;
244 [label="gini = 0.055\nsamples = 4649\nvalue = [7109, 0, 2, 4, 124, 76, 1]"] ;
243 -> 244 ;
245 [label="gini = 0.134\nsamples = 2053\nvalue = [3005, 0, 0, 0, 154, 75, 0]"] ;
243 -> 245 ;
246 [label="X[8] <= 2.5\ngini = 0.777\nsamples = 371915\nvalue = [133351, 149042, 37, 164357, 2242, 83801, 56039]"] ;
238 -> 246 ;
247 [label="X[6] <= 2.0\ngini = 0.71\nsamples = 285521\nvalue = [0, 149042, 0, 164357, 0, 82438, 56039]"] ;
246 -> 247 ;
248 [label="gini = 0.667\nsamples = 132630\nvalue = [0, 85223, 0, 75878, 0, 9500, 39359]"] ;
247 -> 248 ;
249 [label="gini = 0.701\nsamples = 152891\nvalue = [0, 63819, 0, 88479, 0, 72938, 16680]"] ;
247 -> 249 ;
250 [label="X[10] <= 249.5\ngini = 0.052\nsamples = 86394\nvalue = [133351, 0, 37, 0, 2242, 1363, 0]"] ;
246 -> 250 ;
251 [label="gini = 0.033\nsamples = 77559\nvalue = [120924, 0, 28, 0, 1117, 896, 0]"] ;
250 -> 251 ;
252 [label="gini = 0.208\nsamples = 8835\nvalue = [12427, 0, 9, 0, 1125, 467, 0]"] ;
250 -> 252 ;
253 [label="X[8] <= 2.5\ngini = 0.605\nsamples = 1838706\nvalue = [175347, 1541131, 12, 943314, 3435, 201040, 43814]"] ;
237 -> 253 ;
254 [label="X[4] <= 4.5\ngini = 0.556\nsamples = 1725055\nvalue = [0, 1541131, 0, 943314, 0, 200261, 43814]"] ;
253 -> 254 ;
255 [label="X[2] <= 125.5\ngini = 0.513\nsamples = 464156\nvalue = [0, 456540, 0, 229251, 0, 31149, 16930]"] ;
254 -> 255 ;
256 [label="gini = 0.545\nsamples = 184114\nvalue = [0, 164977, 0, 104902, 0, 13269, 7732]"] ;
255 -> 256 ;
257 [label="gini = 0.486\nsamples = 280042\nvalue = [0, 291563, 0, 124349, 0, 17880, 9198]"] ;
255 -> 257 ;
258 [label="X[3] <= 57.5\ngini = 0.569\nsamples = 1260899\nvalue = [0, 1084591, 0, 714063, 0, 169112, 26884]"] ;
254 -> 258 ;
259 [label="gini = 0.521\nsamples = 457477\nvalue = [0, 438711, 0, 237958, 0, 40464, 6692]"] ;
258 -> 259 ;
260 [label="gini = 0.591\nsamples = 803422\nvalue = [0, 645880, 0, 476105, 0, 128648, 20192]"] ;
258 -> 260 ;
261 [label="X[10] <= 63.5\ngini = 0.046\nsamples = 113651\nvalue = [175347, 0, 12, 0, 3435, 779, 0]"] ;
253 -> 261 ;
262 [label="X[10] <= 59.5\ngini = 0.11\nsamples = 31447\nvalue = [46779, 0, 12, 0, 2344, 528, 0]"] ;
261 -> 262 ;
263 [label="gini = 0.05\nsamples = 29394\nvalue = [45196, 0, 11, 0, 898, 274, 0]"] ;
262 -> 263 ;
264 [label="gini = 0.568\nsamples = 2053\nvalue = [1583, 0, 1, 0, 1446, 254, 0]"] ;
262 -> 264 ;
265 [label="X[8] <= 4.5\ngini = 0.02\nsamples = 82204\nvalue = [128568, 0, 0, 0, 1091, 251, 0]"] ;
261 -> 265 ;
266 [label="gini = 0.191\nsamples = 8032\nvalue = [11455, 0, 0, 0, 1091, 251, 0]"] ;
265 -> 266 ;
267 [label="gini = 0.0\nsamples = 74172\nvalue = [117113, 0, 0, 0, 0, 0, 0]"] ;
265 -> 267 ;
268 [label="X[10] <= 230.5\ngini = 0.745\nsamples = 1274840\nvalue = [260367, 696991, 266, 596440, 1608, 125037, 336974]"] ;
236 -> 268 ;
269 [label="X[3] <= 44.5\ngini = 0.748\nsamples = 1045416\nvalue = [199115, 554348, 193, 495230, 1436, 109230, 295182]"] ;
268 -> 269 ;
270 [label="X[0] <= 0.5\ngini = 0.751\nsamples = 40361\nvalue = [11253, 12894, 0, 23419, 27, 3638, 12513]"] ;
269 -> 270 ;
271 [label="X[5] <= 2.5\ngini = 0.732\nsamples = 18112\nvalue = [5452, 1471, 0, 9526, 26, 2643, 9479]"] ;
270 -> 271 ;
272 [label="gini = 0.751\nsamples = 12615\nvalue = [3835, 1174, 0, 6643, 26, 2626, 5662]"] ;
271 -> 272 ;
273 [label="gini = 0.657\nsamples = 5497\nvalue = [1617, 297, 0, 2883, 0, 17, 3817]"] ;
271 -> 273 ;
274 [label="X[0] <= 1.5\ngini = 0.703\nsamples = 22249\nvalue = [5801, 11423, 0, 13893, 1, 995, 3034]"] ;
270 -> 274 ;
275 [label="gini = 0.704\nsamples = 17588\nvalue = [4098, 10297, 0, 9958, 1, 868, 2614]"] ;
274 -> 275 ;
276 [label="gini = 0.629\nsamples = 4661\nvalue = [1703, 1126, 0, 3935, 0, 127, 420]"] ;
274 -> 276 ;
277 [label="X[4] <= 4.5\ngini = 0.746\nsamples = 1005055\nvalue = [187862, 541454, 193, 471811, 1409, 105592, 282669]"] ;
269 -> 277 ;
278 [label="X[7] <= 109.5\ngini = 0.719\nsamples = 192502\nvalue = [30000, 100207, 17, 79352, 13, 819, 94542]"] ;
277 -> 278 ;
279 [label="gini = 0.699\nsamples = 35607\nvalue = [5520, 16512, 15, 10788, 5, 304, 23136]"] ;
278 -> 279 ;
280 [label="gini = 0.719\nsamples = 156895\nvalue = [24480, 83695, 2, 68564, 8, 515, 71406]"] ;
278 -> 280 ;
281 [label="X[0] <= 0.5\ngini = 0.746\nsamples = 812553\nvalue = [157862, 441247, 176, 392459, 1396, 104773, 188127]"] ;
277 -> 281 ;
282 [label="gini = 0.782\nsamples = 351239\nvalue = [80515, 93340, 169, 166252, 968, 78825, 136288]"] ;
281 -> 282 ;
283 [label="gini = 0.659\nsamples = 461314\nvalue = [77347, 347907, 7, 226207, 428, 25948, 51839]"] ;
281 -> 283 ;
284 [label="X[8] <= 2.5\ngini = 0.724\nsamples = 229424\nvalue = [61252, 142643, 73, 101210, 172, 15807, 41792]"] ;
268 -> 284 ;
285 [label="X[2] <= 125.5\ngini = 0.64\nsamples = 190145\nvalue = [0, 142643, 0, 101210, 0, 15304, 41792]"] ;
284 -> 285 ;
286 [label="X[7] <= 132.5\ngini = 0.595\nsamples = 77605\nvalue = [0, 66054, 0, 39769, 0, 4326, 12829]"] ;
285 -> 286 ;
287 [label="gini = 0.63\nsamples = 23525\nvalue = [0, 18214, 0, 12625, 0, 1594, 4998]"] ;
286 -> 287 ;
288 [label="gini = 0.577\nsamples = 54080\nvalue = [0, 47840, 0, 27144, 0, 2732, 7831]"] ;
286 -> 288 ;
289 [label="X[0] <= 0.5\ngini = 0.665\nsamples = 112540\nvalue = [0, 76589, 0, 61441, 0, 10978, 28963]"] ;
285 -> 289 ;
290 [label="gini = 0.719\nsamples = 44747\nvalue = [0, 15778, 0, 23889, 0, 8408, 22789]"] ;
289 -> 290 ;
291 [label="gini = 0.551\nsamples = 67793\nvalue = [0, 60811, 0, 37552, 0, 2570, 6174]"] ;
289 -> 291 ;
292 [label="X[7] <= 124.5\ngini = 0.024\nsamples = 39279\nvalue = [61252, 0, 73, 0, 172, 503, 0]"] ;
284 -> 292 ;
293 [label="X[7] <= 73.5\ngini = 0.044\nsamples = 14527\nvalue = [22486, 0, 73, 0, 117, 320, 0]"] ;
292 -> 293 ;
294 [label="gini = 0.017\nsamples = 10441\nvalue = [16444, 0, 0, 0, 52, 89, 0]"] ;
293 -> 294 ;
295 [label="gini = 0.11\nsamples = 4086\nvalue = [6042, 0, 73, 0, 65, 231, 0]"] ;
293 -> 295 ;
296 [label="X[7] <= 217.5\ngini = 0.012\nsamples = 24752\nvalue = [38766, 0, 0, 0, 55, 183, 0]"] ;
292 -> 296 ;
297 [label="gini = 0.018\nsamples = 15385\nvalue = [23979, 0, 0, 0, 51, 167, 0]"] ;
296 -> 297 ;
298 [label="gini = 0.003\nsamples = 9367\nvalue = [14787, 0, 0, 0, 4, 16, 0]"] ;
296 -> 298 ;
}