digraph Tree {
node [shape=box] ;
0 [label="X[8] <= 1.5\ngini = 0.767\nsamples = 11105816\nvalue = [3316682, 5198965, 2097, 5147495, 28665, 1813703, 2061542]"] ;
1 [label="gini = 0.0\nsamples = 1188678\nvalue = [1880569, 0, 0, 0, 0, 0, 0]"] ;
0 -> 1 [labeldistance=2.5, labelangle=45, headlabel="True"] ;
2 [label="X[1] <= 0.5\ngini = 0.744\nsamples = 9917138\nvalue = [1436113, 5198965, 2097, 5147495, 28665, 1813703, 2061542]"] ;
0 -> 2 [labeldistance=2.5, labelangle=-45, headlabel="False"] ;
3 [label="X[9] <= 2.5\ngini = 0.742\nsamples = 9870734\nvalue = [1365209, 5198965, 2077, 5147375, 27863, 1812223, 2061513]"] ;
2 -> 3 ;
4 [label="X[8] <= 2.5\ngini = 0.735\nsamples = 6458164\nvalue = [801283, 3351706, 478, 3517530, 25864, 1632622, 888063]"] ;
3 -> 4 ;
5 [label="X[0] <= 0.5\ngini = 0.693\nsamples = 5924481\nvalue = [0, 3351706, 0, 3517530, 0, 1616098, 888063]"] ;
4 -> 5 ;
6 [label="X[9] <= 0.5\ngini = 0.719\nsamples = 3150513\nvalue = [0, 1000663, 0, 1938388, 0, 1285419, 760512]"] ;
5 -> 6 ;
7 [label="X[10] <= 29.5\ngini = 0.655\nsamples = 477697\nvalue = [0, 195937, 0, 311821, 0, 0, 248769]"] ;
6 -> 7 ;
8 [label="X[6] <= 12.5\ngini = 0.62\nsamples = 94282\nvalue = [0, 25968, 0, 51647, 0, 0, 71493]"] ;
7 -> 8 ;
9 [label="gini = 0.657\nsamples = 46901\nvalue = [0, 19443, 0, 29776, 0, 0, 24960]"] ;
8 -> 9 ;
10 [label="gini = 0.522\nsamples = 47381\nvalue = [0, 6525, 0, 21871, 0, 0, 46533]"] ;
8 -> 10 ;
11 [label="X[10] <= 230.5\ngini = 0.653\nsamples = 383415\nvalue = [0, 169969, 0, 260174, 0, 0, 177276]"] ;
7 -> 11 ;
12 [label="gini = 0.645\nsamples = 279461\nvalue = [0, 105364, 0, 197244, 0, 0, 140046]"] ;
11 -> 12 ;
13 [label="gini = 0.649\nsamples = 103954\nvalue = [0, 64605, 0, 62930, 0, 0, 37230]"] ;
11 -> 13 ;
14 [label="X[3] <= 74.5\ngini = 0.709\nsamples = 2672816\nvalue = [0, 804726, 0, 1626567, 0, 1285419, 511743]"] ;
6 -> 14 ;
15 [label="X[10] <= 95.5\ngini = 0.708\nsamples = 2274213\nvalue = [0, 733655, 0, 1407476, 0, 1047180, 409065]"] ;
14 -> 15 ;
16 [label="gini = 0.692\nsamples = 996622\nvalue = [0, 305810, 0, 688617, 0, 410608, 170268]"] ;
15 -> 16 ;
17 [label="gini = 0.716\nsamples = 1277591\nvalue = [0, 427845, 0, 718859, 0, 636572, 238797]"] ;
15 -> 17 ;
18 [label="X[7] <= 209.5\ngini = 0.698\nsamples = 398603\nvalue = [0, 71071, 0, 219091, 0, 238239, 102678]"] ;
14 -> 18 ;
19 [label="gini = 0.697\nsamples = 244883\nvalue = [0, 41800, 0, 123739, 0, 155012, 67059]"] ;
18 -> 19 ;
20 [label="gini = 0.694\nsamples = 153720\nvalue = [0, 29271, 0, 95352, 0, 83227, 35619]"] ;
18 -> 20 ;
21 [label="X[3] <= 57.5\ngini = 0.577\nsamples = 2773968\nvalue = [0, 2351043, 0, 1579142, 0, 330679, 127551]"] ;
5 -> 21 ;
22 [label="X[0] <= 2.5\ngini = 0.531\nsamples = 896619\nvalue = [0, 850304, 0, 465167, 0, 77221, 27048]"] ;
21 -> 22 ;
23 [label="X[10] <= 230.5\ngini = 0.525\nsamples = 853967\nvalue = [0, 823535, 0, 429033, 0, 73741, 25791]"] ;
22 -> 23 ;
24 [label="gini = 0.561\nsamples = 288342\nvalue = [0, 257289, 0, 154985, 0, 33193, 10742]"] ;
23 -> 24 ;
25 [label="gini = 0.505\nsamples = 565625\nvalue = [0, 566246, 0, 274048, 0, 40548, 15049]"] ;
23 -> 25 ;
26 [label="X[10] <= 229.5\ngini = 0.555\nsamples = 42652\nvalue = [0, 26769, 0, 36134, 0, 3480, 1257]"] ;
22 -> 26 ;
27 [label="gini = 0.377\nsamples = 11959\nvalue = [0, 14682, 0, 2949, 0, 858, 525]"] ;
26 -> 27 ;
28 [label="gini = 0.469\nsamples = 30693\nvalue = [0, 12087, 0, 33185, 0, 2622, 732]"] ;
26 -> 28 ;
29 [label="X[2] <= 131.5\ngini = 0.595\nsamples = 1877349\nvalue = [0, 1500739, 0, 1113975, 0, 253458, 100503]"] ;
21 -> 29 ;
30 [label="X[4] <= 3.5\ngini = 0.603\nsamples = 1429592\nvalue = [0, 1099394, 0, 880125, 0, 200906, 80371]"] ;
29 -> 30 ;
31 [label="gini = 0.546\nsamples = 314139\nvalue = [0, 286633, 0, 168739, 0, 35342, 5706]"] ;
30 -> 31 ;
32 [label="gini = 0.615\nsamples = 1115453\nvalue = [0, 812761, 0, 711386, 0, 165564, 74665]"] ;
30 -> 32 ;
33 [label="X[5] <= 0.5\ngini = 0.563\nsamples = 447757\nvalue = [0, 401345, 0, 233850, 0, 52552, 20132]"] ;
29 -> 33 ;
34 [label="gini = 0.668\nsamples = 32186\nvalue = [0, 16359, 0, 22388, 0, 8461, 3449]"] ;
33 -> 34 ;
35 [label="gini = 0.548\nsamples = 415571\nvalue = [0, 384986, 0, 211462, 0, 44091, 16683]"] ;
33 -> 35 ;
36 [label="X[6] <= 42.5\ngini = 0.098\nsamples = 533683\nvalue = [801283, 0, 478, 0, 25864, 16524, 0]"] ;
4 -> 36 ;
37 [label="X[5] <= 1.5\ngini = 0.087\nsamples = 502787\nvalue = [759359, 0, 463, 0, 20390, 14932, 0]"] ;
36 -> 37 ;
38 [label="X[7] <= 222.5\ngini = 0.13\nsamples = 186513\nvalue = [275010, 0, 287, 0, 10225, 9706, 0]"] ;
37 -> 38 ;
39 [label="X[0] <= 0.5\ngini = 0.099\nsamples = 147057\nvalue = [221023, 0, 258, 0, 5616, 6169, 0]"] ;
38 -> 39 ;
40 [label="gini = 0.116\nsamples = 116262\nvalue = [173009, 0, 253, 0, 5262, 5705, 0]"] ;
39 -> 40 ;
41 [label="gini = 0.033\nsamples = 30795\nvalue = [48014, 0, 5, 0, 354, 464, 0]"] ;
39 -> 41 ;
42 [label="X[4] <= 8.5\ngini = 0.237\nsamples = 39456\nvalue = [53987, 0, 29, 0, 4609, 3537, 0]"] ;
38 -> 42 ;
43 [label="gini = 0.331\nsamples = 19705\nvalue = [25043, 0, 2, 0, 3444, 2573, 0]"] ;
42 -> 43 ;
44 [label="gini = 0.131\nsamples = 19751\nvalue = [28944, 0, 27, 0, 1165, 964, 0]"] ;
42 -> 44 ;
45 [label="X[3] <= 76.5\ngini = 0.061\nsamples = 316274\nvalue = [484349, 0, 176, 0, 10165, 5226, 0]"] ;
37 -> 45 ;
46 [label="X[6] <= 4.5\ngini = 0.055\nsamples = 307143\nvalue = [471952, 0, 176, 0, 8624, 4732, 0]"] ;
45 -> 46 ;
47 [label="gini = 0.031\nsamples = 149481\nvalue = [232493, 0, 37, 0, 1968, 1676, 0]"] ;
46 -> 47 ;
48 [label="gini = 0.077\nsamples = 157662\nvalue = [239459, 0, 139, 0, 6656, 3056, 0]"] ;
46 -> 48 ;
49 [label="X[9] <= 1.5\ngini = 0.25\nsamples = 9131\nvalue = [12397, 0, 0, 0, 1541, 494, 0]"] ;
45 -> 49 ;
50 [label="gini = 0.186\nsamples = 6050\nvalue = [8577, 0, 0, 0, 724, 246, 0]"] ;
49 -> 50 ;
51 [label="gini = 0.358\nsamples = 3081\nvalue = [3820, 0, 0, 0, 817, 248, 0]"] ;
49 -> 51 ;
52 [label="X[2] <= 127.5\ngini = 0.255\nsamples = 30896\nvalue = [41924, 0, 15, 0, 5474, 1592, 0]"] ;
36 -> 52 ;
53 [label="X[3] <= 72.5\ngini = 0.402\nsamples = 7074\nvalue = [8323, 0, 10, 0, 2244, 599, 0]"] ;
52 -> 53 ;
54 [label="X[10] <= 62.5\ngini = 0.144\nsamples = 1701\nvalue = [2478, 0, 10, 0, 141, 55, 0]"] ;
53 -> 54 ;
55 [label="gini = 0.103\nsamples = 1377\nvalue = [2047, 0, 10, 0, 79, 27, 0]"] ;
54 -> 55 ;
56 [label="gini = 0.299\nsamples = 324\nvalue = [431, 0, 0, 0, 62, 28, 0]"] ;
54 -> 56 ;
57 [label="X[5] <= 1.5\ngini = 0.461\nsamples = 5373\nvalue = [5845, 0, 0, 0, 2103, 544, 0]"] ;
53 -> 57 ;
58 [label="gini = 0.413\nsamples = 1902\nvalue = [2212, 0, 0, 0, 483, 282, 0]"] ;
57 -> 58 ;
59 [label="gini = 0.478\nsamples = 3471\nvalue = [3633, 0, 0, 0, 1620, 262, 0]"] ;
57 -> 59 ;
60 [label="X[2] <= 137.5\ngini = 0.203\nsamples = 23822\nvalue = [33601, 0, 5, 0, 3230, 993, 0]"] ;
52 -> 60 ;
61 [label="X[8] <= 4.5\ngini = 0.09\nsamples = 14972\nvalue = [22697, 0, 5, 0, 779, 323, 0]"] ;
60 -> 61 ;
62 [label="gini = 0.26\nsamples = 4710\nvalue = [6417, 0, 5, 0, 779, 323, 0]"] ;
61 -> 62 ;
63 [label="gini = 0.0\nsamples = 10262\nvalue = [16280, 0, 0, 0, 0, 0, 0]"] ;
61 -> 63 ;
64 [label="X[0] <= 1.5\ngini = 0.363\nsamples = 8850\nvalue = [10904, 0, 0, 0, 2451, 670, 0]"] ;
60 -> 64 ;
65 [label="gini = 0.394\nsamples = 7907\nvalue = [9422, 0, 0, 0, 2446, 668, 0]"] ;
64 -> 65 ;
66 [label="gini = 0.009\nsamples = 943\nvalue = [1482, 0, 0, 0, 5, 2, 0]"] ;
64 -> 66 ;
67 [label="X[8] <= 2.5\ngini = 0.732\nsamples = 3412570\nvalue = [563926, 1847259, 1599, 1629845, 1999, 179601, 1173450]"] ;
3 -> 67 ;
68 [label="X[7] <= 111.5\ngini = 0.678\nsamples = 3046877\nvalue = [0, 1847259, 0, 1629845, 0, 167965, 1173450]"] ;
67 -> 68 ;
69 [label="X[0] <= 0.5\ngini = 0.669\nsamples = 608782\nvalue = [0, 414106, 0, 270760, 0, 30325, 247672]"] ;
68 -> 69 ;
70 [label="X[6] <= 3.5\ngini = 0.672\nsamples = 290067\nvalue = [0, 102148, 0, 128949, 0, 24219, 203584]"] ;
69 -> 70 ;
71 [label="X[7] <= 24.5\ngini = 0.664\nsamples = 85246\nvalue = [0, 24401, 0, 48790, 0, 6093, 55871]"] ;
70 -> 71 ;
72 [label="gini = 0.648\nsamples = 53592\nvalue = [0, 13028, 0, 33862, 0, 3248, 34734]"] ;
71 -> 72 ;
73 [label="gini = 0.681\nsamples = 31654\nvalue = [0, 11373, 0, 14928, 0, 2845, 21137]"] ;
71 -> 73 ;
74 [label="X[10] <= 76.5\ngini = 0.67\nsamples = 204821\nvalue = [0, 77747, 0, 80159, 0, 18126, 147713]"] ;
70 -> 74 ;
75 [label="gini = 0.691\nsamples = 51651\nvalue = [0, 21221, 0, 22698, 0, 5028, 32710]"] ;
74 -> 75 ;
76 [label="gini = 0.661\nsamples = 153170\nvalue = [0, 56526, 0, 57461, 0, 13098, 115003]"] ;
74 -> 76 ;
77 [label="X[4] <= 2.5\ngini = 0.53\nsamples = 318715\nvalue = [0, 311958, 0, 141811, 0, 6106, 44088]"] ;
69 -> 77 ;
78 [label="X[6] <= 9.5\ngini = 0.433\nsamples = 100509\nvalue = [0, 113824, 0, 35760, 0, 0, 9312]"] ;
77 -> 78 ;
79 [label="gini = 0.542\nsamples = 28802\nvalue = [0, 26908, 0, 14475, 0, 0, 4193]"] ;
78 -> 79 ;
80 [label="gini = 0.374\nsamples = 71707\nvalue = [0, 86916, 0, 21285, 0, 0, 5119]"] ;
78 -> 80 ;
81 [label="X[10] <= 17.5\ngini = 0.565\nsamples = 218206\nvalue = [0, 198134, 0, 106051, 0, 6106, 34776]"] ;
77 -> 81 ;
82 [label="gini = 0.463\nsamples = 14705\nvalue = [0, 15874, 0, 5734, 0, 234, 1251]"] ;
81 -> 82 ;
83 [label="gini = 0.571\nsamples = 203501\nvalue = [0, 182260, 0, 100317, 0, 5872, 33525]"] ;
81 -> 83 ;
84 [label="X[0] <= 0.5\ngini = 0.679\nsamples = 2438095\nvalue = [0, 1433153, 0, 1359085, 0, 137640, 925778]"] ;
68 -> 84 ;
85 [label="X[4] <= 6.5\ngini = 0.68\nsamples = 1110355\nvalue = [0, 346398, 0, 604396, 0, 104240, 702133]"] ;
84 -> 85 ;
86 [label="X[2] <= 117.5\ngini = 0.711\nsamples = 657596\nvalue = [0, 233561, 0, 330613, 0, 104240, 371456]"] ;
85 -> 86 ;
87 [label="gini = 0.665\nsamples = 33537\nvalue = [0, 5310, 0, 20204, 0, 5768, 21685]"] ;
86 -> 87 ;
88 [label="gini = 0.712\nsamples = 624059\nvalue = [0, 228251, 0, 310409, 0, 98472, 349771]"] ;
86 -> 88 ;
89 [label="X[3] <= 74.5\ngini = 0.617\nsamples = 452759\nvalue = [0, 112837, 0, 273783, 0, 0, 330677]"] ;
85 -> 89 ;
90 [label="gini = 0.63\nsamples = 356922\nvalue = [0, 100453, 0, 228784, 0, 0, 236055]"] ;
89 -> 90 ;
91 [label="gini = 0.518\nsamples = 95837\nvalue = [0, 12384, 0, 44999, 0, 0, 94622]"] ;
89 -> 91 ;
92 [label="X[2] <= 122.5\ngini = 0.591\nsamples = 1327740\nvalue = [0, 1086755, 0, 754689, 0, 33400, 223645]"] ;
84 -> 92 ;
93 [label="X[2] <= 115.5\ngini = 0.638\nsamples = 206043\nvalue = [0, 141211, 0, 125036, 0, 6540, 53065]"] ;
92 -> 93 ;
94 [label="gini = 0.667\nsamples = 1672\nvalue = [0, 926, 0, 478, 0, 132, 1106]"] ;
93 -> 94 ;
95 [label="gini = 0.637\nsamples = 204371\nvalue = [0, 140285, 0, 124558, 0, 6408, 51959]"] ;
93 -> 95 ;
96 [label="X[0] <= 2.5\ngini = 0.58\nsamples = 1121697\nvalue = [0, 945544, 0, 629653, 0, 26860, 170580]"] ;
92 -> 96 ;
97 [label="gini = 0.579\nsamples = 1075862\nvalue = [0, 915128, 0, 592314, 0, 26117, 166673]"] ;
96 -> 97 ;
98 [label="gini = 0.555\nsamples = 45835\nvalue = [0, 30416, 0, 37339, 0, 743, 3907]"] ;
96 -> 98 ;
99 [label="X[6] <= 45.5\ngini = 0.051\nsamples = 365693\nvalue = [563926, 0, 1599, 0, 1999, 11636, 0]"] ;
67 -> 99 ;
100 [label="X[3] <= 76.5\ngini = 0.049\nsamples = 360853\nvalue = [557168, 0, 1540, 0, 1844, 10951, 0]"] ;
99 -> 100 ;
101 [label="X[8] <= 4.5\ngini = 0.045\nsamples = 348889\nvalue = [540066, 0, 1484, 0, 1639, 9499, 0]"] ;
100 -> 101 ;
102 [label="X[10] <= 187.5\ngini = 0.192\nsamples = 76181\nvalue = [107861, 0, 1484, 0, 1639, 9499, 0]"] ;
101 -> 102 ;
103 [label="gini = 0.216\nsamples = 45926\nvalue = [64095, 0, 930, 0, 1198, 6546, 0]"] ;
102 -> 103 ;
104 [label="gini = 0.155\nsamples = 30255\nvalue = [43766, 0, 554, 0, 441, 2953, 0]"] ;
102 -> 104 ;
105 [label="gini = 0.0\nsamples = 272708\nvalue = [432205, 0, 0, 0, 0, 0, 0]"] ;
101 -> 105 ;
106 [label="X[7] <= 53.5\ngini = 0.168\nsamples = 11964\nvalue = [17102, 0, 56, 0, 205, 1452, 0]"] ;
100 -> 106 ;
107 [label="X[5] <= 2.5\ngini = 0.518\nsamples = 2433\nvalue = [2312, 0, 47, 0, 170, 1294, 0]"] ;
106 -> 107 ;
108 [label="gini = 0.541\nsamples = 2080\nvalue = [1863, 0, 47, 0, 170, 1202, 0]"] ;
107 -> 108 ;
109 [label="gini = 0.282\nsamples = 353\nvalue = [449, 0, 0, 0, 0, 92, 0]"] ;
107 -> 109 ;
110 [label="X[10] <= 15.5\ngini = 0.027\nsamples = 9531\nvalue = [14790, 0, 9, 0, 35, 158, 0]"] ;
106 -> 110 ;
111 [label="gini = 0.024\nsamples = 9377\nvalue = [14583, 0, 0, 0, 23, 155, 0]"] ;
110 -> 111 ;
112 [label="gini = 0.193\nsamples = 154\nvalue = [207, 0, 9, 0, 12, 3, 0]"] ;
110 -> 112 ;
113 [label="X[4] <= 5.5\ngini = 0.213\nsamples = 4840\nvalue = [6758, 0, 59, 0, 155, 685, 0]"] ;
99 -> 113 ;
114 [label="X[2] <= 132.5\ngini = 0.289\nsamples = 2582\nvalue = [3387, 0, 26, 0, 115, 542, 0]"] ;
113 -> 114 ;
115 [label="X[8] <= 4.0\ngini = 0.01\nsamples = 390\nvalue = [609, 0, 0, 0, 0, 3, 0]"] ;
114 -> 115 ;
116 [label="gini = 0.397\nsamples = 7\nvalue = [8, 0, 0, 0, 0, 3, 0]"] ;
115 -> 116 ;
117 [label="gini = 0.0\nsamples = 383\nvalue = [601, 0, 0, 0, 0, 0, 0]"] ;
115 -> 117 ;
118 [label="X[3] <= 62.5\ngini = 0.329\nsamples = 2192\nvalue = [2778, 0, 26, 0, 115, 539, 0]"] ;
114 -> 118 ;
119 [label="gini = 0.0\nsamples = 165\nvalue = [266, 0, 0, 0, 0, 0, 0]"] ;
118 -> 119 ;
120 [label="gini = 0.351\nsamples = 2027\nvalue = [2512, 0, 26, 0, 115, 539, 0]"] ;
118 -> 120 ;
121 [label="X[5] <= 0.5\ngini = 0.115\nsamples = 2258\nvalue = [3371, 0, 33, 0, 40, 143, 0]"] ;
113 -> 121 ;
122 [label="X[7] <= 80.0\ngini = 0.264\nsamples = 369\nvalue = [510, 0, 31, 0, 12, 45, 0]"] ;
121 -> 122 ;
123 [label="gini = 0.684\nsamples = 67\nvalue = [43, 0, 31, 0, 5, 28, 0]"] ;
122 -> 123 ;
124 [label="gini = 0.094\nsamples = 302\nvalue = [467, 0, 0, 0, 7, 17, 0]"] ;
122 -> 124 ;
125 [label="X[4] <= 6.5\ngini = 0.083\nsamples = 1889\nvalue = [2861, 0, 2, 0, 28, 98, 0]"] ;
121 -> 125 ;
126 [label="gini = 0.138\nsamples = 418\nvalue = [620, 0, 0, 0, 28, 21, 0]"] ;
125 -> 126 ;
127 [label="gini = 0.066\nsamples = 1471\nvalue = [2241, 0, 2, 0, 0, 77, 0]"] ;
125 -> 127 ;
128 [label="X[10] <= 59.5\ngini = 0.065\nsamples = 46404\nvalue = [70904, 0, 20, 120, 802, 1480, 29]"] ;
2 -> 128 ;
129 [label="X[4] <= 3.5\ngini = 0.111\nsamples = 7729\nvalue = [11563, 0, 0, 2, 285, 424, 0]"] ;
128 -> 129 ;
130 [label="X[7] <= 96.5\ngini = 0.196\nsamples = 1689\nvalue = [2386, 0, 0, 1, 55, 233, 0]"] ;
129 -> 130 ;
131 [label="X[9] <= 2.5\ngini = 0.384\nsamples = 371\nvalue = [435, 0, 0, 0, 3, 147, 0]"] ;
130 -> 131 ;
132 [label="X[2] <= 129.5\ngini = 0.12\nsamples = 189\nvalue = [266, 0, 0, 0, 3, 15, 0]"] ;
131 -> 132 ;
133 [label="X[9] <= 1.5\ngini = 0.316\nsamples = 49\nvalue = [67, 0, 0, 0, 1, 15, 0]"] ;
132 -> 133 ;
134 [label="gini = 0.444\nsamples = 27\nvalue = [30, 0, 0, 0, 0, 15, 0]"] ;
133 -> 134 ;
135 [label="gini = 0.051\nsamples = 22\nvalue = [37, 0, 0, 0, 1, 0, 0]"] ;
133 -> 135 ;
136 [label="X[3] <= 76.5\ngini = 0.02\nsamples = 140\nvalue = [199, 0, 0, 0, 2, 0, 0]"] ;
132 -> 136 ;
137 [label="gini = 0.0\nsamples = 72\nvalue = [101, 0, 0, 0, 0, 0, 0]"] ;
136 -> 137 ;
138 [label="gini = 0.039\nsamples = 68\nvalue = [98, 0, 0, 0, 2, 0, 0]"] ;
136 -> 138 ;
139 [label="X[7] <= 93.0\ngini = 0.492\nsamples = 182\nvalue = [169, 0, 0, 0, 0, 132, 0]"] ;
131 -> 139 ;
140 [label="X[1] <= 3.5\ngini = 0.087\nsamples = 83\nvalue = [126, 0, 0, 0, 0, 6, 0]"] ;
139 -> 140 ;
141 [label="gini = 0.14\nsamples = 51\nvalue = [73, 0, 0, 0, 0, 6, 0]"] ;
140 -> 141 ;
142 [label="gini = 0.0\nsamples = 32\nvalue = [53, 0, 0, 0, 0, 0, 0]"] ;
140 -> 142 ;
143 [label="X[10] <= 11.0\ngini = 0.379\nsamples = 99\nvalue = [43, 0, 0, 0, 0, 126, 0]"] ;
139 -> 143 ;
144 [label="gini = 0.304\nsamples = 91\nvalue = [29, 0, 0, 0, 0, 126, 0]"] ;
143 -> 144 ;
145 [label="gini = 0.0\nsamples = 8\nvalue = [14, 0, 0, 0, 0, 0, 0]"] ;
143 -> 145 ;
146 [label="X[10] <= 52.0\ngini = 0.126\nsamples = 1318\nvalue = [1951, 0, 0, 1, 52, 86, 0]"] ;
130 -> 146 ;
147 [label="X[8] <= 2.5\ngini = 0.076\nsamples = 1124\nvalue = [1727, 0, 0, 1, 17, 53, 0]"] ;
146 -> 147 ;
148 [label="gini = 0.0\nsamples = 1\nvalue = [0, 0, 0, 1, 0, 0, 0]"] ;
147 -> 148 ;
149 [label="X[5] <= 0.5\ngini = 0.075\nsamples = 1123\nvalue = [1727, 0, 0, 0, 17, 53, 0]"] ;
147 -> 149 ;
150 [label="gini = 0.003\nsamples = 385\nvalue = [627, 0, 0, 0, 0, 1, 0]"] ;
149 -> 150 ;
151 [label="gini = 0.112\nsamples = 738\nvalue = [1100, 0, 0, 0, 17, 52, 0]"] ;
149 -> 151 ;
152 [label="X[7] <= 102.5\ngini = 0.384\nsamples = 194\nvalue = [224, 0, 0, 0, 35, 33, 0]"] ;
146 -> 152 ;
153 [label="X[3] <= 73.5\ngini = 0.5\nsamples = 27\nvalue = [20, 0, 0, 0, 0, 20, 0]"] ;
152 -> 153 ;
154 [label="gini = 0.478\nsamples = 22\nvalue = [13, 0, 0, 0, 0, 20, 0]"] ;
153 -> 154 ;
155 [label="gini = 0.0\nsamples = 5\nvalue = [7, 0, 0, 0, 0, 0, 0]"] ;
153 -> 155 ;
156 [label="X[1] <= 4.5\ngini = 0.323\nsamples = 167\nvalue = [204, 0, 0, 0, 35, 13, 0]"] ;
152 -> 156 ;
157 [label="gini = 0.452\nsamples = 87\nvalue = [90, 0, 0, 0, 31, 8, 0]"] ;
156 -> 157 ;
158 [label="gini = 0.138\nsamples = 80\nvalue = [114, 0, 0, 0, 4, 5, 0]"] ;
156 -> 158 ;
159 [label="X[10] <= 52.5\ngini = 0.085\nsamples = 6040\nvalue = [9177, 0, 0, 1, 230, 191, 0]"] ;
129 -> 159 ;
160 [label="X[8] <= 2.5\ngini = 0.068\nsamples = 5259\nvalue = [8090, 0, 0, 1, 141, 151, 0]"] ;
159 -> 160 ;
161 [label="gini = 0.0\nsamples = 1\nvalue = [0, 0, 0, 1, 0, 0, 0]"] ;
160 -> 161 ;
162 [label="X[3] <= 78.5\ngini = 0.068\nsamples = 5258\nvalue = [8090, 0, 0, 0, 141, 151, 0]"] ;
160 -> 162 ;
163 [label="X[3] <= 76.5\ngini = 0.067\nsamples = 5252\nvalue = [8086, 0, 0, 0, 139, 149, 0]"] ;
162 -> 163 ;
164 [label="gini = 0.074\nsamples = 4362\nvalue = [6706, 0, 0, 0, 128, 139, 0]"] ;
163 -> 164 ;
165 [label="gini = 0.03\nsamples = 890\nvalue = [1380, 0, 0, 0, 11, 10, 0]"] ;
163 -> 165 ;
166 [label="X[5] <= 1.0\ngini = 0.625\nsamples = 6\nvalue = [4, 0, 0, 0, 2, 2, 0]"] ;
162 -> 166 ;
167 [label="gini = 0.5\nsamples = 3\nvalue = [2, 0, 0, 0, 0, 2, 0]"] ;
166 -> 167 ;
168 [label="gini = 0.5\nsamples = 3\nvalue = [2, 0, 0, 0, 2, 0, 0]"] ;
166 -> 168 ;
169 [label="X[10] <= 53.5\ngini = 0.194\nsamples = 781\nvalue = [1087, 0, 0, 0, 89, 40, 0]"] ;
159 -> 169 ;
170 [label="X[5] <= 1.5\ngini = 0.477\nsamples = 139\nvalue = [148, 0, 0, 0, 51, 19, 0]"] ;
169 -> 170 ;
171 [label="X[9] <= 0.5\ngini = 0.38\nsamples = 94\nvalue = [117, 0, 0, 0, 21, 14, 0]"] ;
170 -> 171 ;
172 [label="gini = 0.245\nsamples = 6\nvalue = [1, 0, 0, 0, 0, 6, 0]"] ;
171 -> 172 ;
173 [label="gini = 0.336\nsamples = 88\nvalue = [116, 0, 0, 0, 21, 8, 0]"] ;
171 -> 173 ;
174 [label="X[0] <= 0.5\ngini = 0.567\nsamples = 45\nvalue = [31, 0, 0, 0, 30, 5, 0]"] ;
170 -> 174 ;
175 [label="gini = 0.549\nsamples = 37\nvalue = [20, 0, 0, 0, 30, 4, 0]"] ;
174 -> 175 ;
176 [label="gini = 0.153\nsamples = 8\nvalue = [11, 0, 0, 0, 0, 1, 0]"] ;
174 -> 176 ;
177 [label="X[1] <= 1.5\ngini = 0.113\nsamples = 642\nvalue = [939, 0, 0, 0, 38, 21, 0]"] ;
169 -> 177 ;
178 [label="X[4] <= 7.5\ngini = 0.056\nsamples = 308\nvalue = [472, 0, 0, 0, 12, 2, 0]"] ;
177 -> 178 ;
179 [label="gini = 0.0\nsamples = 111\nvalue = [180, 0, 0, 0, 0, 0, 0]"] ;
178 -> 179 ;
180 [label="gini = 0.088\nsamples = 197\nvalue = [292, 0, 0, 0, 12, 2, 0]"] ;
178 -> 180 ;
181 [label="X[10] <= 54.5\ngini = 0.164\nsamples = 334\nvalue = [467, 0, 0, 0, 26, 19, 0]"] ;
177 -> 181 ;
182 [label="gini = 0.249\nsamples = 112\nvalue = [149, 0, 0, 0, 13, 11, 0]"] ;
181 -> 182 ;
183 [label="gini = 0.118\nsamples = 222\nvalue = [318, 0, 0, 0, 13, 8, 0]"] ;
181 -> 183 ;
184 [label="X[8] <= 2.5\ngini = 0.056\nsamples = 38675\nvalue = [59341, 0, 20, 118, 517, 1056, 29]"] ;
128 -> 184 ;
185 [label="X[7] <= 147.5\ngini = 0.417\nsamples = 95\nvalue = [0, 0, 0, 118, 0, 13, 29]"] ;
184 -> 185 ;
186 [label="X[2] <= 130.5\ngini = 0.197\nsamples = 73\nvalue = [0, 0, 0, 108, 0, 5, 8]"] ;
185 -> 186 ;
187 [label="X[4] <= 8.5\ngini = 0.473\nsamples = 7\nvalue = [0, 0, 0, 0, 0, 5, 8]"] ;
186 -> 187 ;
188 [label="X[4] <= 7.5\ngini = 0.397\nsamples = 6\nvalue = [0, 0, 0, 0, 0, 3, 8]"] ;
187 -> 188 ;
189 [label="gini = 0.0\nsamples = 3\nvalue = [0, 0, 0, 0, 0, 0, 4]"] ;
188 -> 189 ;
190 [label="gini = 0.49\nsamples = 3\nvalue = [0, 0, 0, 0, 0, 3, 4]"] ;
188 -> 190 ;
191 [label="gini = 0.0\nsamples = 1\nvalue = [0, 0, 0, 0, 0, 2, 0]"] ;
187 -> 191 ;
192 [label="gini = 0.0\nsamples = 66\nvalue = [0, 0, 0, 108, 0, 0, 0]"] ;
186 -> 192 ;
193 [label="X[0] <= 0.5\ngini = 0.602\nsamples = 22\nvalue = [0, 0, 0, 10, 0, 8, 21]"] ;
185 -> 193 ;
194 [label="X[9] <= 2.5\ngini = 0.4\nsamples = 17\nvalue = [0, 0, 0, 0, 0, 8, 21]"] ;
193 -> 194 ;
195 [label="X[3] <= 52.5\ngini = 0.444\nsamples = 7\nvalue = [0, 0, 0, 0, 0, 8, 4]"] ;
194 -> 195 ;
196 [label="gini = 0.0\nsamples = 2\nvalue = [0, 0, 0, 0, 0, 3, 0]"] ;
195 -> 196 ;
197 [label="gini = 0.494\nsamples = 5\nvalue = [0, 0, 0, 0, 0, 5, 4]"] ;
195 -> 197 ;
198 [label="gini = 0.0\nsamples = 10\nvalue = [0, 0, 0, 0, 0, 0, 17]"] ;
194 -> 198 ;
199 [label="gini = 0.0\nsamples = 5\nvalue = [0, 0, 0, 10, 0, 0, 0]"] ;
193 -> 199 ;
200 [label="X[10] <= 110.5\ngini = 0.051\nsamples = 38580\nvalue = [59341, 0, 20, 0, 517, 1043, 0]"] ;
184 -> 200 ;
201 [label="X[6] <= 24.0\ngini = 0.073\nsamples = 7445\nvalue = [11339, 0, 8, 0, 131, 302, 0]"] ;
200 -> 201 ;
202 [label="X[9] <= 0.5\ngini = 0.088\nsamples = 3850\nvalue = [5842, 0, 5, 0, 71, 204, 0]"] ;
201 -> 202 ;
203 [label="X[6] <= 2.5\ngini = 0.22\nsamples = 179\nvalue = [271, 0, 0, 0, 0, 39, 0]"] ;
202 -> 203 ;
204 [label="gini = 0.347\nsamples = 54\nvalue = [66, 0, 0, 0, 0, 19, 0]"] ;
203 -> 204 ;
205 [label="gini = 0.162\nsamples = 125\nvalue = [205, 0, 0, 0, 0, 20, 0]"] ;
203 -> 205 ;
206 [label="X[2] <= 127.5\ngini = 0.08\nsamples = 3671\nvalue = [5571, 0, 5, 0, 71, 165, 0]"] ;
202 -> 206 ;
207 [label="gini = 0.073\nsamples = 3428\nvalue = [5233, 0, 5, 0, 60, 140, 0]"] ;
206 -> 207 ;
208 [label="gini = 0.178\nsamples = 243\nvalue = [338, 0, 0, 0, 11, 25, 0]"] ;
206 -> 208 ;
209 [label="X[5] <= 1.5\ngini = 0.056\nsamples = 3595\nvalue = [5497, 0, 3, 0, 60, 98, 0]"] ;
201 -> 209 ;
210 [label="X[1] <= 18.5\ngini = 0.063\nsamples = 2376\nvalue = [3591, 0, 3, 0, 28, 89, 0]"] ;
209 -> 210 ;
211 [label="gini = 0.073\nsamples = 1933\nvalue = [2896, 0, 3, 0, 23, 87, 0]"] ;
210 -> 211 ;
212 [label="gini = 0.02\nsamples = 443\nvalue = [695, 0, 0, 0, 5, 2, 0]"] ;
210 -> 212 ;
213 [label="X[1] <= 48.5\ngini = 0.041\nsamples = 1219\nvalue = [1906, 0, 0, 0, 32, 9, 0]"] ;
209 -> 213 ;
214 [label="gini = 0.034\nsamples = 1123\nvalue = [1752, 0, 0, 0, 24, 7, 0]"] ;
213 -> 214 ;
215 [label="gini = 0.116\nsamples = 96\nvalue = [154, 0, 0, 0, 8, 2, 0]"] ;
213 -> 215 ;
216 [label="X[3] <= 40.5\ngini = 0.046\nsamples = 31135\nvalue = [48002, 0, 12, 0, 386, 741, 0]"] ;
200 -> 216 ;
217 [label="X[4] <= 6.5\ngini = 0.161\nsamples = 579\nvalue = [824, 0, 0, 0, 6, 73, 0]"] ;
216 -> 217 ;
218 [label="X[7] <= 168.5\ngini = 0.054\nsamples = 158\nvalue = [246, 0, 0, 0, 3, 4, 0]"] ;
217 -> 218 ;
219 [label="gini = 0.017\nsamples = 143\nvalue = [226, 0, 0, 0, 0, 2, 0]"] ;
218 -> 219 ;
220 [label="gini = 0.339\nsamples = 15\nvalue = [20, 0, 0, 0, 3, 2, 0]"] ;
218 -> 220 ;
221 [label="X[2] <= 133.5\ngini = 0.198\nsamples = 421\nvalue = [578, 0, 0, 0, 3, 69, 0]"] ;
217 -> 221 ;
222 [label="gini = 0.058\nsamples = 94\nvalue = [130, 0, 0, 0, 2, 2, 0]"] ;
221 -> 222 ;
223 [label="gini = 0.229\nsamples = 327\nvalue = [448, 0, 0, 0, 1, 67, 0]"] ;
221 -> 223 ;
224 [label="X[6] <= 15.5\ngini = 0.043\nsamples = 30556\nvalue = [47178, 0, 12, 0, 380, 668, 0]"] ;
216 -> 224 ;
225 [label="X[2] <= 133.5\ngini = 0.036\nsamples = 14970\nvalue = [23234, 0, 1, 0, 179, 247, 0]"] ;
224 -> 225 ;
226 [label="gini = 0.033\nsamples = 14748\nvalue = [22940, 0, 1, 0, 153, 236, 0]"] ;
225 -> 226 ;
227 [label="gini = 0.204\nsamples = 222\nvalue = [294, 0, 0, 0, 26, 11, 0]"] ;
225 -> 227 ;
228 [label="X[10] <= 115.5\ngini = 0.05\nsamples = 15586\nvalue = [23944, 0, 11, 0, 201, 421, 0]"] ;
224 -> 228 ;
229 [label="gini = 0.021\nsamples = 2695\nvalue = [4207, 0, 3, 0, 20, 23, 0]"] ;
228 -> 229 ;
230 [label="gini = 0.056\nsamples = 12891\nvalue = [19737, 0, 8, 0, 181, 398, 0]"] ;
228 -> 230 ;
}