digraph Tree {
node [shape=box] ;
0 [label="X[1] <= 0.5\ngini = 0.767\nsamples = 11105075\nvalue = [3314427, 5199130, 2083, 5149543, 28828, 1814008, 2061130]"] ;
1 [label="X[9] <= 2.5\ngini = 0.766\nsamples = 11058543\nvalue = [3243355, 5199130, 2066, 5149423, 28014, 1812465, 2061104]"] ;
0 -> 1 [labeldistance=2.5, labelangle=45, headlabel="True"] ;
2 [label="X[8] <= 1.5\ngini = 0.763\nsamples = 7275764\nvalue = [2093154, 3349232, 472, 3522375, 25959, 1632333, 887936]"] ;
1 -> 2 ;
3 [label="gini = 0.0\nsamples = 816843\nvalue = [1291915, 0, 0, 0, 0, 0, 0]"] ;
2 -> 3 ;
4 [label="X[8] <= 2.5\ngini = 0.735\nsamples = 6458921\nvalue = [801239, 3349232, 472, 3522375, 25959, 1632333, 887936]"] ;
2 -> 4 ;
5 [label="X[10] <= 231.5\ngini = 0.693\nsamples = 5925910\nvalue = [0, 3349232, 0, 3522375, 0, 1615863, 887936]"] ;
4 -> 5 ;
6 [label="X[4] <= 6.5\ngini = 0.698\nsamples = 4933126\nvalue = [0, 2603511, 0, 2989591, 0, 1435195, 777103]"] ;
5 -> 6 ;
7 [label="X[6] <= 9.5\ngini = 0.7\nsamples = 2005890\nvalue = [0, 1116816, 0, 1181286, 0, 461574, 414603]"] ;
6 -> 7 ;
8 [label="X[0] <= 0.5\ngini = 0.699\nsamples = 666724\nvalue = [0, 309835, 0, 438202, 0, 157135, 149380]"] ;
7 -> 8 ;
9 [label="gini = 0.707\nsamples = 414474\nvalue = [0, 109320, 0, 280962, 0, 132698, 132394]"] ;
8 -> 9 ;
10 [label="gini = 0.587\nsamples = 252250\nvalue = [0, 200515, 0, 157240, 0, 24437, 16986]"] ;
8 -> 10 ;
11 [label="X[0] <= 0.5\ngini = 0.696\nsamples = 1339166\nvalue = [0, 806981, 0, 743084, 0, 304439, 265223]"] ;
7 -> 11 ;
12 [label="gini = 0.73\nsamples = 660290\nvalue = [0, 198193, 0, 385142, 0, 245351, 216533]"] ;
11 -> 12 ;
13 [label="gini = 0.563\nsamples = 678876\nvalue = [0, 608788, 0, 357942, 0, 59088, 48690]"] ;
11 -> 13 ;
14 [label="X[0] <= 0.5\ngini = 0.694\nsamples = 2927236\nvalue = [0, 1486695, 0, 1808305, 0, 973621, 362500]"] ;
6 -> 14 ;
15 [label="X[4] <= 11.5\ngini = 0.707\nsamples = 1649843\nvalue = [0, 498371, 0, 1028648, 0, 767534, 315761]"] ;
14 -> 15 ;
16 [label="gini = 0.7\nsamples = 1389529\nvalue = [0, 418014, 0, 865095, 0, 687388, 227583]"] ;
15 -> 16 ;
17 [label="gini = 0.721\nsamples = 260314\nvalue = [0, 80357, 0, 163553, 0, 80146, 88178]"] ;
15 -> 17 ;
18 [label="X[5] <= 0.5\ngini = 0.601\nsamples = 1277393\nvalue = [0, 988324, 0, 779657, 0, 206087, 46739]"] ;
14 -> 18 ;
19 [label="gini = 0.642\nsamples = 121511\nvalue = [0, 52855, 0, 95513, 0, 34497, 9089]"] ;
18 -> 19 ;
20 [label="gini = 0.589\nsamples = 1155882\nvalue = [0, 935469, 0, 684144, 0, 171590, 37650]"] ;
18 -> 20 ;
21 [label="X[5] <= 0.5\ngini = 0.641\nsamples = 992784\nvalue = [0, 745721, 0, 532784, 0, 180668, 110833]"] ;
5 -> 21 ;
22 [label="X[0] <= 0.5\ngini = 0.698\nsamples = 57736\nvalue = [0, 21354, 0, 36980, 0, 25496, 7856]"] ;
21 -> 22 ;
23 [label="X[10] <= 240.5\ngini = 0.7\nsamples = 37547\nvalue = [0, 10520, 0, 22241, 0, 20618, 6394]"] ;
22 -> 23 ;
24 [label="gini = 0.671\nsamples = 15287\nvalue = [0, 3273, 0, 7877, 0, 10751, 2402]"] ;
23 -> 24 ;
25 [label="gini = 0.704\nsamples = 22260\nvalue = [0, 7247, 0, 14364, 0, 9867, 3992]"] ;
23 -> 25 ;
26 [label="X[0] <= 1.5\ngini = 0.646\nsamples = 20189\nvalue = [0, 10834, 0, 14739, 0, 4878, 1462]"] ;
22 -> 26 ;
27 [label="gini = 0.645\nsamples = 18151\nvalue = [0, 8765, 0, 13829, 0, 4719, 1396]"] ;
26 -> 27 ;
28 [label="gini = 0.499\nsamples = 2038\nvalue = [0, 2069, 0, 910, 0, 159, 66]"] ;
26 -> 28 ;
29 [label="X[9] <= 0.5\ngini = 0.632\nsamples = 935048\nvalue = [0, 724367, 0, 495804, 0, 155172, 102977]"] ;
21 -> 29 ;
30 [label="X[10] <= 251.5\ngini = 0.623\nsamples = 136145\nvalue = [0, 99241, 0, 79234, 0, 0, 37019]"] ;
29 -> 30 ;
31 [label="gini = 0.625\nsamples = 133102\nvalue = [0, 95922, 0, 78300, 0, 0, 36502]"] ;
30 -> 31 ;
32 [label="gini = 0.466\nsamples = 3043\nvalue = [0, 3319, 0, 934, 0, 0, 517]"] ;
30 -> 32 ;
33 [label="X[3] <= 41.5\ngini = 0.628\nsamples = 798903\nvalue = [0, 625126, 0, 416570, 0, 155172, 65958]"] ;
29 -> 33 ;
34 [label="gini = 0.658\nsamples = 392604\nvalue = [0, 275025, 0, 214686, 0, 91727, 38911]"] ;
33 -> 34 ;
35 [label="gini = 0.593\nsamples = 406299\nvalue = [0, 350101, 0, 201884, 0, 63445, 27047]"] ;
33 -> 35 ;
36 [label="X[2] <= 137.5\ngini = 0.098\nsamples = 533011\nvalue = [801239, 0, 472, 0, 25959, 16470, 0]"] ;
4 -> 36 ;
37 [label="X[8] <= 4.5\ngini = 0.091\nsamples = 518671\nvalue = [782815, 0, 464, 0, 22920, 15370, 0]"] ;
36 -> 37 ;
38 [label="X[4] <= 7.5\ngini = 0.357\nsamples = 114922\nvalue = [143832, 0, 464, 0, 22920, 15370, 0]"] ;
37 -> 38 ;
39 [label="X[8] <= 3.5\ngini = 0.423\nsamples = 51753\nvalue = [60547, 0, 69, 0, 10917, 10677, 0]"] ;
38 -> 39 ;
40 [label="gini = 0.167\nsamples = 41913\nvalue = [60547, 0, 0, 0, 3269, 2678, 0]"] ;
39 -> 40 ;
41 [label="gini = 0.504\nsamples = 9840\nvalue = [0, 0, 69, 0, 7648, 7999, 0]"] ;
39 -> 41 ;
42 [label="X[9] <= 0.5\ngini = 0.295\nsamples = 63169\nvalue = [83285, 0, 395, 0, 12003, 4693, 0]"] ;
38 -> 42 ;
43 [label="gini = 0.285\nsamples = 14093\nvalue = [18574, 0, 99, 0, 0, 3727, 0]"] ;
42 -> 43 ;
44 [label="gini = 0.287\nsamples = 49076\nvalue = [64711, 0, 296, 0, 12003, 966, 0]"] ;
42 -> 44 ;
45 [label="gini = 0.0\nsamples = 403749\nvalue = [638983, 0, 0, 0, 0, 0, 0]"] ;
37 -> 45 ;
46 [label="X[8] <= 4.5\ngini = 0.313\nsamples = 14340\nvalue = [18424, 0, 8, 0, 3039, 1100, 0]"] ;
36 -> 46 ;
47 [label="X[5] <= 2.5\ngini = 0.607\nsamples = 4961\nvalue = [3728, 0, 8, 0, 3039, 1100, 0]"] ;
46 -> 47 ;
48 [label="X[7] <= 181.5\ngini = 0.601\nsamples = 4854\nvalue = [3671, 0, 8, 0, 3039, 993, 0]"] ;
47 -> 48 ;
49 [label="gini = 0.544\nsamples = 2963\nvalue = [2890, 0, 7, 0, 1170, 647, 0]"] ;
48 -> 49 ;
50 [label="gini = 0.53\nsamples = 1891\nvalue = [781, 0, 1, 0, 1869, 346, 0]"] ;
48 -> 50 ;
51 [label="X[0] <= 1.5\ngini = 0.454\nsamples = 107\nvalue = [57, 0, 0, 0, 0, 107, 0]"] ;
47 -> 51 ;
52 [label="gini = 0.446\nsamples = 105\nvalue = [54, 0, 0, 0, 0, 107, 0]"] ;
51 -> 52 ;
53 [label="gini = 0.0\nsamples = 2\nvalue = [3, 0, 0, 0, 0, 0, 0]"] ;
51 -> 53 ;
54 [label="gini = 0.0\nsamples = 9379\nvalue = [14696, 0, 0, 0, 0, 0, 0]"] ;
46 -> 54 ;
55 [label="X[0] <= 0.5\ngini = 0.754\nsamples = 3782779\nvalue = [1150201, 1849898, 1594, 1627048, 2055, 180132, 1173168]"] ;
1 -> 55 ;
56 [label="X[8] <= 1.5\ngini = 0.756\nsamples = 1967181\nvalue = [884988, 448919, 1583, 731413, 1484, 137676, 905634]"] ;
55 -> 56 ;
57 [label="gini = 0.0\nsamples = 360833\nvalue = [570379, 0, 0, 0, 0, 0, 0]"] ;
56 -> 57 ;
58 [label="X[4] <= 4.5\ngini = 0.741\nsamples = 1606348\nvalue = [314609, 448919, 1583, 731413, 1484, 137676, 905634]"] ;
56 -> 58 ;
59 [label="X[3] <= 67.5\ngini = 0.694\nsamples = 633044\nvalue = [87276, 229326, 521, 255830, 2, 3049, 425214]"] ;
58 -> 59 ;
60 [label="X[3] <= 45.5\ngini = 0.686\nsamples = 393937\nvalue = [51184, 149595, 321, 144603, 2, 1472, 275213]"] ;
59 -> 60 ;
61 [label="X[3] <= 43.5\ngini = 0.722\nsamples = 107388\nvalue = [23281, 35944, 88, 47249, 2, 416, 62484]"] ;
60 -> 61 ;
62 [label="gini = 0.727\nsamples = 62486\nvalue = [12622, 25914, 71, 25422, 2, 259, 34352]"] ;
61 -> 62 ;
63 [label="gini = 0.705\nsamples = 44902\nvalue = [10659, 10030, 17, 21827, 0, 157, 28132]"] ;
61 -> 63 ;
64 [label="X[10] <= 205.5\ngini = 0.666\nsamples = 286549\nvalue = [27903, 113651, 233, 97354, 0, 1056, 212729]"] ;
60 -> 64 ;
65 [label="gini = 0.684\nsamples = 220964\nvalue = [24377, 90279, 172, 81147, 0, 947, 152202]"] ;
64 -> 65 ;
66 [label="gini = 0.584\nsamples = 65585\nvalue = [3526, 23372, 61, 16207, 0, 109, 60527]"] ;
64 -> 66 ;
67 [label="X[7] <= 203.5\ngini = 0.704\nsamples = 239107\nvalue = [36092, 79731, 200, 111227, 0, 1577, 150001]"] ;
59 -> 67 ;
68 [label="X[6] <= 34.5\ngini = 0.712\nsamples = 143535\nvalue = [27524, 48866, 200, 57308, 0, 1504, 92294]"] ;
67 -> 68 ;
69 [label="gini = 0.691\nsamples = 104573\nvalue = [20181, 27874, 184, 41740, 0, 1362, 74746]"] ;
68 -> 69 ;
70 [label="gini = 0.725\nsamples = 38962\nvalue = [7343, 20992, 16, 15568, 0, 142, 17548]"] ;
68 -> 70 ;
71 [label="X[6] <= 32.5\ngini = 0.682\nsamples = 95572\nvalue = [8568, 30865, 0, 53919, 0, 73, 57707]"] ;
67 -> 71 ;
72 [label="gini = 0.665\nsamples = 70055\nvalue = [5602, 18952, 0, 40295, 0, 58, 45650]"] ;
71 -> 72 ;
73 [label="gini = 0.707\nsamples = 25517\nvalue = [2966, 11913, 0, 13624, 0, 15, 12057]"] ;
71 -> 73 ;
74 [label="X[8] <= 2.5\ngini = 0.758\nsamples = 973304\nvalue = [227333, 219593, 1062, 475583, 1482, 134627, 480420]"] ;
58 -> 74 ;
75 [label="X[5] <= 1.5\ngini = 0.693\nsamples = 824296\nvalue = [0, 219593, 0, 475583, 0, 128836, 480420]"] ;
74 -> 75 ;
76 [label="X[2] <= 130.5\ngini = 0.652\nsamples = 460056\nvalue = [0, 107001, 0, 270599, 0, 36907, 313210]"] ;
75 -> 76 ;
77 [label="gini = 0.658\nsamples = 307034\nvalue = [0, 78679, 0, 192585, 0, 22613, 192470]"] ;
76 -> 77 ;
78 [label="gini = 0.628\nsamples = 153022\nvalue = [0, 28322, 0, 78014, 0, 14294, 120740]"] ;
76 -> 78 ;
79 [label="X[10] <= 29.5\ngini = 0.726\nsamples = 364240\nvalue = [0, 112592, 0, 204984, 0, 91929, 167210]"] ;
75 -> 79 ;
80 [label="gini = 0.696\nsamples = 56637\nvalue = [0, 9957, 0, 29523, 0, 14857, 35506]"] ;
79 -> 80 ;
81 [label="gini = 0.727\nsamples = 307603\nvalue = [0, 102635, 0, 175461, 0, 77072, 131704]"] ;
79 -> 81 ;
82 [label="X[7] <= 85.5\ngini = 0.069\nsamples = 149008\nvalue = [227333, 0, 1062, 0, 1482, 5791, 0]"] ;
74 -> 82 ;
83 [label="X[10] <= 6.5\ngini = 0.182\nsamples = 28655\nvalue = [40992, 0, 878, 0, 652, 2929, 0]"] ;
82 -> 83 ;
84 [label="gini = 0.578\nsamples = 1237\nvalue = [1003, 0, 28, 0, 159, 817, 0]"] ;
83 -> 84 ;
85 [label="gini = 0.15\nsamples = 27418\nvalue = [39989, 0, 850, 0, 493, 2112, 0]"] ;
83 -> 85 ;
86 [label="X[7] <= 171.5\ngini = 0.04\nsamples = 120353\nvalue = [186341, 0, 184, 0, 830, 2862, 0]"] ;
82 -> 86 ;
87 [label="gini = 0.063\nsamples = 61419\nvalue = [93971, 0, 149, 0, 743, 2257, 0]"] ;
86 -> 87 ;
88 [label="gini = 0.016\nsamples = 58934\nvalue = [92370, 0, 35, 0, 87, 605, 0]"] ;
86 -> 88 ;
89 [label="X[0] <= 2.5\ngini = 0.647\nsamples = 1815598\nvalue = [265213, 1400979, 11, 895635, 571, 42456, 267534]"] ;
55 -> 89 ;
90 [label="X[4] <= 2.5\ngini = 0.642\nsamples = 1726321\nvalue = [231928, 1351981, 11, 848027, 464, 40709, 258789]"] ;
89 -> 90 ;
91 [label="X[0] <= 1.5\ngini = 0.542\nsamples = 336317\nvalue = [14447, 325425, 0, 146727, 0, 395, 45323]"] ;
90 -> 91 ;
92 [label="X[8] <= 2.5\ngini = 0.575\nsamples = 264902\nvalue = [10997, 237413, 0, 128667, 0, 234, 42227]"] ;
91 -> 92 ;
93 [label="X[3] <= 53.5\ngini = 0.556\nsamples = 258917\nvalue = [1808, 237413, 0, 128667, 0, 0, 42227]"] ;
92 -> 93 ;
94 [label="gini = 0.505\nsamples = 79787\nvalue = [201, 81378, 0, 34533, 0, 0, 10446]"] ;
93 -> 94 ;
95 [label="gini = 0.574\nsamples = 179130\nvalue = [1607, 156035, 0, 94134, 0, 0, 31781]"] ;
93 -> 95 ;
96 [label="X[3] <= 41.5\ngini = 0.048\nsamples = 5985\nvalue = [9189, 0, 0, 0, 0, 234, 0]"] ;
92 -> 96 ;
97 [label="gini = 0.141\nsamples = 666\nvalue = [1004, 0, 0, 0, 0, 83, 0]"] ;
96 -> 97 ;
98 [label="gini = 0.036\nsamples = 5319\nvalue = [8185, 0, 0, 0, 0, 151, 0]"] ;
96 -> 98 ;
99 [label="X[10] <= 229.5\ngini = 0.364\nsamples = 71415\nvalue = [3450, 88012, 0, 18060, 0, 161, 3096]"] ;
91 -> 99 ;
100 [label="X[8] <= 2.5\ngini = 0.33\nsamples = 59138\nvalue = [2561, 75258, 0, 12856, 0, 148, 2576]"] ;
99 -> 100 ;
101 [label="gini = 0.297\nsamples = 57695\nvalue = [422, 75258, 0, 12856, 0, 0, 2576]"] ;
100 -> 101 ;
102 [label="gini = 0.121\nsamples = 1443\nvalue = [2139, 0, 0, 0, 0, 148, 0]"] ;
100 -> 102 ;
103 [label="X[6] <= 19.0\ngini = 0.492\nsamples = 12277\nvalue = [889, 12754, 0, 5204, 0, 13, 520]"] ;
99 -> 103 ;
104 [label="gini = 0.581\nsamples = 6774\nvalue = [643, 5519, 0, 4118, 0, 3, 423]"] ;
103 -> 104 ;
105 [label="gini = 0.288\nsamples = 5503\nvalue = [246, 7235, 0, 1086, 0, 10, 97]"] ;
103 -> 105 ;
106 [label="X[5] <= 0.5\ngini = 0.661\nsamples = 1390004\nvalue = [217481, 1026556, 11, 701300, 464, 40314, 213466]"] ;
90 -> 106 ;
107 [label="X[3] <= 67.5\ngini = 0.691\nsamples = 179656\nvalue = [18550, 75433, 1, 125778, 34, 9934, 54026]"] ;
106 -> 107 ;
108 [label="X[4] <= 10.5\ngini = 0.689\nsamples = 105501\nvalue = [10068, 54965, 0, 68509, 12, 5152, 27852]"] ;
107 -> 108 ;
109 [label="gini = 0.69\nsamples = 90152\nvalue = [8652, 43925, 0, 60608, 12, 5143, 23923]"] ;
108 -> 109 ;
110 [label="gini = 0.658\nsamples = 15349\nvalue = [1416, 11040, 0, 7901, 0, 9, 3929]"] ;
108 -> 110 ;
111 [label="X[10] <= 29.5\ngini = 0.674\nsamples = 74155\nvalue = [8482, 20468, 1, 57269, 22, 4782, 26174]"] ;
107 -> 111 ;
112 [label="gini = 0.697\nsamples = 16014\nvalue = [2510, 2258, 0, 9993, 0, 1596, 9032]"] ;
111 -> 112 ;
113 [label="gini = 0.655\nsamples = 58141\nvalue = [5972, 18210, 1, 47276, 22, 3186, 17142]"] ;
111 -> 113 ;
114 [label="X[3] <= 57.5\ngini = 0.645\nsamples = 1210348\nvalue = [198931, 951123, 10, 575522, 430, 30380, 159440]"] ;
106 -> 114 ;
115 [label="X[4] <= 10.5\ngini = 0.615\nsamples = 400523\nvalue = [68850, 344332, 0, 172090, 71, 7037, 41731]"] ;
114 -> 115 ;
116 [label="gini = 0.626\nsamples = 317614\nvalue = [56744, 264443, 0, 143086, 71, 6968, 31837]"] ;
115 -> 116 ;
117 [label="gini = 0.565\nsamples = 82909\nvalue = [12106, 79889, 0, 29004, 0, 69, 9894]"] ;
115 -> 117 ;
118 [label="X[3] <= 75.5\ngini = 0.658\nsamples = 809825\nvalue = [130081, 606791, 10, 403432, 359, 23343, 117709]"] ;
114 -> 118 ;
119 [label="gini = 0.662\nsamples = 730341\nvalue = [118163, 536561, 10, 371841, 299, 21125, 107872]"] ;
118 -> 119 ;
120 [label="gini = 0.61\nsamples = 79484\nvalue = [11918, 70230, 0, 31591, 60, 2218, 9837]"] ;
118 -> 120 ;
121 [label="X[3] <= 45.5\ngini = 0.703\nsamples = 89277\nvalue = [33285, 48998, 0, 47608, 107, 1747, 8745]"] ;
89 -> 121 ;
122 [label="X[2] <= 128.5\ngini = 0.65\nsamples = 24568\nvalue = [8675, 8846, 0, 19198, 7, 265, 1722]"] ;
121 -> 122 ;
123 [label="X[10] <= 231.5\ngini = 0.621\nsamples = 17412\nvalue = [5957, 5006, 0, 14900, 0, 174, 1362]"] ;
122 -> 123 ;
124 [label="X[10] <= 230.5\ngini = 0.572\nsamples = 4831\nvalue = [1623, 599, 0, 4598, 0, 83, 682]"] ;
123 -> 124 ;
125 [label="gini = 0.572\nsamples = 3969\nvalue = [1319, 401, 0, 3786, 0, 76, 657]"] ;
124 -> 125 ;
126 [label="gini = 0.563\nsamples = 862\nvalue = [304, 198, 0, 812, 0, 7, 25]"] ;
124 -> 126 ;
127 [label="X[4] <= 2.5\ngini = 0.631\nsamples = 12581\nvalue = [4334, 4407, 0, 10302, 0, 91, 680]"] ;
123 -> 127 ;
128 [label="gini = 0.587\nsamples = 1675\nvalue = [303, 658, 0, 1516, 0, 2, 147]"] ;
127 -> 128 ;
129 [label="gini = 0.635\nsamples = 10906\nvalue = [4031, 3749, 0, 8786, 0, 89, 533]"] ;
127 -> 129 ;
130 [label="X[4] <= 2.5\ngini = 0.682\nsamples = 7156\nvalue = [2718, 3840, 0, 4298, 7, 91, 360]"] ;
122 -> 130 ;
131 [label="X[0] <= 4.5\ngini = 0.592\nsamples = 2094\nvalue = [457, 1883, 0, 877, 0, 6, 110]"] ;
130 -> 131 ;
132 [label="gini = 0.521\nsamples = 1675\nvalue = [215, 1715, 0, 653, 0, 3, 88]"] ;
131 -> 132 ;
133 [label="gini = 0.683\nsamples = 419\nvalue = [242, 168, 0, 224, 0, 3, 22]"] ;
131 -> 133 ;
134 [label="X[8] <= 2.5\ngini = 0.675\nsamples = 5062\nvalue = [2261, 1957, 0, 3421, 7, 85, 250]"] ;
130 -> 134 ;
135 [label="gini = 0.529\nsamples = 3680\nvalue = [66, 1957, 0, 3421, 0, 61, 250]"] ;
134 -> 135 ;
136 [label="gini = 0.028\nsamples = 1382\nvalue = [2195, 0, 0, 0, 7, 24, 0]"] ;
134 -> 136 ;
137 [label="X[8] <= 2.5\ngini = 0.703\nsamples = 64709\nvalue = [24610, 40152, 0, 28410, 100, 1482, 7023]"] ;
121 -> 137 ;
138 [label="X[8] <= 1.5\ngini = 0.607\nsamples = 50420\nvalue = [2724, 40152, 0, 28410, 0, 1070, 7023]"] ;
137 -> 138 ;
139 [label="gini = 0.0\nsamples = 1727\nvalue = [2724, 0, 0, 0, 0, 0, 0]"] ;
138 -> 139 ;
140 [label="X[7] <= 110.5\ngini = 0.58\nsamples = 48693\nvalue = [0, 40152, 0, 28410, 0, 1070, 7023]"] ;
138 -> 140 ;
141 [label="gini = 0.31\nsamples = 9482\nvalue = [0, 12241, 0, 1499, 0, 132, 1021]"] ;
140 -> 141 ;
142 [label="gini = 0.596\nsamples = 39211\nvalue = [0, 27911, 0, 26911, 0, 938, 6002]"] ;
140 -> 142 ;
143 [label="X[7] <= 180.5\ngini = 0.045\nsamples = 14289\nvalue = [21886, 0, 0, 0, 100, 412, 0]"] ;
137 -> 143 ;
144 [label="X[10] <= 60.5\ngini = 0.072\nsamples = 8336\nvalue = [12581, 0, 0, 0, 97, 389, 0]"] ;
143 -> 144 ;
145 [label="gini = 0.15\nsamples = 2389\nvalue = [3435, 0, 0, 0, 57, 244, 0]"] ;
144 -> 145 ;
146 [label="gini = 0.039\nsamples = 5947\nvalue = [9146, 0, 0, 0, 40, 145, 0]"] ;
144 -> 146 ;
147 [label="X[2] <= 128.5\ngini = 0.006\nsamples = 5953\nvalue = [9305, 0, 0, 0, 3, 23, 0]"] ;
143 -> 147 ;
148 [label="gini = 0.011\nsamples = 2312\nvalue = [3632, 0, 0, 0, 2, 19, 0]"] ;
147 -> 148 ;
149 [label="gini = 0.002\nsamples = 3641\nvalue = [5673, 0, 0, 0, 1, 4, 0]"] ;
147 -> 149 ;
150 [label="X[3] <= 70.5\ngini = 0.067\nsamples = 46532\nvalue = [71072, 0, 17, 120, 814, 1543, 26]"] ;
0 -> 150 [labeldistance=2.5, labelangle=-45, headlabel="False"] ;
151 [label="X[8] <= 2.5\ngini = 0.057\nsamples = 37092\nvalue = [57176, 0, 13, 116, 510, 1038, 26]"] ;
150 -> 151 ;
152 [label="X[9] <= 1.5\ngini = 0.605\nsamples = 128\nvalue = [65, 0, 0, 116, 0, 9, 26]"] ;
151 -> 152 ;
153 [label="X[7] <= 90.0\ngini = 0.159\nsamples = 13\nvalue = [21, 0, 0, 2, 0, 0, 0]"] ;
152 -> 153 ;
154 [label="gini = 0.0\nsamples = 9\nvalue = [18, 0, 0, 0, 0, 0, 0]"] ;
153 -> 154 ;
155 [label="X[0] <= 0.5\ngini = 0.48\nsamples = 4\nvalue = [3, 0, 0, 2, 0, 0, 0]"] ;
153 -> 155 ;
156 [label="X[10] <= 229.0\ngini = 0.444\nsamples = 3\nvalue = [1, 0, 0, 2, 0, 0, 0]"] ;
155 -> 156 ;
157 [label="gini = 0.0\nsamples = 1\nvalue = [0, 0, 0, 1, 0, 0, 0]"] ;
156 -> 157 ;
158 [label="X[4] <= 8.5\ngini = 0.5\nsamples = 2\nvalue = [1, 0, 0, 1, 0, 0, 0]"] ;
156 -> 158 ;
159 [label="gini = 0.0\nsamples = 1\nvalue = [0, 0, 0, 1, 0, 0, 0]"] ;
158 -> 159 ;
160 [label="gini = 0.0\nsamples = 1\nvalue = [1, 0, 0, 0, 0, 0, 0]"] ;
158 -> 160 ;
161 [label="gini = 0.0\nsamples = 1\nvalue = [2, 0, 0, 0, 0, 0, 0]"] ;
155 -> 161 ;
162 [label="X[0] <= 0.5\ngini = 0.579\nsamples = 115\nvalue = [44, 0, 0, 114, 0, 9, 26]"] ;
152 -> 162 ;
163 [label="X[10] <= 201.5\ngini = 0.688\nsamples = 71\nvalue = [42, 0, 0, 42, 0, 7, 25]"] ;
162 -> 163 ;
164 [label="gini = 0.0\nsamples = 25\nvalue = [41, 0, 0, 0, 0, 0, 0]"] ;
163 -> 164 ;
165 [label="X[6] <= 7.5\ngini = 0.566\nsamples = 46\nvalue = [1, 0, 0, 42, 0, 7, 25]"] ;
163 -> 165 ;
166 [label="X[4] <= 8.5\ngini = 0.415\nsamples = 23\nvalue = [1, 0, 0, 1, 0, 7, 25]"] ;
165 -> 166 ;
167 [label="gini = 0.261\nsamples = 17\nvalue = [0, 0, 0, 1, 0, 3, 23]"] ;
166 -> 167 ;
168 [label="gini = 0.571\nsamples = 6\nvalue = [1, 0, 0, 0, 0, 4, 2]"] ;
166 -> 168 ;
169 [label="gini = 0.0\nsamples = 23\nvalue = [0, 0, 0, 41, 0, 0, 0]"] ;
165 -> 169 ;
170 [label="X[6] <= 42.5\ngini = 0.124\nsamples = 44\nvalue = [2, 0, 0, 72, 0, 2, 1]"] ;
162 -> 170 ;
171 [label="X[3] <= 59.5\ngini = 0.722\nsamples = 4\nvalue = [2, 0, 0, 1, 0, 2, 1]"] ;
170 -> 171 ;
172 [label="X[10] <= 206.5\ngini = 0.625\nsamples = 3\nvalue = [0, 0, 0, 1, 0, 2, 1]"] ;
171 -> 172 ;
173 [label="gini = 0.0\nsamples = 1\nvalue = [0, 0, 0, 0, 0, 2, 0]"] ;
172 -> 173 ;
174 [label="gini = 0.5\nsamples = 2\nvalue = [0, 0, 0, 1, 0, 0, 1]"] ;
172 -> 174 ;
175 [label="gini = 0.0\nsamples = 1\nvalue = [2, 0, 0, 0, 0, 0, 0]"] ;
171 -> 175 ;
176 [label="gini = 0.0\nsamples = 40\nvalue = [0, 0, 0, 71, 0, 0, 0]"] ;
170 -> 176 ;
177 [label="X[0] <= 59.5\ngini = 0.052\nsamples = 36964\nvalue = [57111, 0, 13, 0, 510, 1029, 0]"] ;
151 -> 177 ;
178 [label="X[3] <= 40.5\ngini = 0.052\nsamples = 36959\nvalue = [57107, 0, 13, 0, 507, 1029, 0]"] ;
177 -> 178 ;
179 [label="X[1] <= 5.5\ngini = 0.165\nsamples = 560\nvalue = [795, 0, 0, 0, 2, 77, 0]"] ;
178 -> 179 ;
180 [label="X[4] <= 6.5\ngini = 0.199\nsamples = 455\nvalue = [628, 0, 0, 0, 2, 77, 0]"] ;
179 -> 180 ;
181 [label="X[2] <= 137.5\ngini = 0.076\nsamples = 115\nvalue = [171, 0, 0, 0, 2, 5, 0]"] ;
180 -> 181 ;
182 [label="gini = 0.056\nsamples = 113\nvalue = [170, 0, 0, 0, 0, 5, 0]"] ;
181 -> 182 ;
183 [label="gini = 0.444\nsamples = 2\nvalue = [1, 0, 0, 0, 2, 0, 0]"] ;
181 -> 183 ;
184 [label="X[9] <= 2.5\ngini = 0.235\nsamples = 340\nvalue = [457, 0, 0, 0, 0, 72, 0]"] ;
180 -> 184 ;
185 [label="gini = 0.03\nsamples = 86\nvalue = [129, 0, 0, 0, 0, 2, 0]"] ;
184 -> 185 ;
186 [label="gini = 0.29\nsamples = 254\nvalue = [328, 0, 0, 0, 0, 70, 0]"] ;
184 -> 186 ;
187 [label="gini = 0.0\nsamples = 105\nvalue = [167, 0, 0, 0, 0, 0, 0]"] ;
179 -> 187 ;
188 [label="X[2] <= 120.5\ngini = 0.05\nsamples = 36399\nvalue = [56312, 0, 13, 0, 505, 952, 0]"] ;
178 -> 188 ;
189 [label="X[7] <= 155.5\ngini = 0.103\nsamples = 3276\nvalue = [4944, 0, 0, 0, 84, 197, 0]"] ;
188 -> 189 ;
190 [label="X[9] <= 2.5\ngini = 0.091\nsamples = 2454\nvalue = [3734, 0, 0, 0, 41, 144, 0]"] ;
189 -> 190 ;
191 [label="gini = 0.069\nsamples = 1140\nvalue = [1742, 0, 0, 0, 17, 47, 0]"] ;
190 -> 191 ;
192 [label="gini = 0.109\nsamples = 1314\nvalue = [1992, 0, 0, 0, 24, 97, 0]"] ;
190 -> 192 ;
193 [label="X[0] <= 0.5\ngini = 0.139\nsamples = 822\nvalue = [1210, 0, 0, 0, 43, 53, 0]"] ;
189 -> 193 ;
194 [label="gini = 0.163\nsamples = 651\nvalue = [940, 0, 0, 0, 42, 48, 0]"] ;
193 -> 194 ;
195 [label="gini = 0.043\nsamples = 171\nvalue = [270, 0, 0, 0, 1, 5, 0]"] ;
193 -> 195 ;
196 [label="X[6] <= 12.5\ngini = 0.044\nsamples = 33123\nvalue = [51368, 0, 13, 0, 421, 755, 0]"] ;
188 -> 196 ;
197 [label="X[9] <= 2.5\ngini = 0.036\nsamples = 13692\nvalue = [21352, 0, 2, 0, 187, 209, 0]"] ;
196 -> 197 ;
198 [label="gini = 0.043\nsamples = 7409\nvalue = [11436, 0, 2, 0, 160, 96, 0]"] ;
197 -> 198 ;
199 [label="gini = 0.028\nsamples = 6283\nvalue = [9916, 0, 0, 0, 27, 113, 0]"] ;
197 -> 199 ;
200 [label="X[3] <= 69.5\ngini = 0.05\nsamples = 19431\nvalue = [30016, 0, 11, 0, 234, 546, 0]"] ;
196 -> 200 ;
201 [label="gini = 0.054\nsamples = 17412\nvalue = [26825, 0, 11, 0, 216, 538, 0]"] ;
200 -> 201 ;
202 [label="gini = 0.016\nsamples = 2019\nvalue = [3191, 0, 0, 0, 18, 8, 0]"] ;
200 -> 202 ;
203 [label="X[4] <= 7.0\ngini = 0.49\nsamples = 5\nvalue = [4, 0, 0, 0, 3, 0, 0]"] ;
177 -> 203 ;
204 [label="gini = 0.0\nsamples = 3\nvalue = [4, 0, 0, 0, 0, 0, 0]"] ;
203 -> 204 ;
205 [label="gini = 0.0\nsamples = 2\nvalue = [0, 0, 0, 0, 3, 0, 0]"] ;
203 -> 205 ;
206 [label="X[9] <= 2.5\ngini = 0.106\nsamples = 9440\nvalue = [13896, 0, 4, 4, 304, 505, 0]"] ;
150 -> 206 ;
207 [label="X[8] <= 2.5\ngini = 0.122\nsamples = 4893\nvalue = [7096, 0, 4, 3, 279, 199, 0]"] ;
206 -> 207 ;
208 [label="X[10] <= 30.0\ngini = 0.48\nsamples = 3\nvalue = [2, 0, 0, 3, 0, 0, 0]"] ;
207 -> 208 ;
209 [label="gini = 0.0\nsamples = 2\nvalue = [2, 0, 0, 0, 0, 0, 0]"] ;
208 -> 209 ;
210 [label="gini = 0.0\nsamples = 1\nvalue = [0, 0, 0, 3, 0, 0, 0]"] ;
208 -> 210 ;
211 [label="X[4] <= 9.5\ngini = 0.121\nsamples = 4890\nvalue = [7094, 0, 4, 0, 279, 199, 0]"] ;
207 -> 211 ;
212 [label="X[2] <= 127.5\ngini = 0.142\nsamples = 2902\nvalue = [4149, 0, 0, 0, 225, 113, 0]"] ;
211 -> 212 ;
213 [label="X[2] <= 123.5\ngini = 0.057\nsamples = 537\nvalue = [825, 0, 0, 0, 20, 5, 0]"] ;
212 -> 213 ;
214 [label="X[4] <= 5.5\ngini = 0.094\nsamples = 215\nvalue = [328, 0, 0, 0, 15, 2, 0]"] ;
213 -> 214 ;
215 [label="gini = 0.124\nsamples = 125\nvalue = [182, 0, 0, 0, 13, 0, 0]"] ;
214 -> 215 ;
216 [label="gini = 0.052\nsamples = 90\nvalue = [146, 0, 0, 0, 2, 2, 0]"] ;
214 -> 216 ;
217 [label="X[0] <= 3.5\ngini = 0.031\nsamples = 322\nvalue = [497, 0, 0, 0, 5, 3, 0]"] ;
213 -> 217 ;
218 [label="gini = 0.017\nsamples = 301\nvalue = [462, 0, 0, 0, 3, 1, 0]"] ;
217 -> 218 ;
219 [label="gini = 0.189\nsamples = 21\nvalue = [35, 0, 0, 0, 2, 2, 0]"] ;
217 -> 219 ;
220 [label="X[7] <= 85.0\ngini = 0.161\nsamples = 2365\nvalue = [3324, 0, 0, 0, 205, 108, 0]"] ;
212 -> 220 ;
221 [label="X[0] <= 21.0\ngini = 0.086\nsamples = 747\nvalue = [1117, 0, 0, 0, 34, 18, 0]"] ;
220 -> 221 ;
222 [label="gini = 0.083\nsamples = 746\nvalue = [1117, 0, 0, 0, 34, 16, 0]"] ;
221 -> 222 ;
223 [label="gini = 0.0\nsamples = 1\nvalue = [0, 0, 0, 0, 0, 2, 0]"] ;
221 -> 223 ;
224 [label="X[10] <= 50.5\ngini = 0.194\nsamples = 1618\nvalue = [2207, 0, 0, 0, 171, 90, 0]"] ;
220 -> 224 ;
225 [label="gini = 0.174\nsamples = 1216\nvalue = [1687, 0, 0, 0, 95, 79, 0]"] ;
224 -> 225 ;
226 [label="gini = 0.25\nsamples = 402\nvalue = [520, 0, 0, 0, 76, 11, 0]"] ;
224 -> 226 ;
227 [label="X[7] <= 164.5\ngini = 0.09\nsamples = 1988\nvalue = [2945, 0, 4, 0, 54, 86, 0]"] ;
211 -> 227 ;
228 [label="X[6] <= 19.5\ngini = 0.107\nsamples = 1575\nvalue = [2309, 0, 4, 0, 47, 85, 0]"] ;
227 -> 228 ;
229 [label="X[2] <= 130.5\ngini = 0.153\nsamples = 621\nvalue = [889, 0, 4, 0, 20, 55, 0]"] ;
228 -> 229 ;
230 [label="gini = 0.284\nsamples = 241\nvalue = [316, 0, 4, 0, 18, 39, 0]"] ;
229 -> 230 ;
231 [label="gini = 0.059\nsamples = 380\nvalue = [573, 0, 0, 0, 2, 16, 0]"] ;
229 -> 231 ;
232 [label="X[9] <= 1.5\ngini = 0.075\nsamples = 954\nvalue = [1420, 0, 0, 0, 27, 30, 0]"] ;
228 -> 232 ;
233 [label="gini = 0.144\nsamples = 219\nvalue = [310, 0, 0, 0, 24, 2, 0]"] ;
232 -> 233 ;
234 [label="gini = 0.053\nsamples = 735\nvalue = [1110, 0, 0, 0, 3, 28, 0]"] ;
232 -> 234 ;
235 [label="X[6] <= 32.5\ngini = 0.025\nsamples = 413\nvalue = [636, 0, 0, 0, 7, 1, 0]"] ;
227 -> 235 ;
236 [label="gini = 0.0\nsamples = 308\nvalue = [481, 0, 0, 0, 0, 0, 0]"] ;
235 -> 236 ;
237 [label="X[2] <= 125.0\ngini = 0.094\nsamples = 105\nvalue = [155, 0, 0, 0, 7, 1, 0]"] ;
235 -> 237 ;
238 [label="gini = 0.444\nsamples = 2\nvalue = [1, 0, 0, 0, 2, 0, 0]"] ;
237 -> 238 ;
239 [label="gini = 0.073\nsamples = 103\nvalue = [154, 0, 0, 0, 5, 1, 0]"] ;
237 -> 239 ;
240 [label="X[3] <= 76.5\ngini = 0.089\nsamples = 4547\nvalue = [6800, 0, 0, 1, 25, 306, 0]"] ;
206 -> 240 ;
241 [label="X[5] <= 0.5\ngini = 0.057\nsamples = 3724\nvalue = [5620, 0, 0, 1, 24, 143, 0]"] ;
240 -> 241 ;
242 [label="X[6] <= 37.0\ngini = 0.034\nsamples = 1234\nvalue = [1904, 0, 0, 1, 5, 27, 0]"] ;
241 -> 242 ;
243 [label="X[8] <= 2.5\ngini = 0.024\nsamples = 1025\nvalue = [1608, 0, 0, 1, 5, 14, 0]"] ;
242 -> 243 ;
244 [label="X[4] <= 2.5\ngini = 0.5\nsamples = 2\nvalue = [1, 0, 0, 1, 0, 0, 0]"] ;
243 -> 244 ;
245 [label="gini = 0.0\nsamples = 1\nvalue = [0, 0, 0, 1, 0, 0, 0]"] ;
244 -> 245 ;
246 [label="gini = 0.0\nsamples = 1\nvalue = [1, 0, 0, 0, 0, 0, 0]"] ;
244 -> 246 ;
247 [label="X[3] <= 72.5\ngini = 0.023\nsamples = 1023\nvalue = [1607, 0, 0, 0, 5, 14, 0]"] ;
243 -> 247 ;
248 [label="gini = 0.007\nsamples = 378\nvalue = [607, 0, 0, 0, 0, 2, 0]"] ;
247 -> 248 ;
249 [label="gini = 0.033\nsamples = 645\nvalue = [1000, 0, 0, 0, 5, 12, 0]"] ;
247 -> 249 ;
250 [label="X[10] <= 74.5\ngini = 0.081\nsamples = 209\nvalue = [296, 0, 0, 0, 0, 13, 0]"] ;
242 -> 250 ;
251 [label="X[3] <= 75.0\ngini = 0.023\nsamples = 172\nvalue = [252, 0, 0, 0, 0, 3, 0]"] ;
250 -> 251 ;
252 [label="gini = 0.016\nsamples = 167\nvalue = [241, 0, 0, 0, 0, 2, 0]"] ;
251 -> 252 ;
253 [label="gini = 0.153\nsamples = 5\nvalue = [11, 0, 0, 0, 0, 1, 0]"] ;
251 -> 253 ;
254 [label="X[4] <= 4.5\ngini = 0.302\nsamples = 37\nvalue = [44, 0, 0, 0, 0, 10, 0]"] ;
250 -> 254 ;
255 [label="gini = 0.0\nsamples = 17\nvalue = [21, 0, 0, 0, 0, 0, 0]"] ;
254 -> 255 ;
256 [label="gini = 0.422\nsamples = 20\nvalue = [23, 0, 0, 0, 0, 10, 0]"] ;
254 -> 256 ;
257 [label="X[1] <= 36.5\ngini = 0.068\nsamples = 2490\nvalue = [3716, 0, 0, 0, 19, 116, 0]"] ;
241 -> 257 ;
258 [label="X[4] <= 3.5\ngini = 0.072\nsamples = 2331\nvalue = [3479, 0, 0, 0, 19, 115, 0]"] ;
257 -> 258 ;
259 [label="X[10] <= 79.5\ngini = 0.134\nsamples = 436\nvalue = [644, 0, 0, 0, 0, 50, 0]"] ;
258 -> 259 ;
260 [label="gini = 0.114\nsamples = 400\nvalue = [601, 0, 0, 0, 0, 39, 0]"] ;
259 -> 260 ;
261 [label="gini = 0.324\nsamples = 36\nvalue = [43, 0, 0, 0, 0, 11, 0]"] ;
259 -> 261 ;
262 [label="X[2] <= 129.5\ngini = 0.056\nsamples = 1895\nvalue = [2835, 0, 0, 0, 19, 65, 0]"] ;
258 -> 262 ;
263 [label="gini = 0.075\nsamples = 574\nvalue = [868, 0, 0, 0, 4, 31, 0]"] ;
262 -> 263 ;
264 [label="gini = 0.048\nsamples = 1321\nvalue = [1967, 0, 0, 0, 15, 34, 0]"] ;
262 -> 264 ;
265 [label="X[7] <= 116.0\ngini = 0.008\nsamples = 159\nvalue = [237, 0, 0, 0, 0, 1, 0]"] ;
257 -> 265 ;
266 [label="gini = 0.0\nsamples = 117\nvalue = [174, 0, 0, 0, 0, 0, 0]"] ;
265 -> 266 ;
267 [label="X[3] <= 71.5\ngini = 0.031\nsamples = 42\nvalue = [63, 0, 0, 0, 0, 1, 0]"] ;
265 -> 267 ;
268 [label="gini = 0.153\nsamples = 9\nvalue = [11, 0, 0, 0, 0, 1, 0]"] ;
267 -> 268 ;
269 [label="gini = 0.0\nsamples = 33\nvalue = [52, 0, 0, 0, 0, 0, 0]"] ;
267 -> 269 ;
270 [label="X[1] <= 3.5\ngini = 0.214\nsamples = 823\nvalue = [1180, 0, 0, 0, 1, 163, 0]"] ;
240 -> 270 ;
271 [label="X[1] <= 1.5\ngini = 0.387\nsamples = 380\nvalue = [453, 0, 0, 0, 0, 161, 0]"] ;
270 -> 271 ;
272 [label="X[7] <= 177.0\ngini = 0.059\nsamples = 151\nvalue = [225, 0, 0, 0, 0, 7, 0]"] ;
271 -> 272 ;
273 [label="X[7] <= 112.0\ngini = 0.044\nsamples = 145\nvalue = [217, 0, 0, 0, 0, 5, 0]"] ;
272 -> 273 ;
274 [label="gini = 0.0\nsamples = 65\nvalue = [104, 0, 0, 0, 0, 0, 0]"] ;
273 -> 274 ;
275 [label="gini = 0.081\nsamples = 80\nvalue = [113, 0, 0, 0, 0, 5, 0]"] ;
273 -> 275 ;
276 [label="X[10] <= 7.5\ngini = 0.32\nsamples = 6\nvalue = [8, 0, 0, 0, 0, 2, 0]"] ;
272 -> 276 ;
277 [label="gini = 0.0\nsamples = 2\nvalue = [4, 0, 0, 0, 0, 0, 0]"] ;
276 -> 277 ;
278 [label="gini = 0.444\nsamples = 4\nvalue = [4, 0, 0, 0, 0, 2, 0]"] ;
276 -> 278 ;
279 [label="X[4] <= 2.5\ngini = 0.481\nsamples = 229\nvalue = [228, 0, 0, 0, 0, 154, 0]"] ;
271 -> 279 ;
280 [label="X[5] <= 0.5\ngini = 0.165\nsamples = 113\nvalue = [170, 0, 0, 0, 0, 17, 0]"] ;
279 -> 280 ;
281 [label="gini = 0.026\nsamples = 49\nvalue = [76, 0, 0, 0, 0, 1, 0]"] ;
280 -> 281 ;
282 [label="gini = 0.249\nsamples = 64\nvalue = [94, 0, 0, 0, 0, 16, 0]"] ;
280 -> 282 ;
283 [label="X[4] <= 3.5\ngini = 0.418\nsamples = 116\nvalue = [58, 0, 0, 0, 0, 137, 0]"] ;
279 -> 283 ;
284 [label="gini = 0.043\nsamples = 78\nvalue = [3, 0, 0, 0, 0, 135, 0]"] ;
283 -> 284 ;
285 [label="gini = 0.068\nsamples = 38\nvalue = [55, 0, 0, 0, 0, 2, 0]"] ;
283 -> 285 ;
286 [label="X[0] <= 0.5\ngini = 0.008\nsamples = 443\nvalue = [727, 0, 0, 0, 1, 2, 0]"] ;
270 -> 286 ;
287 [label="X[7] <= 37.0\ngini = 0.006\nsamples = 413\nvalue = [669, 0, 0, 0, 1, 1, 0]"] ;
286 -> 287 ;
288 [label="gini = 0.0\nsamples = 1\nvalue = [0, 0, 0, 0, 0, 1, 0]"] ;
287 -> 288 ;
289 [label="X[4] <= 3.5\ngini = 0.003\nsamples = 412\nvalue = [669, 0, 0, 0, 1, 0, 0]"] ;
287 -> 289 ;
290 [label="gini = 0.0\nsamples = 321\nvalue = [516, 0, 0, 0, 0, 0, 0]"] ;
289 -> 290 ;
291 [label="gini = 0.013\nsamples = 91\nvalue = [153, 0, 0, 0, 1, 0, 0]"] ;
289 -> 291 ;
292 [label="X[10] <= 6.5\ngini = 0.033\nsamples = 30\nvalue = [58, 0, 0, 0, 0, 1, 0]"] ;
286 -> 292 ;
293 [label="X[2] <= 132.5\ngini = 0.18\nsamples = 6\nvalue = [9, 0, 0, 0, 0, 1, 0]"] ;
292 -> 293 ;
294 [label="gini = 0.198\nsamples = 5\nvalue = [8, 0, 0, 0, 0, 1, 0]"] ;
293 -> 294 ;
295 [label="gini = 0.0\nsamples = 1\nvalue = [1, 0, 0, 0, 0, 0, 0]"] ;
293 -> 295 ;
296 [label="gini = 0.0\nsamples = 24\nvalue = [49, 0, 0, 0, 0, 0, 0]"] ;
292 -> 296 ;
}