digraph Tree {
node [shape=box] ;
0 [label="X[5] <= 0.5\ngini = 0.767\nsamples = 11106340\nvalue = [3319248, 5200390, 1921, 5143966, 28518, 1814080, 2061026]"] ;
1 [label="X[8] <= 1.5\ngini = 0.774\nsamples = 1440220\nvalue = [373116, 393407, 819, 778337, 4336, 311920, 414943]"] ;
0 -> 1 [labeldistance=2.5, labelangle=45, headlabel="True"] ;
2 [label="gini = 0.0\nsamples = 136575\nvalue = [215796, 0, 0, 0, 0, 0, 0]"] ;
1 -> 2 ;
3 [label="X[9] <= 2.5\ngini = 0.752\nsamples = 1303645\nvalue = [157320, 393407, 819, 778337, 4336, 311920, 414943]"] ;
1 -> 3 ;
4 [label="X[9] <= 0.5\ngini = 0.735\nsamples = 699757\nvalue = [62305, 209070, 143, 436182, 3828, 262022, 133530]"] ;
3 -> 4 ;
5 [label="X[3] <= 74.5\ngini = 0.682\nsamples = 71962\nvalue = [12385, 13733, 23, 40432, 2, 890, 46244]"] ;
4 -> 5 ;
6 [label="X[3] <= 58.5\ngini = 0.697\nsamples = 43561\nvalue = [7045, 11333, 14, 27774, 2, 587, 22125]"] ;
5 -> 6 ;
7 [label="X[8] <= 2.5\ngini = 0.744\nsamples = 4400\nvalue = [1574, 1885, 1, 2198, 2, 73, 1219]"] ;
6 -> 7 ;
8 [label="X[6] <= 16.5\ngini = 0.649\nsamples = 3343\nvalue = [0, 1885, 0, 2198, 0, 0, 1219]"] ;
7 -> 8 ;
9 [label="gini = 0.089\nsamples = 26\nvalue = [0, 41, 0, 2, 0, 0, 0]"] ;
8 -> 9 ;
10 [label="gini = 0.649\nsamples = 3317\nvalue = [0, 1844, 0, 2196, 0, 0, 1219]"] ;
8 -> 10 ;
11 [label="X[7] <= 5.5\ngini = 0.088\nsamples = 1057\nvalue = [1574, 0, 1, 0, 2, 73, 0]"] ;
7 -> 11 ;
12 [label="gini = 0.518\nsamples = 34\nvalue = [26, 0, 1, 0, 0, 23, 0]"] ;
11 -> 12 ;
13 [label="gini = 0.063\nsamples = 1023\nvalue = [1548, 0, 0, 0, 2, 50, 0]"] ;
11 -> 13 ;
14 [label="X[10] <= 47.5\ngini = 0.684\nsamples = 39161\nvalue = [5471, 9448, 13, 25576, 0, 514, 20906]"] ;
6 -> 14 ;
15 [label="X[7] <= 170.5\ngini = 0.693\nsamples = 6750\nvalue = [809, 3140, 4, 4398, 0, 64, 2270]"] ;
14 -> 15 ;
16 [label="gini = 0.705\nsamples = 2905\nvalue = [462, 1711, 0, 1553, 0, 32, 852]"] ;
15 -> 16 ;
17 [label="gini = 0.668\nsamples = 3845\nvalue = [347, 1429, 4, 2845, 0, 32, 1418]"] ;
15 -> 17 ;
18 [label="X[8] <= 2.5\ngini = 0.673\nsamples = 32411\nvalue = [4662, 6308, 9, 21178, 0, 450, 18636]"] ;
14 -> 18 ;
19 [label="gini = 0.607\nsamples = 29177\nvalue = [0, 6308, 0, 21178, 0, 0, 18636]"] ;
18 -> 19 ;
20 [label="gini = 0.164\nsamples = 3234\nvalue = [4662, 0, 9, 0, 0, 450, 0]"] ;
18 -> 20 ;
21 [label="X[1] <= 0.5\ngini = 0.614\nsamples = 28401\nvalue = [5340, 2400, 9, 12658, 0, 303, 24119]"] ;
5 -> 21 ;
22 [label="X[6] <= 12.5\ngini = 0.612\nsamples = 28296\nvalue = [5184, 2400, 9, 12658, 0, 300, 24119]"] ;
21 -> 22 ;
23 [label="X[8] <= 2.5\ngini = 0.669\nsamples = 11182\nvalue = [1958, 1739, 5, 7454, 0, 126, 6368]"] ;
22 -> 23 ;
24 [label="gini = 0.591\nsamples = 9831\nvalue = [0, 1739, 0, 7454, 0, 0, 6368]"] ;
23 -> 24 ;
25 [label="gini = 0.118\nsamples = 1351\nvalue = [1958, 0, 5, 0, 0, 126, 0]"] ;
23 -> 25 ;
26 [label="X[8] <= 2.5\ngini = 0.516\nsamples = 17114\nvalue = [3226, 661, 4, 5204, 0, 174, 17751]"] ;
22 -> 26 ;
27 [label="gini = 0.386\nsamples = 14979\nvalue = [0, 661, 0, 5204, 0, 0, 17751]"] ;
26 -> 27 ;
28 [label="gini = 0.099\nsamples = 2135\nvalue = [3226, 0, 4, 0, 0, 174, 0]"] ;
26 -> 28 ;
29 [label="X[6] <= 12.5\ngini = 0.037\nsamples = 105\nvalue = [156, 0, 0, 0, 0, 3, 0]"] ;
21 -> 29 ;
30 [label="gini = 0.0\nsamples = 81\nvalue = [126, 0, 0, 0, 0, 0, 0]"] ;
29 -> 30 ;
31 [label="X[3] <= 76.0\ngini = 0.165\nsamples = 24\nvalue = [30, 0, 0, 0, 0, 3, 0]"] ;
29 -> 31 ;
32 [label="gini = 0.18\nsamples = 23\nvalue = [27, 0, 0, 0, 0, 3, 0]"] ;
31 -> 32 ;
33 [label="gini = 0.0\nsamples = 1\nvalue = [3, 0, 0, 0, 0, 0, 0]"] ;
31 -> 33 ;
34 [label="X[9] <= 1.5\ngini = 0.723\nsamples = 627795\nvalue = [49920, 195337, 120, 395750, 3826, 261132, 87286]"] ;
4 -> 34 ;
35 [label="X[6] <= 30.5\ngini = 0.685\nsamples = 201836\nvalue = [16275, 57727, 5, 125255, 1345, 113498, 5426]"] ;
34 -> 35 ;
36 [label="X[4] <= 7.5\ngini = 0.685\nsamples = 134350\nvalue = [10582, 36942, 4, 87360, 719, 71449, 5426]"] ;
35 -> 36 ;
37 [label="X[10] <= 29.5\ngini = 0.713\nsamples = 9910\nvalue = [1760, 2712, 0, 5411, 4, 225, 5426]"] ;
36 -> 37 ;
38 [label="gini = 0.64\nsamples = 3451\nvalue = [562, 414, 0, 1654, 0, 80, 2705]"] ;
37 -> 38 ;
39 [label="gini = 0.724\nsamples = 6459\nvalue = [1198, 2298, 0, 3757, 4, 145, 2721]"] ;
37 -> 39 ;
40 [label="X[0] <= 0.5\ngini = 0.664\nsamples = 124440\nvalue = [8822, 34230, 4, 81949, 715, 71224, 0]"] ;
36 -> 40 ;
41 [label="gini = 0.655\nsamples = 91300\nvalue = [6884, 21086, 3, 56238, 683, 59609, 0]"] ;
40 -> 41 ;
42 [label="gini = 0.646\nsamples = 33140\nvalue = [1938, 13144, 1, 25711, 32, 11615, 0]"] ;
40 -> 42 ;
43 [label="X[4] <= 11.5\ngini = 0.68\nsamples = 67486\nvalue = [5693, 20785, 1, 37895, 626, 42049, 0]"] ;
35 -> 43 ;
44 [label="X[0] <= 0.5\ngini = 0.672\nsamples = 60152\nvalue = [5264, 16320, 1, 34020, 589, 39228, 0]"] ;
43 -> 44 ;
45 [label="gini = 0.654\nsamples = 44515\nvalue = [4109, 10424, 0, 22299, 562, 33150, 0]"] ;
44 -> 45 ;
46 [label="gini = 0.66\nsamples = 15637\nvalue = [1155, 5896, 1, 11721, 27, 6078, 0]"] ;
44 -> 46 ;
47 [label="X[0] <= 0.5\ngini = 0.681\nsamples = 7334\nvalue = [429, 4465, 0, 3875, 37, 2821, 0]"] ;
43 -> 47 ;
48 [label="gini = 0.673\nsamples = 3544\nvalue = [340, 966, 0, 1864, 34, 2379, 0]"] ;
47 -> 48 ;
49 [label="gini = 0.549\nsamples = 3790\nvalue = [89, 3499, 0, 2011, 3, 442, 0]"] ;
47 -> 49 ;
50 [label="X[10] <= 29.5\ngini = 0.732\nsamples = 425959\nvalue = [33645, 137610, 115, 270495, 2481, 147634, 81860]"] ;
34 -> 50 ;
51 [label="X[8] <= 2.5\ngini = 0.745\nsamples = 51451\nvalue = [4464, 9658, 53, 26871, 399, 25285, 14515]"] ;
50 -> 51 ;
52 [label="X[4] <= 11.5\ngini = 0.714\nsamples = 48276\nvalue = [0, 9658, 0, 26871, 0, 25166, 14515]"] ;
51 -> 52 ;
53 [label="gini = 0.701\nsamples = 44222\nvalue = [0, 9099, 0, 25136, 0, 25166, 10413]"] ;
52 -> 53 ;
54 [label="gini = 0.507\nsamples = 4054\nvalue = [0, 559, 0, 1735, 0, 0, 4102]"] ;
52 -> 54 ;
55 [label="X[0] <= 0.5\ngini = 0.207\nsamples = 3175\nvalue = [4464, 0, 53, 0, 399, 119, 0]"] ;
51 -> 55 ;
56 [label="gini = 0.233\nsamples = 2686\nvalue = [3726, 0, 53, 0, 391, 111, 0]"] ;
55 -> 56 ;
57 [label="gini = 0.042\nsamples = 489\nvalue = [738, 0, 0, 0, 8, 8, 0]"] ;
55 -> 57 ;
58 [label="X[8] <= 2.5\ngini = 0.726\nsamples = 374508\nvalue = [29181, 127952, 62, 243624, 2082, 122349, 67345]"] ;
50 -> 58 ;
59 [label="X[3] <= 65.5\ngini = 0.697\nsamples = 353780\nvalue = [0, 127952, 0, 243624, 0, 120975, 67345]"] ;
58 -> 59 ;
60 [label="gini = 0.714\nsamples = 151742\nvalue = [0, 54582, 0, 95049, 0, 58732, 31731]"] ;
59 -> 60 ;
61 [label="gini = 0.681\nsamples = 202038\nvalue = [0, 73370, 0, 148575, 0, 62243, 35614]"] ;
59 -> 61 ;
62 [label="X[4] <= 2.5\ngini = 0.198\nsamples = 20728\nvalue = [29181, 0, 62, 0, 2082, 1374, 0]"] ;
58 -> 62 ;
63 [label="gini = 0.292\nsamples = 3192\nvalue = [4125, 0, 0, 0, 888, 0, 0]"] ;
62 -> 63 ;
64 [label="gini = 0.177\nsamples = 17536\nvalue = [25056, 0, 62, 0, 1194, 1374, 0]"] ;
62 -> 64 ;
65 [label="X[4] <= 6.5\ngini = 0.734\nsamples = 603888\nvalue = [95015, 184337, 676, 342155, 508, 49898, 281413]"] ;
3 -> 65 ;
66 [label="X[4] <= 4.5\ngini = 0.75\nsamples = 331188\nvalue = [48666, 107501, 362, 187528, 508, 48270, 130682]"] ;
65 -> 66 ;
67 [label="X[8] <= 2.5\ngini = 0.707\nsamples = 205706\nvalue = [27401, 74934, 240, 116425, 7, 1129, 104822]"] ;
66 -> 67 ;
68 [label="X[6] <= 32.5\ngini = 0.656\nsamples = 187449\nvalue = [0, 74934, 0, 116425, 0, 0, 104822]"] ;
67 -> 68 ;
69 [label="X[6] <= 31.5\ngini = 0.644\nsamples = 119176\nvalue = [0, 39341, 0, 74164, 0, 0, 74566]"] ;
68 -> 69 ;
70 [label="gini = 0.646\nsamples = 110785\nvalue = [0, 38267, 0, 71427, 0, 0, 65239]"] ;
69 -> 70 ;
71 [label="gini = 0.446\nsamples = 8391\nvalue = [0, 1074, 0, 2737, 0, 0, 9327]"] ;
69 -> 71 ;
72 [label="X[0] <= 1.5\ngini = 0.66\nsamples = 68273\nvalue = [0, 35593, 0, 42261, 0, 0, 30256]"] ;
68 -> 72 ;
73 [label="gini = 0.657\nsamples = 60383\nvalue = [0, 26571, 0, 39229, 0, 0, 29814]"] ;
72 -> 73 ;
74 [label="gini = 0.419\nsamples = 7890\nvalue = [0, 9022, 0, 3032, 0, 0, 442]"] ;
72 -> 74 ;
75 [label="X[7] <= 96.5\ngini = 0.092\nsamples = 18257\nvalue = [27401, 0, 240, 0, 7, 1129, 0]"] ;
67 -> 75 ;
76 [label="X[8] <= 4.5\ngini = 0.264\nsamples = 3307\nvalue = [4497, 0, 215, 0, 2, 577, 0]"] ;
75 -> 76 ;
77 [label="gini = 0.396\nsamples = 1991\nvalue = [2423, 0, 215, 0, 2, 577, 0]"] ;
76 -> 77 ;
78 [label="gini = 0.0\nsamples = 1316\nvalue = [2074, 0, 0, 0, 0, 0, 0]"] ;
76 -> 78 ;
79 [label="X[3] <= 40.5\ngini = 0.048\nsamples = 14950\nvalue = [22904, 0, 25, 0, 5, 552, 0]"] ;
75 -> 79 ;
80 [label="gini = 0.168\nsamples = 141\nvalue = [206, 0, 0, 0, 0, 21, 0]"] ;
79 -> 80 ;
81 [label="gini = 0.047\nsamples = 14809\nvalue = [22698, 0, 25, 0, 5, 531, 0]"] ;
79 -> 81 ;
82 [label="X[3] <= 74.5\ngini = 0.76\nsamples = 125482\nvalue = [21265, 32567, 122, 71103, 501, 47141, 25860]"] ;
66 -> 82 ;
83 [label="X[7] <= 138.5\ngini = 0.756\nsamples = 108829\nvalue = [18058, 31236, 106, 63672, 415, 37885, 20886]"] ;
82 -> 83 ;
84 [label="X[0] <= 0.5\ngini = 0.775\nsamples = 27361\nvalue = [8109, 6494, 102, 14265, 337, 9517, 4440]"] ;
83 -> 84 ;
85 [label="gini = 0.783\nsamples = 18141\nvalue = [6393, 3147, 102, 7709, 303, 7462, 3563]"] ;
84 -> 85 ;
86 [label="gini = 0.708\nsamples = 9220\nvalue = [1716, 3347, 0, 6556, 34, 2055, 877]"] ;
84 -> 86 ;
87 [label="X[8] <= 2.5\ngini = 0.746\nsamples = 81468\nvalue = [9949, 24742, 4, 49407, 78, 28368, 16446]"] ;
83 -> 87 ;
88 [label="gini = 0.708\nsamples = 75102\nvalue = [0, 24742, 0, 49407, 0, 28345, 16446]"] ;
87 -> 88 ;
89 [label="gini = 0.021\nsamples = 6366\nvalue = [9949, 0, 4, 0, 78, 23, 0]"] ;
87 -> 89 ;
90 [label="X[8] <= 2.5\ngini = 0.743\nsamples = 16653\nvalue = [3207, 1331, 16, 7431, 86, 9256, 4974]"] ;
82 -> 90 ;
91 [label="X[10] <= 24.5\ngini = 0.684\nsamples = 14526\nvalue = [0, 1331, 0, 7431, 0, 9225, 4974]"] ;
90 -> 91 ;
92 [label="gini = 0.686\nsamples = 6970\nvalue = [0, 1081, 0, 4759, 0, 3236, 1928]"] ;
91 -> 92 ;
93 [label="gini = 0.634\nsamples = 7556\nvalue = [0, 250, 0, 2672, 0, 5989, 3046]"] ;
91 -> 93 ;
94 [label="X[2] <= 130.5\ngini = 0.077\nsamples = 2127\nvalue = [3207, 0, 16, 0, 86, 31, 0]"] ;
90 -> 94 ;
95 [label="gini = 0.0\nsamples = 75\nvalue = [124, 0, 0, 0, 0, 0, 0]"] ;
94 -> 95 ;
96 [label="gini = 0.08\nsamples = 2052\nvalue = [3083, 0, 16, 0, 86, 31, 0]"] ;
94 -> 96 ;
97 [label="X[8] <= 2.5\ngini = 0.705\nsamples = 272700\nvalue = [46349, 76836, 314, 154627, 0, 1628, 150731]"] ;
65 -> 97 ;
98 [label="X[3] <= 74.5\ngini = 0.64\nsamples = 242063\nvalue = [0, 76836, 0, 154627, 0, 45, 150731]"] ;
97 -> 98 ;
99 [label="X[2] <= 124.5\ngini = 0.647\nsamples = 206323\nvalue = [0, 73152, 0, 137523, 0, 31, 115429]"] ;
98 -> 99 ;
100 [label="X[10] <= 227.5\ngini = 0.624\nsamples = 86333\nvalue = [0, 22550, 0, 58900, 0, 10, 55047]"] ;
99 -> 100 ;
101 [label="gini = 0.637\nsamples = 62999\nvalue = [0, 19321, 0, 42392, 0, 5, 37824]"] ;
100 -> 101 ;
102 [label="gini = 0.576\nsamples = 23334\nvalue = [0, 3229, 0, 16508, 0, 5, 17223]"] ;
100 -> 102 ;
103 [label="X[0] <= 0.5\ngini = 0.655\nsamples = 119990\nvalue = [0, 50602, 0, 78623, 0, 21, 60382]"] ;
99 -> 103 ;
104 [label="gini = 0.627\nsamples = 62943\nvalue = [0, 17325, 0, 38258, 0, 5, 43998]"] ;
103 -> 104 ;
105 [label="gini = 0.629\nsamples = 57047\nvalue = [0, 33277, 0, 40365, 0, 16, 16384]"] ;
103 -> 105 ;
106 [label="X[6] <= 30.5\ngini = 0.507\nsamples = 35740\nvalue = [0, 3684, 0, 17104, 0, 14, 35302]"] ;
98 -> 106 ;
107 [label="X[10] <= 6.5\ngini = 0.584\nsamples = 15951\nvalue = [0, 2543, 0, 10427, 0, 4, 12129]"] ;
106 -> 107 ;
108 [label="gini = 0.516\nsamples = 6911\nvalue = [0, 568, 0, 3758, 0, 4, 6508]"] ;
107 -> 108 ;
109 [label="gini = 0.607\nsamples = 9040\nvalue = [0, 1975, 0, 6669, 0, 0, 5621]"] ;
107 -> 109 ;
110 [label="X[0] <= 0.5\ngini = 0.394\nsamples = 19789\nvalue = [0, 1141, 0, 6677, 0, 10, 23173]"] ;
106 -> 110 ;
111 [label="gini = 0.309\nsamples = 15361\nvalue = [0, 576, 0, 3863, 0, 10, 19648]"] ;
110 -> 111 ;
112 [label="gini = 0.566\nsamples = 4428\nvalue = [0, 565, 0, 2814, 0, 0, 3525]"] ;
110 -> 112 ;
113 [label="X[8] <= 4.5\ngini = 0.076\nsamples = 30637\nvalue = [46349, 0, 314, 0, 0, 1583, 0]"] ;
97 -> 113 ;
114 [label="X[2] <= 120.5\ngini = 0.218\nsamples = 9826\nvalue = [13720, 0, 314, 0, 0, 1583, 0]"] ;
113 -> 114 ;
115 [label="X[10] <= 136.0\ngini = 0.496\nsamples = 650\nvalue = [645, 0, 43, 0, 0, 341, 0]"] ;
114 -> 115 ;
116 [label="gini = 0.313\nsamples = 285\nvalue = [369, 0, 0, 0, 0, 89, 0]"] ;
115 -> 116 ;
117 [label="gini = 0.566\nsamples = 365\nvalue = [276, 0, 43, 0, 0, 252, 0]"] ;
115 -> 117 ;
118 [label="X[8] <= 3.5\ngini = 0.189\nsamples = 9176\nvalue = [13075, 0, 271, 0, 0, 1242, 0]"] ;
114 -> 118 ;
119 [label="gini = 0.1\nsamples = 8695\nvalue = [13075, 0, 0, 0, 0, 731, 0]"] ;
118 -> 119 ;
120 [label="gini = 0.453\nsamples = 481\nvalue = [0, 0, 271, 0, 0, 511, 0]"] ;
118 -> 120 ;
121 [label="gini = 0.0\nsamples = 20811\nvalue = [32629, 0, 0, 0, 0, 0, 0]"] ;
113 -> 121 ;
122 [label="X[8] <= 1.5\ngini = 0.761\nsamples = 9666120\nvalue = [2946132, 4806983, 1102, 4365629, 24182, 1502160, 1646083]"] ;
0 -> 122 [labeldistance=2.5, labelangle=-45, headlabel="False"] ;
123 [label="gini = 0.0\nsamples = 1053706\nvalue = [1667636, 0, 0, 0, 0, 0, 0]"] ;
122 -> 123 ;
124 [label="X[1] <= 0.5\ngini = 0.737\nsamples = 8612414\nvalue = [1278496, 4806983, 1102, 4365629, 24182, 1502160, 1646083]"] ;
122 -> 124 ;
125 [label="X[8] <= 2.5\ngini = 0.736\nsamples = 8578103\nvalue = [1226042, 4806983, 1100, 4365526, 23563, 1501100, 1646071]"] ;
124 -> 125 ;
126 [label="X[0] <= 0.5\ngini = 0.689\nsamples = 7773279\nvalue = [0, 4806983, 0, 4365526, 0, 1478278, 1646071]"] ;
125 -> 126 ;
127 [label="X[9] <= 2.5\ngini = 0.731\nsamples = 3762568\nvalue = [0, 1259567, 0, 2192733, 0, 1165374, 1335941]"] ;
126 -> 127 ;
128 [label="X[6] <= 2.5\ngini = 0.72\nsamples = 2687507\nvalue = [0, 887178, 0, 1648586, 0, 1073337, 644217]"] ;
127 -> 128 ;
129 [label="X[7] <= 75.5\ngini = 0.704\nsamples = 363897\nvalue = [0, 155093, 0, 227846, 0, 54968, 138068]"] ;
128 -> 129 ;
130 [label="gini = 0.696\nsamples = 132460\nvalue = [0, 62765, 0, 78772, 0, 12743, 55328]"] ;
129 -> 130 ;
131 [label="gini = 0.707\nsamples = 231437\nvalue = [0, 92328, 0, 149074, 0, 42225, 82740]"] ;
129 -> 131 ;
132 [label="X[10] <= 29.5\ngini = 0.715\nsamples = 2323610\nvalue = [0, 732085, 0, 1420740, 0, 1018369, 506149]"] ;
128 -> 132 ;
133 [label="gini = 0.719\nsamples = 386023\nvalue = [0, 76165, 0, 212676, 0, 192089, 130795]"] ;
132 -> 133 ;
134 [label="gini = 0.711\nsamples = 1937587\nvalue = [0, 655920, 0, 1208064, 0, 826280, 375354]"] ;
132 -> 134 ;
135 [label="X[6] <= 32.5\ngini = 0.681\nsamples = 1075061\nvalue = [0, 372389, 0, 544147, 0, 92037, 691724]"] ;
127 -> 135 ;
136 [label="X[10] <= 52.5\ngini = 0.674\nsamples = 722453\nvalue = [0, 223529, 0, 372977, 0, 64635, 481202]"] ;
135 -> 136 ;
137 [label="gini = 0.634\nsamples = 150603\nvalue = [0, 26934, 0, 75147, 0, 17419, 118749]"] ;
136 -> 137 ;
138 [label="gini = 0.681\nsamples = 571850\nvalue = [0, 196595, 0, 297830, 0, 47216, 362453]"] ;
136 -> 138 ;
139 [label="X[6] <= 47.5\ngini = 0.69\nsamples = 352608\nvalue = [0, 148860, 0, 171170, 0, 27402, 210522]"] ;
135 -> 139 ;
140 [label="gini = 0.691\nsamples = 342736\nvalue = [0, 145943, 0, 169740, 0, 26849, 199837]"] ;
139 -> 140 ;
141 [label="gini = 0.485\nsamples = 9872\nvalue = [0, 2917, 0, 1430, 0, 553, 10685]"] ;
139 -> 141 ;
142 [label="X[4] <= 2.5\ngini = 0.565\nsamples = 4010711\nvalue = [0, 3547416, 0, 2172793, 0, 312904, 310130]"] ;
126 -> 142 ;
143 [label="X[2] <= 124.5\ngini = 0.488\nsamples = 671740\nvalue = [0, 698995, 0, 294201, 0, 28831, 39951]"] ;
142 -> 143 ;
144 [label="X[2] <= 120.5\ngini = 0.565\nsamples = 205099\nvalue = [0, 178307, 0, 116454, 0, 11588, 18391]"] ;
143 -> 144 ;
145 [label="gini = 0.601\nsamples = 66426\nvalue = [0, 51334, 0, 41259, 0, 4551, 8185]"] ;
144 -> 145 ;
146 [label="gini = 0.544\nsamples = 138673\nvalue = [0, 126973, 0, 75195, 0, 7037, 10206]"] ;
144 -> 146 ;
147 [label="X[2] <= 132.5\ngini = 0.442\nsamples = 466641\nvalue = [0, 520688, 0, 177747, 0, 17243, 21560]"] ;
143 -> 147 ;
148 [label="gini = 0.46\nsamples = 358637\nvalue = [0, 390007, 0, 144272, 0, 14615, 17913]"] ;
147 -> 148 ;
149 [label="gini = 0.373\nsamples = 108004\nvalue = [0, 130681, 0, 33475, 0, 2628, 3647]"] ;
147 -> 149 ;
150 [label="X[10] <= 230.5\ngini = 0.577\nsamples = 3338971\nvalue = [0, 2848421, 0, 1878592, 0, 284073, 270179]"] ;
142 -> 150 ;
151 [label="X[2] <= 132.5\ngini = 0.592\nsamples = 2613631\nvalue = [0, 2138670, 0, 1511289, 0, 247951, 236575]"] ;
150 -> 151 ;
152 [label="gini = 0.598\nsamples = 2364451\nvalue = [0, 1893091, 0, 1393772, 0, 231844, 221566]"] ;
151 -> 152 ;
153 [label="gini = 0.52\nsamples = 249180\nvalue = [0, 245579, 0, 117517, 0, 16107, 15009]"] ;
151 -> 153 ;
154 [label="X[0] <= 2.5\ngini = 0.513\nsamples = 725340\nvalue = [0, 709751, 0, 367303, 0, 36122, 33604]"] ;
150 -> 154 ;
155 [label="gini = 0.503\nsamples = 691272\nvalue = [0, 694704, 0, 331030, 0, 34938, 32448]"] ;
154 -> 155 ;
156 [label="gini = 0.463\nsamples = 34068\nvalue = [0, 15047, 0, 36273, 0, 1184, 1156]"] ;
154 -> 156 ;
157 [label="X[2] <= 137.5\ngini = 0.073\nsamples = 804824\nvalue = [1226042, 0, 1100, 0, 23563, 22822, 0]"] ;
125 -> 157 ;
158 [label="X[3] <= 62.5\ngini = 0.068\nsamples = 783839\nvalue = [1196860, 0, 1094, 0, 20824, 21608, 0]"] ;
157 -> 158 ;
159 [label="X[9] <= 2.5\ngini = 0.038\nsamples = 367100\nvalue = [569437, 0, 356, 0, 5434, 5388, 0]"] ;
158 -> 159 ;
160 [label="X[7] <= 1.5\ngini = 0.047\nsamples = 225391\nvalue = [347894, 0, 66, 0, 5113, 3298, 0]"] ;
159 -> 160 ;
161 [label="gini = 0.388\nsamples = 2800\nvalue = [3405, 0, 0, 0, 694, 367, 0]"] ;
160 -> 161 ;
162 [label="gini = 0.041\nsamples = 222591\nvalue = [344489, 0, 66, 0, 4419, 2931, 0]"] ;
160 -> 162 ;
163 [label="X[3] <= 44.5\ngini = 0.024\nsamples = 141709\nvalue = [221543, 0, 290, 0, 321, 2090, 0]"] ;
159 -> 163 ;
164 [label="gini = 0.018\nsamples = 78799\nvalue = [123276, 0, 159, 0, 109, 886, 0]"] ;
163 -> 164 ;
165 [label="gini = 0.031\nsamples = 62910\nvalue = [98267, 0, 131, 0, 212, 1204, 0]"] ;
163 -> 165 ;
166 [label="X[10] <= 7.5\ngini = 0.095\nsamples = 416739\nvalue = [627423, 0, 738, 0, 15390, 16220, 0]"] ;
158 -> 166 ;
167 [label="X[7] <= 53.5\ngini = 0.209\nsamples = 26087\nvalue = [36629, 0, 27, 0, 2106, 2589, 0]"] ;
166 -> 167 ;
168 [label="gini = 0.519\nsamples = 5865\nvalue = [6049, 0, 20, 0, 1480, 1802, 0]"] ;
167 -> 168 ;
169 [label="gini = 0.086\nsamples = 20222\nvalue = [30580, 0, 7, 0, 626, 787, 0]"] ;
167 -> 169 ;
170 [label="X[6] <= 40.5\ngini = 0.086\nsamples = 390652\nvalue = [590794, 0, 711, 0, 13284, 13631, 0]"] ;
166 -> 170 ;
171 [label="gini = 0.075\nsamples = 357686\nvalue = [544505, 0, 688, 0, 10205, 10904, 0]"] ;
170 -> 171 ;
172 [label="gini = 0.205\nsamples = 32966\nvalue = [46289, 0, 23, 0, 3079, 2727, 0]"] ;
170 -> 172 ;
173 [label="X[0] <= 1.5\ngini = 0.216\nsamples = 20985\nvalue = [29182, 0, 6, 0, 2739, 1214, 0]"] ;
157 -> 173 ;
174 [label="X[9] <= 2.5\ngini = 0.248\nsamples = 17796\nvalue = [24246, 0, 6, 0, 2732, 1193, 0]"] ;
173 -> 174 ;
175 [label="X[8] <= 4.5\ngini = 0.333\nsamples = 11493\nvalue = [14624, 0, 6, 0, 2713, 897, 0]"] ;
174 -> 175 ;
176 [label="gini = 0.609\nsamples = 4157\nvalue = [2958, 0, 6, 0, 2713, 897, 0]"] ;
175 -> 176 ;
177 [label="gini = 0.0\nsamples = 7336\nvalue = [11666, 0, 0, 0, 0, 0, 0]"] ;
175 -> 177 ;
178 [label="X[2] <= 138.5\ngini = 0.062\nsamples = 6303\nvalue = [9622, 0, 0, 0, 19, 296, 0]"] ;
174 -> 178 ;
179 [label="gini = 0.063\nsamples = 6120\nvalue = [9359, 0, 0, 0, 19, 296, 0]"] ;
178 -> 179 ;
180 [label="gini = 0.0\nsamples = 183\nvalue = [263, 0, 0, 0, 0, 0, 0]"] ;
178 -> 180 ;
181 [label="X[10] <= 250.5\ngini = 0.011\nsamples = 3189\nvalue = [4936, 0, 0, 0, 7, 21, 0]"] ;
173 -> 181 ;
182 [label="X[5] <= 1.5\ngini = 0.008\nsamples = 2700\nvalue = [4178, 0, 0, 0, 4, 12, 0]"] ;
181 -> 182 ;
183 [label="gini = 0.016\nsamples = 904\nvalue = [1380, 0, 0, 0, 0, 11, 0]"] ;
182 -> 183 ;
184 [label="gini = 0.004\nsamples = 1796\nvalue = [2798, 0, 0, 0, 4, 1, 0]"] ;
182 -> 184 ;
185 [label="X[8] <= 4.0\ngini = 0.031\nsamples = 489\nvalue = [758, 0, 0, 0, 3, 9, 0]"] ;
181 -> 185 ;
186 [label="gini = 0.095\nsamples = 152\nvalue = [231, 0, 0, 0, 3, 9, 0]"] ;
185 -> 186 ;
187 [label="gini = 0.0\nsamples = 337\nvalue = [527, 0, 0, 0, 0, 0, 0]"] ;
185 -> 187 ;
188 [label="X[8] <= 2.5\ngini = 0.065\nsamples = 34311\nvalue = [52454, 0, 2, 103, 619, 1060, 12]"] ;
124 -> 188 ;
189 [label="X[6] <= 7.5\ngini = 0.227\nsamples = 76\nvalue = [0, 0, 0, 103, 0, 3, 12]"] ;
188 -> 189 ;
190 [label="X[4] <= 4.5\ngini = 0.5\nsamples = 13\nvalue = [0, 0, 0, 3, 0, 3, 12]"] ;
189 -> 190 ;
191 [label="gini = 0.0\nsamples = 2\nvalue = [0, 0, 0, 3, 0, 0, 0]"] ;
190 -> 191 ;
192 [label="X[0] <= 0.5\ngini = 0.32\nsamples = 11\nvalue = [0, 0, 0, 0, 0, 3, 12]"] ;
190 -> 192 ;
193 [label="X[7] <= 154.0\ngini = 0.245\nsamples = 10\nvalue = [0, 0, 0, 0, 0, 2, 12]"] ;
192 -> 193 ;
194 [label="gini = 0.0\nsamples = 5\nvalue = [0, 0, 0, 0, 0, 0, 8]"] ;
193 -> 194 ;
195 [label="gini = 0.444\nsamples = 5\nvalue = [0, 0, 0, 0, 0, 2, 4]"] ;
193 -> 195 ;
196 [label="gini = 0.0\nsamples = 1\nvalue = [0, 0, 0, 0, 0, 1, 0]"] ;
192 -> 196 ;
197 [label="gini = 0.0\nsamples = 63\nvalue = [0, 0, 0, 100, 0, 0, 0]"] ;
189 -> 197 ;
198 [label="X[3] <= 66.5\ngini = 0.061\nsamples = 34235\nvalue = [52454, 0, 2, 0, 619, 1057, 0]"] ;
188 -> 198 ;
199 [label="X[6] <= 47.5\ngini = 0.043\nsamples = 19937\nvalue = [30856, 0, 0, 0, 235, 447, 0]"] ;
198 -> 199 ;
200 [label="X[9] <= 2.5\ngini = 0.042\nsamples = 19795\nvalue = [30660, 0, 0, 0, 228, 433, 0]"] ;
199 -> 200 ;
201 [label="X[5] <= 1.5\ngini = 0.038\nsamples = 11448\nvalue = [17719, 0, 0, 0, 190, 154, 0]"] ;
200 -> 201 ;
202 [label="gini = 0.034\nsamples = 5493\nvalue = [8511, 0, 0, 0, 60, 91, 0]"] ;
201 -> 202 ;
203 [label="gini = 0.04\nsamples = 5955\nvalue = [9208, 0, 0, 0, 130, 63, 0]"] ;
201 -> 203 ;
204 [label="X[10] <= 249.5\ngini = 0.047\nsamples = 8347\nvalue = [12941, 0, 0, 0, 38, 279, 0]"] ;
200 -> 204 ;
205 [label="gini = 0.05\nsamples = 7751\nvalue = [11974, 0, 0, 0, 37, 276, 0]"] ;
204 -> 205 ;
206 [label="gini = 0.008\nsamples = 596\nvalue = [967, 0, 0, 0, 1, 3, 0]"] ;
204 -> 206 ;
207 [label="X[9] <= 2.5\ngini = 0.179\nsamples = 142\nvalue = [196, 0, 0, 0, 7, 14, 0]"] ;
199 -> 207 ;
208 [label="X[0] <= 121.0\ngini = 0.105\nsamples = 122\nvalue = [172, 0, 0, 0, 7, 3, 0]"] ;
207 -> 208 ;
209 [label="gini = 0.096\nsamples = 121\nvalue = [172, 0, 0, 0, 6, 3, 0]"] ;
208 -> 209 ;
210 [label="gini = 0.0\nsamples = 1\nvalue = [0, 0, 0, 0, 1, 0, 0]"] ;
208 -> 210 ;
211 [label="X[3] <= 51.5\ngini = 0.431\nsamples = 20\nvalue = [24, 0, 0, 0, 0, 11, 0]"] ;
207 -> 211 ;
212 [label="gini = 0.498\nsamples = 9\nvalue = [8, 0, 0, 0, 0, 9, 0]"] ;
211 -> 212 ;
213 [label="gini = 0.198\nsamples = 11\nvalue = [16, 0, 0, 0, 0, 2, 0]"] ;
211 -> 213 ;
214 [label="X[10] <= 110.5\ngini = 0.085\nsamples = 14298\nvalue = [21598, 0, 2, 0, 384, 610, 0]"] ;
198 -> 214 ;
215 [label="X[9] <= 2.5\ngini = 0.099\nsamples = 9903\nvalue = [14892, 0, 1, 0, 311, 493, 0]"] ;
214 -> 215 ;
216 [label="X[10] <= 103.5\ngini = 0.11\nsamples = 5314\nvalue = [7923, 0, 1, 0, 273, 210, 0]"] ;
215 -> 216 ;
217 [label="gini = 0.107\nsamples = 5219\nvalue = [7802, 0, 1, 0, 261, 201, 0]"] ;
216 -> 217 ;
218 [label="gini = 0.263\nsamples = 95\nvalue = [121, 0, 0, 0, 12, 9, 0]"] ;
216 -> 218 ;
219 [label="X[10] <= 4.5\ngini = 0.085\nsamples = 4589\nvalue = [6969, 0, 0, 0, 38, 283, 0]"] ;
215 -> 219 ;
220 [label="gini = 0.43\nsamples = 66\nvalue = [68, 0, 0, 0, 0, 31, 0]"] ;
219 -> 220 ;
221 [label="gini = 0.078\nsamples = 4523\nvalue = [6901, 0, 0, 0, 38, 252, 0]"] ;
219 -> 221 ;
222 [label="X[10] <= 124.5\ngini = 0.054\nsamples = 4395\nvalue = [6706, 0, 1, 0, 73, 117, 0]"] ;
214 -> 222 ;
223 [label="X[7] <= 120.5\ngini = 0.041\nsamples = 3926\nvalue = [6037, 0, 1, 0, 48, 80, 0]"] ;
222 -> 223 ;
224 [label="gini = 0.029\nsamples = 3222\nvalue = [4989, 0, 0, 0, 22, 53, 0]"] ;
223 -> 224 ;
225 [label="gini = 0.094\nsamples = 704\nvalue = [1048, 0, 1, 0, 26, 27, 0]"] ;
223 -> 225 ;
226 [label="X[1] <= 3.5\ngini = 0.159\nsamples = 469\nvalue = [669, 0, 0, 0, 25, 37, 0]"] ;
222 -> 226 ;
227 [label="gini = 0.212\nsamples = 237\nvalue = [334, 0, 0, 0, 18, 26, 0]"] ;
226 -> 227 ;
228 [label="gini = 0.098\nsamples = 232\nvalue = [335, 0, 0, 0, 7, 11, 0]"] ;
226 -> 228 ;
}