digraph Tree {
node [shape=box] ;
0 [label="X[1] <= 0.5\ngini = 0.767\nsamples = 11106352\nvalue = [3320268, 5198575, 2072, 5143739, 28466, 1811066, 2064963]"] ;
1 [label="X[8] <= 1.5\ngini = 0.766\nsamples = 11059624\nvalue = [3248798, 5198575, 2058, 5143607, 27714, 1809582, 2064949]"] ;
0 -> 1 [labeldistance=2.5, labelangle=45, headlabel="True"] ;
2 [label="gini = 0.0\nsamples = 1189869\nvalue = [1881958, 0, 0, 0, 0, 0, 0]"] ;
1 -> 2 ;
3 [label="X[5] <= 0.5\ngini = 0.742\nsamples = 9869755\nvalue = [1366840, 5198575, 2058, 5143607, 27714, 1809582, 2064949]"] ;
1 -> 3 ;
4 [label="X[9] <= 2.5\ngini = 0.748\nsamples = 1293792\nvalue = [139067, 392760, 826, 780273, 4180, 310728, 418367]"] ;
3 -> 4 ;
5 [label="X[10] <= 29.5\ngini = 0.732\nsamples = 695832\nvalue = [54460, 208786, 150, 437365, 3682, 261328, 134351]"] ;
4 -> 5 ;
6 [label="X[3] <= 75.5\ngini = 0.75\nsamples = 110038\nvalue = [12071, 15490, 57, 55691, 571, 48263, 42223]"] ;
5 -> 6 ;
7 [label="X[9] <= 0.5\ngini = 0.738\nsamples = 69137\nvalue = [8202, 5885, 17, 27781, 323, 34774, 32574]"] ;
6 -> 7 ;
8 [label="X[8] <= 2.5\ngini = 0.541\nsamples = 19347\nvalue = [3165, 1227, 5, 6760, 0, 158, 19319]"] ;
7 -> 8 ;
9 [label="gini = 0.436\nsamples = 17225\nvalue = [0, 1227, 0, 6760, 0, 0, 19319]"] ;
8 -> 9 ;
10 [label="gini = 0.093\nsamples = 2122\nvalue = [3165, 0, 5, 0, 0, 158, 0]"] ;
8 -> 10 ;
11 [label="X[9] <= 1.5\ngini = 0.701\nsamples = 49790\nvalue = [5037, 4658, 12, 21021, 323, 34616, 13255]"] ;
7 -> 11 ;
12 [label="gini = 0.626\nsamples = 18335\nvalue = [2201, 1399, 1, 7301, 108, 15817, 2219]"] ;
11 -> 12 ;
13 [label="gini = 0.726\nsamples = 31455\nvalue = [2836, 3259, 11, 13720, 215, 18799, 11036]"] ;
11 -> 13 ;
14 [label="X[8] <= 2.5\ngini = 0.724\nsamples = 40901\nvalue = [3869, 9605, 40, 27910, 248, 13489, 9649]"] ;
6 -> 14 ;
15 [label="X[0] <= 1.5\ngini = 0.688\nsamples = 38152\nvalue = [0, 9605, 0, 27910, 0, 13265, 9649]"] ;
14 -> 15 ;
16 [label="gini = 0.682\nsamples = 36586\nvalue = [0, 7951, 0, 27120, 0, 13234, 9630]"] ;
15 -> 16 ;
17 [label="gini = 0.46\nsamples = 1566\nvalue = [0, 1654, 0, 790, 0, 31, 19]"] ;
15 -> 17 ;
18 [label="X[7] <= 232.5\ngini = 0.214\nsamples = 2749\nvalue = [3869, 0, 40, 0, 248, 224, 0]"] ;
14 -> 18 ;
19 [label="gini = 0.18\nsamples = 2522\nvalue = [3636, 0, 40, 0, 203, 145, 0]"] ;
18 -> 19 ;
20 [label="gini = 0.509\nsamples = 227\nvalue = [233, 0, 0, 0, 45, 79, 0]"] ;
18 -> 20 ;
21 [label="X[4] <= 8.5\ngini = 0.721\nsamples = 585794\nvalue = [42389, 193296, 93, 381674, 3111, 213065, 92128]"] ;
5 -> 21 ;
22 [label="X[0] <= 1.5\ngini = 0.733\nsamples = 194424\nvalue = [12045, 71261, 1, 122275, 1058, 48006, 52672]"] ;
21 -> 22 ;
23 [label="X[0] <= 0.5\ngini = 0.73\nsamples = 184587\nvalue = [11527, 59629, 1, 119315, 1042, 47861, 52395]"] ;
22 -> 23 ;
24 [label="gini = 0.745\nsamples = 134022\nvalue = [10224, 35011, 1, 80384, 1020, 40781, 44351]"] ;
23 -> 24 ;
25 [label="gini = 0.65\nsamples = 50565\nvalue = [1303, 24618, 0, 38931, 22, 7080, 8044]"] ;
23 -> 25 ;
26 [label="X[3] <= 69.5\ngini = 0.403\nsamples = 9837\nvalue = [518, 11632, 0, 2960, 16, 145, 277]"] ;
22 -> 26 ;
27 [label="gini = 0.387\nsamples = 5468\nvalue = [348, 6605, 0, 1318, 6, 102, 239]"] ;
26 -> 27 ;
28 [label="gini = 0.417\nsamples = 4369\nvalue = [170, 5027, 0, 1642, 10, 43, 38]"] ;
26 -> 28 ;
29 [label="X[8] <= 2.5\ngini = 0.707\nsamples = 391370\nvalue = [30344, 122035, 92, 259399, 2053, 165059, 39456]"] ;
21 -> 29 ;
30 [label="X[3] <= 46.5\ngini = 0.677\nsamples = 370403\nvalue = [0, 122035, 0, 259399, 0, 164343, 39456]"] ;
29 -> 30 ;
31 [label="gini = 0.652\nsamples = 55664\nvalue = [0, 14773, 0, 34816, 0, 35393, 2976]"] ;
30 -> 31 ;
32 [label="gini = 0.677\nsamples = 314739\nvalue = [0, 107262, 0, 224583, 0, 128950, 36480]"] ;
30 -> 32 ;
33 [label="X[6] <= 44.5\ngini = 0.161\nsamples = 20967\nvalue = [30344, 0, 92, 0, 2053, 716, 0]"] ;
29 -> 33 ;
34 [label="gini = 0.15\nsamples = 19855\nvalue = [28937, 0, 85, 0, 1747, 692, 0]"] ;
33 -> 34 ;
35 [label="gini = 0.318\nsamples = 1112\nvalue = [1407, 0, 7, 0, 306, 24, 0]"] ;
33 -> 35 ;
36 [label="X[0] <= 0.5\ngini = 0.73\nsamples = 597960\nvalue = [84607, 183974, 676, 342908, 498, 49400, 284016]"] ;
4 -> 36 ;
37 [label="X[7] <= 191.5\ngini = 0.726\nsamples = 367718\nvalue = [63367, 76112, 673, 186601, 438, 38985, 216379]"] ;
36 -> 37 ;
38 [label="X[7] <= 20.5\ngini = 0.738\nsamples = 182696\nvalue = [42386, 35782, 667, 84199, 423, 19068, 107011]"] ;
37 -> 38 ;
39 [label="X[3] <= 74.5\ngini = 0.704\nsamples = 25621\nvalue = [4166, 4362, 0, 13616, 3, 2220, 16000]"] ;
38 -> 39 ;
40 [label="gini = 0.704\nsamples = 24752\nvalue = [3948, 4327, 0, 13465, 3, 2104, 15158]"] ;
39 -> 40 ;
41 [label="gini = 0.572\nsamples = 869\nvalue = [218, 35, 0, 151, 0, 116, 842]"] ;
39 -> 41 ;
42 [label="X[8] <= 2.5\ngini = 0.742\nsamples = 157075\nvalue = [38220, 31420, 667, 70583, 420, 16848, 91011]"] ;
38 -> 42 ;
43 [label="gini = 0.665\nsamples = 130916\nvalue = [0, 31420, 0, 70583, 0, 14711, 91011]"] ;
42 -> 43 ;
44 [label="gini = 0.147\nsamples = 26159\nvalue = [38220, 0, 667, 0, 420, 2137, 0]"] ;
42 -> 44 ;
45 [label="X[4] <= 6.5\ngini = 0.71\nsamples = 185022\nvalue = [20981, 40330, 6, 102402, 15, 19917, 109368]"] ;
37 -> 45 ;
46 [label="X[10] <= 29.5\ngini = 0.737\nsamples = 103442\nvalue = [9960, 25435, 2, 58046, 15, 19849, 50390]"] ;
45 -> 46 ;
47 [label="gini = 0.723\nsamples = 10575\nvalue = [1355, 788, 0, 4165, 5, 3798, 6505]"] ;
46 -> 47 ;
48 [label="gini = 0.733\nsamples = 92867\nvalue = [8605, 24647, 2, 53881, 10, 16051, 43885]"] ;
46 -> 48 ;
49 [label="X[3] <= 74.5\ngini = 0.654\nsamples = 81580\nvalue = [11021, 14895, 4, 44356, 0, 68, 58978]"] ;
45 -> 49 ;
50 [label="gini = 0.666\nsamples = 65672\nvalue = [8315, 13843, 4, 38660, 0, 64, 43226]"] ;
49 -> 50 ;
51 [label="gini = 0.545\nsamples = 15908\nvalue = [2706, 1052, 0, 5696, 0, 4, 15752]"] ;
49 -> 51 ;
52 [label="X[3] <= 67.5\ngini = 0.688\nsamples = 230242\nvalue = [21240, 107862, 3, 156307, 60, 10415, 67637]"] ;
36 -> 52 ;
53 [label="X[10] <= 212.5\ngini = 0.688\nsamples = 130841\nvalue = [11763, 72366, 0, 81553, 22, 5389, 35631]"] ;
52 -> 53 ;
54 [label="X[4] <= 10.5\ngini = 0.68\nsamples = 82031\nvalue = [6529, 50561, 0, 48108, 18, 3362, 20852]"] ;
53 -> 54 ;
55 [label="gini = 0.683\nsamples = 72185\nvalue = [5702, 42186, 0, 44092, 18, 3361, 18667]"] ;
54 -> 55 ;
56 [label="gini = 0.613\nsamples = 9846\nvalue = [827, 8375, 0, 4016, 0, 1, 2185]"] ;
54 -> 56 ;
57 [label="X[2] <= 124.5\ngini = 0.691\nsamples = 48810\nvalue = [5234, 21805, 0, 33445, 4, 2027, 14779]"] ;
53 -> 57 ;
58 [label="gini = 0.673\nsamples = 18281\nvalue = [1873, 5367, 0, 13775, 2, 822, 6990]"] ;
57 -> 58 ;
59 [label="gini = 0.689\nsamples = 30529\nvalue = [3361, 16438, 0, 19670, 2, 1205, 7789]"] ;
57 -> 59 ;
60 [label="X[10] <= 38.5\ngini = 0.675\nsamples = 99401\nvalue = [9477, 35496, 3, 74754, 38, 5026, 32006]"] ;
52 -> 60 ;
61 [label="X[4] <= 6.5\ngini = 0.703\nsamples = 25483\nvalue = [3467, 5492, 1, 16695, 15, 2059, 12296]"] ;
60 -> 61 ;
62 [label="gini = 0.731\nsamples = 11954\nvalue = [1536, 3383, 1, 7843, 15, 2021, 4081]"] ;
61 -> 62 ;
63 [label="gini = 0.656\nsamples = 13529\nvalue = [1931, 2109, 0, 8852, 0, 38, 8215]"] ;
61 -> 63 ;
64 [label="X[10] <= 47.5\ngini = 0.655\nsamples = 73918\nvalue = [6010, 30004, 2, 58059, 23, 2967, 19710]"] ;
60 -> 64 ;
65 [label="gini = 0.564\nsamples = 13280\nvalue = [462, 10981, 0, 8320, 0, 119, 1062]"] ;
64 -> 65 ;
66 [label="gini = 0.649\nsamples = 60638\nvalue = [5548, 19023, 2, 49739, 23, 2848, 18648]"] ;
64 -> 66 ;
67 [label="X[5] <= 1.5\ngini = 0.736\nsamples = 8575963\nvalue = [1227773, 4805815, 1232, 4363334, 23534, 1498854, 1646582]"] ;
3 -> 67 ;
68 [label="X[0] <= 0.5\ngini = 0.736\nsamples = 3732237\nvalue = [468096, 2038225, 768, 1894480, 8370, 492229, 1003513]"] ;
67 -> 68 ;
69 [label="X[8] <= 2.5\ngini = 0.766\nsamples = 1963172\nvalue = [306960, 565846, 757, 1007566, 7453, 404877, 812669]"] ;
68 -> 69 ;
70 [label="X[9] <= 2.5\ngini = 0.722\nsamples = 1757043\nvalue = [0, 565846, 0, 1007566, 0, 393830, 812669]"] ;
69 -> 70 ;
71 [label="X[10] <= 28.5\ngini = 0.725\nsamples = 1167919\nvalue = [0, 357273, 0, 715561, 0, 393830, 381239]"] ;
70 -> 71 ;
72 [label="gini = 0.727\nsamples = 190141\nvalue = [0, 42525, 0, 100463, 0, 66316, 91233]"] ;
71 -> 72 ;
73 [label="gini = 0.721\nsamples = 977778\nvalue = [0, 314748, 0, 615098, 0, 327514, 290006]"] ;
71 -> 73 ;
74 [label="X[2] <= 130.5\ngini = 0.637\nsamples = 589124\nvalue = [0, 208573, 0, 292005, 0, 0, 431430]"] ;
70 -> 74 ;
75 [label="gini = 0.643\nsamples = 415952\nvalue = [0, 150814, 0, 214068, 0, 0, 293275]"] ;
74 -> 75 ;
76 [label="gini = 0.62\nsamples = 173172\nvalue = [0, 57759, 0, 77937, 0, 0, 138155]"] ;
74 -> 76 ;
77 [label="X[8] <= 4.5\ngini = 0.113\nsamples = 206129\nvalue = [306960, 0, 757, 0, 7453, 11047, 0]"] ;
69 -> 77 ;
78 [label="X[7] <= 211.5\ngini = 0.337\nsamples = 61568\nvalue = [78416, 0, 757, 0, 7453, 11047, 0]"] ;
77 -> 78 ;
79 [label="gini = 0.256\nsamples = 52809\nvalue = [71830, 0, 731, 0, 3623, 7697, 0]"] ;
78 -> 79 ;
80 [label="gini = 0.636\nsamples = 8759\nvalue = [6586, 0, 26, 0, 3830, 3350, 0]"] ;
78 -> 80 ;
81 [label="gini = 0.0\nsamples = 144561\nvalue = [228544, 0, 0, 0, 0, 0, 0]"] ;
77 -> 81 ;
82 [label="X[4] <= 2.5\ngini = 0.614\nsamples = 1769065\nvalue = [161136, 1472379, 11, 886914, 917, 87352, 190844]"] ;
68 -> 82 ;
83 [label="X[6] <= 9.5\ngini = 0.517\nsamples = 536168\nvalue = [22910, 542374, 0, 225500, 364, 21336, 35777]"] ;
82 -> 83 ;
84 [label="X[6] <= 5.5\ngini = 0.56\nsamples = 162199\nvalue = [8222, 149923, 0, 79127, 12, 7301, 12281]"] ;
83 -> 84 ;
85 [label="gini = 0.53\nsamples = 118662\nvalue = [5814, 116593, 0, 53758, 9, 4484, 7152]"] ;
84 -> 85 ;
86 [label="gini = 0.624\nsamples = 43537\nvalue = [2408, 33330, 0, 25369, 3, 2817, 5129]"] ;
84 -> 86 ;
87 [label="X[8] <= 2.5\ngini = 0.496\nsamples = 373969\nvalue = [14688, 392451, 0, 146373, 352, 14035, 23496]"] ;
83 -> 87 ;
88 [label="gini = 0.469\nsamples = 364103\nvalue = [0, 392451, 0, 146373, 0, 13652, 23496]"] ;
87 -> 88 ;
89 [label="gini = 0.092\nsamples = 9866\nvalue = [14688, 0, 0, 0, 352, 383, 0]"] ;
87 -> 89 ;
90 [label="X[3] <= 57.5\ngini = 0.645\nsamples = 1232897\nvalue = [138226, 930005, 11, 661414, 553, 66016, 155067]"] ;
82 -> 90 ;
91 [label="X[0] <= 2.5\ngini = 0.61\nsamples = 387390\nvalue = [47386, 330709, 1, 183158, 202, 15050, 36562]"] ;
90 -> 91 ;
92 [label="gini = 0.601\nsamples = 364857\nvalue = [40462, 318695, 1, 168256, 195, 14524, 35075]"] ;
91 -> 92 ;
93 [label="gini = 0.676\nsamples = 22533\nvalue = [6924, 12014, 0, 14902, 7, 526, 1487]"] ;
91 -> 93 ;
94 [label="X[8] <= 2.5\ngini = 0.658\nsamples = 845507\nvalue = [90840, 599296, 10, 478256, 351, 50966, 118505]"] ;
90 -> 94 ;
95 [label="gini = 0.61\nsamples = 786775\nvalue = [0, 599296, 0, 478256, 0, 49339, 118505]"] ;
94 -> 95 ;
96 [label="gini = 0.042\nsamples = 58732\nvalue = [90840, 0, 10, 0, 351, 1627, 0]"] ;
94 -> 96 ;
97 [label="X[10] <= 230.5\ngini = 0.732\nsamples = 4843726\nvalue = [759677, 2767590, 464, 2468854, 15164, 1006625, 643069]"] ;
67 -> 97 ;
98 [label="X[7] <= 172.5\ngini = 0.735\nsamples = 3788966\nvalue = [511899, 2052014, 368, 1996847, 12042, 881873, 538435]"] ;
97 -> 98 ;
99 [label="X[4] <= 5.5\ngini = 0.743\nsamples = 1646897\nvalue = [270947, 927701, 344, 777709, 6857, 387029, 235290]"] ;
98 -> 99 ;
100 [label="X[2] <= 132.5\ngini = 0.741\nsamples = 654075\nvalue = [101724, 384974, 76, 292655, 1972, 107929, 145871]"] ;
99 -> 100 ;
101 [label="gini = 0.747\nsamples = 596093\nvalue = [95574, 333870, 69, 275221, 1800, 100703, 136563]"] ;
100 -> 101 ;
102 [label="gini = 0.63\nsamples = 57982\nvalue = [6150, 51104, 7, 17434, 172, 7226, 9308]"] ;
100 -> 102 ;
103 [label="X[8] <= 2.5\ngini = 0.739\nsamples = 992822\nvalue = [169223, 542727, 268, 485054, 4885, 279100, 89419]"] ;
99 -> 103 ;
104 [label="gini = 0.684\nsamples = 881168\nvalue = [0, 542727, 0, 485054, 0, 276751, 89419]"] ;
103 -> 104 ;
105 [label="gini = 0.082\nsamples = 111654\nvalue = [169223, 0, 268, 0, 4885, 2349, 0]"] ;
103 -> 105 ;
106 [label="X[8] <= 2.5\ngini = 0.726\nsamples = 2142069\nvalue = [240952, 1124313, 24, 1219138, 5185, 494844, 303145]"] ;
98 -> 106 ;
107 [label="X[2] <= 119.5\ngini = 0.687\nsamples = 1985297\nvalue = [0, 1124313, 0, 1219138, 0, 492516, 303145]"] ;
106 -> 107 ;
108 [label="gini = 0.686\nsamples = 240436\nvalue = [0, 105572, 0, 169455, 0, 57172, 48763]"] ;
107 -> 108 ;
109 [label="gini = 0.685\nsamples = 1744861\nvalue = [0, 1018741, 0, 1049683, 0, 435344, 254382]"] ;
107 -> 109 ;
110 [label="X[8] <= 4.5\ngini = 0.059\nsamples = 156772\nvalue = [240952, 0, 24, 0, 5185, 2328, 0]"] ;
106 -> 110 ;
111 [label="gini = 0.459\nsamples = 15939\nvalue = [17553, 0, 24, 0, 5185, 2328, 0]"] ;
110 -> 111 ;
112 [label="gini = 0.0\nsamples = 140833\nvalue = [223399, 0, 0, 0, 0, 0, 0]"] ;
110 -> 112 ;
113 [label="X[0] <= 0.5\ngini = 0.704\nsamples = 1054760\nvalue = [247778, 715576, 96, 472007, 3122, 124752, 104634]"] ;
97 -> 113 ;
114 [label="X[6] <= 2.0\ngini = 0.782\nsamples = 454537\nvalue = [161180, 173033, 96, 199478, 2409, 95236, 87501]"] ;
113 -> 114 ;
115 [label="X[10] <= 238.5\ngini = 0.75\nsamples = 181945\nvalue = [79635, 84685, 12, 74844, 231, 10162, 38397]"] ;
114 -> 115 ;
116 [label="gini = 0.74\nsamples = 108198\nvalue = [49679, 52091, 1, 45342, 114, 4952, 18949]"] ;
115 -> 116 ;
117 [label="gini = 0.763\nsamples = 73747\nvalue = [29956, 32594, 11, 29502, 117, 5210, 19448]"] ;
115 -> 117 ;
118 [label="X[5] <= 2.5\ngini = 0.787\nsamples = 272592\nvalue = [81545, 88348, 84, 124634, 2178, 85074, 49104]"] ;
114 -> 118 ;
119 [label="gini = 0.784\nsamples = 254498\nvalue = [74026, 84133, 57, 116734, 2178, 84952, 40261]"] ;
118 -> 119 ;
120 [label="gini = 0.738\nsamples = 18094\nvalue = [7519, 4215, 27, 7900, 0, 122, 8843]"] ;
118 -> 120 ;
121 [label="X[3] <= 41.5\ngini = 0.581\nsamples = 600223\nvalue = [86598, 542543, 0, 272529, 713, 29516, 17133]"] ;
113 -> 121 ;
122 [label="X[8] <= 2.5\ngini = 0.607\nsamples = 258335\nvalue = [34376, 218505, 0, 127538, 682, 17719, 9718]"] ;
121 -> 122 ;
123 [label="gini = 0.538\nsamples = 236030\nvalue = [0, 218505, 0, 127538, 0, 17443, 9718]"] ;
122 -> 123 ;
124 [label="gini = 0.053\nsamples = 22305\nvalue = [34376, 0, 0, 0, 682, 276, 0]"] ;
122 -> 124 ;
125 [label="X[2] <= 127.5\ngini = 0.559\nsamples = 341888\nvalue = [52222, 324038, 0, 144991, 31, 11797, 7415]"] ;
121 -> 125 ;
126 [label="gini = 0.568\nsamples = 302159\nvalue = [49645, 280464, 0, 130737, 22, 10033, 6324]"] ;
125 -> 126 ;
127 [label="gini = 0.472\nsamples = 39729\nvalue = [2577, 43574, 0, 14254, 9, 1764, 1091]"] ;
125 -> 127 ;
128 [label="X[8] <= 2.5\ngini = 0.063\nsamples = 46728\nvalue = [71470, 0, 14, 132, 752, 1484, 14]"] ;
0 -> 128 [labeldistance=2.5, labelangle=-45, headlabel="False"] ;
129 [label="X[8] <= 1.5\ngini = 0.545\nsamples = 140\nvalue = [51, 0, 0, 132, 0, 15, 14]"] ;
128 -> 129 ;
130 [label="gini = 0.0\nsamples = 36\nvalue = [51, 0, 0, 0, 0, 0, 0]"] ;
129 -> 130 ;
131 [label="X[2] <= 133.5\ngini = 0.312\nsamples = 104\nvalue = [0, 0, 0, 132, 0, 15, 14]"] ;
129 -> 131 ;
132 [label="X[5] <= 1.5\ngini = 0.637\nsamples = 23\nvalue = [0, 0, 0, 7, 0, 15, 14]"] ;
131 -> 132 ;
133 [label="X[10] <= 203.0\ngini = 0.571\nsamples = 15\nvalue = [0, 0, 0, 6, 0, 3, 12]"] ;
132 -> 133 ;
134 [label="gini = 0.0\nsamples = 4\nvalue = [0, 0, 0, 6, 0, 0, 0]"] ;
133 -> 134 ;
135 [label="X[9] <= 2.5\ngini = 0.32\nsamples = 11\nvalue = [0, 0, 0, 0, 0, 3, 12]"] ;
133 -> 135 ;
136 [label="X[0] <= 4.5\ngini = 0.48\nsamples = 5\nvalue = [0, 0, 0, 0, 0, 3, 2]"] ;
135 -> 136 ;
137 [label="gini = 0.375\nsamples = 4\nvalue = [0, 0, 0, 0, 0, 3, 1]"] ;
136 -> 137 ;
138 [label="gini = 0.0\nsamples = 1\nvalue = [0, 0, 0, 0, 0, 0, 1]"] ;
136 -> 138 ;
139 [label="gini = 0.0\nsamples = 6\nvalue = [0, 0, 0, 0, 0, 0, 10]"] ;
135 -> 139 ;
140 [label="X[2] <= 130.5\ngini = 0.338\nsamples = 8\nvalue = [0, 0, 0, 1, 0, 12, 2]"] ;
132 -> 140 ;
141 [label="gini = 0.0\nsamples = 6\nvalue = [0, 0, 0, 0, 0, 12, 0]"] ;
140 -> 141 ;
142 [label="X[1] <= 9.5\ngini = 0.444\nsamples = 2\nvalue = [0, 0, 0, 1, 0, 0, 2]"] ;
140 -> 142 ;
143 [label="gini = 0.0\nsamples = 1\nvalue = [0, 0, 0, 0, 0, 0, 2]"] ;
142 -> 143 ;
144 [label="gini = 0.0\nsamples = 1\nvalue = [0, 0, 0, 1, 0, 0, 0]"] ;
142 -> 144 ;
145 [label="gini = 0.0\nsamples = 81\nvalue = [0, 0, 0, 125, 0, 0, 0]"] ;
131 -> 145 ;
146 [label="X[10] <= 5.5\ngini = 0.059\nsamples = 46588\nvalue = [71419, 0, 14, 0, 752, 1469, 0]"] ;
128 -> 146 ;
147 [label="X[7] <= 93.5\ngini = 0.171\nsamples = 1151\nvalue = [1632, 0, 0, 0, 5, 164, 0]"] ;
146 -> 147 ;
148 [label="X[4] <= 8.5\ngini = 0.019\nsamples = 485\nvalue = [740, 0, 0, 0, 1, 6, 0]"] ;
147 -> 148 ;
149 [label="X[5] <= 0.5\ngini = 0.009\nsamples = 270\nvalue = [431, 0, 0, 0, 1, 1, 0]"] ;
148 -> 149 ;
150 [label="X[0] <= 1.5\ngini = 0.015\nsamples = 82\nvalue = [134, 0, 0, 0, 0, 1, 0]"] ;
149 -> 150 ;
151 [label="gini = 0.0\nsamples = 80\nvalue = [133, 0, 0, 0, 0, 0, 0]"] ;
150 -> 151 ;
152 [label="X[4] <= 7.0\ngini = 0.5\nsamples = 2\nvalue = [1, 0, 0, 0, 0, 1, 0]"] ;
150 -> 152 ;
153 [label="gini = 0.0\nsamples = 1\nvalue = [1, 0, 0, 0, 0, 0, 0]"] ;
152 -> 153 ;
154 [label="gini = 0.0\nsamples = 1\nvalue = [0, 0, 0, 0, 0, 1, 0]"] ;
152 -> 154 ;
155 [label="X[3] <= 76.5\ngini = 0.007\nsamples = 188\nvalue = [297, 0, 0, 0, 1, 0, 0]"] ;
149 -> 155 ;
156 [label="gini = 0.0\nsamples = 48\nvalue = [75, 0, 0, 0, 0, 0, 0]"] ;
155 -> 156 ;
157 [label="X[5] <= 1.5\ngini = 0.009\nsamples = 140\nvalue = [222, 0, 0, 0, 1, 0, 0]"] ;
155 -> 157 ;
158 [label="gini = 0.016\nsamples = 77\nvalue = [122, 0, 0, 0, 1, 0, 0]"] ;
157 -> 158 ;
159 [label="gini = 0.0\nsamples = 63\nvalue = [100, 0, 0, 0, 0, 0, 0]"] ;
157 -> 159 ;
160 [label="X[10] <= 3.0\ngini = 0.031\nsamples = 215\nvalue = [309, 0, 0, 0, 0, 5, 0]"] ;
148 -> 160 ;
161 [label="gini = 0.0\nsamples = 33\nvalue = [47, 0, 0, 0, 0, 0, 0]"] ;
160 -> 161 ;
162 [label="X[4] <= 9.5\ngini = 0.037\nsamples = 182\nvalue = [262, 0, 0, 0, 0, 5, 0]"] ;
160 -> 162 ;
163 [label="X[10] <= 4.5\ngini = 0.08\nsamples = 41\nvalue = [46, 0, 0, 0, 0, 2, 0]"] ;
162 -> 163 ;
164 [label="gini = 0.102\nsamples = 31\nvalue = [35, 0, 0, 0, 0, 2, 0]"] ;
163 -> 164 ;
165 [label="gini = 0.0\nsamples = 10\nvalue = [11, 0, 0, 0, 0, 0, 0]"] ;
163 -> 165 ;
166 [label="X[7] <= 39.5\ngini = 0.027\nsamples = 141\nvalue = [216, 0, 0, 0, 0, 3, 0]"] ;
162 -> 166 ;
167 [label="gini = 0.198\nsamples = 7\nvalue = [8, 0, 0, 0, 0, 1, 0]"] ;
166 -> 167 ;
168 [label="gini = 0.019\nsamples = 134\nvalue = [208, 0, 0, 0, 0, 2, 0]"] ;
166 -> 168 ;
169 [label="X[10] <= 4.5\ngini = 0.261\nsamples = 666\nvalue = [892, 0, 0, 0, 4, 158, 0]"] ;
147 -> 169 ;
170 [label="X[7] <= 96.5\ngini = 0.414\nsamples = 153\nvalue = [174, 0, 0, 0, 0, 72, 0]"] ;
169 -> 170 ;
171 [label="X[7] <= 95.5\ngini = 0.308\nsamples = 55\nvalue = [16, 0, 0, 0, 0, 68, 0]"] ;
170 -> 171 ;
172 [label="gini = 0.0\nsamples = 10\nvalue = [16, 0, 0, 0, 0, 0, 0]"] ;
171 -> 172 ;
173 [label="gini = 0.0\nsamples = 45\nvalue = [0, 0, 0, 0, 0, 68, 0]"] ;
171 -> 173 ;
174 [label="X[4] <= 10.5\ngini = 0.048\nsamples = 98\nvalue = [158, 0, 0, 0, 0, 4, 0]"] ;
170 -> 174 ;
175 [label="gini = 0.0\nsamples = 63\nvalue = [105, 0, 0, 0, 0, 0, 0]"] ;
174 -> 175 ;
176 [label="X[7] <= 102.5\ngini = 0.131\nsamples = 35\nvalue = [53, 0, 0, 0, 0, 4, 0]"] ;
174 -> 176 ;
177 [label="gini = 0.397\nsamples = 8\nvalue = [8, 0, 0, 0, 0, 3, 0]"] ;
176 -> 177 ;
178 [label="gini = 0.043\nsamples = 27\nvalue = [45, 0, 0, 0, 0, 1, 0]"] ;
176 -> 178 ;
179 [label="X[7] <= 94.5\ngini = 0.199\nsamples = 513\nvalue = [718, 0, 0, 0, 4, 86, 0]"] ;
169 -> 179 ;
180 [label="X[9] <= 2.5\ngini = 0.263\nsamples = 48\nvalue = [12, 0, 0, 0, 0, 65, 0]"] ;
179 -> 180 ;
181 [label="gini = 0.0\nsamples = 4\nvalue = [7, 0, 0, 0, 0, 0, 0]"] ;
180 -> 181 ;
182 [label="X[4] <= 3.5\ngini = 0.133\nsamples = 44\nvalue = [5, 0, 0, 0, 0, 65, 0]"] ;
180 -> 182 ;
183 [label="gini = 0.0\nsamples = 40\nvalue = [0, 0, 0, 0, 0, 65, 0]"] ;
182 -> 183 ;
184 [label="gini = 0.0\nsamples = 4\nvalue = [5, 0, 0, 0, 0, 0, 0]"] ;
182 -> 184 ;
185 [label="X[7] <= 108.5\ngini = 0.066\nsamples = 465\nvalue = [706, 0, 0, 0, 4, 21, 0]"] ;
179 -> 185 ;
186 [label="gini = 0.0\nsamples = 273\nvalue = [426, 0, 0, 0, 0, 0, 0]"] ;
185 -> 186 ;
187 [label="X[5] <= 1.5\ngini = 0.152\nsamples = 192\nvalue = [280, 0, 0, 0, 4, 21, 0]"] ;
185 -> 187 ;
188 [label="gini = 0.137\nsamples = 177\nvalue = [263, 0, 0, 0, 0, 21, 0]"] ;
187 -> 188 ;
189 [label="gini = 0.308\nsamples = 15\nvalue = [17, 0, 0, 0, 4, 0, 0]"] ;
187 -> 189 ;
190 [label="X[9] <= 2.5\ngini = 0.056\nsamples = 45437\nvalue = [69787, 0, 14, 0, 747, 1305, 0]"] ;
146 -> 190 ;
191 [label="X[7] <= 102.5\ngini = 0.06\nsamples = 23420\nvalue = [35856, 0, 5, 0, 644, 494, 0]"] ;
190 -> 191 ;
192 [label="X[10] <= 60.5\ngini = 0.084\nsamples = 6179\nvalue = [9456, 0, 2, 0, 233, 193, 0]"] ;
191 -> 192 ;
193 [label="X[2] <= 129.5\ngini = 0.167\nsamples = 1304\nvalue = [1895, 0, 0, 0, 107, 79, 0]"] ;
192 -> 193 ;
194 [label="X[7] <= 47.5\ngini = 0.305\nsamples = 320\nvalue = [398, 0, 0, 0, 47, 38, 0]"] ;
193 -> 194 ;
195 [label="gini = 0.219\nsamples = 178\nvalue = [240, 0, 0, 0, 23, 10, 0]"] ;
194 -> 195 ;
196 [label="gini = 0.403\nsamples = 142\nvalue = [158, 0, 0, 0, 24, 28, 0]"] ;
194 -> 196 ;
197 [label="X[3] <= 70.5\ngini = 0.12\nsamples = 984\nvalue = [1497, 0, 0, 0, 60, 41, 0]"] ;
193 -> 197 ;
198 [label="gini = 0.568\nsamples = 6\nvalue = [3, 0, 0, 0, 1, 5, 0]"] ;
197 -> 198 ;
199 [label="gini = 0.114\nsamples = 978\nvalue = [1494, 0, 0, 0, 59, 36, 0]"] ;
197 -> 199 ;
200 [label="X[6] <= 2.5\ngini = 0.061\nsamples = 4875\nvalue = [7561, 0, 2, 0, 126, 114, 0]"] ;
192 -> 200 ;
201 [label="X[1] <= 71.5\ngini = 0.172\nsamples = 223\nvalue = [326, 0, 2, 0, 14, 17, 0]"] ;
200 -> 201 ;
202 [label="gini = 0.144\nsamples = 210\nvalue = [316, 0, 2, 0, 9, 15, 0]"] ;
201 -> 202 ;
203 [label="gini = 0.554\nsamples = 13\nvalue = [10, 0, 0, 0, 5, 2, 0]"] ;
201 -> 203 ;
204 [label="X[0] <= 63.0\ngini = 0.055\nsamples = 4652\nvalue = [7235, 0, 0, 0, 112, 97, 0]"] ;
200 -> 204 ;
205 [label="gini = 0.054\nsamples = 4649\nvalue = [7233, 0, 0, 0, 109, 97, 0]"] ;
204 -> 205 ;
206 [label="gini = 0.48\nsamples = 3\nvalue = [2, 0, 0, 0, 3, 0, 0]"] ;
204 -> 206 ;
207 [label="X[10] <= 83.5\ngini = 0.052\nsamples = 17241\nvalue = [26400, 0, 3, 0, 411, 301, 0]"] ;
191 -> 207 ;
208 [label="X[6] <= 16.5\ngini = 0.101\nsamples = 3259\nvalue = [4831, 0, 2, 0, 116, 149, 0]"] ;
207 -> 208 ;
209 [label="X[10] <= 39.5\ngini = 0.166\nsamples = 775\nvalue = [1117, 0, 2, 0, 10, 99, 0]"] ;
208 -> 209 ;
210 [label="gini = 0.354\nsamples = 115\nvalue = [126, 0, 0, 0, 1, 36, 0]"] ;
209 -> 210 ;
211 [label="gini = 0.131\nsamples = 660\nvalue = [991, 0, 2, 0, 9, 63, 0]"] ;
209 -> 211 ;
212 [label="X[3] <= 73.5\ngini = 0.078\nsamples = 2484\nvalue = [3714, 0, 0, 0, 106, 50, 0]"] ;
208 -> 212 ;
213 [label="gini = 0.098\nsamples = 1593\nvalue = [2349, 0, 0, 0, 92, 34, 0]"] ;
212 -> 213 ;
214 [label="gini = 0.042\nsamples = 891\nvalue = [1365, 0, 0, 0, 14, 16, 0]"] ;
212 -> 214 ;
215 [label="X[6] <= 14.5\ngini = 0.04\nsamples = 13982\nvalue = [21569, 0, 1, 0, 295, 152, 0]"] ;
207 -> 215 ;
216 [label="X[0] <= 18.5\ngini = 0.03\nsamples = 7559\nvalue = [11756, 0, 1, 0, 109, 73, 0]"] ;
215 -> 216 ;
217 [label="gini = 0.03\nsamples = 7528\nvalue = [11713, 0, 1, 0, 106, 72, 0]"] ;
216 -> 217 ;
218 [label="gini = 0.158\nsamples = 31\nvalue = [43, 0, 0, 0, 3, 1, 0]"] ;
216 -> 218 ;
219 [label="X[9] <= 1.5\ngini = 0.051\nsamples = 6423\nvalue = [9813, 0, 0, 0, 186, 79, 0]"] ;
215 -> 219 ;
220 [label="gini = 0.067\nsamples = 2164\nvalue = [3271, 0, 0, 0, 89, 28, 0]"] ;
219 -> 220 ;
221 [label="gini = 0.043\nsamples = 4259\nvalue = [6542, 0, 0, 0, 97, 51, 0]"] ;
219 -> 221 ;
222 [label="X[1] <= 5.5\ngini = 0.052\nsamples = 22017\nvalue = [33931, 0, 9, 0, 103, 811, 0]"] ;
190 -> 222 ;
223 [label="X[7] <= 109.5\ngini = 0.057\nsamples = 15317\nvalue = [23520, 0, 9, 0, 74, 620, 0]"] ;
222 -> 223 ;
224 [label="X[2] <= 119.5\ngini = 0.046\nsamples = 7838\nvalue = [12121, 0, 3, 0, 42, 249, 0]"] ;
223 -> 224 ;
225 [label="X[0] <= 3.5\ngini = 0.153\nsamples = 335\nvalue = [495, 0, 0, 0, 1, 44, 0]"] ;
224 -> 225 ;
226 [label="gini = 0.158\nsamples = 324\nvalue = [478, 0, 0, 0, 1, 44, 0]"] ;
225 -> 226 ;
227 [label="gini = 0.0\nsamples = 11\nvalue = [17, 0, 0, 0, 0, 0, 0]"] ;
225 -> 227 ;
228 [label="X[3] <= 72.5\ngini = 0.041\nsamples = 7503\nvalue = [11626, 0, 3, 0, 41, 205, 0]"] ;
224 -> 228 ;
229 [label="gini = 0.035\nsamples = 6817\nvalue = [10595, 0, 3, 0, 28, 158, 0]"] ;
228 -> 229 ;
230 [label="gini = 0.105\nsamples = 686\nvalue = [1031, 0, 0, 0, 13, 47, 0]"] ;
228 -> 230 ;
231 [label="X[6] <= 14.5\ngini = 0.067\nsamples = 7479\nvalue = [11399, 0, 6, 0, 32, 371, 0]"] ;
223 -> 231 ;
232 [label="X[4] <= 5.5\ngini = 0.032\nsamples = 3514\nvalue = [5508, 0, 0, 0, 8, 82, 0]"] ;
231 -> 232 ;
233 [label="gini = 0.058\nsamples = 1162\nvalue = [1808, 0, 0, 0, 7, 49, 0]"] ;
232 -> 233 ;
234 [label="gini = 0.018\nsamples = 2352\nvalue = [3700, 0, 0, 0, 1, 33, 0]"] ;
232 -> 234 ;
235 [label="X[10] <= 247.5\ngini = 0.098\nsamples = 3965\nvalue = [5891, 0, 6, 0, 24, 289, 0]"] ;
231 -> 235 ;
236 [label="gini = 0.086\nsamples = 3561\nvalue = [5298, 0, 6, 0, 24, 218, 0]"] ;
235 -> 236 ;
237 [label="gini = 0.191\nsamples = 404\nvalue = [593, 0, 0, 0, 0, 71, 0]"] ;
235 -> 237 ;
238 [label="X[6] <= 47.5\ngini = 0.041\nsamples = 6700\nvalue = [10411, 0, 0, 0, 29, 191, 0]"] ;
222 -> 238 ;
239 [label="X[0] <= 6.5\ngini = 0.04\nsamples = 6683\nvalue = [10383, 0, 0, 0, 29, 187, 0]"] ;
238 -> 239 ;
240 [label="X[10] <= 197.5\ngini = 0.038\nsamples = 6483\nvalue = [10085, 0, 0, 0, 27, 173, 0]"] ;
239 -> 240 ;
241 [label="gini = 0.043\nsamples = 4784\nvalue = [7445, 0, 0, 0, 23, 143, 0]"] ;
240 -> 241 ;
242 [label="gini = 0.025\nsamples = 1699\nvalue = [2640, 0, 0, 0, 4, 30, 0]"] ;
240 -> 242 ;
243 [label="X[6] <= 23.0\ngini = 0.097\nsamples = 200\nvalue = [298, 0, 0, 0, 2, 14, 0]"] ;
239 -> 243 ;
244 [label="gini = 0.185\nsamples = 98\nvalue = [141, 0, 0, 0, 2, 14, 0]"] ;
243 -> 244 ;
245 [label="gini = 0.0\nsamples = 102\nvalue = [157, 0, 0, 0, 0, 0, 0]"] ;
243 -> 245 ;
246 [label="X[1] <= 21.0\ngini = 0.219\nsamples = 17\nvalue = [28, 0, 0, 0, 0, 4, 0]"] ;
238 -> 246 ;
247 [label="X[2] <= 132.5\ngini = 0.245\nsamples = 14\nvalue = [24, 0, 0, 0, 0, 4, 0]"] ;
246 -> 247 ;
248 [label="gini = 0.153\nsamples = 6\nvalue = [11, 0, 0, 0, 0, 1, 0]"] ;
247 -> 248 ;
249 [label="gini = 0.305\nsamples = 8\nvalue = [13, 0, 0, 0, 0, 3, 0]"] ;
247 -> 249 ;
250 [label="gini = 0.0\nsamples = 3\nvalue = [4, 0, 0, 0, 0, 0, 0]"] ;
246 -> 250 ;
}