digraph Tree {
node [shape=box] ;
0 [label="X[8] <= 1.5\ngini = 0.766\nsamples = 11106999\nvalue = [3315243, 5201832, 2083, 5146854, 28995, 1813700, 2060442]"] ;
1 [label="gini = 0.0\nsamples = 1188673\nvalue = [1879340, 0, 0, 0, 0, 0, 0]"] ;
0 -> 1 [labeldistance=2.5, labelangle=45, headlabel="True"] ;
2 [label="X[8] <= 2.5\ngini = 0.743\nsamples = 9918326\nvalue = [1435903, 5201832, 2083, 5146854, 28995, 1813700, 2060442]"] ;
0 -> 2 [labeldistance=2.5, labelangle=-45, headlabel="False"] ;
3 [label="X[2] <= 119.5\ngini = 0.697\nsamples = 8972526\nvalue = [0, 5201832, 0, 5146854, 0, 1784358, 2060442]"] ;
2 -> 3 ;
4 [label="X[6] <= 12.5\ngini = 0.696\nsamples = 818589\nvalue = [0, 324258, 0, 566843, 0, 182378, 220501]"] ;
3 -> 4 ;
5 [label="X[3] <= 70.5\ngini = 0.686\nsamples = 712163\nvalue = [0, 268396, 0, 516814, 0, 157356, 183309]"] ;
4 -> 5 ;
6 [label="X[9] <= 2.5\ngini = 0.672\nsamples = 362199\nvalue = [0, 163262, 0, 264777, 0, 63359, 80827]"] ;
5 -> 6 ;
7 [label="X[6] <= 6.5\ngini = 0.656\nsamples = 261181\nvalue = [0, 117872, 0, 200238, 0, 57879, 37040]"] ;
6 -> 7 ;
8 [label="X[6] <= 3.5\ngini = 0.636\nsamples = 72489\nvalue = [0, 30795, 0, 58160, 0, 5020, 20629]"] ;
7 -> 8 ;
9 [label="gini = 0.616\nsamples = 33909\nvalue = [0, 14046, 0, 27779, 0, 0, 11970]"] ;
8 -> 9 ;
10 [label="gini = 0.647\nsamples = 38580\nvalue = [0, 16749, 0, 30381, 0, 5020, 8659]"] ;
8 -> 10 ;
11 [label="X[7] <= 112.5\ngini = 0.654\nsamples = 188692\nvalue = [0, 87077, 0, 142078, 0, 52859, 16411]"] ;
7 -> 11 ;
12 [label="gini = 0.707\nsamples = 19958\nvalue = [0, 7219, 0, 11924, 0, 9581, 2992]"] ;
11 -> 12 ;
13 [label="gini = 0.643\nsamples = 168734\nvalue = [0, 79858, 0, 130154, 0, 43278, 13419]"] ;
11 -> 13 ;
14 [label="X[5] <= 0.5\ngini = 0.678\nsamples = 101018\nvalue = [0, 45390, 0, 64539, 0, 5480, 43787]"] ;
6 -> 14 ;
15 [label="X[4] <= 4.5\ngini = 0.655\nsamples = 26347\nvalue = [0, 7435, 0, 19126, 0, 1940, 12791]"] ;
14 -> 15 ;
16 [label="gini = 0.636\nsamples = 13879\nvalue = [0, 4579, 0, 9984, 0, 0, 7161]"] ;
15 -> 16 ;
17 [label="gini = 0.668\nsamples = 12468\nvalue = [0, 2856, 0, 9142, 0, 1940, 5630]"] ;
15 -> 17 ;
18 [label="X[3] <= 69.5\ngini = 0.678\nsamples = 74671\nvalue = [0, 37955, 0, 45413, 0, 3540, 30996]"] ;
14 -> 18 ;
19 [label="gini = 0.651\nsamples = 32908\nvalue = [0, 18135, 0, 22671, 0, 1234, 9990]"] ;
18 -> 19 ;
20 [label="gini = 0.687\nsamples = 41763\nvalue = [0, 19820, 0, 22742, 0, 2306, 21006]"] ;
18 -> 20 ;
21 [label="X[5] <= 0.5\ngini = 0.694\nsamples = 349964\nvalue = [0, 105134, 0, 252037, 0, 93997, 102482]"] ;
5 -> 21 ;
22 [label="X[6] <= 8.5\ngini = 0.645\nsamples = 52096\nvalue = [0, 3521, 0, 40982, 0, 18822, 19091]"] ;
21 -> 22 ;
23 [label="X[0] <= 0.5\ngini = 0.645\nsamples = 45282\nvalue = [0, 2897, 0, 35120, 0, 14407, 19091]"] ;
22 -> 23 ;
24 [label="gini = 0.66\nsamples = 35874\nvalue = [0, 2093, 0, 25992, 0, 12723, 15904]"] ;
23 -> 24 ;
25 [label="gini = 0.558\nsamples = 9408\nvalue = [0, 804, 0, 9128, 0, 1684, 3187]"] ;
23 -> 25 ;
26 [label="X[2] <= 116.5\ngini = 0.544\nsamples = 6814\nvalue = [0, 624, 0, 5862, 0, 4415, 0]"] ;
22 -> 26 ;
27 [label="gini = 0.516\nsamples = 5720\nvalue = [0, 185, 0, 4891, 0, 4071, 0]"] ;
26 -> 27 ;
28 [label="gini = 0.592\nsamples = 1094\nvalue = [0, 439, 0, 971, 0, 344, 0]"] ;
26 -> 28 ;
29 [label="X[5] <= 1.5\ngini = 0.696\nsamples = 297868\nvalue = [0, 101613, 0, 211055, 0, 75175, 83391]"] ;
21 -> 29 ;
30 [label="X[6] <= 6.5\ngini = 0.689\nsamples = 125740\nvalue = [0, 34682, 0, 91249, 0, 28394, 44596]"] ;
29 -> 30 ;
31 [label="gini = 0.593\nsamples = 23624\nvalue = [0, 1687, 0, 19626, 0, 3002, 12891]"] ;
30 -> 31 ;
32 [label="gini = 0.699\nsamples = 102116\nvalue = [0, 32995, 0, 71623, 0, 25392, 31705]"] ;
30 -> 32 ;
33 [label="X[9] <= 0.5\ngini = 0.696\nsamples = 172128\nvalue = [0, 66931, 0, 119806, 0, 46781, 38795]"] ;
29 -> 33 ;
34 [label="gini = 0.639\nsamples = 23170\nvalue = [0, 8861, 0, 17157, 0, 0, 10789]"] ;
33 -> 34 ;
35 [label="gini = 0.696\nsamples = 148958\nvalue = [0, 58070, 0, 102649, 0, 46781, 28006]"] ;
33 -> 35 ;
36 [label="X[2] <= 118.5\ngini = 0.73\nsamples = 106426\nvalue = [0, 55862, 0, 50029, 0, 25022, 37192]"] ;
4 -> 36 ;
37 [label="X[0] <= 1.5\ngini = 0.742\nsamples = 40400\nvalue = [0, 20461, 0, 16367, 0, 13030, 14056]"] ;
36 -> 37 ;
38 [label="X[3] <= 57.5\ngini = 0.748\nsamples = 37563\nvalue = [0, 16472, 0, 16065, 0, 12964, 13958]"] ;
37 -> 38 ;
39 [label="X[4] <= 6.5\ngini = 0.75\nsamples = 16364\nvalue = [0, 5995, 0, 6441, 0, 6752, 6634]"] ;
38 -> 39 ;
40 [label="gini = 0.731\nsamples = 7386\nvalue = [0, 2654, 0, 2959, 0, 1864, 4117]"] ;
39 -> 40 ;
41 [label="gini = 0.736\nsamples = 8978\nvalue = [0, 3341, 0, 3482, 0, 4888, 2517]"] ;
39 -> 41 ;
42 [label="X[9] <= 2.5\ngini = 0.74\nsamples = 21199\nvalue = [0, 10477, 0, 9624, 0, 6212, 7324]"] ;
38 -> 42 ;
43 [label="gini = 0.723\nsamples = 11576\nvalue = [0, 5852, 0, 5012, 0, 5541, 2014]"] ;
42 -> 43 ;
44 [label="gini = 0.692\nsamples = 9623\nvalue = [0, 4625, 0, 4612, 0, 671, 5310]"] ;
42 -> 44 ;
45 [label="X[2] <= 117.5\ngini = 0.193\nsamples = 2837\nvalue = [0, 3989, 0, 302, 0, 66, 98]"] ;
37 -> 45 ;
46 [label="X[9] <= 2.5\ngini = 0.075\nsamples = 2008\nvalue = [0, 3035, 0, 102, 0, 1, 20]"] ;
45 -> 46 ;
47 [label="gini = 0.242\nsamples = 235\nvalue = [0, 327, 0, 44, 0, 1, 7]"] ;
46 -> 47 ;
48 [label="gini = 0.05\nsamples = 1773\nvalue = [0, 2708, 0, 58, 0, 0, 13]"] ;
46 -> 48 ;
49 [label="X[3] <= 58.5\ngini = 0.429\nsamples = 829\nvalue = [0, 954, 0, 200, 0, 65, 78]"] ;
45 -> 49 ;
50 [label="gini = 0.335\nsamples = 678\nvalue = [0, 842, 0, 158, 0, 18, 34]"] ;
49 -> 50 ;
51 [label="gini = 0.693\nsamples = 151\nvalue = [0, 112, 0, 42, 0, 47, 44]"] ;
49 -> 51 ;
52 [label="X[6] <= 16.5\ngini = 0.718\nsamples = 66026\nvalue = [0, 35401, 0, 33662, 0, 11992, 23136]"] ;
36 -> 52 ;
53 [label="X[7] <= 202.5\ngini = 0.263\nsamples = 5189\nvalue = [0, 168, 0, 129, 0, 919, 6911]"] ;
52 -> 53 ;
54 [label="X[9] <= 2.5\ngini = 0.268\nsamples = 3876\nvalue = [0, 95, 0, 95, 0, 742, 5136]"] ;
53 -> 54 ;
55 [label="gini = 0.747\nsamples = 195\nvalue = [0, 84, 0, 67, 0, 90, 73]"] ;
54 -> 55 ;
56 [label="gini = 0.213\nsamples = 3681\nvalue = [0, 11, 0, 28, 0, 652, 5063]"] ;
54 -> 56 ;
57 [label="X[4] <= 6.5\ngini = 0.248\nsamples = 1313\nvalue = [0, 73, 0, 34, 0, 177, 1775]"] ;
53 -> 57 ;
58 [label="gini = 0.615\nsamples = 211\nvalue = [0, 43, 0, 7, 0, 160, 118]"] ;
57 -> 58 ;
59 [label="gini = 0.083\nsamples = 1102\nvalue = [0, 30, 0, 27, 0, 17, 1657]"] ;
57 -> 59 ;
60 [label="X[9] <= 2.5\ngini = 0.702\nsamples = 60837\nvalue = [0, 35233, 0, 33533, 0, 11073, 16225]"] ;
52 -> 60 ;
61 [label="X[0] <= 0.5\ngini = 0.69\nsamples = 32745\nvalue = [0, 18586, 0, 19236, 0, 9615, 4139]"] ;
60 -> 61 ;
62 [label="gini = 0.712\nsamples = 21044\nvalue = [0, 9951, 0, 12044, 0, 7896, 3274]"] ;
61 -> 62 ;
63 [label="gini = 0.617\nsamples = 11701\nvalue = [0, 8635, 0, 7192, 0, 1719, 865]"] ;
61 -> 63 ;
64 [label="X[5] <= 1.5\ngini = 0.682\nsamples = 28092\nvalue = [0, 16647, 0, 14297, 0, 1458, 12086]"] ;
60 -> 64 ;
65 [label="gini = 0.672\nsamples = 18749\nvalue = [0, 11258, 0, 9374, 0, 408, 8684]"] ;
64 -> 65 ;
66 [label="gini = 0.697\nsamples = 9343\nvalue = [0, 5389, 0, 4923, 0, 1050, 3402]"] ;
64 -> 66 ;
67 [label="X[9] <= 2.5\ngini = 0.695\nsamples = 8153937\nvalue = [0, 4877574, 0, 4580011, 0, 1601980, 1839941]"] ;
3 -> 67 ;
68 [label="X[10] <= 231.5\ngini = 0.691\nsamples = 5348429\nvalue = [0, 3130374, 0, 3094096, 0, 1448917, 788095]"] ;
67 -> 68 ;
69 [label="X[9] <= 0.5\ngini = 0.699\nsamples = 4355694\nvalue = [0, 2382057, 0, 2563462, 0, 1268382, 677311]"] ;
68 -> 69 ;
70 [label="X[0] <= 0.5\ngini = 0.66\nsamples = 405321\nvalue = [0, 188233, 0, 256512, 0, 0, 196729]"] ;
69 -> 70 ;
71 [label="X[3] <= 74.5\ngini = 0.65\nsamples = 325249\nvalue = [0, 118175, 0, 209100, 0, 0, 187034]"] ;
70 -> 71 ;
72 [label="gini = 0.65\nsamples = 225041\nvalue = [0, 88630, 0, 153098, 0, 0, 114010]"] ;
71 -> 72 ;
73 [label="gini = 0.628\nsamples = 100208\nvalue = [0, 29545, 0, 56002, 0, 0, 73024]"] ;
71 -> 73 ;
74 [label="X[4] <= 11.5\ngini = 0.552\nsamples = 80072\nvalue = [0, 70058, 0, 47412, 0, 0, 9695]"] ;
70 -> 74 ;
75 [label="gini = 0.568\nsamples = 50452\nvalue = [0, 41288, 0, 31882, 0, 0, 6927]"] ;
74 -> 75 ;
76 [label="gini = 0.514\nsamples = 29620\nvalue = [0, 28770, 0, 15530, 0, 0, 2768]"] ;
74 -> 76 ;
77 [label="X[2] <= 133.5\ngini = 0.693\nsamples = 3950373\nvalue = [0, 2193824, 0, 2306950, 0, 1268382, 480582]"] ;
69 -> 77 ;
78 [label="X[10] <= 29.5\ngini = 0.695\nsamples = 3753009\nvalue = [0, 2029327, 0, 2218337, 0, 1222365, 467812]"] ;
77 -> 78 ;
79 [label="gini = 0.719\nsamples = 690980\nvalue = [0, 303041, 0, 381915, 0, 288213, 119466]"] ;
78 -> 79 ;
80 [label="gini = 0.687\nsamples = 3062029\nvalue = [0, 1726286, 0, 1836422, 0, 934152, 348346]"] ;
78 -> 80 ;
81 [label="X[7] <= 123.5\ngini = 0.618\nsamples = 197364\nvalue = [0, 164497, 0, 88613, 0, 46017, 12770]"] ;
77 -> 81 ;
82 [label="gini = 0.535\nsamples = 49123\nvalue = [0, 49683, 0, 15391, 0, 9572, 3001]"] ;
81 -> 82 ;
83 [label="gini = 0.636\nsamples = 148241\nvalue = [0, 114814, 0, 73222, 0, 36445, 9769]"] ;
81 -> 83 ;
84 [label="X[9] <= 0.5\ngini = 0.641\nsamples = 992735\nvalue = [0, 748317, 0, 530634, 0, 180535, 110784]"] ;
68 -> 84 ;
85 [label="X[0] <= 0.5\ngini = 0.623\nsamples = 137083\nvalue = [0, 100301, 0, 78746, 0, 0, 37613]"] ;
84 -> 85 ;
86 [label="X[6] <= 20.5\ngini = 0.649\nsamples = 98272\nvalue = [0, 61848, 0, 57963, 0, 0, 35113]"] ;
85 -> 86 ;
87 [label="gini = 0.647\nsamples = 82800\nvalue = [0, 53505, 0, 48167, 0, 0, 28763]"] ;
86 -> 87 ;
88 [label="gini = 0.657\nsamples = 15472\nvalue = [0, 8343, 0, 9796, 0, 0, 6350]"] ;
86 -> 88 ;
89 [label="X[7] <= 61.5\ngini = 0.497\nsamples = 38811\nvalue = [0, 38453, 0, 20783, 0, 0, 2500]"] ;
85 -> 89 ;
90 [label="gini = 0.507\nsamples = 21966\nvalue = [0, 21054, 0, 12373, 0, 0, 1400]"] ;
89 -> 90 ;
91 [label="gini = 0.483\nsamples = 16845\nvalue = [0, 17399, 0, 8410, 0, 0, 1100]"] ;
89 -> 91 ;
92 [label="X[4] <= 6.5\ngini = 0.639\nsamples = 855652\nvalue = [0, 648016, 0, 451888, 0, 180535, 73171]"] ;
84 -> 92 ;
93 [label="X[0] <= 0.5\ngini = 0.638\nsamples = 395838\nvalue = [0, 303978, 0, 206644, 0, 54403, 61241]"] ;
92 -> 93 ;
94 [label="gini = 0.73\nsamples = 160521\nvalue = [0, 68938, 0, 90551, 0, 43247, 51420]"] ;
93 -> 94 ;
95 [label="gini = 0.502\nsamples = 235317\nvalue = [0, 235040, 0, 116093, 0, 11156, 9821]"] ;
93 -> 95 ;
96 [label="X[3] <= 41.5\ngini = 0.632\nsamples = 459814\nvalue = [0, 344038, 0, 245244, 0, 126132, 11930]"] ;
92 -> 96 ;
97 [label="gini = 0.654\nsamples = 238337\nvalue = [0, 159255, 0, 134782, 0, 74999, 8126]"] ;
96 -> 97 ;
98 [label="gini = 0.601\nsamples = 221477\nvalue = [0, 184783, 0, 110462, 0, 51133, 3804]"] ;
96 -> 98 ;
99 [label="X[0] <= 0.5\ngini = 0.676\nsamples = 2805508\nvalue = [0, 1747200, 0, 1485915, 0, 153063, 1051846]"] ;
67 -> 99 ;
100 [label="X[10] <= 29.5\ngini = 0.681\nsamples = 1262369\nvalue = [0, 413489, 0, 650666, 0, 117042, 815671]"] ;
99 -> 100 ;
101 [label="X[4] <= 6.5\ngini = 0.619\nsamples = 171191\nvalue = [0, 26865, 0, 79433, 0, 21714, 143037]"] ;
100 -> 101 ;
102 [label="X[10] <= 24.5\ngini = 0.709\nsamples = 72879\nvalue = [0, 14027, 0, 36036, 0, 21668, 43668]"] ;
101 -> 102 ;
103 [label="gini = 0.72\nsamples = 37576\nvalue = [0, 11518, 0, 21348, 0, 8378, 18178]"] ;
102 -> 103 ;
104 [label="gini = 0.665\nsamples = 35303\nvalue = [0, 2509, 0, 14688, 0, 13290, 25490]"] ;
102 -> 104 ;
105 [label="X[7] <= 139.5\ngini = 0.508\nsamples = 98312\nvalue = [0, 12838, 0, 43397, 0, 46, 99369]"] ;
101 -> 105 ;
106 [label="gini = 0.562\nsamples = 20609\nvalue = [0, 3577, 0, 10449, 0, 46, 18560]"] ;
105 -> 106 ;
107 [label="gini = 0.491\nsamples = 77703\nvalue = [0, 9261, 0, 32948, 0, 0, 80809]"] ;
105 -> 107 ;
108 [label="X[6] <= 12.5\ngini = 0.685\nsamples = 1091178\nvalue = [0, 386624, 0, 571233, 0, 95328, 672634]"] ;
100 -> 108 ;
109 [label="X[3] <= 71.5\ngini = 0.672\nsamples = 438722\nvalue = [0, 126446, 0, 237596, 0, 40013, 290380]"] ;
108 -> 109 ;
110 [label="gini = 0.673\nsamples = 426750\nvalue = [0, 125639, 0, 233802, 0, 37941, 278235]"] ;
109 -> 110 ;
111 [label="gini = 0.529\nsamples = 11972\nvalue = [0, 807, 0, 3794, 0, 2072, 12145]"] ;
109 -> 111 ;
112 [label="X[4] <= 4.5\ngini = 0.691\nsamples = 652456\nvalue = [0, 260178, 0, 333637, 0, 55315, 382254]"] ;
108 -> 112 ;
113 [label="gini = 0.646\nsamples = 297899\nvalue = [0, 137922, 0, 122292, 0, 0, 210951]"] ;
112 -> 113 ;
114 [label="gini = 0.707\nsamples = 354557\nvalue = [0, 122256, 0, 211345, 0, 55315, 171303]"] ;
112 -> 114 ;
115 [label="X[0] <= 1.5\ngini = 0.575\nsamples = 1543139\nvalue = [0, 1333711, 0, 835249, 0, 36021, 236175]"] ;
99 -> 115 ;
116 [label="X[7] <= 104.5\ngini = 0.587\nsamples = 1280705\nvalue = [0, 1073743, 0, 704074, 0, 32616, 215838]"] ;
115 -> 116 ;
117 [label="X[4] <= 2.5\ngini = 0.551\nsamples = 220315\nvalue = [0, 205964, 0, 105109, 0, 4535, 32895]"] ;
116 -> 117 ;
118 [label="gini = 0.477\nsamples = 63016\nvalue = [0, 67004, 0, 25640, 0, 0, 7067]"] ;
117 -> 118 ;
119 [label="gini = 0.575\nsamples = 157299\nvalue = [0, 138960, 0, 79469, 0, 4535, 25828]"] ;
117 -> 119 ;
120 [label="X[10] <= 230.5\ngini = 0.593\nsamples = 1060390\nvalue = [0, 867779, 0, 598965, 0, 28081, 182943]"] ;
116 -> 120 ;
121 [label="gini = 0.604\nsamples = 868818\nvalue = [0, 682158, 0, 507123, 0, 24875, 160672]"] ;
120 -> 121 ;
122 [label="gini = 0.527\nsamples = 191572\nvalue = [0, 185621, 0, 91842, 0, 3206, 22271]"] ;
120 -> 122 ;
123 [label="X[4] <= 2.5\ngini = 0.505\nsamples = 262434\nvalue = [0, 259968, 0, 131175, 0, 3405, 20337]"] ;
115 -> 123 ;
124 [label="X[7] <= 214.5\ngini = 0.352\nsamples = 82609\nvalue = [0, 102097, 0, 24206, 0, 0, 4172]"] ;
123 -> 124 ;
125 [label="gini = 0.32\nsamples = 67185\nvalue = [0, 85498, 0, 17354, 0, 0, 3011]"] ;
124 -> 125 ;
126 [label="gini = 0.465\nsamples = 15424\nvalue = [0, 16599, 0, 6852, 0, 0, 1161]"] ;
124 -> 126 ;
127 [label="X[4] <= 10.5\ngini = 0.547\nsamples = 179825\nvalue = [0, 157871, 0, 106969, 0, 3405, 16165]"] ;
123 -> 127 ;
128 [label="gini = 0.569\nsamples = 130819\nvalue = [0, 100674, 0, 90153, 0, 3405, 12660]"] ;
127 -> 128 ;
129 [label="gini = 0.406\nsamples = 49006\nvalue = [0, 57197, 0, 16816, 0, 0, 3505]"] ;
127 -> 129 ;
130 [label="X[6] <= 42.5\ngini = 0.078\nsamples = 945800\nvalue = [1435903, 0, 2083, 0, 28995, 29342, 0]"] ;
2 -> 130 ;
131 [label="X[3] <= 76.5\ngini = 0.07\nsamples = 875163\nvalue = [1334688, 0, 1996, 0, 22931, 25032, 0]"] ;
130 -> 131 ;
132 [label="X[0] <= 0.5\ngini = 0.065\nsamples = 842729\nvalue = [1288573, 0, 1932, 0, 20556, 21989, 0]"] ;
131 -> 132 ;
133 [label="X[8] <= 4.5\ngini = 0.09\nsamples = 557398\nvalue = [841174, 0, 1901, 0, 19077, 19903, 0]"] ;
132 -> 133 ;
134 [label="X[10] <= 33.5\ngini = 0.279\nsamples = 163923\nvalue = [218966, 0, 1901, 0, 19077, 19903, 0]"] ;
133 -> 134 ;
135 [label="X[5] <= 0.5\ngini = 0.203\nsamples = 28192\nvalue = [39931, 0, 303, 0, 2040, 2613, 0]"] ;
134 -> 135 ;
136 [label="gini = 0.325\nsamples = 4175\nvalue = [5423, 0, 116, 0, 480, 656, 0]"] ;
135 -> 136 ;
137 [label="gini = 0.18\nsamples = 24017\nvalue = [34508, 0, 187, 0, 1560, 1957, 0]"] ;
135 -> 137 ;
138 [label="X[2] <= 120.5\ngini = 0.294\nsamples = 135731\nvalue = [179035, 0, 1598, 0, 17037, 17290, 0]"] ;
134 -> 138 ;
139 [label="gini = 0.425\nsamples = 15085\nvalue = [17613, 0, 288, 0, 2737, 3267, 0]"] ;
138 -> 139 ;
140 [label="gini = 0.275\nsamples = 120646\nvalue = [161422, 0, 1310, 0, 14300, 14023, 0]"] ;
138 -> 140 ;
141 [label="gini = 0.0\nsamples = 393475\nvalue = [622208, 0, 0, 0, 0, 0, 0]"] ;
133 -> 141 ;
142 [label="X[2] <= 124.5\ngini = 0.016\nsamples = 285331\nvalue = [447399, 0, 31, 0, 1479, 2086, 0]"] ;
132 -> 142 ;
143 [label="X[7] <= 163.5\ngini = 0.005\nsamples = 119763\nvalue = [188692, 0, 0, 0, 199, 293, 0]"] ;
142 -> 143 ;
144 [label="X[10] <= 218.5\ngini = 0.009\nsamples = 55833\nvalue = [87780, 0, 0, 0, 151, 256, 0]"] ;
143 -> 144 ;
145 [label="gini = 0.016\nsamples = 26135\nvalue = [40907, 0, 0, 0, 136, 196, 0]"] ;
144 -> 145 ;
146 [label="gini = 0.003\nsamples = 29698\nvalue = [46873, 0, 0, 0, 15, 60, 0]"] ;
144 -> 146 ;
147 [label="X[8] <= 4.5\ngini = 0.002\nsamples = 63930\nvalue = [100912, 0, 0, 0, 48, 37, 0]"] ;
143 -> 147 ;
148 [label="gini = 0.099\nsamples = 1049\nvalue = [1563, 0, 0, 0, 48, 37, 0]"] ;
147 -> 148 ;
149 [label="gini = 0.0\nsamples = 62881\nvalue = [99349, 0, 0, 0, 0, 0, 0]"] ;
147 -> 149 ;
150 [label="X[7] <= 174.5\ngini = 0.024\nsamples = 165568\nvalue = [258707, 0, 31, 0, 1280, 1793, 0]"] ;
142 -> 150 ;
151 [label="X[10] <= 127.5\ngini = 0.039\nsamples = 89360\nvalue = [138662, 0, 30, 0, 1106, 1644, 0]"] ;
150 -> 151 ;
152 [label="gini = 0.048\nsamples = 51940\nvalue = [80059, 0, 25, 0, 795, 1205, 0]"] ;
151 -> 152 ;
153 [label="gini = 0.025\nsamples = 37420\nvalue = [58603, 0, 5, 0, 311, 439, 0]"] ;
151 -> 153 ;
154 [label="X[2] <= 137.5\ngini = 0.005\nsamples = 76208\nvalue = [120045, 0, 1, 0, 174, 149, 0]"] ;
150 -> 154 ;
155 [label="gini = 0.004\nsamples = 75540\nvalue = [119089, 0, 1, 0, 88, 136, 0]"] ;
154 -> 155 ;
156 [label="gini = 0.172\nsamples = 668\nvalue = [956, 0, 0, 0, 86, 13, 0]"] ;
154 -> 156 ;
157 [label="X[7] <= 42.5\ngini = 0.196\nsamples = 32434\nvalue = [46115, 0, 64, 0, 2375, 3043, 0]"] ;
131 -> 157 ;
158 [label="X[8] <= 4.5\ngini = 0.509\nsamples = 5888\nvalue = [6206, 0, 33, 0, 1400, 1796, 0]"] ;
157 -> 158 ;
159 [label="X[5] <= 1.5\ngini = 0.543\nsamples = 5320\nvalue = [5278, 0, 33, 0, 1400, 1796, 0]"] ;
158 -> 159 ;
160 [label="X[6] <= 14.0\ngini = 0.472\nsamples = 2509\nvalue = [2715, 0, 25, 0, 196, 1106, 0]"] ;
159 -> 160 ;
161 [label="gini = 0.071\nsamples = 405\nvalue = [634, 0, 4, 0, 3, 17, 0]"] ;
160 -> 161 ;
162 [label="gini = 0.515\nsamples = 2104\nvalue = [2081, 0, 21, 0, 193, 1089, 0]"] ;
160 -> 162 ;
163 [label="X[2] <= 132.5\ngini = 0.574\nsamples = 2811\nvalue = [2563, 0, 8, 0, 1204, 690, 0]"] ;
159 -> 163 ;
164 [label="gini = 0.584\nsamples = 2715\nvalue = [2411, 0, 8, 0, 1203, 690, 0]"] ;
163 -> 164 ;
165 [label="gini = 0.013\nsamples = 96\nvalue = [152, 0, 0, 0, 1, 0, 0]"] ;
163 -> 165 ;
166 [label="gini = 0.0\nsamples = 568\nvalue = [928, 0, 0, 0, 0, 0, 0]"] ;
158 -> 166 ;
167 [label="X[7] <= 106.5\ngini = 0.103\nsamples = 26546\nvalue = [39909, 0, 31, 0, 975, 1247, 0]"] ;
157 -> 167 ;
168 [label="X[10] <= 6.5\ngini = 0.237\nsamples = 2536\nvalue = [3509, 0, 25, 0, 150, 359, 0]"] ;
167 -> 168 ;
169 [label="X[8] <= 4.5\ngini = 0.296\nsamples = 1924\nvalue = [2563, 0, 24, 0, 145, 356, 0]"] ;
168 -> 169 ;
170 [label="gini = 0.374\nsamples = 1456\nvalue = [1796, 0, 24, 0, 145, 356, 0]"] ;
169 -> 170 ;
171 [label="gini = 0.0\nsamples = 468\nvalue = [767, 0, 0, 0, 0, 0, 0]"] ;
169 -> 171 ;
172 [label="X[7] <= 43.5\ngini = 0.019\nsamples = 612\nvalue = [946, 0, 1, 0, 5, 3, 0]"] ;
168 -> 172 ;
173 [label="gini = 0.219\nsamples = 22\nvalue = [29, 0, 0, 0, 3, 1, 0]"] ;
172 -> 173 ;
174 [label="gini = 0.011\nsamples = 590\nvalue = [917, 0, 1, 0, 2, 2, 0]"] ;
172 -> 174 ;
175 [label="X[0] <= 0.5\ngini = 0.087\nsamples = 24010\nvalue = [36400, 0, 6, 0, 825, 888, 0]"] ;
167 -> 175 ;
176 [label="X[4] <= 2.5\ngini = 0.132\nsamples = 14054\nvalue = [20790, 0, 6, 0, 744, 800, 0]"] ;
175 -> 176 ;
177 [label="gini = 0.246\nsamples = 1906\nvalue = [2653, 0, 0, 0, 155, 269, 0]"] ;
176 -> 177 ;
178 [label="gini = 0.112\nsamples = 12148\nvalue = [18137, 0, 6, 0, 589, 531, 0]"] ;
176 -> 178 ;
179 [label="X[7] <= 243.5\ngini = 0.021\nsamples = 9956\nvalue = [15610, 0, 0, 0, 81, 88, 0]"] ;
175 -> 179 ;
180 [label="gini = 0.018\nsamples = 9653\nvalue = [15160, 0, 0, 0, 64, 71, 0]"] ;
179 -> 180 ;
181 [label="gini = 0.133\nsamples = 303\nvalue = [450, 0, 0, 0, 17, 17, 0]"] ;
179 -> 181 ;
182 [label="X[8] <= 4.5\ngini = 0.174\nsamples = 70637\nvalue = [101215, 0, 87, 0, 6064, 4310, 0]"] ;
130 -> 182 ;
183 [label="X[8] <= 3.5\ngini = 0.405\nsamples = 26561\nvalue = [31492, 0, 87, 0, 6064, 4310, 0]"] ;
182 -> 183 ;
184 [label="X[1] <= 0.5\ngini = 0.366\nsamples = 25563\nvalue = [31492, 0, 0, 0, 5084, 3783, 0]"] ;
183 -> 184 ;
185 [label="X[9] <= 2.5\ngini = 0.405\nsamples = 22197\nvalue = [26268, 0, 0, 0, 5009, 3714, 0]"] ;
184 -> 185 ;
186 [label="X[0] <= 0.5\ngini = 0.494\nsamples = 10684\nvalue = [10984, 0, 0, 0, 4522, 1284, 0]"] ;
185 -> 186 ;
187 [label="gini = 0.355\nsamples = 6723\nvalue = [8248, 0, 0, 0, 1799, 481, 0]"] ;
186 -> 187 ;
188 [label="gini = 0.604\nsamples = 3961\nvalue = [2736, 0, 0, 0, 2723, 803, 0]"] ;
186 -> 188 ;
189 [label="X[0] <= 1.5\ngini = 0.276\nsamples = 11513\nvalue = [15284, 0, 0, 0, 487, 2430, 0]"] ;
185 -> 189 ;
190 [label="gini = 0.209\nsamples = 9984\nvalue = [13987, 0, 0, 0, 293, 1543, 0]"] ;
189 -> 190 ;
191 [label="gini = 0.557\nsamples = 1529\nvalue = [1297, 0, 0, 0, 194, 887, 0]"] ;
189 -> 191 ;
192 [label="X[4] <= 1.5\ngini = 0.053\nsamples = 3366\nvalue = [5224, 0, 0, 0, 75, 69, 0]"] ;
184 -> 192 ;
193 [label="X[10] <= 56.5\ngini = 0.25\nsamples = 160\nvalue = [219, 0, 0, 0, 27, 9, 0]"] ;
192 -> 193 ;
194 [label="gini = 0.408\nsamples = 12\nvalue = [4, 0, 0, 0, 10, 0, 0]"] ;
193 -> 194 ;
195 [label="gini = 0.198\nsamples = 148\nvalue = [215, 0, 0, 0, 17, 9, 0]"] ;
193 -> 195 ;
196 [label="X[0] <= 115.0\ngini = 0.042\nsamples = 3206\nvalue = [5005, 0, 0, 0, 48, 60, 0]"] ;
192 -> 196 ;
197 [label="gini = 0.04\nsamples = 3205\nvalue = [5005, 0, 0, 0, 45, 60, 0]"] ;
196 -> 197 ;
198 [label="gini = 0.0\nsamples = 1\nvalue = [0, 0, 0, 0, 3, 0, 0]"] ;
196 -> 198 ;
199 [label="X[9] <= 2.5\ngini = 0.51\nsamples = 998\nvalue = [0, 0, 87, 0, 980, 527, 0]"] ;
183 -> 199 ;
200 [label="X[5] <= 2.5\ngini = 0.415\nsamples = 841\nvalue = [0, 0, 22, 0, 958, 358, 0]"] ;
199 -> 200 ;
201 [label="X[9] <= 1.5\ngini = 0.407\nsamples = 830\nvalue = [0, 0, 22, 0, 958, 341, 0]"] ;
200 -> 201 ;
202 [label="gini = 0.109\nsamples = 231\nvalue = [0, 0, 1, 0, 342, 20, 0]"] ;
201 -> 202 ;
203 [label="gini = 0.474\nsamples = 599\nvalue = [0, 0, 21, 0, 616, 321, 0]"] ;
201 -> 203 ;
204 [label="gini = 0.0\nsamples = 11\nvalue = [0, 0, 0, 0, 0, 17, 0]"] ;
200 -> 204 ;
205 [label="X[10] <= 195.0\ngini = 0.492\nsamples = 157\nvalue = [0, 0, 65, 0, 22, 169, 0]"] ;
199 -> 205 ;
206 [label="X[4] <= 6.5\ngini = 0.558\nsamples = 101\nvalue = [0, 0, 60, 0, 16, 96, 0]"] ;
205 -> 206 ;
207 [label="gini = 0.618\nsamples = 55\nvalue = [0, 0, 38, 0, 16, 46, 0]"] ;
206 -> 207 ;
208 [label="gini = 0.424\nsamples = 46\nvalue = [0, 0, 22, 0, 0, 50, 0]"] ;
206 -> 208 ;
209 [label="X[1] <= 0.5\ngini = 0.236\nsamples = 56\nvalue = [0, 0, 5, 0, 6, 73, 0]"] ;
205 -> 209 ;
210 [label="gini = 0.201\nsamples = 55\nvalue = [0, 0, 3, 0, 6, 73, 0]"] ;
209 -> 210 ;
211 [label="gini = 0.0\nsamples = 1\nvalue = [0, 0, 2, 0, 0, 0, 0]"] ;
209 -> 211 ;
212 [label="gini = 0.0\nsamples = 44076\nvalue = [69723, 0, 0, 0, 0, 0, 0]"] ;
182 -> 212 ;
}