digraph Tree {
node [shape=box] ;
0 [label="X[0] <= 0.5\ngini = 0.767\nsamples = 11107266\nvalue = [3317519, 5202863, 2054, 5141376, 28662, 1816705, 2059970]"] ;
1 [label="X[7] <= 198.5\ngini = 0.783\nsamples = 6336363\nvalue = [2773240, 1450171, 2016, 2667312, 23722, 1442591, 1665925]"] ;
0 -> 1 [labeldistance=2.5, labelangle=45, headlabel="True"] ;
2 [label="X[9] <= 2.5\ngini = 0.773\nsamples = 3724571\nvalue = [1975418, 806968, 1920, 1328489, 13053, 820737, 946350]"] ;
1 -> 2 ;
3 [label="X[6] <= 2.5\ngini = 0.771\nsamples = 2538089\nvalue = [1312875, 549996, 431, 960192, 11506, 744082, 437798]"] ;
2 -> 3 ;
4 [label="X[5] <= 1.5\ngini = 0.756\nsamples = 382428\nvalue = [208800, 107829, 27, 151206, 669, 38321, 97926]"] ;
3 -> 4 ;
5 [label="X[8] <= 1.5\ngini = 0.771\nsamples = 101709\nvalue = [35836, 18364, 16, 47752, 323, 16717, 41957]"] ;
4 -> 5 ;
6 [label="gini = 0.0\nsamples = 13344\nvalue = [21157, 0, 0, 0, 0, 0, 0]"] ;
5 -> 6 ;
7 [label="X[6] <= 0.5\ngini = 0.751\nsamples = 88365\nvalue = [14679, 18364, 16, 47752, 323, 16717, 41957]"] ;
5 -> 7 ;
8 [label="X[10] <= 53.5\ngini = 0.764\nsamples = 16751\nvalue = [3114, 7569, 3, 8440, 30, 3262, 4046]"] ;
7 -> 8 ;
9 [label="gini = 0.752\nsamples = 6220\nvalue = [2327, 2425, 3, 2706, 0, 59, 2287]"] ;
8 -> 9 ;
10 [label="gini = 0.736\nsamples = 10531\nvalue = [787, 5144, 0, 5734, 30, 3203, 1759]"] ;
8 -> 10 ;
11 [label="X[10] <= 225.5\ngini = 0.734\nsamples = 71614\nvalue = [11565, 10795, 13, 39312, 293, 13455, 37911]"] ;
7 -> 11 ;
12 [label="gini = 0.75\nsamples = 33635\nvalue = [4749, 5834, 8, 19111, 221, 9061, 14350]"] ;
11 -> 12 ;
13 [label="gini = 0.707\nsamples = 37979\nvalue = [6816, 4961, 5, 20201, 72, 4394, 23561]"] ;
11 -> 13 ;
14 [label="X[10] <= 230.5\ngini = 0.735\nsamples = 280719\nvalue = [172964, 89465, 11, 103454, 346, 21604, 55969]"] ;
4 -> 14 ;
15 [label="X[9] <= 0.5\ngini = 0.761\nsamples = 102368\nvalue = [53993, 22464, 8, 44312, 196, 15239, 25853]"] ;
14 -> 15 ;
16 [label="X[4] <= 9.5\ngini = 0.722\nsamples = 48399\nvalue = [27690, 10499, 5, 22199, 0, 176, 15859]"] ;
15 -> 16 ;
17 [label="gini = 0.731\nsamples = 22985\nvalue = [11920, 6644, 2, 11353, 0, 45, 6447]"] ;
16 -> 17 ;
18 [label="gini = 0.707\nsamples = 25414\nvalue = [15770, 3855, 3, 10846, 0, 131, 9412]"] ;
16 -> 18 ;
19 [label="X[8] <= 1.5\ngini = 0.775\nsamples = 53969\nvalue = [26303, 11965, 3, 22113, 196, 15063, 9994]"] ;
15 -> 19 ;
20 [label="gini = 0.0\nsamples = 11588\nvalue = [18339, 0, 0, 0, 0, 0, 0]"] ;
19 -> 20 ;
21 [label="gini = 0.774\nsamples = 42381\nvalue = [7964, 11965, 3, 22113, 196, 15063, 9994]"] ;
19 -> 21 ;
22 [label="X[9] <= 0.5\ngini = 0.709\nsamples = 178351\nvalue = [118971, 67001, 3, 59142, 150, 6365, 30116]"] ;
14 -> 22 ;
23 [label="X[3] <= 41.5\ngini = 0.714\nsamples = 98813\nvalue = [59272, 42958, 3, 36088, 0, 270, 17490]"] ;
22 -> 23 ;
24 [label="gini = 0.732\nsamples = 32286\nvalue = [17414, 14180, 3, 11490, 0, 112, 7777]"] ;
23 -> 24 ;
25 [label="gini = 0.703\nsamples = 66527\nvalue = [41858, 28778, 0, 24598, 0, 158, 9713]"] ;
23 -> 25 ;
26 [label="X[10] <= 236.5\ngini = 0.692\nsamples = 79538\nvalue = [59699, 24043, 0, 23054, 150, 6095, 12626]"] ;
22 -> 26 ;
27 [label="gini = 0.67\nsamples = 38237\nvalue = [30342, 11284, 0, 10810, 36, 2456, 5372]"] ;
26 -> 27 ;
28 [label="gini = 0.71\nsamples = 41301\nvalue = [29357, 12759, 0, 12244, 114, 3639, 7254]"] ;
26 -> 28 ;
29 [label="X[9] <= 0.5\ngini = 0.77\nsamples = 2155661\nvalue = [1104075, 442167, 404, 808986, 10837, 705761, 339872]"] ;
3 -> 29 ;
30 [label="X[10] <= 29.5\ngini = 0.737\nsamples = 233046\nvalue = [122283, 57994, 39, 97016, 7, 1773, 89550]"] ;
29 -> 30 ;
31 [label="X[2] <= 131.5\ngini = 0.709\nsamples = 60759\nvalue = [22202, 10312, 8, 24741, 0, 371, 38496]"] ;
30 -> 31 ;
32 [label="X[10] <= 24.5\ngini = 0.682\nsamples = 44211\nvalue = [15407, 5783, 5, 16841, 0, 249, 31688]"] ;
31 -> 32 ;
33 [label="gini = 0.74\nsamples = 11735\nvalue = [4147, 3134, 0, 5636, 0, 71, 5463]"] ;
32 -> 33 ;
34 [label="gini = 0.643\nsamples = 32476\nvalue = [11260, 2649, 5, 11205, 0, 178, 26225]"] ;
32 -> 34 ;
35 [label="X[8] <= 2.5\ngini = 0.744\nsamples = 16548\nvalue = [6795, 4529, 3, 7900, 0, 122, 6808]"] ;
31 -> 35 ;
36 [label="gini = 0.723\nsamples = 14204\nvalue = [3236, 4529, 0, 7900, 0, 0, 6808]"] ;
35 -> 36 ;
37 [label="gini = 0.066\nsamples = 2344\nvalue = [3559, 0, 3, 0, 0, 122, 0]"] ;
35 -> 37 ;
38 [label="X[4] <= 9.5\ngini = 0.729\nsamples = 172287\nvalue = [100081, 47682, 31, 72275, 7, 1402, 51054]"] ;
30 -> 38 ;
39 [label="X[5] <= 0.5\ngini = 0.741\nsamples = 83218\nvalue = [40434, 29927, 5, 37656, 0, 469, 23216]"] ;
38 -> 39 ;
40 [label="gini = 0.729\nsamples = 12249\nvalue = [5835, 2244, 0, 6116, 0, 172, 5018]"] ;
39 -> 40 ;
41 [label="gini = 0.739\nsamples = 70969\nvalue = [34599, 27683, 5, 31540, 0, 297, 18198]"] ;
39 -> 41 ;
42 [label="X[10] <= 228.0\ngini = 0.705\nsamples = 89069\nvalue = [59647, 17755, 26, 34619, 7, 933, 27838]"] ;
38 -> 42 ;
43 [label="gini = 0.697\nsamples = 81250\nvalue = [56388, 15311, 20, 30814, 5, 829, 24961]"] ;
42 -> 43 ;
44 [label="gini = 0.748\nsamples = 7819\nvalue = [3259, 2444, 6, 3805, 2, 104, 2877]"] ;
42 -> 44 ;
45 [label="X[8] <= 1.5\ngini = 0.765\nsamples = 1922615\nvalue = [981792, 384173, 365, 711970, 10830, 703988, 250322]"] ;
29 -> 45 ;
46 [label="gini = 0.0\nsamples = 439471\nvalue = [695368, 0, 0, 0, 0, 0, 0]"] ;
45 -> 46 ;
47 [label="X[10] <= 29.5\ngini = 0.765\nsamples = 1483144\nvalue = [286424, 384173, 365, 711970, 10830, 703988, 250322]"] ;
45 -> 47 ;
48 [label="X[4] <= 7.5\ngini = 0.752\nsamples = 229570\nvalue = [45534, 32128, 164, 97778, 2204, 130095, 55276]"] ;
47 -> 48 ;
49 [label="gini = 0.775\nsamples = 125480\nvalue = [26411, 17759, 49, 53097, 880, 51594, 48684]"] ;
48 -> 49 ;
50 [label="gini = 0.676\nsamples = 104090\nvalue = [19123, 14369, 115, 44681, 1324, 78501, 6592]"] ;
48 -> 50 ;
51 [label="X[9] <= 1.5\ngini = 0.765\nsamples = 1253574\nvalue = [240890, 352045, 201, 614192, 8626, 573893, 195046]"] ;
47 -> 51 ;
52 [label="gini = 0.745\nsamples = 499270\nvalue = [98843, 137444, 19, 250140, 3659, 256970, 43751]"] ;
51 -> 52 ;
53 [label="gini = 0.774\nsamples = 754304\nvalue = [142047, 214601, 182, 364052, 4967, 316923, 151295]"] ;
51 -> 53 ;
54 [label="X[10] <= 29.5\ngini = 0.743\nsamples = 1186482\nvalue = [662543, 256972, 1489, 368297, 1547, 76655, 508552]"] ;
2 -> 54 ;
55 [label="X[8] <= 2.5\ngini = 0.732\nsamples = 126587\nvalue = [56966, 14524, 202, 39890, 236, 14180, 73941]"] ;
54 -> 55 ;
56 [label="X[10] <= 24.5\ngini = 0.709\nsamples = 105746\nvalue = [26514, 14524, 0, 39890, 0, 12306, 73941]"] ;
55 -> 56 ;
57 [label="X[2] <= 133.5\ngini = 0.756\nsamples = 50408\nvalue = [15193, 11976, 0, 22847, 0, 4548, 25146]"] ;
56 -> 57 ;
58 [label="X[5] <= 1.5\ngini = 0.754\nsamples = 45963\nvalue = [15069, 9616, 0, 20676, 0, 4177, 23074]"] ;
57 -> 58 ;
59 [label="gini = 0.731\nsamples = 27958\nvalue = [9133, 5442, 0, 12809, 0, 1052, 15700]"] ;
58 -> 59 ;
60 [label="gini = 0.78\nsamples = 18005\nvalue = [5936, 4174, 0, 7867, 0, 3125, 7374]"] ;
58 -> 60 ;
61 [label="X[5] <= 1.5\ngini = 0.708\nsamples = 4445\nvalue = [124, 2360, 0, 2171, 0, 371, 2072]"] ;
57 -> 61 ;
62 [label="gini = 0.689\nsamples = 2579\nvalue = [88, 1424, 0, 1281, 0, 60, 1293]"] ;
61 -> 62 ;
63 [label="gini = 0.728\nsamples = 1866\nvalue = [36, 936, 0, 890, 0, 311, 779]"] ;
61 -> 63 ;
64 [label="X[10] <= 26.5\ngini = 0.625\nsamples = 55338\nvalue = [11321, 2548, 0, 17043, 0, 7758, 48795]"] ;
56 -> 64 ;
65 [label="X[8] <= 1.5\ngini = 0.374\nsamples = 26349\nvalue = [1512, 174, 0, 2877, 0, 4646, 32525]"] ;
64 -> 65 ;
66 [label="gini = 0.0\nsamples = 952\nvalue = [1512, 0, 0, 0, 0, 0, 0]"] ;
65 -> 66 ;
67 [label="gini = 0.328\nsamples = 25397\nvalue = [0, 174, 0, 2877, 0, 4646, 32525]"] ;
65 -> 67 ;
68 [label="X[10] <= 27.5\ngini = 0.724\nsamples = 28989\nvalue = [9809, 2374, 0, 14166, 0, 3112, 16270]"] ;
64 -> 68 ;
69 [label="gini = 0.727\nsamples = 10479\nvalue = [4811, 781, 0, 4208, 0, 1080, 5622]"] ;
68 -> 69 ;
70 [label="gini = 0.714\nsamples = 18510\nvalue = [4998, 1593, 0, 9958, 0, 2032, 10648]"] ;
68 -> 70 ;
71 [label="X[2] <= 131.5\ngini = 0.133\nsamples = 20841\nvalue = [30452, 0, 202, 0, 236, 1874, 0]"] ;
55 -> 71 ;
72 [label="X[4] <= 3.5\ngini = 0.068\nsamples = 14636\nvalue = [22251, 0, 102, 0, 86, 620, 0]"] ;
71 -> 72 ;
73 [label="X[5] <= 0.5\ngini = 0.105\nsamples = 2275\nvalue = [3413, 0, 35, 0, 0, 164, 0]"] ;
72 -> 73 ;
74 [label="gini = 0.161\nsamples = 589\nvalue = [835, 0, 25, 0, 0, 54, 0]"] ;
73 -> 74 ;
75 [label="gini = 0.085\nsamples = 1686\nvalue = [2578, 0, 10, 0, 0, 110, 0]"] ;
73 -> 75 ;
76 [label="X[10] <= 26.5\ngini = 0.061\nsamples = 12361\nvalue = [18838, 0, 67, 0, 86, 456, 0]"] ;
72 -> 76 ;
77 [label="gini = 0.042\nsamples = 8279\nvalue = [12753, 0, 56, 0, 37, 185, 0]"] ;
76 -> 77 ;
78 [label="gini = 0.099\nsamples = 4082\nvalue = [6085, 0, 11, 0, 49, 271, 0]"] ;
76 -> 78 ;
79 [label="X[8] <= 4.5\ngini = 0.269\nsamples = 6205\nvalue = [8201, 0, 100, 0, 150, 1254, 0]"] ;
71 -> 79 ;
80 [label="X[7] <= 53.5\ngini = 0.365\nsamples = 4219\nvalue = [5147, 0, 100, 0, 150, 1254, 0]"] ;
79 -> 80 ;
81 [label="gini = 0.542\nsamples = 1746\nvalue = [1556, 0, 51, 0, 140, 972, 0]"] ;
80 -> 81 ;
82 [label="gini = 0.161\nsamples = 2473\nvalue = [3591, 0, 49, 0, 10, 282, 0]"] ;
80 -> 82 ;
83 [label="gini = 0.0\nsamples = 1986\nvalue = [3054, 0, 0, 0, 0, 0, 0]"] ;
79 -> 83 ;
84 [label="X[8] <= 1.5\ngini = 0.742\nsamples = 1059895\nvalue = [605577, 242448, 1287, 328407, 1311, 62475, 434611]"] ;
54 -> 84 ;
85 [label="gini = 0.0\nsamples = 244196\nvalue = [386035, 0, 0, 0, 0, 0, 0]"] ;
84 -> 85 ;
86 [label="X[5] <= 1.5\ngini = 0.755\nsamples = 815699\nvalue = [219542, 242448, 1287, 328407, 1311, 62475, 434611]"] ;
84 -> 86 ;
87 [label="X[7] <= 84.5\ngini = 0.735\nsamples = 538567\nvalue = [137185, 158145, 1094, 221981, 391, 19154, 314125]"] ;
86 -> 87 ;
88 [label="X[3] <= 45.5\ngini = 0.716\nsamples = 178225\nvalue = [34113, 55130, 865, 70684, 191, 5688, 115549]"] ;
87 -> 88 ;
89 [label="gini = 0.719\nsamples = 68622\nvalue = [16450, 15589, 91, 33538, 28, 2008, 40966]"] ;
88 -> 89 ;
90 [label="gini = 0.707\nsamples = 109603\nvalue = [17663, 39541, 774, 37146, 163, 3680, 74583]"] ;
88 -> 90 ;
91 [label="X[8] <= 2.5\ngini = 0.742\nsamples = 360342\nvalue = [103072, 103015, 229, 151297, 200, 13466, 198576]"] ;
87 -> 91 ;
92 [label="gini = 0.66\nsamples = 293105\nvalue = [0, 103015, 0, 151297, 0, 10578, 198576]"] ;
91 -> 92 ;
93 [label="gini = 0.061\nsamples = 67237\nvalue = [103072, 0, 229, 0, 200, 2888, 0]"] ;
91 -> 93 ;
94 [label="X[8] <= 2.5\ngini = 0.783\nsamples = 277132\nvalue = [82357, 84303, 193, 106426, 920, 43321, 120486]"] ;
86 -> 94 ;
95 [label="X[5] <= 2.5\ngini = 0.721\nsamples = 222994\nvalue = [0, 84303, 0, 106426, 0, 41194, 120486]"] ;
94 -> 95 ;
96 [label="gini = 0.73\nsamples = 191245\nvalue = [0, 74575, 0, 87538, 0, 41194, 98829]"] ;
95 -> 96 ;
97 [label="gini = 0.636\nsamples = 31749\nvalue = [0, 9728, 0, 18888, 0, 0, 21657]"] ;
95 -> 97 ;
98 [label="X[10] <= 140.5\ngini = 0.074\nsamples = 54138\nvalue = [82357, 0, 193, 0, 920, 2127, 0]"] ;
94 -> 98 ;
99 [label="gini = 0.111\nsamples = 21816\nvalue = [32574, 0, 81, 0, 580, 1346, 0]"] ;
98 -> 99 ;
100 [label="gini = 0.047\nsamples = 32322\nvalue = [49783, 0, 112, 0, 340, 781, 0]"] ;
98 -> 100 ;
101 [label="X[3] <= 63.5\ngini = 0.781\nsamples = 2611792\nvalue = [797822, 643203, 96, 1338823, 10669, 621854, 719575]"] ;
1 -> 101 ;
102 [label="X[6] <= 34.5\ngini = 0.788\nsamples = 904358\nvalue = [360584, 250446, 9, 384940, 3623, 192723, 239264]"] ;
101 -> 102 ;
103 [label="X[4] <= 4.5\ngini = 0.78\nsamples = 595912\nvalue = [281026, 158796, 9, 238763, 2072, 116283, 146272]"] ;
102 -> 103 ;
104 [label="X[6] <= 1.5\ngini = 0.777\nsamples = 174074\nvalue = [79031, 49032, 0, 63933, 606, 22526, 60333]"] ;
103 -> 104 ;
105 [label="X[8] <= 1.5\ngini = 0.713\nsamples = 30527\nvalue = [20571, 8371, 0, 9365, 36, 565, 9332]"] ;
104 -> 105 ;
106 [label="gini = 0.0\nsamples = 6647\nvalue = [10660, 0, 0, 0, 0, 0, 0]"] ;
105 -> 106 ;
107 [label="X[10] <= 231.5\ngini = 0.757\nsamples = 23880\nvalue = [9911, 8371, 0, 9365, 36, 565, 9332]"] ;
105 -> 107 ;
108 [label="gini = 0.752\nsamples = 7764\nvalue = [1859, 2457, 0, 3605, 36, 480, 3745]"] ;
107 -> 108 ;
109 [label="gini = 0.745\nsamples = 16116\nvalue = [8052, 5914, 0, 5760, 0, 85, 5587]"] ;
107 -> 109 ;
110 [label="X[9] <= 2.5\ngini = 0.784\nsamples = 143547\nvalue = [58460, 40661, 0, 54568, 570, 21961, 51001]"] ;
104 -> 110 ;
111 [label="X[8] <= 1.5\ngini = 0.771\nsamples = 72420\nvalue = [34392, 17854, 0, 30772, 570, 21943, 9120]"] ;
110 -> 111 ;
112 [label="gini = 0.0\nsamples = 16995\nvalue = [26717, 0, 0, 0, 0, 0, 0]"] ;
111 -> 112 ;
113 [label="gini = 0.756\nsamples = 55425\nvalue = [7675, 17854, 0, 30772, 570, 21943, 9120]"] ;
111 -> 113 ;
114 [label="X[4] <= 1.5\ngini = 0.73\nsamples = 71127\nvalue = [24068, 22807, 0, 23796, 0, 18, 41881]"] ;
110 -> 114 ;
115 [label="gini = 0.729\nsamples = 9751\nvalue = [5650, 2603, 0, 3276, 0, 7, 3940]"] ;
114 -> 115 ;
116 [label="gini = 0.723\nsamples = 61376\nvalue = [18418, 20204, 0, 20520, 0, 11, 37941]"] ;
114 -> 116 ;
117 [label="X[7] <= 229.5\ngini = 0.777\nsamples = 421838\nvalue = [201995, 109764, 9, 174830, 1466, 93757, 85939]"] ;
103 -> 117 ;
118 [label="X[3] <= 45.5\ngini = 0.759\nsamples = 171552\nvalue = [100083, 45167, 2, 59363, 481, 34610, 32020]"] ;
117 -> 118 ;
119 [label="X[9] <= 2.5\ngini = 0.737\nsamples = 94661\nvalue = [62306, 23228, 2, 30141, 238, 15892, 18022]"] ;
118 -> 119 ;
120 [label="gini = 0.722\nsamples = 70676\nvalue = [49252, 18313, 2, 21248, 238, 13199, 9664]"] ;
119 -> 120 ;
121 [label="gini = 0.756\nsamples = 23985\nvalue = [13054, 4915, 0, 8893, 0, 2693, 8358]"] ;
119 -> 121 ;
122 [label="X[3] <= 57.5\ngini = 0.777\nsamples = 76891\nvalue = [37777, 21939, 0, 29222, 243, 18718, 13998]"] ;
118 -> 122 ;
123 [label="gini = 0.795\nsamples = 27301\nvalue = [7937, 8333, 0, 10868, 31, 9333, 6577]"] ;
122 -> 123 ;
124 [label="gini = 0.75\nsamples = 49590\nvalue = [29840, 13606, 0, 18354, 212, 9385, 7421]"] ;
122 -> 124 ;
125 [label="X[2] <= 121.5\ngini = 0.781\nsamples = 250286\nvalue = [101912, 64597, 7, 115467, 985, 59147, 53919]"] ;
117 -> 125 ;
126 [label="X[4] <= 6.5\ngini = 0.746\nsamples = 22016\nvalue = [11192, 7848, 2, 10173, 51, 2287, 3149]"] ;
125 -> 126 ;
127 [label="gini = 0.756\nsamples = 4471\nvalue = [2113, 1457, 0, 2066, 45, 1123, 261]"] ;
126 -> 127 ;
128 [label="gini = 0.74\nsamples = 17545\nvalue = [9079, 6391, 2, 8107, 6, 1164, 2888]"] ;
126 -> 128 ;
129 [label="X[2] <= 124.5\ngini = 0.783\nsamples = 228270\nvalue = [90720, 56749, 5, 105294, 934, 56860, 50770]"] ;
125 -> 129 ;
130 [label="gini = 0.776\nsamples = 107184\nvalue = [43392, 19573, 3, 52142, 201, 28707, 26164]"] ;
129 -> 130 ;
131 [label="gini = 0.785\nsamples = 121086\nvalue = [47328, 37176, 2, 53152, 733, 28153, 24606]"] ;
129 -> 131 ;
132 [label="X[3] <= 58.5\ngini = 0.788\nsamples = 308446\nvalue = [79558, 91650, 0, 146177, 1551, 76440, 92992]"] ;
102 -> 132 ;
133 [label="X[10] <= 199.5\ngini = 0.795\nsamples = 180192\nvalue = [47280, 58576, 0, 73809, 1150, 46048, 58584]"] ;
132 -> 133 ;
134 [label="X[8] <= 2.5\ngini = 0.765\nsamples = 23272\nvalue = [2395, 11498, 0, 9359, 8, 6327, 7171]"] ;
133 -> 134 ;
135 [label="X[8] <= 1.5\ngini = 0.752\nsamples = 22490\nvalue = [1172, 11498, 0, 9359, 0, 6327, 7171]"] ;
134 -> 135 ;
136 [label="gini = 0.0\nsamples = 735\nvalue = [1172, 0, 0, 0, 0, 0, 0]"] ;
135 -> 136 ;
137 [label="gini = 0.736\nsamples = 21755\nvalue = [0, 11498, 0, 9359, 0, 6327, 7171]"] ;
135 -> 137 ;
138 [label="X[8] <= 4.5\ngini = 0.013\nsamples = 782\nvalue = [1223, 0, 0, 0, 8, 0, 0]"] ;
134 -> 138 ;
139 [label="gini = 0.488\nsamples = 12\nvalue = [11, 0, 0, 0, 8, 0, 0]"] ;
138 -> 139 ;
140 [label="gini = 0.0\nsamples = 770\nvalue = [1212, 0, 0, 0, 0, 0, 0]"] ;
138 -> 140 ;
141 [label="X[8] <= 1.5\ngini = 0.796\nsamples = 156920\nvalue = [44885, 47078, 0, 64450, 1142, 39721, 51413]"] ;
133 -> 141 ;
142 [label="gini = 0.0\nsamples = 20964\nvalue = [33117, 0, 0, 0, 0, 0, 0]"] ;
141 -> 142 ;
143 [label="X[8] <= 2.5\ngini = 0.769\nsamples = 135956\nvalue = [11768, 47078, 0, 64450, 1142, 39721, 51413]"] ;
141 -> 143 ;
144 [label="gini = 0.742\nsamples = 127608\nvalue = [0, 47078, 0, 64450, 0, 39440, 51413]"] ;
143 -> 144 ;
145 [label="gini = 0.196\nsamples = 8348\nvalue = [11768, 0, 0, 0, 1142, 281, 0]"] ;
143 -> 145 ;
146 [label="X[9] <= 2.5\ngini = 0.77\nsamples = 128254\nvalue = [32278, 33074, 0, 72368, 401, 30392, 34408]"] ;
132 -> 146 ;
147 [label="X[7] <= 229.5\ngini = 0.75\nsamples = 74449\nvalue = [18869, 18500, 0, 44527, 400, 26424, 9046]"] ;
146 -> 147 ;
148 [label="X[4] <= 7.5\ngini = 0.773\nsamples = 26302\nvalue = [8958, 6133, 0, 12801, 70, 10041, 3754]"] ;
147 -> 148 ;
149 [label="gini = 0.786\nsamples = 11332\nvalue = [3766, 2575, 0, 5398, 40, 3305, 2913]"] ;
148 -> 149 ;
150 [label="gini = 0.751\nsamples = 14970\nvalue = [5192, 3558, 0, 7403, 30, 6736, 841]"] ;
148 -> 150 ;
151 [label="X[5] <= 1.5\ngini = 0.731\nsamples = 48147\nvalue = [9911, 12367, 0, 31726, 330, 16383, 5292]"] ;
147 -> 151 ;
152 [label="gini = 0.723\nsamples = 24851\nvalue = [4095, 6430, 0, 17173, 147, 7537, 3714]"] ;
151 -> 152 ;
153 [label="gini = 0.735\nsamples = 23296\nvalue = [5816, 5937, 0, 14553, 183, 8846, 1578]"] ;
151 -> 153 ;
154 [label="X[4] <= 4.5\ngini = 0.748\nsamples = 53805\nvalue = [13409, 14574, 0, 27841, 1, 3968, 25362]"] ;
146 -> 154 ;
155 [label="X[10] <= 168.5\ngini = 0.706\nsamples = 21701\nvalue = [3471, 7252, 0, 10675, 0, 3, 13003]"] ;
154 -> 155 ;
156 [label="gini = 0.618\nsamples = 916\nvalue = [61, 609, 0, 140, 0, 0, 636]"] ;
155 -> 156 ;
157 [label="gini = 0.706\nsamples = 20785\nvalue = [3410, 6643, 0, 10535, 0, 3, 12367]"] ;
155 -> 157 ;
158 [label="X[4] <= 6.5\ngini = 0.761\nsamples = 32104\nvalue = [9938, 7322, 0, 17166, 1, 3965, 12359]"] ;
154 -> 158 ;
159 [label="gini = 0.773\nsamples = 10950\nvalue = [2526, 3035, 0, 5678, 1, 3959, 2134]"] ;
158 -> 159 ;
160 [label="gini = 0.723\nsamples = 21154\nvalue = [7412, 4287, 0, 11488, 0, 6, 10225]"] ;
158 -> 160 ;
161 [label="X[9] <= 2.5\ngini = 0.771\nsamples = 1707434\nvalue = [437238, 392757, 87, 953883, 7046, 429131, 480311]"] ;
101 -> 161 ;
162 [label="X[8] <= 1.5\ngini = 0.761\nsamples = 1234936\nvalue = [295857, 287664, 39, 726674, 7007, 391301, 244169]"] ;
161 -> 162 ;
163 [label="gini = 0.0\nsamples = 127833\nvalue = [201907, 0, 0, 0, 0, 0, 0]"] ;
162 -> 163 ;
164 [label="X[9] <= 0.5\ngini = 0.728\nsamples = 1107103\nvalue = [93950, 287664, 39, 726674, 7007, 391301, 244169]"] ;
162 -> 164 ;
165 [label="X[4] <= 9.5\ngini = 0.697\nsamples = 169010\nvalue = [24735, 50655, 26, 106590, 0, 1181, 84149]"] ;
164 -> 165 ;
166 [label="X[2] <= 126.0\ngini = 0.704\nsamples = 77232\nvalue = [10727, 30940, 1, 47635, 0, 39, 32797]"] ;
165 -> 166 ;
167 [label="gini = 0.683\nsamples = 20438\nvalue = [3010, 6878, 1, 14662, 0, 5, 7798]"] ;
166 -> 167 ;
168 [label="gini = 0.708\nsamples = 56794\nvalue = [7717, 24062, 0, 32973, 0, 34, 24999]"] ;
166 -> 168 ;
169 [label="X[2] <= 130.5\ngini = 0.682\nsamples = 91778\nvalue = [14008, 19715, 25, 58955, 0, 1142, 51352]"] ;
165 -> 169 ;
170 [label="gini = 0.679\nsamples = 52330\nvalue = [8611, 11972, 9, 37090, 0, 503, 24683]"] ;
169 -> 170 ;
171 [label="gini = 0.671\nsamples = 39448\nvalue = [5397, 7743, 16, 21865, 0, 639, 26669]"] ;
169 -> 171 ;
172 [label="X[8] <= 2.5\ngini = 0.717\nsamples = 938093\nvalue = [69215, 237009, 13, 620084, 7007, 390120, 160020]"] ;
164 -> 172 ;
173 [label="X[4] <= 7.5\ngini = 0.687\nsamples = 887534\nvalue = [0, 237009, 0, 620084, 0, 386172, 160020]"] ;
172 -> 173 ;
174 [label="gini = 0.701\nsamples = 469370\nvalue = [0, 125042, 0, 326211, 0, 152960, 137324]"] ;
173 -> 174 ;
175 [label="gini = 0.649\nsamples = 418164\nvalue = [0, 111967, 0, 293873, 0, 233212, 22696]"] ;
173 -> 175 ;
176 [label="X[7] <= 217.5\ngini = 0.245\nsamples = 50559\nvalue = [69215, 0, 13, 0, 7007, 3948, 0]"] ;
172 -> 176 ;
177 [label="gini = 0.113\nsamples = 13778\nvalue = [20516, 0, 5, 0, 824, 463, 0]"] ;
176 -> 177 ;
178 [label="gini = 0.289\nsamples = 36781\nvalue = [48699, 0, 8, 0, 6183, 3485, 0]"] ;
176 -> 178 ;
179 [label="X[3] <= 74.5\ngini = 0.75\nsamples = 472498\nvalue = [141381, 105093, 48, 227209, 39, 37830, 236142]"] ;
161 -> 179 ;
180 [label="X[6] <= 24.0\ngini = 0.755\nsamples = 367461\nvalue = [115115, 91651, 48, 182329, 33, 27472, 164648]"] ;
179 -> 180 ;
181 [label="X[4] <= 4.5\ngini = 0.741\nsamples = 220556\nvalue = [52309, 48940, 21, 113285, 15, 19233, 114542]"] ;
180 -> 181 ;
182 [label="X[2] <= 120.5\ngini = 0.704\nsamples = 80206\nvalue = [14895, 22351, 0, 40426, 0, 36, 48928]"] ;
181 -> 182 ;
183 [label="gini = 0.684\nsamples = 33289\nvalue = [4609, 8490, 0, 20425, 0, 22, 19042]"] ;
182 -> 183 ;
184 [label="gini = 0.71\nsamples = 46917\nvalue = [10286, 13861, 0, 20001, 0, 14, 29886]"] ;
182 -> 184 ;
185 [label="X[8] <= 1.5\ngini = 0.754\nsamples = 140350\nvalue = [37414, 26589, 21, 72859, 15, 19197, 65614]"] ;
181 -> 185 ;
186 [label="gini = 0.0\nsamples = 13045\nvalue = [20756, 0, 0, 0, 0, 0, 0]"] ;
185 -> 186 ;
187 [label="gini = 0.728\nsamples = 127305\nvalue = [16658, 26589, 21, 72859, 15, 19197, 65614]"] ;
185 -> 187 ;
188 [label="X[8] <= 1.5\ngini = 0.758\nsamples = 146905\nvalue = [62806, 42711, 27, 69044, 18, 8239, 50106]"] ;
180 -> 188 ;
189 [label="gini = 0.0\nsamples = 29006\nvalue = [45896, 0, 0, 0, 0, 0, 0]"] ;
188 -> 189 ;
190 [label="X[2] <= 130.5\ngini = 0.73\nsamples = 117899\nvalue = [16910, 42711, 27, 69044, 18, 8239, 50106]"] ;
188 -> 190 ;
191 [label="gini = 0.727\nsamples = 101583\nvalue = [15065, 35955, 27, 61552, 18, 6771, 41632]"] ;
190 -> 191 ;
192 [label="gini = 0.736\nsamples = 16316\nvalue = [1845, 6756, 0, 7492, 0, 1468, 8474]"] ;
190 -> 192 ;
193 [label="X[3] <= 75.5\ngini = 0.708\nsamples = 105037\nvalue = [26266, 13442, 0, 44880, 6, 10358, 71494]"] ;
179 -> 193 ;
194 [label="X[8] <= 2.5\ngini = 0.689\nsamples = 69169\nvalue = [17764, 6827, 0, 26661, 5, 7304, 51028]"] ;
193 -> 194 ;
195 [label="X[8] <= 1.5\ngini = 0.644\nsamples = 62294\nvalue = [6757, 6827, 0, 26661, 0, 7263, 51028]"] ;
194 -> 195 ;
196 [label="gini = 0.0\nsamples = 4331\nvalue = [6757, 0, 0, 0, 0, 0, 0]"] ;
195 -> 196 ;
197 [label="gini = 0.595\nsamples = 57963\nvalue = [0, 6827, 0, 26661, 0, 7263, 51028]"] ;
195 -> 197 ;
198 [label="X[10] <= 21.5\ngini = 0.008\nsamples = 6875\nvalue = [11007, 0, 0, 0, 5, 41, 0]"] ;
194 -> 198 ;
199 [label="gini = 0.024\nsamples = 1109\nvalue = [1771, 0, 0, 0, 3, 19, 0]"] ;
198 -> 199 ;
200 [label="gini = 0.005\nsamples = 5766\nvalue = [9236, 0, 0, 0, 2, 22, 0]"] ;
198 -> 200 ;
201 [label="X[3] <= 76.5\ngini = 0.729\nsamples = 35868\nvalue = [8502, 6615, 0, 18219, 1, 3054, 20466]"] ;
193 -> 201 ;
202 [label="X[2] <= 131.5\ngini = 0.731\nsamples = 12132\nvalue = [2458, 3017, 0, 7082, 0, 878, 5789]"] ;
201 -> 202 ;
203 [label="gini = 0.705\nsamples = 6237\nvalue = [1447, 1139, 0, 4352, 0, 435, 2537]"] ;
202 -> 203 ;
204 [label="gini = 0.737\nsamples = 5895\nvalue = [1011, 1878, 0, 2730, 0, 443, 3252]"] ;
202 -> 204 ;
205 [label="X[4] <= 6.5\ngini = 0.722\nsamples = 23736\nvalue = [6044, 3598, 0, 11137, 1, 2176, 14677]"] ;
201 -> 205 ;
206 [label="gini = 0.772\nsamples = 9019\nvalue = [1990, 1805, 0, 4391, 1, 2174, 3881]"] ;
205 -> 206 ;
207 [label="gini = 0.668\nsamples = 14717\nvalue = [4054, 1793, 0, 6746, 0, 2, 10796]"] ;
205 -> 207 ;
208 [label="X[8] <= 2.5\ngini = 0.635\nsamples = 4770903\nvalue = [544279, 3752692, 38, 2474064, 4940, 374114, 394045]"] ;
0 -> 208 [labeldistance=2.5, labelangle=-45, headlabel="False"] ;
209 [label="X[4] <= 3.5\ngini = 0.585\nsamples = 4446545\nvalue = [41305, 3752692, 0, 2474064, 0, 369162, 394045]"] ;
208 -> 209 ;
210 [label="X[5] <= 0.5\ngini = 0.529\nsamples = 1099151\nvalue = [8364, 1064744, 0, 528096, 0, 56673, 79509]"] ;
209 -> 210 ;
211 [label="X[7] <= 125.5\ngini = 0.638\nsamples = 98511\nvalue = [347, 64095, 0, 65327, 0, 7187, 18831]"] ;
210 -> 211 ;
212 [label="X[4] <= 2.5\ngini = 0.579\nsamples = 29121\nvalue = [77, 24566, 0, 16588, 0, 1468, 3361]"] ;
211 -> 212 ;
213 [label="X[0] <= 1.5\ngini = 0.566\nsamples = 24980\nvalue = [46, 21961, 0, 13689, 0, 1468, 2330]"] ;
212 -> 213 ;
214 [label="X[9] <= 2.5\ngini = 0.62\nsamples = 16182\nvalue = [34, 11142, 0, 10846, 0, 1440, 2112]"] ;
213 -> 214 ;
215 [label="gini = 0.605\nsamples = 7219\nvalue = [11, 5161, 0, 4719, 0, 1440, 30]"] ;
214 -> 215 ;
216 [label="gini = 0.616\nsamples = 8963\nvalue = [23, 5981, 0, 6127, 0, 0, 2082]"] ;
214 -> 216 ;
217 [label="X[6] <= 35.5\ngini = 0.354\nsamples = 8798\nvalue = [12, 10819, 0, 2843, 0, 28, 218]"] ;
213 -> 217 ;
218 [label="gini = 0.251\nsamples = 3712\nvalue = [6, 5047, 0, 718, 0, 16, 103]"] ;
217 -> 218 ;
219 [label="gini = 0.413\nsamples = 5086\nvalue = [6, 5772, 0, 2125, 0, 12, 115]"] ;
217 -> 219 ;
220 [label="X[2] <= 124.5\ngini = 0.623\nsamples = 4141\nvalue = [31, 2605, 0, 2899, 0, 0, 1031]"] ;
212 -> 220 ;
221 [label="X[3] <= 67.5\ngini = 0.618\nsamples = 1109\nvalue = [1, 323, 0, 867, 0, 0, 549]"] ;
220 -> 221 ;
222 [label="gini = 0.639\nsamples = 710\nvalue = [0, 249, 0, 508, 0, 0, 350]"] ;
221 -> 222 ;
223 [label="gini = 0.566\nsamples = 399\nvalue = [1, 74, 0, 359, 0, 0, 199]"] ;
221 -> 223 ;
224 [label="X[8] <= 1.5\ngini = 0.589\nsamples = 3032\nvalue = [30, 2282, 0, 2032, 0, 0, 482]"] ;
220 -> 224 ;
225 [label="gini = 0.0\nsamples = 20\nvalue = [30, 0, 0, 0, 0, 0, 0]"] ;
224 -> 225 ;
226 [label="gini = 0.584\nsamples = 3012\nvalue = [0, 2282, 0, 2032, 0, 0, 482]"] ;
224 -> 226 ;
227 [label="X[2] <= 126.5\ngini = 0.65\nsamples = 69390\nvalue = [270, 39529, 0, 48739, 0, 5719, 15470]"] ;
211 -> 227 ;
228 [label="X[9] <= 2.5\ngini = 0.641\nsamples = 30612\nvalue = [62, 12793, 0, 24366, 0, 2453, 8628]"] ;
227 -> 228 ;
229 [label="X[0] <= 1.5\ngini = 0.609\nsamples = 10005\nvalue = [22, 5404, 0, 7925, 0, 2453, 35]"] ;
228 -> 229 ;
230 [label="gini = 0.599\nsamples = 8864\nvalue = [12, 4004, 0, 7552, 0, 2434, 30]"] ;
229 -> 230 ;
231 [label="gini = 0.357\nsamples = 1141\nvalue = [10, 1400, 0, 373, 0, 19, 5]"] ;
229 -> 231 ;
232 [label="X[0] <= 1.5\ngini = 0.622\nsamples = 20607\nvalue = [40, 7389, 0, 16441, 0, 0, 8593]"] ;
228 -> 232 ;
233 [label="gini = 0.613\nsamples = 19472\nvalue = [26, 6354, 0, 15914, 0, 0, 8352]"] ;
232 -> 233 ;
234 [label="gini = 0.574\nsamples = 1135\nvalue = [14, 1035, 0, 527, 0, 0, 241]"] ;
232 -> 234 ;
235 [label="X[4] <= 2.5\ngini = 0.638\nsamples = 38778\nvalue = [208, 26736, 0, 24373, 0, 3266, 6842]"] ;
227 -> 235 ;
236 [label="X[0] <= 1.5\ngini = 0.629\nsamples = 33935\nvalue = [139, 24576, 0, 20888, 0, 3266, 4963]"] ;
235 -> 236 ;
237 [label="gini = 0.653\nsamples = 25430\nvalue = [99, 14008, 0, 18299, 0, 3217, 4639]"] ;
236 -> 237 ;
238 [label="gini = 0.357\nsamples = 8505\nvalue = [40, 10568, 0, 2589, 0, 49, 324]"] ;
236 -> 238 ;
239 [label="X[7] <= 199.5\ngini = 0.647\nsamples = 4843\nvalue = [69, 2160, 0, 3485, 0, 0, 1879]"] ;
235 -> 239 ;
240 [label="gini = 0.663\nsamples = 2376\nvalue = [58, 1215, 0, 1535, 0, 0, 912]"] ;
239 -> 240 ;
241 [label="gini = 0.625\nsamples = 2467\nvalue = [11, 945, 0, 1950, 0, 0, 967]"] ;
239 -> 241 ;
242 [label="X[8] <= 1.5\ngini = 0.512\nsamples = 1000640\nvalue = [8017, 1000649, 0, 462769, 0, 49486, 60678]"] ;
210 -> 242 ;
243 [label="gini = 0.0\nsamples = 5083\nvalue = [8017, 0, 0, 0, 0, 0, 0]"] ;
242 -> 243 ;
244 [label="X[2] <= 126.5\ngini = 0.507\nsamples = 995557\nvalue = [0, 1000649, 0, 462769, 0, 49486, 60678]"] ;
242 -> 244 ;
245 [label="X[2] <= 120.5\ngini = 0.564\nsamples = 373543\nvalue = [0, 325277, 0, 210481, 0, 22764, 31379]"] ;
244 -> 245 ;
246 [label="X[5] <= 1.5\ngini = 0.604\nsamples = 107740\nvalue = [0, 82272, 0, 66565, 0, 8021, 12946]"] ;
245 -> 246 ;
247 [label="gini = 0.617\nsamples = 72263\nvalue = [0, 52289, 0, 45406, 0, 4216, 11822]"] ;
246 -> 247 ;
248 [label="gini = 0.567\nsamples = 35477\nvalue = [0, 29983, 0, 21159, 0, 3805, 1124]"] ;
246 -> 248 ;
249 [label="X[2] <= 124.5\ngini = 0.545\nsamples = 265803\nvalue = [0, 243005, 0, 143916, 0, 14743, 18433]"] ;
245 -> 249 ;
250 [label="gini = 0.548\nsamples = 218780\nvalue = [0, 197463, 0, 120912, 0, 11811, 15614]"] ;
249 -> 250 ;
251 [label="gini = 0.525\nsamples = 47023\nvalue = [0, 45542, 0, 23004, 0, 2932, 2819]"] ;
249 -> 251 ;
252 [label="X[0] <= 1.5\ngini = 0.461\nsamples = 622014\nvalue = [0, 675372, 0, 252288, 0, 26722, 29299]"] ;
244 -> 252 ;
253 [label="X[7] <= 129.5\ngini = 0.503\nsamples = 457396\nvalue = [0, 463941, 0, 208571, 0, 25009, 25853]"] ;
252 -> 253 ;
254 [label="gini = 0.434\nsamples = 165685\nvalue = [0, 186832, 0, 63135, 0, 5443, 6915]"] ;
253 -> 254 ;
255 [label="gini = 0.536\nsamples = 291711\nvalue = [0, 277109, 0, 145436, 0, 19566, 18938]"] ;
253 -> 255 ;
256 [label="X[10] <= 239.5\ngini = 0.312\nsamples = 164618\nvalue = [0, 211431, 0, 43717, 0, 1713, 3446]"] ;
252 -> 256 ;
257 [label="gini = 0.281\nsamples = 141968\nvalue = [0, 187690, 0, 32734, 0, 1384, 2846]"] ;
256 -> 257 ;
258 [label="gini = 0.461\nsamples = 22650\nvalue = [0, 23741, 0, 10983, 0, 329, 600]"] ;
256 -> 258 ;
259 [label="X[5] <= 0.5\ngini = 0.6\nsamples = 3347394\nvalue = [32941, 2687948, 0, 1945968, 0, 312489, 314536]"] ;
209 -> 259 ;
260 [label="X[0] <= 1.5\ngini = 0.66\nsamples = 313464\nvalue = [1447, 140770, 0, 238401, 0, 48620, 66496]"] ;
259 -> 260 ;
261 [label="X[2] <= 130.5\ngini = 0.653\nsamples = 283894\nvalue = [1040, 110530, 0, 226926, 0, 47065, 63303]"] ;
260 -> 261 ;
262 [label="X[3] <= 67.5\ngini = 0.64\nsamples = 195501\nvalue = [538, 78860, 0, 160136, 0, 29827, 39609]"] ;
261 -> 262 ;
263 [label="X[8] <= 1.5\ngini = 0.657\nsamples = 108671\nvalue = [264, 51483, 0, 81988, 0, 15931, 21859]"] ;
262 -> 263 ;
264 [label="gini = 0.0\nsamples = 162\nvalue = [264, 0, 0, 0, 0, 0, 0]"] ;
263 -> 264 ;
265 [label="gini = 0.656\nsamples = 108509\nvalue = [0, 51483, 0, 81988, 0, 15931, 21859]"] ;
263 -> 265 ;
266 [label="X[9] <= 2.5\ngini = 0.61\nsamples = 86830\nvalue = [274, 27377, 0, 78148, 0, 13896, 17750]"] ;
262 -> 266 ;
267 [label="gini = 0.599\nsamples = 50323\nvalue = [111, 16697, 0, 45946, 0, 11205, 5734]"] ;
266 -> 267 ;
268 [label="gini = 0.609\nsamples = 36507\nvalue = [163, 10680, 0, 32202, 0, 2691, 12016]"] ;
266 -> 268 ;
269 [label="X[10] <= 39.5\ngini = 0.677\nsamples = 88393\nvalue = [502, 31670, 0, 66790, 0, 17238, 23694]"] ;
261 -> 269 ;
270 [label="X[4] <= 8.5\ngini = 0.684\nsamples = 32688\nvalue = [145, 6271, 0, 23944, 0, 9065, 12399]"] ;
269 -> 270 ;
271 [label="gini = 0.645\nsamples = 12395\nvalue = [48, 1992, 0, 9692, 0, 1972, 5916]"] ;
270 -> 271 ;
272 [label="gini = 0.697\nsamples = 20293\nvalue = [97, 4279, 0, 14252, 0, 7093, 6483]"] ;
270 -> 272 ;
273 [label="X[8] <= 1.5\ngini = 0.655\nsamples = 55705\nvalue = [357, 25399, 0, 42846, 0, 8173, 11295]"] ;
269 -> 273 ;
274 [label="gini = 0.0\nsamples = 222\nvalue = [357, 0, 0, 0, 0, 0, 0]"] ;
273 -> 274 ;
275 [label="gini = 0.652\nsamples = 55483\nvalue = [0, 25399, 0, 42846, 0, 8173, 11295]"] ;
273 -> 275 ;
276 [label="X[7] <= 102.5\ngini = 0.518\nsamples = 29570\nvalue = [407, 30240, 0, 11475, 0, 1555, 3193]"] ;
260 -> 276 ;
277 [label="X[2] <= 119.5\ngini = 0.415\nsamples = 6287\nvalue = [71, 7422, 0, 1657, 0, 229, 603]"] ;
276 -> 277 ;
278 [label="X[6] <= 28.5\ngini = 0.628\nsamples = 458\nvalue = [2, 333, 0, 38, 0, 76, 309]"] ;
277 -> 278 ;
279 [label="gini = 0.589\nsamples = 309\nvalue = [2, 121, 0, 22, 0, 74, 300]"] ;
278 -> 279 ;
280 [label="gini = 0.207\nsamples = 149\nvalue = [0, 212, 0, 16, 0, 2, 9]"] ;
278 -> 280 ;
281 [label="X[4] <= 9.5\ngini = 0.377\nsamples = 5829\nvalue = [69, 7089, 0, 1619, 0, 153, 294]"] ;
277 -> 281 ;
282 [label="gini = 0.506\nsamples = 1655\nvalue = [36, 1734, 0, 630, 0, 66, 171]"] ;
281 -> 282 ;
283 [label="gini = 0.316\nsamples = 4174\nvalue = [33, 5355, 0, 989, 0, 87, 123]"] ;
281 -> 283 ;
284 [label="X[0] <= 3.5\ngini = 0.54\nsamples = 23283\nvalue = [336, 22818, 0, 9818, 0, 1326, 2590]"] ;
276 -> 284 ;
285 [label="X[4] <= 10.5\ngini = 0.531\nsamples = 22446\nvalue = [235, 22288, 0, 9529, 0, 1251, 2302]"] ;
284 -> 285 ;
286 [label="gini = 0.579\nsamples = 14056\nvalue = [169, 12593, 0, 6696, 0, 951, 1786]"] ;
285 -> 286 ;
287 [label="gini = 0.431\nsamples = 8390\nvalue = [66, 9695, 0, 2833, 0, 300, 516]"] ;
285 -> 287 ;
288 [label="X[2] <= 119.5\ngini = 0.719\nsamples = 837\nvalue = [101, 530, 0, 289, 0, 75, 288]"] ;
284 -> 288 ;
289 [label="gini = 0.471\nsamples = 240\nvalue = [1, 66, 0, 4, 0, 41, 256]"] ;
288 -> 289 ;
290 [label="gini = 0.631\nsamples = 597\nvalue = [100, 464, 0, 285, 0, 34, 32]"] ;
288 -> 290 ;
291 [label="X[3] <= 57.5\ngini = 0.586\nsamples = 3033930\nvalue = [31494, 2547178, 0, 1707567, 0, 263869, 248040]"] ;
259 -> 291 ;
292 [label="X[3] <= 45.5\ngini = 0.536\nsamples = 1015284\nvalue = [4358, 956800, 0, 522914, 0, 61904, 60341]"] ;
291 -> 292 ;
293 [label="X[10] <= 230.5\ngini = 0.539\nsamples = 771973\nvalue = [2287, 714285, 0, 416922, 0, 46435, 41534]"] ;
292 -> 293 ;
294 [label="X[2] <= 125.5\ngini = 0.611\nsamples = 113502\nvalue = [137, 73005, 0, 83607, 0, 12222, 10903]"] ;
293 -> 294 ;
295 [label="gini = 0.609\nsamples = 103627\nvalue = [57, 64133, 0, 78671, 0, 11291, 10052]"] ;
294 -> 295 ;
296 [label="gini = 0.574\nsamples = 9875\nvalue = [80, 8872, 0, 4936, 0, 931, 851]"] ;
294 -> 296 ;
297 [label="X[9] <= 2.5\ngini = 0.517\nsamples = 658471\nvalue = [2150, 641280, 0, 333315, 0, 34213, 30631]"] ;
293 -> 297 ;
298 [label="gini = 0.511\nsamples = 456363\nvalue = [1104, 447656, 0, 230538, 0, 30725, 11849]"] ;
297 -> 298 ;
299 [label="gini = 0.526\nsamples = 202108\nvalue = [1046, 193624, 0, 102777, 0, 3488, 18782]"] ;
297 -> 299 ;
300 [label="X[0] <= 1.5\ngini = 0.523\nsamples = 243311\nvalue = [2071, 242515, 0, 105992, 0, 15469, 18807]"] ;
292 -> 300 ;
301 [label="X[4] <= 10.5\ngini = 0.552\nsamples = 187757\nvalue = [1080, 174662, 0, 92176, 0, 13436, 15400]"] ;
300 -> 301 ;
302 [label="gini = 0.572\nsamples = 136337\nvalue = [767, 120071, 0, 71673, 0, 10970, 11757]"] ;
301 -> 302 ;
303 [label="gini = 0.485\nsamples = 51420\nvalue = [313, 54591, 0, 20503, 0, 2466, 3643]"] ;
301 -> 303 ;
304 [label="X[7] <= 206.5\ngini = 0.38\nsamples = 55554\nvalue = [991, 67853, 0, 13816, 0, 2033, 3407]"] ;
300 -> 304 ;
305 [label="gini = 0.314\nsamples = 40526\nvalue = [726, 52726, 0, 7103, 0, 1360, 2436]"] ;
304 -> 305 ;
306 [label="gini = 0.512\nsamples = 15028\nvalue = [265, 15127, 0, 6713, 0, 673, 971]"] ;
304 -> 306 ;
307 [label="X[3] <= 75.5\ngini = 0.606\nsamples = 2018646\nvalue = [27136, 1590378, 0, 1184653, 0, 201965, 187699]"] ;
291 -> 307 ;
308 [label="X[3] <= 74.5\ngini = 0.61\nsamples = 1816732\nvalue = [24946, 1402363, 0, 1088146, 0, 184945, 171661]"] ;
307 -> 308 ;
309 [label="X[4] <= 10.5\ngini = 0.602\nsamples = 1565007\nvalue = [21729, 1238698, 0, 928815, 0, 146468, 138102]"] ;
308 -> 309 ;
310 [label="gini = 0.61\nsamples = 1168263\nvalue = [16242, 884788, 0, 722217, 0, 118017, 105092]"] ;
309 -> 310 ;
311 [label="gini = 0.569\nsamples = 396744\nvalue = [5487, 353910, 0, 206598, 0, 28451, 33010]"] ;
309 -> 311 ;
312 [label="X[5] <= 1.5\ngini = 0.655\nsamples = 251725\nvalue = [3217, 163665, 0, 159331, 0, 38477, 33559]"] ;
308 -> 312 ;
313 [label="gini = 0.66\nsamples = 85640\nvalue = [1093, 53258, 0, 54616, 0, 7716, 18747]"] ;
312 -> 313 ;
314 [label="gini = 0.648\nsamples = 166085\nvalue = [2124, 110407, 0, 104715, 0, 30761, 14812]"] ;
312 -> 314 ;
315 [label="X[4] <= 10.5\ngini = 0.558\nsamples = 201914\nvalue = [2190, 188015, 0, 96507, 0, 17020, 16038]"] ;
307 -> 315 ;
316 [label="X[8] <= 1.5\ngini = 0.587\nsamples = 140962\nvalue = [1552, 121722, 0, 73509, 0, 14205, 12189]"] ;
315 -> 316 ;
317 [label="gini = 0.0\nsamples = 984\nvalue = [1552, 0, 0, 0, 0, 0, 0]"] ;
316 -> 317 ;
318 [label="gini = 0.581\nsamples = 139978\nvalue = [0, 121722, 0, 73509, 0, 14205, 12189]"] ;
316 -> 318 ;
319 [label="X[8] <= 1.5\ngini = 0.47\nsamples = 60952\nvalue = [638, 66293, 0, 22998, 0, 2815, 3849]"] ;
315 -> 319 ;
320 [label="gini = 0.0\nsamples = 418\nvalue = [638, 0, 0, 0, 0, 0, 0]"] ;
319 -> 320 ;
321 [label="gini = 0.463\nsamples = 60534\nvalue = [0, 66293, 0, 22998, 0, 2815, 3849]"] ;
319 -> 321 ;
322 [label="X[10] <= 63.5\ngini = 0.038\nsamples = 324358\nvalue = [502974, 0, 38, 0, 4940, 4952, 0]"] ;
208 -> 322 ;
323 [label="X[10] <= 59.5\ngini = 0.081\nsamples = 94198\nvalue = [142756, 0, 17, 0, 3263, 2940, 0]"] ;
322 -> 323 ;
324 [label="X[10] <= 6.5\ngini = 0.039\nsamples = 89372\nvalue = [138471, 0, 16, 0, 1289, 1507, 0]"] ;
323 -> 324 ;
325 [label="X[7] <= 42.5\ngini = 0.134\nsamples = 10261\nvalue = [15027, 0, 0, 0, 594, 551, 0]"] ;
324 -> 325 ;
326 [label="X[7] <= 20.5\ngini = 0.631\nsamples = 1123\nvalue = [854, 0, 0, 0, 478, 426, 0]"] ;
325 -> 326 ;
327 [label="X[9] <= 2.5\ngini = 0.492\nsamples = 423\nvalue = [426, 0, 0, 0, 109, 97, 0]"] ;
326 -> 327 ;
328 [label="gini = 0.581\nsamples = 199\nvalue = [150, 0, 0, 0, 107, 32, 0]"] ;
327 -> 328 ;
329 [label="gini = 0.317\nsamples = 224\nvalue = [276, 0, 0, 0, 2, 65, 0]"] ;
327 -> 329 ;
330 [label="X[5] <= 1.5\ngini = 0.663\nsamples = 700\nvalue = [428, 0, 0, 0, 369, 329, 0]"] ;
326 -> 330 ;
331 [label="gini = 0.573\nsamples = 228\nvalue = [127, 0, 0, 0, 40, 197, 0]"] ;
330 -> 331 ;
332 [label="gini = 0.628\nsamples = 472\nvalue = [301, 0, 0, 0, 329, 132, 0]"] ;
330 -> 332 ;
333 [label="X[8] <= 4.0\ngini = 0.033\nsamples = 9138\nvalue = [14173, 0, 0, 0, 116, 125, 0]"] ;
325 -> 333 ;
334 [label="X[3] <= 76.5\ngini = 0.458\nsamples = 537\nvalue = [580, 0, 0, 0, 116, 125, 0]"] ;
333 -> 334 ;
335 [label="gini = 0.0\nsamples = 37\nvalue = [62, 0, 0, 0, 0, 0, 0]"] ;
334 -> 335 ;
336 [label="gini = 0.484\nsamples = 500\nvalue = [518, 0, 0, 0, 116, 125, 0]"] ;
334 -> 336 ;
337 [label="gini = 0.0\nsamples = 8601\nvalue = [13593, 0, 0, 0, 0, 0, 0]"] ;
333 -> 337 ;
338 [label="X[10] <= 58.5\ngini = 0.026\nsamples = 79111\nvalue = [123444, 0, 16, 0, 695, 956, 0]"] ;
324 -> 338 ;
339 [label="X[2] <= 136.5\ngini = 0.024\nsamples = 77905\nvalue = [121672, 0, 16, 0, 582, 887, 0]"] ;
338 -> 339 ;
340 [label="X[1] <= 0.5\ngini = 0.024\nsamples = 77904\nvalue = [121672, 0, 16, 0, 582, 883, 0]"] ;
339 -> 340 ;
341 [label="gini = 0.023\nsamples = 76580\nvalue = [119631, 0, 16, 0, 541, 822, 0]"] ;
340 -> 341 ;
342 [label="gini = 0.092\nsamples = 1324\nvalue = [2041, 0, 0, 0, 41, 61, 0]"] ;
340 -> 342 ;
343 [label="gini = 0.0\nsamples = 1\nvalue = [0, 0, 0, 0, 0, 4, 0]"] ;
339 -> 343 ;
344 [label="X[8] <= 4.0\ngini = 0.173\nsamples = 1206\nvalue = [1772, 0, 0, 0, 113, 69, 0]"] ;
338 -> 344 ;
345 [label="X[7] <= 86.5\ngini = 0.427\nsamples = 412\nvalue = [496, 0, 0, 0, 113, 69, 0]"] ;
344 -> 345 ;
346 [label="gini = 0.232\nsamples = 159\nvalue = [228, 0, 0, 0, 25, 9, 0]"] ;
345 -> 346 ;
347 [label="gini = 0.519\nsamples = 253\nvalue = [268, 0, 0, 0, 88, 60, 0]"] ;
345 -> 347 ;
348 [label="gini = 0.0\nsamples = 794\nvalue = [1276, 0, 0, 0, 0, 0, 0]"] ;
344 -> 348 ;
349 [label="X[7] <= 173.5\ngini = 0.589\nsamples = 4826\nvalue = [4285, 0, 1, 0, 1974, 1433, 0]"] ;
323 -> 349 ;
350 [label="X[8] <= 4.5\ngini = 0.639\nsamples = 2822\nvalue = [2090, 0, 1, 0, 1334, 1076, 0]"] ;
349 -> 350 ;
351 [label="X[10] <= 60.5\ngini = 0.626\nsamples = 1834\nvalue = [517, 0, 1, 0, 1334, 1076, 0]"] ;
350 -> 351 ;
352 [label="X[9] <= 2.5\ngini = 0.583\nsamples = 1629\nvalue = [272, 0, 0, 0, 1299, 1029, 0]"] ;
351 -> 352 ;
353 [label="gini = 0.471\nsamples = 1085\nvalue = [159, 0, 0, 0, 1177, 377, 0]"] ;
352 -> 353 ;
354 [label="gini = 0.425\nsamples = 544\nvalue = [113, 0, 0, 0, 122, 652, 0]"] ;
352 -> 354 ;
355 [label="X[1] <= 0.5\ngini = 0.41\nsamples = 205\nvalue = [245, 0, 1, 0, 35, 47, 0]"] ;
351 -> 355 ;
356 [label="gini = 0.491\nsamples = 155\nvalue = [171, 0, 1, 0, 34, 47, 0]"] ;
355 -> 356 ;
357 [label="gini = 0.026\nsamples = 50\nvalue = [74, 0, 0, 0, 1, 0, 0]"] ;
355 -> 357 ;
358 [label="gini = 0.0\nsamples = 988\nvalue = [1573, 0, 0, 0, 0, 0, 0]"] ;
350 -> 358 ;
359 [label="X[0] <= 1.5\ngini = 0.474\nsamples = 2004\nvalue = [2195, 0, 0, 0, 640, 357, 0]"] ;
349 -> 359 ;
360 [label="X[9] <= 2.5\ngini = 0.139\nsamples = 934\nvalue = [1412, 0, 0, 0, 63, 49, 0]"] ;
359 -> 360 ;
361 [label="X[4] <= 4.5\ngini = 0.22\nsamples = 434\nvalue = [605, 0, 0, 0, 63, 21, 0]"] ;
360 -> 361 ;
362 [label="gini = 0.42\nsamples = 70\nvalue = [74, 0, 0, 0, 23, 5, 0]"] ;
361 -> 362 ;
363 [label="gini = 0.176\nsamples = 364\nvalue = [531, 0, 0, 0, 40, 16, 0]"] ;
361 -> 363 ;
364 [label="X[4] <= 4.5\ngini = 0.065\nsamples = 500\nvalue = [807, 0, 0, 0, 0, 28, 0]"] ;
360 -> 364 ;
365 [label="gini = 0.141\nsamples = 145\nvalue = [230, 0, 0, 0, 0, 19, 0]"] ;
364 -> 365 ;
366 [label="gini = 0.03\nsamples = 355\nvalue = [577, 0, 0, 0, 0, 9, 0]"] ;
364 -> 366 ;
367 [label="X[10] <= 60.5\ngini = 0.626\nsamples = 1070\nvalue = [783, 0, 0, 0, 577, 308, 0]"] ;
359 -> 367 ;
368 [label="X[7] <= 233.5\ngini = 0.644\nsamples = 920\nvalue = [560, 0, 0, 0, 575, 302, 0]"] ;
367 -> 368 ;
369 [label="gini = 0.626\nsamples = 679\nvalue = [480, 0, 0, 0, 375, 186, 0]"] ;
368 -> 369 ;
370 [label="gini = 0.618\nsamples = 241\nvalue = [80, 0, 0, 0, 200, 116, 0]"] ;
368 -> 370 ;
371 [label="X[4] <= 1.5\ngini = 0.067\nsamples = 150\nvalue = [223, 0, 0, 0, 2, 6, 0]"] ;
367 -> 371 ;
372 [label="gini = 0.48\nsamples = 3\nvalue = [2, 0, 0, 0, 0, 3, 0]"] ;
371 -> 372 ;
373 [label="gini = 0.044\nsamples = 147\nvalue = [221, 0, 0, 0, 2, 3, 0]"] ;
371 -> 373 ;
374 [label="X[6] <= 44.0\ngini = 0.02\nsamples = 230160\nvalue = [360218, 0, 21, 0, 1677, 2012, 0]"] ;
322 -> 374 ;
375 [label="X[2] <= 124.5\ngini = 0.013\nsamples = 214123\nvalue = [336431, 0, 19, 0, 841, 1345, 0]"] ;
374 -> 375 ;
376 [label="X[8] <= 4.5\ngini = 0.006\nsamples = 119636\nvalue = [188569, 0, 0, 0, 189, 372, 0]"] ;
375 -> 376 ;
377 [label="X[9] <= 2.5\ngini = 0.073\nsamples = 9342\nvalue = [14276, 0, 0, 0, 189, 372, 0]"] ;
376 -> 377 ;
378 [label="X[10] <= 179.5\ngini = 0.079\nsamples = 3558\nvalue = [5451, 0, 0, 0, 154, 79, 0]"] ;
377 -> 378 ;
379 [label="gini = 0.111\nsamples = 1423\nvalue = [2105, 0, 0, 0, 83, 47, 0]"] ;
378 -> 379 ;
380 [label="gini = 0.058\nsamples = 2135\nvalue = [3346, 0, 0, 0, 71, 32, 0]"] ;
378 -> 380 ;
381 [label="X[8] <= 3.5\ngini = 0.069\nsamples = 5784\nvalue = [8825, 0, 0, 0, 35, 293, 0]"] ;
377 -> 381 ;
382 [label="gini = 0.069\nsamples = 5782\nvalue = [8825, 0, 0, 0, 35, 291, 0]"] ;
381 -> 382 ;
383 [label="gini = 0.0\nsamples = 2\nvalue = [0, 0, 0, 0, 0, 2, 0]"] ;
381 -> 383 ;
384 [label="gini = 0.0\nsamples = 110294\nvalue = [174293, 0, 0, 0, 0, 0, 0]"] ;
376 -> 384 ;
385 [label="X[8] <= 4.5\ngini = 0.022\nsamples = 94487\nvalue = [147862, 0, 19, 0, 652, 973, 0]"] ;
375 -> 385 ;
386 [label="X[8] <= 3.5\ngini = 0.115\nsamples = 17193\nvalue = [25549, 0, 19, 0, 652, 973, 0]"] ;
385 -> 386 ;
387 [label="X[7] <= 168.5\ngini = 0.113\nsamples = 17173\nvalue = [25549, 0, 0, 0, 647, 965, 0]"] ;
386 -> 387 ;
388 [label="gini = 0.105\nsamples = 14973\nvalue = [22363, 0, 0, 0, 474, 820, 0]"] ;
387 -> 388 ;
389 [label="gini = 0.169\nsamples = 2200\nvalue = [3186, 0, 0, 0, 173, 145, 0]"] ;
387 -> 389 ;
390 [label="X[3] <= 51.5\ngini = 0.561\nsamples = 20\nvalue = [0, 0, 19, 0, 5, 8, 0]"] ;
386 -> 390 ;
391 [label="gini = 0.571\nsamples = 9\nvalue = [0, 0, 2, 0, 4, 8, 0]"] ;
390 -> 391 ;
392 [label="gini = 0.105\nsamples = 11\nvalue = [0, 0, 17, 0, 1, 0, 0]"] ;
390 -> 392 ;
393 [label="gini = 0.0\nsamples = 77294\nvalue = [122313, 0, 0, 0, 0, 0, 0]"] ;
385 -> 393 ;
394 [label="X[8] <= 4.5\ngini = 0.114\nsamples = 16037\nvalue = [23787, 0, 2, 0, 836, 667, 0]"] ;
374 -> 394 ;
395 [label="X[0] <= 1.5\ngini = 0.384\nsamples = 4119\nvalue = [4953, 0, 2, 0, 836, 667, 0]"] ;
394 -> 395 ;
396 [label="X[7] <= 129.5\ngini = 0.483\nsamples = 2688\nvalue = [2889, 0, 1, 0, 771, 573, 0]"] ;
395 -> 396 ;
397 [label="X[3] <= 64.5\ngini = 0.181\nsamples = 1532\nvalue = [2199, 0, 0, 0, 102, 136, 0]"] ;
396 -> 397 ;
398 [label="gini = 0.213\nsamples = 1187\nvalue = [1663, 0, 0, 0, 98, 122, 0]"] ;
397 -> 398 ;
399 [label="gini = 0.063\nsamples = 345\nvalue = [536, 0, 0, 0, 4, 14, 0]"] ;
397 -> 399 ;
400 [label="X[9] <= 2.5\ngini = 0.655\nsamples = 1156\nvalue = [690, 0, 1, 0, 669, 437, 0]"] ;
396 -> 400 ;
401 [label="gini = 0.609\nsamples = 791\nvalue = [391, 0, 1, 0, 621, 206, 0]"] ;
400 -> 401 ;
402 [label="gini = 0.566\nsamples = 365\nvalue = [299, 0, 0, 0, 48, 231, 0]"] ;
400 -> 402 ;
403 [label="X[5] <= 1.5\ngini = 0.136\nsamples = 1431\nvalue = [2064, 0, 1, 0, 65, 94, 0]"] ;
395 -> 403 ;
404 [label="X[4] <= 2.5\ngini = 0.161\nsamples = 654\nvalue = [925, 0, 0, 0, 17, 71, 0]"] ;
403 -> 404 ;
405 [label="gini = 0.353\nsamples = 113\nvalue = [131, 0, 0, 0, 12, 23, 0]"] ;
404 -> 405 ;
406 [label="gini = 0.118\nsamples = 541\nvalue = [794, 0, 0, 0, 5, 48, 0]"] ;
404 -> 406 ;
407 [label="X[3] <= 63.5\ngini = 0.113\nsamples = 777\nvalue = [1139, 0, 1, 0, 48, 23, 0]"] ;
403 -> 407 ;
408 [label="gini = 0.077\nsamples = 562\nvalue = [848, 0, 1, 0, 21, 13, 0]"] ;
407 -> 408 ;
409 [label="gini = 0.205\nsamples = 215\nvalue = [291, 0, 0, 0, 27, 10, 0]"] ;
407 -> 409 ;
410 [label="gini = 0.0\nsamples = 11918\nvalue = [18834, 0, 0, 0, 0, 0, 0]"] ;
394 -> 410 ;
}